<?xml version='1.0' encoding='utf-8'?>
<BIF VERSION="0.3">
  <NETWORK>
    <NAME>UNTITLED</NAME>
    <VARIABLE TYPE="nature">
      <NAME>A</NAME>
      <OUTCOME>_4_51_8_362_</OUTCOME>
      <OUTCOME>_8_362_8_858_</OUTCOME>
      <OUTCOME>_8_858_9_139_</OUTCOME>
      <OUTCOME>_9_139_9_374_</OUTCOME>
      <OUTCOME>_9_374_9_591_</OUTCOME>
      <OUTCOME>_9_591_9_79_</OUTCOME>
      <OUTCOME>_9_79_9_984_</OUTCOME>
      <OUTCOME>_9_984_10_183_</OUTCOME>
      <OUTCOME>_10_183_10_433_</OUTCOME>
      <OUTCOME>_10_433_10_66_</OUTCOME>
      <OUTCOME>_10_66_10_992_</OUTCOME>
      <OUTCOME>_10_992_11_422_</OUTCOME>
      <OUTCOME>_11_422_12_174_</OUTCOME>
      <OUTCOME>_12_174_15_827_</OUTCOME>
      <PROPERTY />
    </VARIABLE>
    <VARIABLE TYPE="nature">
      <NAME>B</NAME>
      <OUTCOME>_3_806_7_422_</OUTCOME>
      <OUTCOME>_7_422_7_884_</OUTCOME>
      <OUTCOME>_7_884_8_16_</OUTCOME>
      <OUTCOME>_8_16_8_395_</OUTCOME>
      <OUTCOME>_8_395_8_605_</OUTCOME>
      <OUTCOME>_8_605_8_838_</OUTCOME>
      <OUTCOME>_8_838_9_024_</OUTCOME>
      <OUTCOME>_9_024_9_258_</OUTCOME>
      <OUTCOME>_9_258_9_499_</OUTCOME>
      <OUTCOME>_9_499_9_738_</OUTCOME>
      <OUTCOME>_9_738_10_104_</OUTCOME>
      <OUTCOME>_10_104_10_564_</OUTCOME>
      <OUTCOME>_10_564_11_328_</OUTCOME>
      <OUTCOME>_11_328_15_06_</OUTCOME>
      <PROPERTY />
    </VARIABLE>
    <DEFINITION>
      <FOR>A</FOR>
      <TABLE>0.07156673114119923 0.07156673114119923 0.07124435847840103 0.07156673114119923 0.07124435847840103 0.07156673114119923 0.07124435847840103 0.07156673114119923 0.07124435847840103 0.07156673114119923 0.07124435847840103 0.07156673114119923 0.07124435847840103 0.07156673114119923 </TABLE>
    </DEFINITION>
    <DEFINITION>
      <FOR>B</FOR>
      <GIVEN>A</GIVEN>
      <TABLE>0.9234234234234234 0.07657657657657657 0.0 0.0 0.0 0.0 0.0 0.0 0.0 0.0 0.0 0.0 0.0 0.0 0.07207207207207207 0.7612612612612613 0.16666666666666666 0.0 0.0 0.0 0.0 0.0 0.0 0.0 0.0 0.0 0.0 0.0 0.0 0.14479638009049775 0.6153846153846154 0.23076923076923078 0.004524886877828055 0.004524886877828055 0.0 0.0 0.0 0.0 0.0 0.0 0.0 0.0 0.0 0.018018018018018018 0.18468468468468469 0.5585585585585585 0.22972972972972974 0.0045045045045045045 0.0045045045045045045 0.0 0.0 0.0 0.0 0.0 0.0 0.0 0.0 0.0 0.02262443438914027 0.19004524886877827 0.5429864253393665 0.22624434389140272 0.013574660633484163 0.004524886877828055 0.0 0.0 0.0 0.0 0.0 0.0 0.0 0.0 0.009009009009009009 0.018018018018018018 0.2072072072072072 0.581081081081081 0.18018018018018017 0.0045045045045045045 0.0 0.0 0.0 0.0 0.0 0.0 0.0 0.0 0.0 0.004524886877828055 0.00904977375565611 0.16289592760180996 0.6063348416289592 0.21266968325791855 0.004524886877828055 0.0 0.0 0.0 0.0 0.0 0.0045045045045045045 0.0 0.0 0.0 0.0045045045045045045 0.02252252252252252 0.16666666666666666 0.5675675675675675 0.23423423423423423 0.0 0.0 0.0 0.0 0.0 0.0 0.0 0.0 0.0 0.0 0.0 0.02262443438914027 0.18552036199095023 0.6108597285067874 0.17647058823529413 0.004524886877828055 0.0 0.0 0.0 0.0 0.0 0.0 0.0 0.0 0.0 0.0045045045045045045 0.02702702702702703 0.12612612612612611 0.7117117117117117 0.13063063063063063 0.0 0.0 0.0 0.0 0.0 0.0 0.0 0.0 0.0 0.0 0.0 0.02262443438914027 0.1085972850678733 0.7647058823529411 0.10407239819004525 0.0 0.0 0.0 0.0 0.0 0.0 0.0 0.0 0.0 0.0 0.0 0.0 0.1036036036036036 0.8153153153153153 0.08108108108108109 0.0 0.0 0.0 0.0 0.0 0.0 0.0 0.0 0.0 0.0 0.0 0.0 0.08144796380090498 0.8687782805429864 0.049773755656108594 0.0 0.0 0.0 0.0 0.0 0.0 0.0 0.0 0.0 0.0 0.0 0.0 0.04954954954954955 0.9504504504504504 </TABLE>
    </DEFINITION>
  </NETWORK>
</BIF>
