<?xml version='1.0' encoding='utf-8'?>
<BIF VERSION="0.3">
  <NETWORK>
    <NAME>UNTITLED</NAME>
    <VARIABLE TYPE="nature">
      <NAME>A</NAME>
      <OUTCOME>_13_807_16_944_</OUTCOME>
      <OUTCOME>_16_944_17_853_</OUTCOME>
      <OUTCOME>_17_853_18_4_</OUTCOME>
      <OUTCOME>_18_4_18_876_</OUTCOME>
      <OUTCOME>_18_876_19_245_</OUTCOME>
      <OUTCOME>_19_245_19_612_</OUTCOME>
      <OUTCOME>_19_612_19_958_</OUTCOME>
      <OUTCOME>_19_958_20_324_</OUTCOME>
      <OUTCOME>_20_324_20_665_</OUTCOME>
      <OUTCOME>_20_665_21_095_</OUTCOME>
      <OUTCOME>_21_095_21_56_</OUTCOME>
      <OUTCOME>_21_56_22_176_</OUTCOME>
      <OUTCOME>_22_176_22_863_</OUTCOME>
      <OUTCOME>_22_863_27_099_</OUTCOME>
      <PROPERTY />
    </VARIABLE>
    <VARIABLE TYPE="nature">
      <NAME>B</NAME>
      <OUTCOME>_13_55_17_092_</OUTCOME>
      <OUTCOME>_17_092_17_978_</OUTCOME>
      <OUTCOME>_17_978_18_522_</OUTCOME>
      <OUTCOME>_18_522_18_937_</OUTCOME>
      <OUTCOME>_18_937_19_323_</OUTCOME>
      <OUTCOME>_19_323_19_664_</OUTCOME>
      <OUTCOME>_19_664_20_027_</OUTCOME>
      <OUTCOME>_20_027_20_387_</OUTCOME>
      <OUTCOME>_20_387_20_786_</OUTCOME>
      <OUTCOME>_20_786_21_179_</OUTCOME>
      <OUTCOME>_21_179_21_605_</OUTCOME>
      <OUTCOME>_21_605_22_14_</OUTCOME>
      <OUTCOME>_22_14_22_986_</OUTCOME>
      <OUTCOME>_22_986_27_545_</OUTCOME>
      <PROPERTY />
    </VARIABLE>
    <VARIABLE TYPE="nature">
      <NAME>C</NAME>
      <OUTCOME>_8_505_12_076_</OUTCOME>
      <OUTCOME>_12_076_12_826_</OUTCOME>
      <OUTCOME>_12_826_13_353_</OUTCOME>
      <OUTCOME>_13_353_13_846_</OUTCOME>
      <OUTCOME>_13_846_14_227_</OUTCOME>
      <OUTCOME>_14_227_14_614_</OUTCOME>
      <OUTCOME>_14_614_14_96_</OUTCOME>
      <OUTCOME>_14_96_15_341_</OUTCOME>
      <OUTCOME>_15_341_15_707_</OUTCOME>
      <OUTCOME>_15_707_16_094_</OUTCOME>
      <OUTCOME>_16_094_16_574_</OUTCOME>
      <OUTCOME>_16_574_17_134_</OUTCOME>
      <OUTCOME>_17_134_17_911_</OUTCOME>
      <OUTCOME>_17_911_22_235_</OUTCOME>
      <PROPERTY />
    </VARIABLE>
    <VARIABLE TYPE="nature">
      <NAME>D</NAME>
      <OUTCOME>_71_90899999999999_88_956_</OUTCOME>
      <OUTCOME>_88_956_91_921_</OUTCOME>
      <OUTCOME>_91_921_94_125_</OUTCOME>
      <OUTCOME>_94_125_95_915_</OUTCOME>
      <OUTCOME>_95_915_97_447_</OUTCOME>
      <OUTCOME>_97_447_98_929_</OUTCOME>
      <OUTCOME>_98_929_100_361_</OUTCOME>
      <OUTCOME>_100_361_101_552_</OUTCOME>
      <OUTCOME>_101_552_103_051_</OUTCOME>
      <OUTCOME>_103_051_104_409_</OUTCOME>
      <OUTCOME>_104_409_105_989_</OUTCOME>
      <OUTCOME>_105_989_108_044_</OUTCOME>
      <OUTCOME>_108_044_111_18_</OUTCOME>
      <OUTCOME>_111_18_128_011_</OUTCOME>
      <PROPERTY />
    </VARIABLE>
    <VARIABLE TYPE="nature">
      <NAME>E</NAME>
      <OUTCOME>_262_99800000000005_310_339_</OUTCOME>
      <OUTCOME>_310_339_319_987_</OUTCOME>
      <OUTCOME>_319_987_326_458_</OUTCOME>
      <OUTCOME>_326_458_332_328_</OUTCOME>
      <OUTCOME>_332_328_336_895_</OUTCOME>
      <OUTCOME>_336_895_341_521_</OUTCOME>
      <OUTCOME>_341_521_345_656_</OUTCOME>
      <OUTCOME>_345_656_349_663_</OUTCOME>
      <OUTCOME>_349_663_353_959_</OUTCOME>
      <OUTCOME>_353_959_358_765_</OUTCOME>
      <OUTCOME>_358_765_363_614_</OUTCOME>
      <OUTCOME>_363_614_369_58_</OUTCOME>
      <OUTCOME>_369_58_379_425_</OUTCOME>
      <OUTCOME>_379_425_429_53_</OUTCOME>
      <PROPERTY />
    </VARIABLE>
    <DEFINITION>
      <FOR>A</FOR>
      <TABLE>0.07166666666666667 0.07133333333333333 0.07133333333333333 0.07133333333333333 0.07166666666666667 0.07133333333333333 0.07133333333333333 0.07133333333333333 0.07133333333333333 0.07166666666666667 0.07133333333333333 0.07133333333333333 0.07133333333333333 0.07166666666666667 </TABLE>
    </DEFINITION>
    <DEFINITION>
      <FOR>B</FOR>
      <TABLE>0.07166666666666667 0.07133333333333333 0.07133333333333333 0.07133333333333333 0.07166666666666667 0.07133333333333333 0.07133333333333333 0.07133333333333333 0.07133333333333333 0.07166666666666667 0.07133333333333333 0.07133333333333333 0.07133333333333333 0.07166666666666667 </TABLE>
    </DEFINITION>
    <DEFINITION>
      <FOR>C</FOR>
      <TABLE>0.07166666666666667 0.07133333333333333 0.07133333333333333 0.07133333333333333 0.07166666666666667 0.07133333333333333 0.07133333333333333 0.07133333333333333 0.07133333333333333 0.07166666666666667 0.07133333333333333 0.07133333333333333 0.07133333333333333 0.07166666666666667 </TABLE>
    </DEFINITION>
    <DEFINITION>
      <FOR>D</FOR>
      <GIVEN>A</GIVEN>
      <GIVEN>B</GIVEN>
      <TABLE>1.0 0.0 0.0 0.0 0.0 0.0 0.0 0.0 0.0 0.0 0.0 0.0 0.0 0.0 0.9444444444444444 0.05555555555555555 0.0 0.0 0.0 0.0 0.0 0.0 0.0 0.0 0.0 0.0 0.0 0.0 0.6153846153846154 0.38461538461538464 0.0 0.0 0.0 0.0 0.0 0.0 0.0 0.0 0.0 0.0 0.0 0.0 0.7222222222222222 0.16666666666666666 0.1111111111111111 0.0 0.0 0.0 0.0 0.0 0.0 0.0 0.0 0.0 0.0 0.0 0.6875 0.1875 0.125 0.0 0.0 0.0 0.0 0.0 0.0 0.0 0.0 0.0 0.0 0.0 0.25 0.5 0.25 0.0 0.0 0.0 0.0 0.0 0.0 0.0 0.0 0.0 0.0 0.0 0.15384615384615385 0.07692307692307693 0.6153846153846154 0.15384615384615385 0.0 0.0 0.0 0.0 0.0 0.0 0.0 0.0 0.0 0.0 0.2 0.13333333333333333 0.26666666666666666 0.26666666666666666 0.06666666666666667 0.0 0.06666666666666667 0.0 0.0 0.0 0.0 0.0 0.0 0.0 0.06666666666666667 0.06666666666666667 0.13333333333333333 0.4666666666666667 0.13333333333333333 0.13333333333333333 0.0 0.0 0.0 0.0 0.0 0.0 0.0 0.0 0.0 0.16666666666666666 0.2222222222222222 0.3333333333333333 0.05555555555555555 0.16666666666666666 0.0 0.05555555555555555 0.0 0.0 0.0 0.0 0.0 0.0 0.0 0.14285714285714285 0.07142857142857142 0.14285714285714285 0.07142857142857142 0.2857142857142857 0.14285714285714285 0.07142857142857142 0.07142857142857142 0.0 0.0 0.0 0.0 0.0 0.0 0.0 0.058823529411764705 0.0 0.23529411764705882 0.35294117647058826 0.11764705882352941 0.11764705882352941 0.058823529411764705 0.058823529411764705 0.0 0.0 0.0 0.0 0.0 0.0 0.07692307692307693 0.0 0.15384615384615385 0.15384615384615385 0.07692307692307693 0.15384615384615385 0.15384615384615385 0.23076923076923078 0.0 0.0 0.0 0.0 0.0 0.0 0.0 0.0 0.0 0.0 0.05263157894736842 0.2631578947368421 0.3157894736842105 0.05263157894736842 0.10526315789473684 0.10526315789473684 0.10526315789473684 0.0 1.0 0.0 0.0 0.0 0.0 0.0 0.0 0.0 0.0 0.0 0.0 0.0 0.0 0.0 0.8333333333333334 0.16666666666666666 0.0 0.0 0.0 0.0 0.0 0.0 0.0 0.0 0.0 0.0 0.0 0.0 0.4166666666666667 0.4166666666666667 0.16666666666666666 0.0 0.0 0.0 0.0 0.0 0.0 0.0 0.0 0.0 0.0 0.0 0.21052631578947367 0.5263157894736842 0.2631578947368421 0.0 0.0 0.0 0.0 0.0 0.0 0.0 0.0 0.0 0.0 0.0 0.07142857142857142 0.5 0.07142857142857142 0.2857142857142857 0.07142857142857142 0.0 0.0 0.0 0.0 0.0 0.0 0.0 0.0 0.0 0.0 0.21052631578947367 0.42105263157894735 0.2631578947368421 0.10526315789473684 0.0 0.0 0.0 0.0 0.0 0.0 0.0 0.0 0.0 0.0 0.09090909090909091 0.22727272727272727 0.5 0.18181818181818182 0.0 0.0 0.0 0.0 0.0 0.0 0.0 0.0 0.0 0.0 0.0 0.26666666666666666 0.4666666666666667 0.2 0.0 0.06666666666666667 0.0 0.0 0.0 0.0 0.0 0.0 0.0 0.0 0.0 0.0 0.21428571428571427 0.5 0.21428571428571427 0.07142857142857142 0.0 0.0 0.0 0.0 0.0 0.0 0.0 0.0 0.1111111111111111 0.0 0.1111111111111111 0.1111111111111111 0.3333333333333333 0.3333333333333333 0.0 0.0 0.0 0.0 0.0 0.0 0.0 0.0 0.0 0.0 0.10526315789473684 0.10526315789473684 0.15789473684210525 0.21052631578947367 0.42105263157894735 0.0 0.0 0.0 0.0 0.0 0.0 0.0 0.0 0.0 0.0 0.058823529411764705 0.058823529411764705 0.23529411764705882 0.23529411764705882 0.29411764705882354 0.0 0.11764705882352941 0.0 0.0 0.0 0.0 0.0 0.0 0.0 0.0 0.0 0.0 0.23076923076923078 0.23076923076923078 0.46153846153846156 0.07692307692307693 0.0 0.0 0.0 0.0 0.0 0.0 0.0 0.0 0.0 0.0 0.0 0.09090909090909091 0.09090909090909091 0.18181818181818182 0.45454545454545453 0.18181818181818182 0.0 0.9230769230769231 0.07692307692307693 0.0 0.0 0.0 0.0 0.0 0.0 0.0 0.0 0.0 0.0 0.0 0.0 0.631578947368421 0.3157894736842105 0.05263157894736842 0.0 0.0 0.0 0.0 0.0 0.0 0.0 0.0 0.0 0.0 0.0 0.09523809523809523 0.6190476190476191 0.2857142857142857 0.0 0.0 0.0 0.0 0.0 0.0 0.0 0.0 0.0 0.0 0.0 0.0 0.38461538461538464 0.38461538461538464 0.15384615384615385 0.07692307692307693 0.0 0.0 0.0 0.0 0.0 0.0 0.0 0.0 0.0 0.0 0.4 0.4 0.1 0.1 0.0 0.0 0.0 0.0 0.0 0.0 0.0 0.0 0.0 0.0 0.0625 0.125 0.25 0.375 0.125 0.0 0.0625 0.0 0.0 0.0 0.0 0.0 0.0 0.0 0.0 0.07142857142857142 0.14285714285714285 0.5 0.14285714285714285 0.14285714285714285 0.0 0.0 0.0 0.0 0.0 0.0 0.0 0.0 0.0 0.038461538461538464 0.15384615384615385 0.4230769230769231 0.23076923076923078 0.038461538461538464 0.11538461538461539 0.0 0.0 0.0 0.0 0.0 0.0 0.0 0.0 0.0 0.15384615384615385 0.3076923076923077 0.3076923076923077 0.15384615384615385 0.07692307692307693 0.0 0.0 0.0 0.0 0.0 0.0 0.0 0.0 0.0 0.0 0.08333333333333333 0.08333333333333333 0.4166666666666667 0.16666666666666666 0.25 0.0 0.0 0.0 0.0 0.0 0.0 0.0 0.0 0.0 0.0 0.21052631578947367 0.3684210526315789 0.15789473684210525 0.21052631578947367 0.05263157894736842 0.0 0.0 0.0 0.0 0.0 0.0 0.0 0.0 0.0 0.0 0.09090909090909091 0.18181818181818182 0.45454545454545453 0.18181818181818182 0.0 0.09090909090909091 0.0 0.0 0.0 0.0 0.0 0.0 0.0 0.0 0.0 0.21428571428571427 0.21428571428571427 0.14285714285714285 0.21428571428571427 0.14285714285714285 0.07142857142857142 0.0 0.0 0.0 0.0 0.0 0.0 0.0 0.0 0.0 0.0 0.15384615384615385 0.23076923076923078 0.46153846153846156 0.15384615384615385 0.0 1.0 0.0 0.0 0.0 0.0 0.0 0.0 0.0 0.0 0.0 0.0 0.0 0.0 0.0 0.16666666666666666 0.75 0.08333333333333333 0.0 0.0 0.0 0.0 0.0 0.0 0.0 0.0 0.0 0.0 0.0 0.14285714285714285 0.5 0.2857142857142857 0.07142857142857142 0.0 0.0 0.0 0.0 0.0 0.0 0.0 0.0 0.0 0.0 0.0 0.13333333333333333 0.26666666666666666 0.4 0.06666666666666667 0.06666666666666667 0.06666666666666667 0.0 0.0 0.0 0.0 0.0 0.0 0.0 0.0 0.15789473684210525 0.3157894736842105 0.42105263157894735 0.05263157894736842 0.05263157894736842 0.0 0.0 0.0 0.0 0.0 0.0 0.0 0.0 0.0 0.08333333333333333 0.16666666666666666 0.25 0.25 0.16666666666666666 0.08333333333333333 0.0 0.0 0.0 0.0 0.0 0.0 0.0 0.0 0.0 0.0625 0.3125 0.4375 0.125 0.0625 0.0 0.0 0.0 0.0 0.0 0.0 0.0 0.0 0.0 0.0 0.07692307692307693 0.46153846153846156 0.07692307692307693 0.3076923076923077 0.07692307692307693 0.0 0.0 0.0 0.0 0.0 0.0 0.0 0.0 0.0 0.0625 0.1875 0.25 0.25 0.25 0.0 0.0 0.0 0.0 0.0 0.0 0.0 0.0 0.0 0.0 0.05555555555555555 0.2222222222222222 0.3888888888888889 0.1111111111111111 0.2222222222222222 0.0 0.0 0.0 0.0 0.0 0.0 0.0 0.0 0.0 0.0 0.0 0.2 0.3333333333333333 0.2 0.13333333333333333 0.13333333333333333 0.0 0.0 0.0 0.0 0.0 0.0 0.0 0.06666666666666667 0.0 0.0 0.13333333333333333 0.2 0.2 0.2 0.2 0.0 0.0 0.0 0.0 0.0 0.0 0.0 0.0 0.0625 0.0 0.1875 0.1875 0.25 0.25 0.0625 0.0 0.0 0.0 0.0 0.0 0.0 0.0 0.0 0.0 0.0 0.0 0.0 0.2857142857142857 0.35714285714285715 0.35714285714285715 0.5555555555555556 0.4444444444444444 0.0 0.0 0.0 0.0 0.0 0.0 0.0 0.0 0.0 0.0 0.0 0.0 0.16666666666666666 0.5833333333333334 0.16666666666666666 0.08333333333333333 0.0 0.0 0.0 0.0 0.0 0.0 0.0 0.0 0.0 0.0 0.0 0.35294117647058826 0.4117647058823529 0.23529411764705882 0.0 0.0 0.0 0.0 0.0 0.0 0.0 0.0 0.0 0.0 0.0 0.14285714285714285 0.42857142857142855 0.42857142857142855 0.0 0.0 0.0 0.0 0.0 0.0 0.0 0.0 0.0 0.0 0.0 0.1111111111111111 0.2222222222222222 0.2222222222222222 0.2222222222222222 0.2222222222222222 0.0 0.0 0.0 0.0 0.0 0.0 0.0 0.0 0.0 0.0 0.05 0.25 0.25 0.35 0.0 0.05 0.05 0.0 0.0 0.0 0.0 0.0 0.0 0.05263157894736842 0.0 0.10526315789473684 0.2631578947368421 0.3684210526315789 0.10526315789473684 0.10526315789473684 0.0 0.0 0.0 0.0 0.0 0.0 0.0 0.0 0.0 0.0 0.23076923076923078 0.15384615384615385 0.3076923076923077 0.15384615384615385 0.15384615384615385 0.0 0.0 0.0 0.0 0.0 0.0 0.0 0.0 0.0 0.13333333333333333 0.06666666666666667 0.4 0.2 0.2 0.0 0.0 0.0 0.0 0.0 0.0 0.0 0.0 0.0 0.058823529411764705 0.058823529411764705 0.29411764705882354 0.23529411764705882 0.29411764705882354 0.058823529411764705 0.0 0.0 0.0 0.0 0.0 0.0 0.0 0.0 0.0 0.0 0.0625 0.25 0.1875 0.3125 0.1875 0.0 0.0 0.0 0.0 0.0 0.0 0.0 0.0 0.0 0.0 0.06666666666666667 0.2 0.5333333333333333 0.0 0.13333333333333333 0.06666666666666667 0.0 0.0 0.0 0.0 0.0 0.0 0.0 0.0 0.0 0.08333333333333333 0.16666666666666666 0.16666666666666666 0.3333333333333333 0.08333333333333333 0.16666666666666666 0.0 0.0 0.0 0.0 0.0 0.0 0.0 0.0 0.0 0.0 0.0 0.16666666666666666 0.5 0.3333333333333333 0.6363636363636364 0.2727272727272727 0.0 0.09090909090909091 0.0 0.0 0.0 0.0 0.0 0.0 0.0 0.0 0.0 0.0 0.047619047619047616 0.5238095238095238 0.19047619047619047 0.19047619047619047 0.047619047619047616 0.0 0.0 0.0 0.0 0.0 0.0 0.0 0.0 0.0 0.0 0.17647058823529413 0.5882352941176471 0.11764705882352941 0.11764705882352941 0.0 0.0 0.0 0.0 0.0 0.0 0.0 0.0 0.0 0.0 0.0 0.2 0.2 0.6 0.0 0.0 0.0 0.0 0.0 0.0 0.0 0.0 0.0 0.0 0.05555555555555555 0.05555555555555555 0.2777777777777778 0.2777777777777778 0.2222222222222222 0.1111111111111111 0.0 0.0 0.0 0.0 0.0 0.0 0.0 0.0 0.0 0.08333333333333333 0.08333333333333333 0.3333333333333333 0.16666666666666666 0.16666666666666666 0.16666666666666666 0.0 0.0 0.0 0.0 0.0 0.0 0.0 0.0 0.1 0.1 0.1 0.2 0.35 0.05 0.05 0.0 0.05 0.0 0.0 0.0 0.0 0.0 0.0 0.0 0.14285714285714285 0.21428571428571427 0.35714285714285715 0.14285714285714285 0.14285714285714285 0.0 0.0 0.0 0.0 0.0 0.0 0.0 0.0 0.0 0.0 0.07692307692307693 0.3076923076923077 0.38461538461538464 0.15384615384615385 0.07692307692307693 0.0 0.0 0.0 0.0 0.0 0.0 0.0 0.0 0.0 0.06666666666666667 0.13333333333333333 0.26666666666666666 0.2 0.13333333333333333 0.13333333333333333 0.06666666666666667 0.0 0.0 0.0 0.0 0.0 0.0 0.0 0.0 0.0 0.21428571428571427 0.14285714285714285 0.14285714285714285 0.2857142857142857 0.07142857142857142 0.14285714285714285 0.0 0.0 0.0 0.0 0.0 0.0 0.0 0.07142857142857142 0.0 0.07142857142857142 0.42857142857142855 0.35714285714285715 0.07142857142857142 0.0 0.0 0.0 0.0 0.0 0.0 0.0 0.0 0.0 0.0 0.0 0.13636363636363635 0.36363636363636365 0.4090909090909091 0.09090909090909091 0.0 0.0 0.0 0.0 0.0 0.0 0.0 0.0 0.0 0.0 0.0 0.0 0.1111111111111111 0.5 0.3888888888888889 0.42857142857142855 0.47619047619047616 0.047619047619047616 0.047619047619047616 0.0 0.0 0.0 0.0 0.0 0.0 0.0 0.0 0.0 0.0 0.0 0.5263157894736842 0.3684210526315789 0.05263157894736842 0.05263157894736842 0.0 0.0 0.0 0.0 0.0 0.0 0.0 0.0 0.0 0.0 0.1 0.4 0.35 0.15 0.0 0.0 0.0 0.0 0.0 0.0 0.0 0.0 0.0 0.0 0.05263157894736842 0.3157894736842105 0.3684210526315789 0.15789473684210525 0.05263157894736842 0.05263157894736842 0.0 0.0 0.0 0.0 0.0 0.0 0.0 0.0 0.1 0.1 0.3 0.1 0.4 0.0 0.0 0.0 0.0 0.0 0.0 0.0 0.0 0.0 0.0 0.0 0.09090909090909091 0.45454545454545453 0.18181818181818182 0.09090909090909091 0.18181818181818182 0.0 0.0 0.0 0.0 0.0 0.0 0.0 0.0 0.0 0.0 0.06666666666666667 0.2 0.26666666666666666 0.3333333333333333 0.06666666666666667 0.06666666666666667 0.0 0.0 0.0 0.0 0.0 0.0 0.0 0.07142857142857142 0.07142857142857142 0.07142857142857142 0.14285714285714285 0.42857142857142855 0.07142857142857142 0.07142857142857142 0.07142857142857142 0.0 0.0 0.0 0.0 0.0 0.0 0.0 0.0625 0.0625 0.125 0.625 0.0625 0.0625 0.0 0.0 0.0 0.0 0.0 0.0 0.0 0.0 0.0 0.125 0.25 0.125 0.1875 0.25 0.0625 0.0 0.0 0.0 0.0 0.0 0.0 0.0 0.0 0.0 0.0 0.625 0.25 0.0 0.125 0.0 0.0 0.0 0.0 0.0 0.0 0.0 0.0 0.0 0.0 0.06666666666666667 0.2 0.13333333333333333 0.3333333333333333 0.26666666666666666 0.0 0.0 0.0 0.0 0.0 0.0 0.0 0.0 0.0 0.0 0.07692307692307693 0.15384615384615385 0.15384615384615385 0.46153846153846156 0.15384615384615385 0.0 0.0 0.0 0.0 0.0 0.0 0.0 0.0 0.0 0.0 0.0 0.058823529411764705 0.11764705882352941 0.35294117647058826 0.47058823529411764 0.42105263157894735 0.2631578947368421 0.21052631578947367 0.10526315789473684 0.0 0.0 0.0 0.0 0.0 0.0 0.0 0.0 0.0 0.0 0.08333333333333333 0.25 0.5 0.16666666666666666 0.0 0.0 0.0 0.0 0.0 0.0 0.0 0.0 0.0 0.0 0.0 0.125 0.5 0.125 0.125 0.125 0.0 0.0 0.0 0.0 0.0 0.0 0.0 0.0 0.0 0.0 0.36363636363636365 0.45454545454545453 0.09090909090909091 0.0 0.09090909090909091 0.0 0.0 0.0 0.0 0.0 0.0 0.0 0.0 0.0 0.15 0.2 0.15 0.4 0.05 0.05 0.0 0.0 0.0 0.0 0.0 0.0 0.0 0.0 0.0 0.0 0.06666666666666667 0.5333333333333333 0.2 0.13333333333333333 0.0 0.06666666666666667 0.0 0.0 0.0 0.0 0.0 0.0 0.0 0.0 0.0 0.4444444444444444 0.1111111111111111 0.1111111111111111 0.2222222222222222 0.0 0.1111111111111111 0.0 0.0 0.0 0.0 0.0 0.0 0.0 0.06666666666666667 0.2 0.13333333333333333 0.13333333333333333 0.26666666666666666 0.06666666666666667 0.13333333333333333 0.0 0.0 0.0 0.0 0.0 0.0 0.0 0.0 0.0 0.23076923076923078 0.3076923076923077 0.23076923076923078 0.0 0.23076923076923078 0.0 0.0 0.0 0.0 0.0 0.0 0.0 0.0 0.0 0.0625 0.1875 0.25 0.3125 0.1875 0.0 0.0 0.0 0.0 0.0 0.0 0.0 0.0 0.0 0.0 0.0 0.35294117647058826 0.23529411764705882 0.35294117647058826 0.0 0.058823529411764705 0.0 0.0 0.0 0.0 0.0 0.0 0.0 0.0 0.0 0.0 0.23529411764705882 0.23529411764705882 0.29411764705882354 0.23529411764705882 0.0 0.0 0.0 0.0 0.0 0.0 0.0 0.0 0.0 0.0 0.05 0.15 0.3 0.5 0.0 0.0 0.0 0.0 0.0 0.0 0.0 0.0 0.0 0.0 0.0 0.0 0.09090909090909091 0.3181818181818182 0.5909090909090909 0.5 0.25 0.25 0.0 0.0 0.0 0.0 0.0 0.0 0.0 0.0 0.0 0.0 0.0 0.0 0.2727272727272727 0.2727272727272727 0.18181818181818182 0.18181818181818182 0.09090909090909091 0.0 0.0 0.0 0.0 0.0 0.0 0.0 0.0 0.0 0.09090909090909091 0.18181818181818182 0.18181818181818182 0.2727272727272727 0.2727272727272727 0.0 0.0 0.0 0.0 0.0 0.0 0.0 0.0 0.0 0.0 0.0 0.3125 0.3125 0.1875 0.125 0.0625 0.0 0.0 0.0 0.0 0.0 0.0 0.0 0.0 0.0 0.0 0.2222222222222222 0.3333333333333333 0.16666666666666666 0.2222222222222222 0.0 0.05555555555555555 0.0 0.0 0.0 0.0 0.0 0.0 0.0 0.18181818181818182 0.09090909090909091 0.18181818181818182 0.18181818181818182 0.18181818181818182 0.18181818181818182 0.0 0.0 0.0 0.0 0.0 0.0 0.0 0.0 0.0 0.0 0.09090909090909091 0.2727272727272727 0.0 0.45454545454545453 0.18181818181818182 0.0 0.0 0.0 0.0 0.0 0.0 0.0 0.0 0.0 0.0 0.4 0.0 0.2 0.0 0.4 0.0 0.0 0.0 0.0 0.0 0.0 0.0 0.0 0.0 0.0625 0.3125 0.25 0.25 0.125 0.0 0.0 0.0 0.0 0.0 0.0 0.0 0.0 0.047619047619047616 0.0 0.047619047619047616 0.19047619047619047 0.47619047619047616 0.14285714285714285 0.047619047619047616 0.047619047619047616 0.0 0.0 0.0 0.0 0.0 0.0 0.0 0.0 0.0 0.05263157894736842 0.21052631578947367 0.42105263157894735 0.2631578947368421 0.05263157894736842 0.0 0.0 0.0 0.0 0.0 0.0 0.0 0.0 0.0 0.0 0.14285714285714285 0.21428571428571427 0.35714285714285715 0.2857142857142857 0.0 0.0 0.0 0.0 0.0 0.0 0.0 0.0 0.0 0.0 0.0 0.043478260869565216 0.391304347826087 0.34782608695652173 0.21739130434782608 0.0 0.0 0.0 0.0 0.0 0.0 0.0 0.0 0.0 0.0 0.0 0.11764705882352941 0.29411764705882354 0.5882352941176471 0.38461538461538464 0.46153846153846156 0.15384615384615385 0.0 0.0 0.0 0.0 0.0 0.0 0.0 0.0 0.0 0.0 0.0 0.0 0.1875 0.375 0.375 0.0625 0.0 0.0 0.0 0.0 0.0 0.0 0.0 0.0 0.0 0.0 0.0 0.07142857142857142 0.14285714285714285 0.42857142857142855 0.2857142857142857 0.07142857142857142 0.0 0.0 0.0 0.0 0.0 0.0 0.0 0.0 0.0 0.07142857142857142 0.0 0.2857142857142857 0.42857142857142855 0.14285714285714285 0.07142857142857142 0.0 0.0 0.0 0.0 0.0 0.0 0.0 0.0 0.0 0.0 0.2 0.06666666666666667 0.4 0.26666666666666666 0.0 0.06666666666666667 0.0 0.0 0.0 0.0 0.0 0.0 0.0 0.0 0.1111111111111111 0.16666666666666666 0.3888888888888889 0.16666666666666666 0.16666666666666666 0.0 0.0 0.0 0.0 0.0 0.0 0.0 0.0 0.0 0.0 0.07142857142857142 0.14285714285714285 0.07142857142857142 0.35714285714285715 0.21428571428571427 0.14285714285714285 0.0 0.0 0.0 0.0 0.0 0.0 0.0 0.05555555555555555 0.0 0.0 0.2222222222222222 0.16666666666666666 0.2777777777777778 0.2777777777777778 0.0 0.0 0.0 0.0 0.0 0.0 0.0 0.0 0.0 0.047619047619047616 0.0 0.19047619047619047 0.3333333333333333 0.23809523809523808 0.14285714285714285 0.047619047619047616 0.0 0.0 0.0 0.0 0.0 0.0 0.0 0.0 0.0 0.07142857142857142 0.42857142857142855 0.42857142857142855 0.07142857142857142 0.0 0.0 0.0 0.0 0.0 0.0 0.0 0.0 0.0 0.0 0.11764705882352941 0.0 0.29411764705882354 0.29411764705882354 0.29411764705882354 0.0 0.0 0.0 0.0 0.0 0.0 0.0 0.0 0.0 0.0 0.06666666666666667 0.4 0.2 0.3333333333333333 0.0 0.0 0.0 0.0 0.0 0.0 0.0 0.0 0.0 0.0 0.0 0.0 0.125 0.5625 0.3125 0.0 0.0 0.0 0.0 0.0 0.0 0.0 0.0 0.0 0.0 0.0 0.0 0.1 0.9 0.29411764705882354 0.058823529411764705 0.4117647058823529 0.17647058823529413 0.058823529411764705 0.0 0.0 0.0 0.0 0.0 0.0 0.0 0.0 0.0 0.0 0.047619047619047616 0.19047619047619047 0.23809523809523808 0.3333333333333333 0.09523809523809523 0.047619047619047616 0.047619047619047616 0.0 0.0 0.0 0.0 0.0 0.0 0.0 0.0 0.0 0.2777777777777778 0.2222222222222222 0.3333333333333333 0.16666666666666666 0.0 0.0 0.0 0.0 0.0 0.0 0.0 0.0 0.0 0.0 0.06666666666666667 0.13333333333333333 0.26666666666666666 0.3333333333333333 0.2 0.0 0.0 0.0 0.0 0.0 0.0 0.0 0.0 0.0 0.0 0.0 0.6 0.1 0.3 0.0 0.0 0.0 0.0 0.0 0.0 0.0 0.0 0.0 0.0 0.0 0.09090909090909091 0.0 0.45454545454545453 0.18181818181818182 0.2727272727272727 0.0 0.0 0.0 0.0 0.0 0.0 0.0 0.0 0.0 0.0 0.23076923076923078 0.07692307692307693 0.3076923076923077 0.3076923076923077 0.0 0.07692307692307693 0.0 0.0 0.0 0.0 0.0 0.0 0.0 0.0 0.07142857142857142 0.14285714285714285 0.2857142857142857 0.2857142857142857 0.14285714285714285 0.07142857142857142 0.0 0.0 0.0 0.0 0.0 0.0 0.0 0.0 0.0 0.0 0.19047619047619047 0.19047619047619047 0.2857142857142857 0.23809523809523808 0.09523809523809523 0.0 0.0 0.0 0.0 0.0 0.0 0.0 0.0 0.0 0.1875 0.125 0.1875 0.375 0.125 0.0 0.0 0.0 0.0 0.0 0.0 0.0 0.0 0.0 0.0 0.17647058823529413 0.23529411764705882 0.35294117647058826 0.23529411764705882 0.0 0.0 0.0 0.0 0.0 0.0 0.0 0.0 0.0 0.05263157894736842 0.0 0.05263157894736842 0.3684210526315789 0.47368421052631576 0.05263157894736842 0.0 0.0 0.0 0.0 0.0 0.0 0.0 0.0 0.0 0.0 0.0 0.25 0.5833333333333334 0.16666666666666666 0.0 0.0 0.0 0.0 0.0 0.0 0.0 0.0 0.0 0.0 0.0 0.0 0.1 0.9 0.07142857142857142 0.35714285714285715 0.2857142857142857 0.14285714285714285 0.14285714285714285 0.0 0.0 0.0 0.0 0.0 0.0 0.0 0.0 0.0 0.0 0.0 0.2857142857142857 0.14285714285714285 0.07142857142857142 0.5 0.0 0.0 0.0 0.0 0.0 0.0 0.0 0.0 0.0 0.0 0.0 0.16666666666666666 0.1111111111111111 0.3888888888888889 0.2222222222222222 0.0 0.05555555555555555 0.05555555555555555 0.0 0.0 0.0 0.0 0.0 0.0 0.0 0.0 0.15 0.1 0.05 0.3 0.2 0.2 0.0 0.0 0.0 0.0 0.0 0.0 0.0 0.0 0.0 0.0 0.26666666666666666 0.3333333333333333 0.3333333333333333 0.06666666666666667 0.0 0.0 0.0 0.0 0.0 0.0 0.0 0.0 0.0 0.0 0.2 0.08 0.2 0.32 0.12 0.04 0.04 0.0 0.0 0.0 0.0 0.0 0.0 0.0 0.07142857142857142 0.14285714285714285 0.35714285714285715 0.2857142857142857 0.07142857142857142 0.07142857142857142 0.0 0.0 0.0 0.0 0.0 0.0 0.0 0.0 0.0 0.07692307692307693 0.07692307692307693 0.07692307692307693 0.6153846153846154 0.15384615384615385 0.0 0.0 0.0 0.0 0.0 0.0 0.0 0.0 0.0 0.0 0.0 0.16666666666666666 0.4166666666666667 0.25 0.16666666666666666 0.0 0.0 0.0 0.0 0.0 0.0 0.0 0.0 0.0 0.16666666666666666 0.16666666666666666 0.08333333333333333 0.5 0.08333333333333333 0.0 0.0 0.0 0.0 0.0 0.0 0.0 0.0 0.0 0.0 0.0 0.125 0.4375 0.375 0.0625 0.0 0.0 0.0 0.0 0.0 0.0 0.0 0.0 0.0 0.0 0.0 0.3076923076923077 0.6153846153846154 0.07692307692307693 0.0 0.0 0.0 0.0 0.0 0.0 0.0 0.0 0.0 0.0 0.0 0.0 0.2222222222222222 0.7777777777777778 0.0 0.0 0.0 0.0 0.0 0.0 0.0 0.0 0.0 0.0 0.0 0.0 0.0 1.0 0.0 0.07692307692307693 0.23076923076923078 0.38461538461538464 0.15384615384615385 0.15384615384615385 0.0 0.0 0.0 0.0 0.0 0.0 0.0 0.0 0.0 0.0 0.0 0.1 0.2 0.3 0.2 0.0 0.2 0.0 0.0 0.0 0.0 0.0 0.0 0.0 0.0 0.0 0.2222222222222222 0.1111111111111111 0.16666666666666666 0.2777777777777778 0.2222222222222222 0.0 0.0 0.0 0.0 0.0 0.0 0.0 0.0 0.0 0.0 0.15 0.35 0.15 0.2 0.05 0.1 0.0 0.0 0.0 0.0 0.0 0.0 0.0 0.0 0.045454545454545456 0.18181818181818182 0.2727272727272727 0.22727272727272727 0.22727272727272727 0.045454545454545456 0.0 0.0 0.0 0.0 0.0 0.0 0.0 0.0 0.0 0.13333333333333333 0.13333333333333333 0.13333333333333333 0.26666666666666666 0.3333333333333333 0.0 0.0 0.0 0.0 0.0 0.0 0.0 0.0 0.0 0.0 0.0 0.05555555555555555 0.2777777777777778 0.5 0.16666666666666666 0.0 0.0 0.0 0.0 0.0 0.0 0.0 0.0 0.0 0.1111111111111111 0.1111111111111111 0.05555555555555555 0.16666666666666666 0.5 0.05555555555555555 0.0 0.0 0.0 0.0 0.0 0.0 0.0 0.0 0.0 0.0 0.2 0.13333333333333333 0.13333333333333333 0.4666666666666667 0.06666666666666667 0.0 0.0 0.0 0.0 0.0 0.0 0.0 0.0 0.0 0.07692307692307693 0.07692307692307693 0.07692307692307693 0.6923076923076923 0.07692307692307693 0.0 0.0 0.0 0.0 0.0 0.0 0.0 0.0 0.0 0.0 0.2 0.0 0.7 0.1 0.0 0.0 0.0 0.0 0.0 0.0 0.0 0.0 0.0 0.0 0.0 0.25 0.3333333333333333 0.4166666666666667 0.0 0.0 0.0 0.0 0.0 0.0 0.0 0.0 0.0 0.0 0.0 0.0 0.13333333333333333 0.8666666666666667 0.0 0.0 0.0 0.0 0.0 0.0 0.0 0.0 0.0 0.0 0.0 0.0 0.0 1.0 0.0 0.13333333333333333 0.06666666666666667 0.13333333333333333 0.3333333333333333 0.06666666666666667 0.06666666666666667 0.06666666666666667 0.13333333333333333 0.0 0.0 0.0 0.0 0.0 0.0 0.0 0.0 0.09090909090909091 0.18181818181818182 0.0 0.36363636363636365 0.09090909090909091 0.2727272727272727 0.0 0.0 0.0 0.0 0.0 0.0 0.0 0.0 0.0 0.0 0.0 0.0 0.07692307692307693 0.07692307692307693 0.3076923076923077 0.38461538461538464 0.15384615384615385 0.0 0.0 0.0 0.0 0.0 0.0 0.0 0.06666666666666667 0.0 0.13333333333333333 0.06666666666666667 0.4 0.26666666666666666 0.0 0.0 0.06666666666666667 0.0 0.0 0.0 0.0 0.0 0.0 0.0 0.05263157894736842 0.10526315789473684 0.21052631578947367 0.10526315789473684 0.3684210526315789 0.15789473684210525 0.0 0.0 0.0 0.0 0.0 0.0 0.0 0.058823529411764705 0.0 0.058823529411764705 0.29411764705882354 0.29411764705882354 0.058823529411764705 0.11764705882352941 0.11764705882352941 0.0 0.0 0.0 0.0 0.0 0.0 0.0 0.0 0.0 0.125 0.125 0.4375 0.1875 0.125 0.0 0.0 0.0 0.0 0.0 0.0 0.0 0.0 0.0 0.0625 0.1875 0.375 0.375 0.0 0.0 0.0 0.0 0.0 0.0 0.0 0.0 0.0 0.0 0.0 0.07142857142857142 0.21428571428571427 0.42857142857142855 0.2857142857142857 0.0 0.0 0.0 0.0 0.0 0.0 0.0 0.0 0.0 0.0 0.05555555555555555 0.2777777777777778 0.2222222222222222 0.4444444444444444 0.0 0.0 0.0 0.0 0.0 0.0 0.0 0.0 0.0 0.0 0.0 0.07692307692307693 0.46153846153846156 0.46153846153846156 0.0 0.0 0.0 0.0 0.0 0.0 0.0 0.0 0.0 0.0 0.0 0.0 0.1 0.9 0.0 0.0 0.0 0.0 0.0 0.0 0.0 0.0 0.0 0.0 0.0 0.0 0.0 1.0 0.0 0.0 0.0 0.0 0.0 0.0 0.0 0.0 0.0 0.0 0.0 0.0 0.0 1.0 </TABLE>
    </DEFINITION>
    <DEFINITION>
      <FOR>E</FOR>
      <GIVEN>C</GIVEN>
      <GIVEN>D</GIVEN>
      <TABLE>1.0 0.0 0.0 0.0 0.0 0.0 0.0 0.0 0.0 0.0 0.0 0.0 0.0 0.0 1.0 0.0 0.0 0.0 0.0 0.0 0.0 0.0 0.0 0.0 0.0 0.0 0.0 0.0 0.23076923076923078 0.7692307692307693 0.0 0.0 0.0 0.0 0.0 0.0 0.0 0.0 0.0 0.0 0.0 0.0 0.0 0.5555555555555556 0.4444444444444444 0.0 0.0 0.0 0.0 0.0 0.0 0.0 0.0 0.0 0.0 0.0 0.0 0.10526315789473684 0.5263157894736842 0.3684210526315789 0.0 0.0 0.0 0.0 0.0 0.0 0.0 0.0 0.0 0.0 0.0 0.0 0.38461538461538464 0.38461538461538464 0.23076923076923078 0.0 0.0 0.0 0.0 0.0 0.0 0.0 0.0 0.0 0.0 0.0 0.05263157894736842 0.3157894736842105 0.47368421052631576 0.15789473684210525 0.0 0.0 0.0 0.0 0.0 0.0 0.0 0.0 0.0 0.0 0.0 0.07142857142857142 0.42857142857142855 0.5 0.0 0.0 0.0 0.0 0.0 0.0 0.0 0.0 0.0 0.0 0.0 0.0 0.07692307692307693 0.46153846153846156 0.46153846153846156 0.0 0.0 0.0 0.0 0.0 0.0 0.0 0.0 0.0 0.0 0.0 0.0 0.1875 0.6875 0.125 0.0 0.0 0.0 0.0 0.0 0.0 0.0 0.0 0.0 0.0 0.0 0.047619047619047616 0.14285714285714285 0.6666666666666666 0.14285714285714285 0.0 0.0 0.0 0.0 0.0 0.0 0.0 0.0 0.0 0.0 0.0 0.07692307692307693 0.0 0.07692307692307693 0.6153846153846154 0.23076923076923078 0.0 0.0 0.0 0.0 0.0 0.0 0.0 0.0 0.0 0.0 0.0 0.05263157894736842 0.3157894736842105 0.3684210526315789 0.2631578947368421 0.0 0.0 0.0 0.0 0.0 0.0 0.0 0.0 0.0 0.0 0.0 0.0 0.0625 0.1875 0.4375 0.3125 1.0 0.0 0.0 0.0 0.0 0.0 0.0 0.0 0.0 0.0 0.0 0.0 0.0 0.0 0.6666666666666666 0.3333333333333333 0.0 0.0 0.0 0.0 0.0 0.0 0.0 0.0 0.0 0.0 0.0 0.0 0.0 0.8421052631578947 0.15789473684210525 0.0 0.0 0.0 0.0 0.0 0.0 0.0 0.0 0.0 0.0 0.0 0.0 0.1111111111111111 0.7222222222222222 0.16666666666666666 0.0 0.0 0.0 0.0 0.0 0.0 0.0 0.0 0.0 0.0 0.0 0.0 0.35714285714285715 0.6428571428571429 0.0 0.0 0.0 0.0 0.0 0.0 0.0 0.0 0.0 0.0 0.0 0.0 0.0 0.5 0.5 0.0 0.0 0.0 0.0 0.0 0.0 0.0 0.0 0.0 0.0 0.0 0.0 0.2727272727272727 0.36363636363636365 0.36363636363636365 0.0 0.0 0.0 0.0 0.0 0.0 0.0 0.0 0.0 0.0 0.0 0.0 0.07142857142857142 0.7857142857142857 0.14285714285714285 0.0 0.0 0.0 0.0 0.0 0.0 0.0 0.0 0.0 0.0 0.0 0.0 0.10526315789473684 0.5789473684210527 0.3157894736842105 0.0 0.0 0.0 0.0 0.0 0.0 0.0 0.0 0.0 0.0 0.0 0.0 0.2857142857142857 0.5714285714285714 0.14285714285714285 0.0 0.0 0.0 0.0 0.0 0.0 0.0 0.0 0.0 0.0 0.0 0.0 0.09090909090909091 0.45454545454545453 0.45454545454545453 0.0 0.0 0.0 0.0 0.0 0.0 0.0 0.0 0.0 0.0 0.0 0.0 0.0 0.6470588235294118 0.29411764705882354 0.058823529411764705 0.0 0.0 0.0 0.0 0.0 0.0 0.0 0.0 0.0 0.0 0.0 0.0 0.2 0.6 0.2 0.0 0.0 0.0 0.0 0.0 0.0 0.0 0.0 0.0 0.0 0.0 0.0 0.0 0.7692307692307693 0.23076923076923078 1.0 0.0 0.0 0.0 0.0 0.0 0.0 0.0 0.0 0.0 0.0 0.0 0.0 0.0 0.16666666666666666 0.8333333333333334 0.0 0.0 0.0 0.0 0.0 0.0 0.0 0.0 0.0 0.0 0.0 0.0 0.0 0.5714285714285714 0.42857142857142855 0.0 0.0 0.0 0.0 0.0 0.0 0.0 0.0 0.0 0.0 0.0 0.0 0.1 0.8 0.1 0.0 0.0 0.0 0.0 0.0 0.0 0.0 0.0 0.0 0.0 0.0 0.0 0.3333333333333333 0.5555555555555556 0.1111111111111111 0.0 0.0 0.0 0.0 0.0 0.0 0.0 0.0 0.0 0.0 0.0 0.0 0.35 0.55 0.1 0.0 0.0 0.0 0.0 0.0 0.0 0.0 0.0 0.0 0.0 0.0 0.0 0.35714285714285715 0.5714285714285714 0.07142857142857142 0.0 0.0 0.0 0.0 0.0 0.0 0.0 0.0 0.0 0.0 0.0 0.125 0.375 0.5 0.0 0.0 0.0 0.0 0.0 0.0 0.0 0.0 0.0 0.0 0.0 0.0 0.0 0.6111111111111112 0.3888888888888889 0.0 0.0 0.0 0.0 0.0 0.0 0.0 0.0 0.0 0.0 0.0 0.0 0.0 0.3125 0.625 0.0625 0.0 0.0 0.0 0.0 0.0 0.0 0.0 0.0 0.0 0.0 0.0 0.125 0.5 0.375 0.0 0.0 0.0 0.0 0.0 0.0 0.0 0.0 0.0 0.0 0.0 0.0 0.0 0.3181818181818182 0.5454545454545454 0.13636363636363635 0.0 0.0 0.0 0.0 0.0 0.0 0.0 0.0 0.0 0.0 0.0 0.0 0.08333333333333333 0.6666666666666666 0.25 0.0 0.0 0.0 0.0 0.0 0.0 0.0 0.0 0.0 0.0 0.0 0.0 0.0 0.38461538461538464 0.6153846153846154 1.0 0.0 0.0 0.0 0.0 0.0 0.0 0.0 0.0 0.0 0.0 0.0 0.0 0.0 0.23529411764705882 0.7647058823529411 0.0 0.0 0.0 0.0 0.0 0.0 0.0 0.0 0.0 0.0 0.0 0.0 0.0 0.6875 0.3125 0.0 0.0 0.0 0.0 0.0 0.0 0.0 0.0 0.0 0.0 0.0 0.0 0.0 0.47058823529411764 0.5294117647058824 0.0 0.0 0.0 0.0 0.0 0.0 0.0 0.0 0.0 0.0 0.0 0.0 0.0 0.6666666666666666 0.3333333333333333 0.0 0.0 0.0 0.0 0.0 0.0 0.0 0.0 0.0 0.0 0.0 0.0 0.038461538461538464 0.6923076923076923 0.2692307692307692 0.0 0.0 0.0 0.0 0.0 0.0 0.0 0.0 0.0 0.0 0.0 0.0 0.21428571428571427 0.42857142857142855 0.35714285714285715 0.0 0.0 0.0 0.0 0.0 0.0 0.0 0.0 0.0 0.0 0.0 0.0 0.25 0.5 0.25 0.0 0.0 0.0 0.0 0.0 0.0 0.0 0.0 0.0 0.0 0.0 0.0 0.3076923076923077 0.46153846153846156 0.23076923076923078 0.0 0.0 0.0 0.0 0.0 0.0 0.0 0.0 0.0 0.0 0.0 0.0 0.3076923076923077 0.5384615384615384 0.15384615384615385 0.0 0.0 0.0 0.0 0.0 0.0 0.0 0.0 0.0 0.0 0.0 0.0 0.4666666666666667 0.4 0.13333333333333333 0.0 0.0 0.0 0.0 0.0 0.0 0.0 0.0 0.0 0.0 0.0 0.0 0.16666666666666666 0.5555555555555556 0.2777777777777778 0.0 0.0 0.0 0.0 0.0 0.0 0.0 0.0 0.0 0.0 0.0 0.0 0.16666666666666666 0.3333333333333333 0.5 0.0 0.0 0.0 0.0 0.0 0.0 0.0 0.0 0.0 0.0 0.0 0.0 0.0 0.2857142857142857 0.7142857142857143 1.0 0.0 0.0 0.0 0.0 0.0 0.0 0.0 0.0 0.0 0.0 0.0 0.0 0.0 0.2 0.7333333333333333 0.06666666666666667 0.0 0.0 0.0 0.0 0.0 0.0 0.0 0.0 0.0 0.0 0.0 0.0 0.21052631578947367 0.7894736842105263 0.0 0.0 0.0 0.0 0.0 0.0 0.0 0.0 0.0 0.0 0.0 0.0 0.0 0.3333333333333333 0.6666666666666666 0.0 0.0 0.0 0.0 0.0 0.0 0.0 0.0 0.0 0.0 0.0 0.0 0.058823529411764705 0.6470588235294118 0.29411764705882354 0.0 0.0 0.0 0.0 0.0 0.0 0.0 0.0 0.0 0.0 0.0 0.0 0.09090909090909091 0.5454545454545454 0.36363636363636365 0.0 0.0 0.0 0.0 0.0 0.0 0.0 0.0 0.0 0.0 0.0 0.0 0.0 0.8181818181818182 0.18181818181818182 0.0 0.0 0.0 0.0 0.0 0.0 0.0 0.0 0.0 0.0 0.0 0.0 0.043478260869565216 0.4782608695652174 0.4782608695652174 0.0 0.0 0.0 0.0 0.0 0.0 0.0 0.0 0.0 0.0 0.0 0.0 0.125 0.625 0.25 0.0 0.0 0.0 0.0 0.0 0.0 0.0 0.0 0.0 0.0 0.0 0.0 0.07692307692307693 0.46153846153846156 0.38461538461538464 0.07692307692307693 0.0 0.0 0.0 0.0 0.0 0.0 0.0 0.0 0.0 0.0 0.0 0.125 0.75 0.125 0.0 0.0 0.0 0.0 0.0 0.0 0.0 0.0 0.0 0.0 0.0 0.0 0.06666666666666667 0.26666666666666666 0.6666666666666666 0.0 0.0 0.0 0.0 0.0 0.0 0.0 0.0 0.0 0.0 0.0 0.0 0.045454545454545456 0.5909090909090909 0.36363636363636365 0.0 0.0 0.0 0.0 0.0 0.0 0.0 0.0 0.0 0.0 0.0 0.0 0.0 0.14285714285714285 0.8571428571428571 1.0 0.0 0.0 0.0 0.0 0.0 0.0 0.0 0.0 0.0 0.0 0.0 0.0 0.0 0.0 1.0 0.0 0.0 0.0 0.0 0.0 0.0 0.0 0.0 0.0 0.0 0.0 0.0 0.0 0.0 0.8571428571428571 0.14285714285714285 0.0 0.0 0.0 0.0 0.0 0.0 0.0 0.0 0.0 0.0 0.0 0.0 0.35714285714285715 0.42857142857142855 0.21428571428571427 0.0 0.0 0.0 0.0 0.0 0.0 0.0 0.0 0.0 0.0 0.0 0.0 0.42857142857142855 0.47619047619047616 0.09523809523809523 0.0 0.0 0.0 0.0 0.0 0.0 0.0 0.0 0.0 0.0 0.0 0.0 0.4 0.6 0.0 0.0 0.0 0.0 0.0 0.0 0.0 0.0 0.0 0.0 0.0 0.0 0.0 0.25 0.75 0.0 0.0 0.0 0.0 0.0 0.0 0.0 0.0 0.0 0.0 0.0 0.0 0.0 0.4444444444444444 0.4444444444444444 0.1111111111111111 0.0 0.0 0.0 0.0 0.0 0.0 0.0 0.0 0.0 0.0 0.0 0.058823529411764705 0.35294117647058826 0.47058823529411764 0.11764705882352941 0.0 0.0 0.0 0.0 0.0 0.0 0.0 0.0 0.0 0.0 0.0 0.0 0.4375 0.5 0.0625 0.0 0.0 0.0 0.0 0.0 0.0 0.0 0.0 0.0 0.0 0.0 0.0 0.45 0.55 0.0 0.0 0.0 0.0 0.0 0.0 0.0 0.0 0.0 0.0 0.0 0.0 0.0 0.4666666666666667 0.5333333333333333 0.0 0.0 0.0 0.0 0.0 0.0 0.0 0.0 0.0 0.0 0.0 0.0 0.0 0.25 0.75 0.0 0.0 0.0 0.0 0.0 0.0 0.0 0.0 0.0 0.0 0.0 0.0 0.0 0.14285714285714285 0.8571428571428571 0.9 0.1 0.0 0.0 0.0 0.0 0.0 0.0 0.0 0.0 0.0 0.0 0.0 0.0 0.1875 0.5625 0.25 0.0 0.0 0.0 0.0 0.0 0.0 0.0 0.0 0.0 0.0 0.0 0.0 0.09090909090909091 0.6818181818181818 0.22727272727272727 0.0 0.0 0.0 0.0 0.0 0.0 0.0 0.0 0.0 0.0 0.0 0.0 0.0 0.75 0.25 0.0 0.0 0.0 0.0 0.0 0.0 0.0 0.0 0.0 0.0 0.0 0.0 0.06666666666666667 0.7333333333333333 0.2 0.0 0.0 0.0 0.0 0.0 0.0 0.0 0.0 0.0 0.0 0.0 0.0 0.11764705882352941 0.7058823529411765 0.11764705882352941 0.058823529411764705 0.0 0.0 0.0 0.0 0.0 0.0 0.0 0.0 0.0 0.0 0.0 0.1 0.75 0.15 0.0 0.0 0.0 0.0 0.0 0.0 0.0 0.0 0.0 0.0 0.0 0.0 0.1 0.6 0.3 0.0 0.0 0.0 0.0 0.0 0.0 0.0 0.0 0.0 0.0 0.0 0.0 0.25 0.6875 0.0625 0.0 0.0 0.0 0.0 0.0 0.0 0.0 0.0 0.0 0.0 0.0 0.0 0.25 0.75 0.0 0.0 0.0 0.0 0.0 0.0 0.0 0.0 0.0 0.0 0.0 0.0 0.0 0.07142857142857142 0.9285714285714286 0.0 0.0 0.0 0.0 0.0 0.0 0.0 0.0 0.0 0.0 0.0 0.0 0.0 0.18181818181818182 0.7272727272727273 0.09090909090909091 0.0 0.0 0.0 0.0 0.0 0.0 0.0 0.0 0.0 0.0 0.0 0.0 0.21428571428571427 0.7857142857142857 0.0 0.0 0.0 0.0 0.0 0.0 0.0 0.0 0.0 0.0 0.0 0.0 0.0 0.23529411764705882 0.7647058823529411 0.6875 0.3125 0.0 0.0 0.0 0.0 0.0 0.0 0.0 0.0 0.0 0.0 0.0 0.0 0.0 0.7222222222222222 0.2777777777777778 0.0 0.0 0.0 0.0 0.0 0.0 0.0 0.0 0.0 0.0 0.0 0.0 0.07142857142857142 0.7142857142857143 0.21428571428571427 0.0 0.0 0.0 0.0 0.0 0.0 0.0 0.0 0.0 0.0 0.0 0.0 0.0 0.7272727272727273 0.18181818181818182 0.09090909090909091 0.0 0.0 0.0 0.0 0.0 0.0 0.0 0.0 0.0 0.0 0.0 0.0 0.7647058823529411 0.23529411764705882 0.0 0.0 0.0 0.0 0.0 0.0 0.0 0.0 0.0 0.0 0.0 0.0 0.07142857142857142 0.8571428571428571 0.07142857142857142 0.0 0.0 0.0 0.0 0.0 0.0 0.0 0.0 0.0 0.0 0.0 0.0 0.14285714285714285 0.6666666666666666 0.19047619047619047 0.0 0.0 0.0 0.0 0.0 0.0 0.0 0.0 0.0 0.0 0.0 0.0 0.1111111111111111 0.7777777777777778 0.1111111111111111 0.0 0.0 0.0 0.0 0.0 0.0 0.0 0.0 0.0 0.0 0.0 0.0 0.14285714285714285 0.7142857142857143 0.14285714285714285 0.0 0.0 0.0 0.0 0.0 0.0 0.0 0.0 0.0 0.0 0.0 0.0 0.25 0.5 0.25 0.0 0.0 0.0 0.0 0.0 0.0 0.0 0.0 0.0 0.0 0.0 0.0 0.15384615384615385 0.7692307692307693 0.07692307692307693 0.0 0.0 0.0 0.0 0.0 0.0 0.0 0.0 0.0 0.0 0.0 0.0 0.29411764705882354 0.5294117647058824 0.17647058823529413 0.0 0.0 0.0 0.0 0.0 0.0 0.0 0.0 0.0 0.0 0.0 0.0 0.1111111111111111 0.8888888888888888 0.0 0.0 0.0 0.0 0.0 0.0 0.0 0.0 0.0 0.0 0.0 0.0 0.0 0.0 1.0 0.7777777777777778 0.2222222222222222 0.0 0.0 0.0 0.0 0.0 0.0 0.0 0.0 0.0 0.0 0.0 0.0 0.0 0.8666666666666667 0.13333333333333333 0.0 0.0 0.0 0.0 0.0 0.0 0.0 0.0 0.0 0.0 0.0 0.0 0.0 0.5 0.5 0.0 0.0 0.0 0.0 0.0 0.0 0.0 0.0 0.0 0.0 0.0 0.0 0.0 0.8421052631578947 0.15789473684210525 0.0 0.0 0.0 0.0 0.0 0.0 0.0 0.0 0.0 0.0 0.0 0.0 0.0 0.3333333333333333 0.6666666666666666 0.0 0.0 0.0 0.0 0.0 0.0 0.0 0.0 0.0 0.0 0.0 0.0 0.125 0.625 0.25 0.0 0.0 0.0 0.0 0.0 0.0 0.0 0.0 0.0 0.0 0.0 0.0 0.0 0.4 0.6 0.0 0.0 0.0 0.0 0.0 0.0 0.0 0.0 0.0 0.0 0.0 0.0 0.0 0.5 0.5 0.0 0.0 0.0 0.0 0.0 0.0 0.0 0.0 0.0 0.0 0.0 0.0 0.1 0.55 0.35 0.0 0.0 0.0 0.0 0.0 0.0 0.0 0.0 0.0 0.0 0.0 0.0 0.07142857142857142 0.42857142857142855 0.5 0.0 0.0 0.0 0.0 0.0 0.0 0.0 0.0 0.0 0.0 0.0 0.0 0.08333333333333333 0.6666666666666666 0.25 0.0 0.0 0.0 0.0 0.0 0.0 0.0 0.0 0.0 0.0 0.0 0.0 0.15384615384615385 0.6153846153846154 0.23076923076923078 0.0 0.0 0.0 0.0 0.0 0.0 0.0 0.0 0.0 0.0 0.0 0.0 0.14285714285714285 0.5714285714285714 0.2857142857142857 0.0 0.0 0.0 0.0 0.0 0.0 0.0 0.0 0.0 0.0 0.0 0.0 0.13043478260869565 0.8695652173913043 0.8888888888888888 0.1111111111111111 0.0 0.0 0.0 0.0 0.0 0.0 0.0 0.0 0.0 0.0 0.0 0.0 0.0 0.7058823529411765 0.29411764705882354 0.0 0.0 0.0 0.0 0.0 0.0 0.0 0.0 0.0 0.0 0.0 0.0 0.0 0.8 0.2 0.0 0.0 0.0 0.0 0.0 0.0 0.0 0.0 0.0 0.0 0.0 0.0 0.0 0.42857142857142855 0.5714285714285714 0.0 0.0 0.0 0.0 0.0 0.0 0.0 0.0 0.0 0.0 0.0 0.0 0.0 0.29411764705882354 0.6470588235294118 0.058823529411764705 0.0 0.0 0.0 0.0 0.0 0.0 0.0 0.0 0.0 0.0 0.0 0.0 0.3 0.45 0.25 0.0 0.0 0.0 0.0 0.0 0.0 0.0 0.0 0.0 0.0 0.0 0.07142857142857142 0.35714285714285715 0.35714285714285715 0.21428571428571427 0.0 0.0 0.0 0.0 0.0 0.0 0.0 0.0 0.0 0.0 0.0 0.05263157894736842 0.3684210526315789 0.5789473684210527 0.0 0.0 0.0 0.0 0.0 0.0 0.0 0.0 0.0 0.0 0.0 0.0 0.0 0.2222222222222222 0.7777777777777778 0.0 0.0 0.0 0.0 0.0 0.0 0.0 0.0 0.0 0.0 0.0 0.0 0.0 0.6 0.4 0.0 0.0 0.0 0.0 0.0 0.0 0.0 0.0 0.0 0.0 0.0 0.0 0.0 0.6428571428571429 0.35714285714285715 0.0 0.0 0.0 0.0 0.0 0.0 0.0 0.0 0.0 0.0 0.0 0.0 0.0 0.5555555555555556 0.4444444444444444 0.0 0.0 0.0 0.0 0.0 0.0 0.0 0.0 0.0 0.0 0.0 0.0 0.0 0.8 0.2 0.0 0.0 0.0 0.0 0.0 0.0 0.0 0.0 0.0 0.0 0.0 0.0 0.0 1.0 0.8333333333333334 0.16666666666666666 0.0 0.0 0.0 0.0 0.0 0.0 0.0 0.0 0.0 0.0 0.0 0.0 0.0 0.3888888888888889 0.5555555555555556 0.05555555555555555 0.0 0.0 0.0 0.0 0.0 0.0 0.0 0.0 0.0 0.0 0.0 0.0 0.3333333333333333 0.6111111111111112 0.05555555555555555 0.0 0.0 0.0 0.0 0.0 0.0 0.0 0.0 0.0 0.0 0.0 0.0 0.3888888888888889 0.5555555555555556 0.05555555555555555 0.0 0.0 0.0 0.0 0.0 0.0 0.0 0.0 0.0 0.0 0.0 0.0 0.25 0.625 0.125 0.0 0.0 0.0 0.0 0.0 0.0 0.0 0.0 0.0 0.0 0.0 0.0 0.2631578947368421 0.47368421052631576 0.2631578947368421 0.0 0.0 0.0 0.0 0.0 0.0 0.0 0.0 0.0 0.0 0.0 0.0 0.0 0.5625 0.4375 0.0 0.0 0.0 0.0 0.0 0.0 0.0 0.0 0.0 0.0 0.0 0.0 0.3333333333333333 0.5555555555555556 0.1111111111111111 0.0 0.0 0.0 0.0 0.0 0.0 0.0 0.0 0.0 0.0 0.0 0.0 0.2 0.7 0.1 0.0 0.0 0.0 0.0 0.0 0.0 0.0 0.0 0.0 0.0 0.0 0.0 0.35294117647058826 0.6470588235294118 0.0 0.0 0.0 0.0 0.0 0.0 0.0 0.0 0.0 0.0 0.0 0.0 0.0 0.4375 0.5625 0.0 0.0 0.0 0.0 0.0 0.0 0.0 0.0 0.0 0.0 0.0 0.0 0.0 0.4375 0.5625 0.0 0.0 0.0 0.0 0.0 0.0 0.0 0.0 0.0 0.0 0.0 0.0 0.0 0.7692307692307693 0.23076923076923078 0.0 0.0 0.0 0.0 0.0 0.0 0.0 0.0 0.0 0.0 0.0 0.0 0.0 1.0 0.7 0.3 0.0 0.0 0.0 0.0 0.0 0.0 0.0 0.0 0.0 0.0 0.0 0.0 0.0 0.3333333333333333 0.5333333333333333 0.13333333333333333 0.0 0.0 0.0 0.0 0.0 0.0 0.0 0.0 0.0 0.0 0.0 0.0 0.16666666666666666 0.6111111111111112 0.2222222222222222 0.0 0.0 0.0 0.0 0.0 0.0 0.0 0.0 0.0 0.0 0.0 0.0 0.045454545454545456 0.7272727272727273 0.18181818181818182 0.045454545454545456 0.0 0.0 0.0 0.0 0.0 0.0 0.0 0.0 0.0 0.0 0.0 0.13333333333333333 0.5333333333333333 0.3333333333333333 0.0 0.0 0.0 0.0 0.0 0.0 0.0 0.0 0.0 0.0 0.0 0.0 0.058823529411764705 0.7058823529411765 0.23529411764705882 0.0 0.0 0.0 0.0 0.0 0.0 0.0 0.0 0.0 0.0 0.0 0.0 0.0 0.5 0.4375 0.0625 0.0 0.0 0.0 0.0 0.0 0.0 0.0 0.0 0.0 0.0 0.0 0.125 0.5 0.375 0.0 0.0 0.0 0.0 0.0 0.0 0.0 0.0 0.0 0.0 0.0 0.0 0.0 0.6923076923076923 0.3076923076923077 0.0 0.0 0.0 0.0 0.0 0.0 0.0 0.0 0.0 0.0 0.0 0.0 0.0 0.7222222222222222 0.2777777777777778 0.0 0.0 0.0 0.0 0.0 0.0 0.0 0.0 0.0 0.0 0.0 0.0 0.2777777777777778 0.6666666666666666 0.05555555555555555 0.0 0.0 0.0 0.0 0.0 0.0 0.0 0.0 0.0 0.0 0.0 0.0 0.5454545454545454 0.45454545454545453 0.0 0.0 0.0 0.0 0.0 0.0 0.0 0.0 0.0 0.0 0.0 0.0 0.0 0.7 0.3 0.0 0.0 0.0 0.0 0.0 0.0 0.0 0.0 0.0 0.0 0.0 0.0 0.0 1.0 0.3888888888888889 0.6111111111111112 0.0 0.0 0.0 0.0 0.0 0.0 0.0 0.0 0.0 0.0 0.0 0.0 0.0 0.08333333333333333 0.5833333333333334 0.3333333333333333 0.0 0.0 0.0 0.0 0.0 0.0 0.0 0.0 0.0 0.0 0.0 0.0 0.0 0.4444444444444444 0.5555555555555556 0.0 0.0 0.0 0.0 0.0 0.0 0.0 0.0 0.0 0.0 0.0 0.0 0.0 0.35294117647058826 0.5882352941176471 0.058823529411764705 0.0 0.0 0.0 0.0 0.0 0.0 0.0 0.0 0.0 0.0 0.0 0.0 0.4166666666666667 0.4166666666666667 0.16666666666666666 0.0 0.0 0.0 0.0 0.0 0.0 0.0 0.0 0.0 0.0 0.0 0.0 0.375 0.4375 0.1875 0.0 0.0 0.0 0.0 0.0 0.0 0.0 0.0 0.0 0.0 0.0 0.0 0.25 0.5 0.25 0.0 0.0 0.0 0.0 0.0 0.0 0.0 0.0 0.0 0.0 0.0 0.0 0.6363636363636364 0.36363636363636365 0.0 0.0 0.0 0.0 0.0 0.0 0.0 0.0 0.0 0.0 0.0 0.0 0.0 0.35294117647058826 0.6470588235294118 0.0 0.0 0.0 0.0 0.0 0.0 0.0 0.0 0.0 0.0 0.0 0.0 0.0 0.23809523809523808 0.7619047619047619 0.0 0.0 0.0 0.0 0.0 0.0 0.0 0.0 0.0 0.0 0.0 0.0 0.0 0.7142857142857143 0.2857142857142857 0.0 0.0 0.0 0.0 0.0 0.0 0.0 0.0 0.0 0.0 0.0 0.0 0.11764705882352941 0.8235294117647058 0.058823529411764705 0.0 0.0 0.0 0.0 0.0 0.0 0.0 0.0 0.0 0.0 0.0 0.0 0.4166666666666667 0.5833333333333334 0.0 0.0 0.0 0.0 0.0 0.0 0.0 0.0 0.0 0.0 0.0 0.0 0.0 1.0 0.4 0.26666666666666666 0.3333333333333333 0.0 0.0 0.0 0.0 0.0 0.0 0.0 0.0 0.0 0.0 0.0 0.0 0.0 0.6875 0.25 0.0625 0.0 0.0 0.0 0.0 0.0 0.0 0.0 0.0 0.0 0.0 0.0 0.0 0.16666666666666666 0.5 0.3333333333333333 0.0 0.0 0.0 0.0 0.0 0.0 0.0 0.0 0.0 0.0 0.0 0.0 0.2 0.26666666666666666 0.4666666666666667 0.06666666666666667 0.0 0.0 0.0 0.0 0.0 0.0 0.0 0.0 0.0 0.0 0.0 0.0 0.2631578947368421 0.5263157894736842 0.21052631578947367 0.0 0.0 0.0 0.0 0.0 0.0 0.0 0.0 0.0 0.0 0.0 0.0 0.36363636363636365 0.5454545454545454 0.09090909090909091 0.0 0.0 0.0 0.0 0.0 0.0 0.0 0.0 0.0 0.0 0.047619047619047616 0.047619047619047616 0.42857142857142855 0.42857142857142855 0.0 0.047619047619047616 0.0 0.0 0.0 0.0 0.0 0.0 0.0 0.0 0.0 0.0 0.0 0.4782608695652174 0.391304347826087 0.13043478260869565 0.0 0.0 0.0 0.0 0.0 0.0 0.0 0.0 0.0 0.0 0.0 0.0 0.3684210526315789 0.47368421052631576 0.15789473684210525 0.0 0.0 0.0 0.0 0.0 0.0 0.0 0.0 0.0 0.0 0.0 0.0 0.6666666666666666 0.3333333333333333 0.0 0.0 0.0 0.0 0.0 0.0 0.0 0.0 0.0 0.0 0.0 0.0 0.14285714285714285 0.8571428571428571 0.0 0.0 0.0 0.0 0.0 0.0 0.0 0.0 0.0 0.0 0.0 0.0 0.0 0.6363636363636364 0.36363636363636365 0.0 0.0 0.0 0.0 0.0 0.0 0.0 0.0 0.0 0.0 0.0 0.0 0.0625 0.9375 0.0 0.0 0.0 0.0 0.0 0.0 0.0 0.0 0.0 0.0 0.0 0.0 0.0 1.0 </TABLE>
    </DEFINITION>
  </NETWORK>
</BIF>
