<?xml version='1.0' encoding='utf-8'?>
<BIF VERSION="0.3">
  <NETWORK>
    <NAME>UNTITLED</NAME>
    <VARIABLE TYPE="nature">
      <NAME>A</NAME>
      <OUTCOME>_13_807_18_278_</OUTCOME>
      <OUTCOME>_18_278_19_489_</OUTCOME>
      <OUTCOME>_19_489_20_453_</OUTCOME>
      <OUTCOME>_20_453_21_663_</OUTCOME>
      <OUTCOME>_21_663_27_099_</OUTCOME>
      <PROPERTY />
    </VARIABLE>
    <VARIABLE TYPE="nature">
      <NAME>B</NAME>
      <OUTCOME>_13_55_18_416_</OUTCOME>
      <OUTCOME>_18_416_19_537_</OUTCOME>
      <OUTCOME>_19_537_20_555_</OUTCOME>
      <OUTCOME>_20_555_21_715_</OUTCOME>
      <OUTCOME>_21_715_27_545_</OUTCOME>
      <PROPERTY />
    </VARIABLE>
    <VARIABLE TYPE="nature">
      <NAME>C</NAME>
      <OUTCOME>_8_505_13_251_</OUTCOME>
      <OUTCOME>_13_251_14_459_</OUTCOME>
      <OUTCOME>_14_459_15_479_</OUTCOME>
      <OUTCOME>_15_479_16_688_</OUTCOME>
      <OUTCOME>_16_688_22_235_</OUTCOME>
      <PROPERTY />
    </VARIABLE>
    <VARIABLE TYPE="nature">
      <NAME>D</NAME>
      <OUTCOME>_71_90899999999999_93_786_</OUTCOME>
      <OUTCOME>_93_786_98_3_</OUTCOME>
      <OUTCOME>_98_3_102_094_</OUTCOME>
      <OUTCOME>_102_094_106_36_</OUTCOME>
      <OUTCOME>_106_36_128_011_</OUTCOME>
      <PROPERTY />
    </VARIABLE>
    <VARIABLE TYPE="nature">
      <NAME>E</NAME>
      <OUTCOME>_262_99800000000005_325_147_</OUTCOME>
      <OUTCOME>_325_147_339_652_</OUTCOME>
      <OUTCOME>_339_652_351_396_</OUTCOME>
      <OUTCOME>_351_396_364_788_</OUTCOME>
      <OUTCOME>_364_788_429_53_</OUTCOME>
      <PROPERTY />
    </VARIABLE>
    <DEFINITION>
      <FOR>A</FOR>
      <TABLE>0.2 0.2 0.2 0.2 0.2 </TABLE>
    </DEFINITION>
    <DEFINITION>
      <FOR>B</FOR>
      <TABLE>0.2 0.2 0.2 0.2 0.2 </TABLE>
    </DEFINITION>
    <DEFINITION>
      <FOR>C</FOR>
      <TABLE>0.2 0.2 0.2 0.2 0.2 </TABLE>
    </DEFINITION>
    <DEFINITION>
      <FOR>D</FOR>
      <GIVEN>A</GIVEN>
      <GIVEN>B</GIVEN>
      <TABLE>1.0 0.0 0.0 0.0 0.0 0.8205128205128205 0.1794871794871795 0.0 0.0 0.0 0.31746031746031744 0.5634920634920635 0.11904761904761904 0.0 0.0 0.0975609756097561 0.45528455284552843 0.3821138211382114 0.06504065040650407 0.0 0.017699115044247787 0.08849557522123894 0.36283185840707965 0.3805309734513274 0.1504424778761062 0.9186991869918699 0.08130081300813008 0.0 0.0 0.0 0.3211009174311927 0.5963302752293578 0.08256880733944955 0.0 0.0 0.008130081300813009 0.5284552845528455 0.43902439024390244 0.024390243902439025 0.0 0.0 0.08064516129032258 0.5806451612903226 0.31451612903225806 0.024193548387096774 0.0 0.008264462809917356 0.049586776859504134 0.4132231404958678 0.5289256198347108 0.75 0.25 0.0 0.0 0.0 0.14782608695652175 0.6608695652173913 0.19130434782608696 0.0 0.0 0.009523809523809525 0.24761904761904763 0.5142857142857142 0.22857142857142856 0.0 0.0 0.017241379310344827 0.3879310344827586 0.5431034482758621 0.05172413793103448 0.0 0.0 0.014705882352941176 0.25735294117647056 0.7279411764705882 0.4016393442622951 0.5 0.09836065573770492 0.0 0.0 0.017094017094017096 0.3504273504273504 0.5641025641025641 0.06837606837606838 0.0 0.0 0.017094017094017096 0.38461538461538464 0.5299145299145299 0.06837606837606838 0.0 0.0 0.046875 0.6171875 0.3359375 0.0 0.0 0.0 0.12931034482758622 0.8706896551724138 0.14150943396226415 0.4528301886792453 0.2830188679245283 0.11320754716981132 0.009433962264150943 0.0 0.02112676056338028 0.43661971830985913 0.4507042253521127 0.09154929577464789 0.0 0.0 0.09302325581395349 0.5736434108527132 0.3333333333333333 0.0 0.0 0.0 0.1926605504587156 0.8073394495412844 0.0 0.0 0.0 0.0 1.0 </TABLE>
    </DEFINITION>
    <DEFINITION>
      <FOR>E</FOR>
      <GIVEN>C</GIVEN>
      <GIVEN>D</GIVEN>
      <TABLE>1.0 0.0 0.0 0.0 0.0 0.5084745762711864 0.4830508474576271 0.00847457627118644 0.0 0.0 0.00909090909090909 0.7090909090909091 0.2818181818181818 0.0 0.0 0.0 0.015625 0.71875 0.265625 0.0 0.0 0.0 0.007936507936507936 0.48412698412698413 0.5079365079365079 0.9915966386554622 0.008403361344537815 0.0 0.0 0.0 0.12096774193548387 0.8790322580645161 0.0 0.0 0.0 0.0 0.20869565217391303 0.7913043478260869 0.0 0.0 0.0 0.0 0.27049180327868855 0.7295081967213115 0.0 0.0 0.0 0.0 0.25 0.75 0.959349593495935 0.04065040650406504 0.0 0.0 0.0 0.03968253968253968 0.9047619047619048 0.05555555555555555 0.0 0.0 0.0 0.06837606837606838 0.8461538461538461 0.08547008547008547 0.0 0.0 0.0 0.08928571428571429 0.8839285714285714 0.026785714285714284 0.0 0.0 0.0 0.07377049180327869 0.9262295081967213 0.8 0.2 0.0 0.0 0.0 0.0 0.7222222222222222 0.2777777777777778 0.0 0.0 0.0 0.008130081300813009 0.7317073170731707 0.2601626016260163 0.0 0.0 0.0 0.00909090909090909 0.8727272727272727 0.11818181818181818 0.0 0.0 0.0 0.007462686567164179 0.9925373134328358 0.5652173913043478 0.4260869565217391 0.008695652173913044 0.0 0.0 0.0 0.3951612903225806 0.5645161290322581 0.04032258064516129 0.0 0.0 0.0 0.31851851851851853 0.6444444444444445 0.037037037037037035 0.0 0.0 0.0 0.3671875 0.6328125 0.0 0.0 0.0 0.0 1.0 </TABLE>
    </DEFINITION>
  </NETWORK>
</BIF>
