<?xml version='1.0' encoding='utf-8'?>
<BIF VERSION="0.3">
  <NETWORK>
    <NAME>UNTITLED</NAME>
    <VARIABLE TYPE="nature">
      <NAME>A</NAME>
      <OUTCOME>_4_488_10_717_</OUTCOME>
      <OUTCOME>_10_717_16_916_</OUTCOME>
      <OUTCOME>_16_916_23_114_</OUTCOME>
      <OUTCOME>_23_114_29_312_</OUTCOME>
      <OUTCOME>_29_312_35_51_</OUTCOME>
      <PROPERTY />
    </VARIABLE>
    <VARIABLE TYPE="nature">
      <NAME>B</NAME>
      <OUTCOME>_6_359_12_662_</OUTCOME>
      <OUTCOME>_12_662_18_934_</OUTCOME>
      <OUTCOME>_18_934_25_205_</OUTCOME>
      <OUTCOME>_25_205_31_477_</OUTCOME>
      <OUTCOME>_31_477_37_748_</OUTCOME>
      <PROPERTY />
    </VARIABLE>
    <VARIABLE TYPE="nature">
      <NAME>C</NAME>
      <OUTCOME>_0_103_6_386_</OUTCOME>
      <OUTCOME>_6_386_12_843_</OUTCOME>
      <OUTCOME>_12_843_19_3_</OUTCOME>
      <OUTCOME>_19_3_25_756_</OUTCOME>
      <OUTCOME>_25_756_32_213_</OUTCOME>
      <PROPERTY />
    </VARIABLE>
    <VARIABLE TYPE="nature">
      <NAME>D</NAME>
      <OUTCOME>_23_922_50_3_</OUTCOME>
      <OUTCOME>_50_3_76_547_</OUTCOME>
      <OUTCOME>_76_547_102_794_</OUTCOME>
      <OUTCOME>_102_794_129_04_</OUTCOME>
      <OUTCOME>_129_04_155_287_</OUTCOME>
      <PROPERTY />
    </VARIABLE>
    <VARIABLE TYPE="nature">
      <NAME>E</NAME>
      <OUTCOME>_126_7_204_319_</OUTCOME>
      <OUTCOME>_204_319_281_552_</OUTCOME>
      <OUTCOME>_281_552_358_785_</OUTCOME>
      <OUTCOME>_358_785_436_018_</OUTCOME>
      <OUTCOME>_436_018_513_251_</OUTCOME>
      <PROPERTY />
    </VARIABLE>
    <DEFINITION>
      <FOR>A</FOR>
      <TABLE>0.0325 0.23 0.48125 0.23125 0.025 </TABLE>
    </DEFINITION>
    <DEFINITION>
      <FOR>B</FOR>
      <TABLE>0.0775 0.32875 0.43125 0.15125 0.01125 </TABLE>
    </DEFINITION>
    <DEFINITION>
      <FOR>C</FOR>
      <TABLE>0.04875 0.28875 0.46375 0.18 0.01875 </TABLE>
    </DEFINITION>
    <DEFINITION>
      <FOR>D</FOR>
      <GIVEN>A</GIVEN>
      <GIVEN>B</GIVEN>
      <TABLE>0.6666666666666666 0.3333333333333333 0.0 0.0 0.0 0.0 0.6666666666666666 0.3333333333333333 0.0 0.0 0.0 0.35294117647058826 0.6470588235294118 0.0 0.0 0.0 0.0 1.0 0.0 0.0 0.2 0.2 0.2 0.2 0.2 0.17647058823529413 0.8235294117647058 0.0 0.0 0.0 0.0 0.4642857142857143 0.5357142857142857 0.0 0.0 0.0 0.0 0.8414634146341463 0.15853658536585366 0.0 0.0 0.0 0.32142857142857145 0.6428571428571429 0.03571428571428571 0.0 0.0 0.0 0.0 1.0 0.0 0.8 0.2 0.0 0.0 0.0 0.029411764705882353 0.9558823529411765 0.014705882352941176 0.0 0.0 0.0 0.37888198757763975 0.6211180124223602 0.0 0.0 0.0 0.0 0.8245614035087719 0.17543859649122806 0.0 0.0 0.0 0.16666666666666666 0.8333333333333334 0.0 0.2 0.8 0.0 0.0 0.0 0.0 0.6065573770491803 0.39344262295081966 0.0 0.0 0.0 0.05128205128205128 0.8846153846153846 0.0641025641025641 0.0 0.0 0.0 0.3793103448275862 0.6206896551724138 0.0 0.0 0.0 0.0 1.0 0.0 0.0 0.5 0.5 0.0 0.0 0.0 0.2857142857142857 0.7142857142857143 0.0 0.0 0.0 0.0 0.42857142857142855 0.5714285714285714 0.0 0.0 0.0 0.0 1.0 0.2 0.2 0.2 0.2 0.2 </TABLE>
    </DEFINITION>
    <DEFINITION>
      <FOR>E</FOR>
      <GIVEN>C</GIVEN>
      <GIVEN>D</GIVEN>
      <TABLE>0.2 0.2 0.2 0.2 0.2 0.2 0.8 0.0 0.0 0.0 0.0 0.4 0.6 0.0 0.0 0.0 0.0 0.4666666666666667 0.5333333333333333 0.0 0.0 0.0 0.0 0.5 0.5 1.0 0.0 0.0 0.0 0.0 0.0 1.0 0.0 0.0 0.0 0.0 0.27184466019417475 0.7281553398058253 0.0 0.0 0.0 0.0 0.33707865168539325 0.6629213483146067 0.0 0.0 0.0 0.0 0.2631578947368421 0.7368421052631579 1.0 0.0 0.0 0.0 0.0 0.0 1.0 0.0 0.0 0.0 0.0 0.0374331550802139 0.9411764705882353 0.0213903743315508 0.0 0.0 0.0 0.06976744186046512 0.9302325581395349 0.0 0.0 0.0 0.0 0.11764705882352941 0.8823529411764706 0.0 1.0 0.0 0.0 0.0 0.0 0.9230769230769231 0.07692307692307693 0.0 0.0 0.0 0.0 0.7761194029850746 0.22388059701492538 0.0 0.0 0.0 0.0 0.9074074074074074 0.09259259259259259 0.0 0.0 0.0 0.0 1.0 0.2 0.2 0.2 0.2 0.2 0.0 0.5 0.5 0.0 0.0 0.0 0.0 0.0 1.0 0.0 0.0 0.0 0.0 0.8571428571428571 0.14285714285714285 0.0 0.0 0.0 0.0 1.0 </TABLE>
    </DEFINITION>
  </NETWORK>
</BIF>
