<?xml version='1.0' encoding='utf-8'?>
<BIF VERSION="0.3">
  <NETWORK>
    <NAME>UNTITLED</NAME>
    <VARIABLE TYPE="nature">
      <NAME>A</NAME>
      <OUTCOME>_13_807_17_187_</OUTCOME>
      <OUTCOME>_17_187_18_082_</OUTCOME>
      <OUTCOME>_18_082_18_693_</OUTCOME>
      <OUTCOME>_18_693_19_151_</OUTCOME>
      <OUTCOME>_19_151_19_577_</OUTCOME>
      <OUTCOME>_19_577_19_956_</OUTCOME>
      <OUTCOME>_19_956_20_39_</OUTCOME>
      <OUTCOME>_20_39_20_799_</OUTCOME>
      <OUTCOME>_20_799_21_345_</OUTCOME>
      <OUTCOME>_21_345_21_962_</OUTCOME>
      <OUTCOME>_21_962_22_736_</OUTCOME>
      <OUTCOME>_22_736_27_099_</OUTCOME>
      <PROPERTY />
    </VARIABLE>
    <VARIABLE TYPE="nature">
      <NAME>B</NAME>
      <OUTCOME>_13_861_17_26_</OUTCOME>
      <OUTCOME>_17_26_18_078_</OUTCOME>
      <OUTCOME>_18_078_18_69_</OUTCOME>
      <OUTCOME>_18_69_19_148_</OUTCOME>
      <OUTCOME>_19_148_19_594_</OUTCOME>
      <OUTCOME>_19_594_19_998_</OUTCOME>
      <OUTCOME>_19_998_20_451_</OUTCOME>
      <OUTCOME>_20_451_20_939_</OUTCOME>
      <OUTCOME>_20_939_21_401_</OUTCOME>
      <OUTCOME>_21_401_21_946_</OUTCOME>
      <OUTCOME>_21_946_22_714_</OUTCOME>
      <OUTCOME>_22_714_26_885_</OUTCOME>
      <PROPERTY />
    </VARIABLE>
    <VARIABLE TYPE="nature">
      <NAME>C</NAME>
      <OUTCOME>_8_55_12_174_</OUTCOME>
      <OUTCOME>_12_174_13_15_</OUTCOME>
      <OUTCOME>_13_15_13_741_</OUTCOME>
      <OUTCOME>_13_741_14_18_</OUTCOME>
      <OUTCOME>_14_18_14_601_</OUTCOME>
      <OUTCOME>_14_601_15_01_</OUTCOME>
      <OUTCOME>_15_01_15_439_</OUTCOME>
      <OUTCOME>_15_439_15_868_</OUTCOME>
      <OUTCOME>_15_868_16_325_</OUTCOME>
      <OUTCOME>_16_325_16_921_</OUTCOME>
      <OUTCOME>_16_921_17_822_</OUTCOME>
      <OUTCOME>_17_822_22_545_</OUTCOME>
      <PROPERTY />
    </VARIABLE>
    <VARIABLE TYPE="nature">
      <NAME>D</NAME>
      <OUTCOME>_72_81299999999999_90_071_</OUTCOME>
      <OUTCOME>_90_071_93_13_</OUTCOME>
      <OUTCOME>_93_13_95_145_</OUTCOME>
      <OUTCOME>_95_145_96_809_</OUTCOME>
      <OUTCOME>_96_809_98_244_</OUTCOME>
      <OUTCOME>_98_244_99_864_</OUTCOME>
      <OUTCOME>_99_864_101_441_</OUTCOME>
      <OUTCOME>_101_441_103_137_</OUTCOME>
      <OUTCOME>_103_137_104_893_</OUTCOME>
      <OUTCOME>_104_893_107_29_</OUTCOME>
      <OUTCOME>_107_29_110_168_</OUTCOME>
      <OUTCOME>_110_168_127_556_</OUTCOME>
      <PROPERTY />
    </VARIABLE>
    <VARIABLE TYPE="nature">
      <NAME>E</NAME>
      <OUTCOME>_264_567_314_053_</OUTCOME>
      <OUTCOME>_314_053_323_754_</OUTCOME>
      <OUTCOME>_323_754_329_949_</OUTCOME>
      <OUTCOME>_329_949_335_351_</OUTCOME>
      <OUTCOME>_335_351_340_465_</OUTCOME>
      <OUTCOME>_340_465_345_287_</OUTCOME>
      <OUTCOME>_345_287_350_05_</OUTCOME>
      <OUTCOME>_350_05_354_781_</OUTCOME>
      <OUTCOME>_354_781_360_086_</OUTCOME>
      <OUTCOME>_360_086_367_723_</OUTCOME>
      <OUTCOME>_367_723_376_34_</OUTCOME>
      <OUTCOME>_376_34_437_063_</OUTCOME>
      <PROPERTY />
    </VARIABLE>
    <DEFINITION>
      <FOR>A</FOR>
      <TABLE>0.0835 0.0835 0.083 0.0835 0.083 0.0835 0.0835 0.083 0.0835 0.083 0.0835 0.0835 </TABLE>
    </DEFINITION>
    <DEFINITION>
      <FOR>B</FOR>
      <TABLE>0.0835 0.0835 0.083 0.0835 0.083 0.0835 0.0835 0.083 0.0835 0.083 0.0835 0.0835 </TABLE>
    </DEFINITION>
    <DEFINITION>
      <FOR>C</FOR>
      <TABLE>0.0835 0.0835 0.083 0.0835 0.083 0.0835 0.0835 0.083 0.0835 0.083 0.0835 0.0835 </TABLE>
    </DEFINITION>
    <DEFINITION>
      <FOR>D</FOR>
      <GIVEN>A</GIVEN>
      <GIVEN>B</GIVEN>
      <TABLE>1.0 0.0 0.0 0.0 0.0 0.0 0.0 0.0 0.0 0.0 0.0 0.0 0.9090909090909091 0.09090909090909091 0.0 0.0 0.0 0.0 0.0 0.0 0.0 0.0 0.0 0.0 0.3 0.6 0.1 0.0 0.0 0.0 0.0 0.0 0.0 0.0 0.0 0.0 0.6153846153846154 0.38461538461538464 0.0 0.0 0.0 0.0 0.0 0.0 0.0 0.0 0.0 0.0 0.4 0.5333333333333333 0.06666666666666667 0.0 0.0 0.0 0.0 0.0 0.0 0.0 0.0 0.0 0.23529411764705882 0.29411764705882354 0.29411764705882354 0.17647058823529413 0.0 0.0 0.0 0.0 0.0 0.0 0.0 0.0 0.1111111111111111 0.4444444444444444 0.2222222222222222 0.2222222222222222 0.0 0.0 0.0 0.0 0.0 0.0 0.0 0.0 0.0 0.42857142857142855 0.07142857142857142 0.2857142857142857 0.14285714285714285 0.07142857142857142 0.0 0.0 0.0 0.0 0.0 0.0 0.0 0.11764705882352941 0.29411764705882354 0.11764705882352941 0.35294117647058826 0.0 0.058823529411764705 0.0 0.058823529411764705 0.0 0.0 0.0 0.0 0.09090909090909091 0.18181818181818182 0.18181818181818182 0.18181818181818182 0.09090909090909091 0.18181818181818182 0.09090909090909091 0.0 0.0 0.0 0.0 0.0 0.0 0.0 0.08333333333333333 0.25 0.3333333333333333 0.08333333333333333 0.08333333333333333 0.16666666666666666 0.0 0.0 0.0 0.0 0.0 0.0 0.0 0.1 0.0 0.0 0.3 0.3 0.2 0.0 0.1 0.9333333333333333 0.06666666666666667 0.0 0.0 0.0 0.0 0.0 0.0 0.0 0.0 0.0 0.0 0.6666666666666666 0.3333333333333333 0.0 0.0 0.0 0.0 0.0 0.0 0.0 0.0 0.0 0.0 0.7777777777777778 0.2222222222222222 0.0 0.0 0.0 0.0 0.0 0.0 0.0 0.0 0.0 0.0 0.0 0.8181818181818182 0.18181818181818182 0.0 0.0 0.0 0.0 0.0 0.0 0.0 0.0 0.0 0.0 0.2857142857142857 0.5 0.21428571428571427 0.0 0.0 0.0 0.0 0.0 0.0 0.0 0.0 0.0 0.1875 0.3125 0.1875 0.3125 0.0 0.0 0.0 0.0 0.0 0.0 0.0 0.0 0.125 0.1875 0.3125 0.25 0.0625 0.0625 0.0 0.0 0.0 0.0 0.0 0.0 0.0 0.1111111111111111 0.2222222222222222 0.0 0.4444444444444444 0.1111111111111111 0.1111111111111111 0.0 0.0 0.0 0.0 0.0 0.0 0.22727272727272727 0.09090909090909091 0.18181818181818182 0.13636363636363635 0.13636363636363635 0.18181818181818182 0.045454545454545456 0.0 0.0 0.0 0.0 0.0 0.0 0.0 0.17647058823529413 0.23529411764705882 0.29411764705882354 0.23529411764705882 0.058823529411764705 0.0 0.0 0.0 0.0 0.0 0.0 0.0 0.07692307692307693 0.0 0.3076923076923077 0.23076923076923078 0.23076923076923078 0.15384615384615385 0.0 0.0 0.0 0.0 0.0 0.0 0.0 0.0 0.0 0.07692307692307693 0.23076923076923078 0.3076923076923077 0.23076923076923078 0.15384615384615385 0.8888888888888888 0.1111111111111111 0.0 0.0 0.0 0.0 0.0 0.0 0.0 0.0 0.0 0.0 0.6 0.2 0.2 0.0 0.0 0.0 0.0 0.0 0.0 0.0 0.0 0.0 0.125 0.5 0.1875 0.1875 0.0 0.0 0.0 0.0 0.0 0.0 0.0 0.0 0.0 0.5384615384615384 0.46153846153846156 0.0 0.0 0.0 0.0 0.0 0.0 0.0 0.0 0.0 0.0 0.15384615384615385 0.15384615384615385 0.38461538461538464 0.23076923076923078 0.07692307692307693 0.0 0.0 0.0 0.0 0.0 0.0 0.0 0.07692307692307693 0.3076923076923077 0.5384615384615384 0.07692307692307693 0.0 0.0 0.0 0.0 0.0 0.0 0.0 0.0 0.0 0.1875 0.3125 0.3125 0.125 0.0625 0.0 0.0 0.0 0.0 0.0 0.0 0.0 0.0 0.07142857142857142 0.2857142857142857 0.21428571428571427 0.2857142857142857 0.14285714285714285 0.0 0.0 0.0 0.0 0.0 0.0 0.06666666666666667 0.06666666666666667 0.13333333333333333 0.4666666666666667 0.2 0.06666666666666667 0.0 0.0 0.0 0.0 0.0 0.0 0.0 0.0 0.18181818181818182 0.2727272727272727 0.18181818181818182 0.09090909090909091 0.18181818181818182 0.09090909090909091 0.0 0.0 0.0 0.0 0.0 0.0 0.05555555555555555 0.0 0.0 0.2222222222222222 0.3888888888888889 0.2777777777777778 0.05555555555555555 0.0 0.0 0.0 0.0 0.0 0.0 0.0 0.05555555555555555 0.0 0.2222222222222222 0.1111111111111111 0.6111111111111112 0.0 0.75 0.25 0.0 0.0 0.0 0.0 0.0 0.0 0.0 0.0 0.0 0.0 0.38461538461538464 0.46153846153846156 0.15384615384615385 0.0 0.0 0.0 0.0 0.0 0.0 0.0 0.0 0.0 0.0 0.5 0.3125 0.1875 0.0 0.0 0.0 0.0 0.0 0.0 0.0 0.0 0.0 0.09090909090909091 0.2727272727272727 0.36363636363636365 0.09090909090909091 0.18181818181818182 0.0 0.0 0.0 0.0 0.0 0.0 0.0 0.2222222222222222 0.1111111111111111 0.4444444444444444 0.0 0.0 0.2222222222222222 0.0 0.0 0.0 0.0 0.0 0.0 0.0 0.18181818181818182 0.36363636363636365 0.45454545454545453 0.0 0.0 0.0 0.0 0.0 0.0 0.0 0.0 0.0 0.05263157894736842 0.2631578947368421 0.21052631578947367 0.3157894736842105 0.10526315789473684 0.05263157894736842 0.0 0.0 0.0 0.0 0.0 0.0 0.06666666666666667 0.0 0.0 0.6 0.06666666666666667 0.13333333333333333 0.06666666666666667 0.06666666666666667 0.0 0.0 0.0 0.0 0.0 0.0 0.125 0.0 0.375 0.125 0.375 0.0 0.0 0.0 0.0 0.0 0.0 0.0 0.047619047619047616 0.0 0.14285714285714285 0.3333333333333333 0.38095238095238093 0.09523809523809523 0.0 0.0 0.0 0.0 0.0 0.0 0.0 0.07142857142857142 0.0 0.14285714285714285 0.5 0.0 0.2857142857142857 0.0 0.0 0.0 0.0 0.0 0.0 0.0 0.0 0.0 0.07142857142857142 0.14285714285714285 0.6428571428571429 0.14285714285714285 1.0 0.0 0.0 0.0 0.0 0.0 0.0 0.0 0.0 0.0 0.0 0.0 0.18181818181818182 0.7272727272727273 0.09090909090909091 0.0 0.0 0.0 0.0 0.0 0.0 0.0 0.0 0.0 0.0625 0.0625 0.75 0.125 0.0 0.0 0.0 0.0 0.0 0.0 0.0 0.0 0.0 0.21428571428571427 0.21428571428571427 0.35714285714285715 0.14285714285714285 0.07142857142857142 0.0 0.0 0.0 0.0 0.0 0.0 0.0 0.0 0.16666666666666666 0.2222222222222222 0.4444444444444444 0.16666666666666666 0.0 0.0 0.0 0.0 0.0 0.0 0.0 0.0 0.0625 0.25 0.4375 0.0625 0.125 0.0625 0.0 0.0 0.0 0.0 0.0 0.0 0.07692307692307693 0.07692307692307693 0.15384615384615385 0.15384615384615385 0.3076923076923077 0.15384615384615385 0.07692307692307693 0.0 0.0 0.0 0.0 0.0 0.0 0.0 0.0 0.1 0.5 0.3 0.1 0.0 0.0 0.0 0.0 0.0 0.0 0.0 0.0 0.15384615384615385 0.07692307692307693 0.5384615384615384 0.07692307692307693 0.15384615384615385 0.0 0.0 0.0 0.0 0.0 0.0 0.0 0.0 0.05263157894736842 0.3157894736842105 0.3157894736842105 0.2631578947368421 0.05263157894736842 0.0 0.0 0.0 0.0 0.0 0.0 0.0 0.0 0.0 0.38461538461538464 0.3076923076923077 0.23076923076923078 0.07692307692307693 0.0 0.0 0.0 0.0 0.0 0.0 0.0 0.0 0.0 0.23076923076923078 0.23076923076923078 0.5384615384615384 0.4444444444444444 0.4444444444444444 0.1111111111111111 0.0 0.0 0.0 0.0 0.0 0.0 0.0 0.0 0.0 0.18181818181818182 0.2727272727272727 0.2727272727272727 0.18181818181818182 0.09090909090909091 0.0 0.0 0.0 0.0 0.0 0.0 0.0 0.0 0.1875 0.4375 0.3125 0.0625 0.0 0.0 0.0 0.0 0.0 0.0 0.0 0.0 0.0 0.2857142857142857 0.2857142857142857 0.3333333333333333 0.09523809523809523 0.0 0.0 0.0 0.0 0.0 0.0 0.0 0.0 0.07692307692307693 0.15384615384615385 0.38461538461538464 0.23076923076923078 0.15384615384615385 0.0 0.0 0.0 0.0 0.0 0.0 0.0 0.0 0.14285714285714285 0.2857142857142857 0.2857142857142857 0.07142857142857142 0.21428571428571427 0.0 0.0 0.0 0.0 0.0 0.0 0.0 0.0 0.2 0.4 0.2 0.1 0.1 0.0 0.0 0.0 0.0 0.0 0.0 0.0 0.07692307692307693 0.07692307692307693 0.3076923076923077 0.3076923076923077 0.23076923076923078 0.0 0.0 0.0 0.0 0.0 0.0 0.0 0.09090909090909091 0.09090909090909091 0.18181818181818182 0.2727272727272727 0.18181818181818182 0.18181818181818182 0.0 0.0 0.0 0.0 0.0 0.0 0.0 0.05 0.05 0.2 0.5 0.15 0.05 0.0 0.0 0.0 0.0 0.0 0.0 0.0 0.0 0.16666666666666666 0.25 0.16666666666666666 0.4166666666666667 0.0 0.0 0.0 0.0 0.0 0.0 0.0 0.0 0.0 0.0 0.058823529411764705 0.7058823529411765 0.23529411764705882 0.7857142857142857 0.14285714285714285 0.0 0.0 0.07142857142857142 0.0 0.0 0.0 0.0 0.0 0.0 0.0 0.13043478260869565 0.08695652173913043 0.4782608695652174 0.21739130434782608 0.043478260869565216 0.043478260869565216 0.0 0.0 0.0 0.0 0.0 0.0 0.0 0.16666666666666666 0.3333333333333333 0.1111111111111111 0.2222222222222222 0.16666666666666666 0.0 0.0 0.0 0.0 0.0 0.0 0.0 0.07142857142857142 0.21428571428571427 0.2857142857142857 0.21428571428571427 0.14285714285714285 0.0 0.07142857142857142 0.0 0.0 0.0 0.0 0.0 0.0 0.0 0.0 0.25 0.375 0.25 0.125 0.0 0.0 0.0 0.0 0.0 0.0 0.0 0.1 0.25 0.25 0.25 0.1 0.05 0.0 0.0 0.0 0.0 0.0 0.0 0.0 0.0625 0.1875 0.25 0.3125 0.1875 0.0 0.0 0.0 0.0 0.0 0.0 0.0 0.0 0.0 0.3 0.4 0.3 0.0 0.0 0.0 0.0 0.0 0.0 0.0 0.0 0.1111111111111111 0.1111111111111111 0.2222222222222222 0.3333333333333333 0.2222222222222222 0.0 0.0 0.0 0.0 0.0 0.0 0.0 0.0 0.0 0.0 0.25 0.5833333333333334 0.16666666666666666 0.0 0.0 0.0 0.0 0.0 0.0 0.0 0.0 0.0 0.0 0.18181818181818182 0.7272727272727273 0.09090909090909091 0.0 0.0 0.0 0.0 0.0 0.0 0.0 0.0 0.08333333333333333 0.0 0.16666666666666666 0.75 0.6363636363636364 0.2727272727272727 0.09090909090909091 0.0 0.0 0.0 0.0 0.0 0.0 0.0 0.0 0.0 0.0 0.2 0.3 0.2 0.2 0.1 0.0 0.0 0.0 0.0 0.0 0.0 0.0 0.0 0.2727272727272727 0.18181818181818182 0.18181818181818182 0.36363636363636365 0.0 0.0 0.0 0.0 0.0 0.0 0.0 0.09090909090909091 0.0 0.36363636363636365 0.18181818181818182 0.09090909090909091 0.09090909090909091 0.18181818181818182 0.0 0.0 0.0 0.0 0.0 0.0 0.0 0.05263157894736842 0.3157894736842105 0.3157894736842105 0.21052631578947367 0.10526315789473684 0.0 0.0 0.0 0.0 0.0 0.0 0.0 0.0625 0.125 0.1875 0.4375 0.125 0.0625 0.0 0.0 0.0 0.0 0.0 0.0 0.0 0.14285714285714285 0.14285714285714285 0.35714285714285715 0.21428571428571427 0.07142857142857142 0.07142857142857142 0.0 0.0 0.0 0.0 0.0 0.0 0.0 0.0 0.25 0.3 0.35 0.1 0.0 0.0 0.0 0.0 0.0 0.0 0.0 0.0 0.0 0.16666666666666666 0.4166666666666667 0.25 0.16666666666666666 0.0 0.0 0.0 0.0 0.0 0.0 0.0 0.0 0.2727272727272727 0.09090909090909091 0.5454545454545454 0.09090909090909091 0.0 0.0 0.0 0.0 0.0 0.0 0.0 0.0 0.0 0.058823529411764705 0.058823529411764705 0.4117647058823529 0.47058823529411764 0.0 0.0 0.0 0.0 0.0 0.0 0.0 0.0 0.0 0.0 0.21428571428571427 0.7857142857142857 0.14285714285714285 0.5714285714285714 0.14285714285714285 0.14285714285714285 0.0 0.0 0.0 0.0 0.0 0.0 0.0 0.0 0.0 0.14285714285714285 0.14285714285714285 0.5714285714285714 0.07142857142857142 0.07142857142857142 0.0 0.0 0.0 0.0 0.0 0.0 0.0 0.0 0.21428571428571427 0.21428571428571427 0.2857142857142857 0.21428571428571427 0.0 0.07142857142857142 0.0 0.0 0.0 0.0 0.0 0.0 0.0 0.3076923076923077 0.07692307692307693 0.23076923076923078 0.15384615384615385 0.23076923076923078 0.0 0.0 0.0 0.0 0.0 0.0 0.0 0.05555555555555555 0.1111111111111111 0.3888888888888889 0.3333333333333333 0.1111111111111111 0.0 0.0 0.0 0.0 0.0 0.0 0.0 0.0 0.06666666666666667 0.13333333333333333 0.26666666666666666 0.26666666666666666 0.13333333333333333 0.13333333333333333 0.0 0.0 0.0 0.0 0.0 0.0 0.0 0.0 0.5 0.2 0.2 0.1 0.0 0.0 0.0 0.0 0.0 0.0 0.0 0.05555555555555555 0.05555555555555555 0.16666666666666666 0.3888888888888889 0.3333333333333333 0.0 0.0 0.0 0.0 0.0 0.0 0.0 0.0 0.0 0.21428571428571427 0.07142857142857142 0.42857142857142855 0.2857142857142857 0.0 0.0 0.0 0.0 0.0 0.0 0.0 0.0 0.0 0.08333333333333333 0.5833333333333334 0.3333333333333333 0.0 0.0 0.0 0.0 0.0 0.0 0.0 0.0 0.0 0.0 0.14285714285714285 0.5 0.35714285714285715 0.0 0.0 0.0 0.0 0.0 0.0 0.0 0.0 0.0 0.0 0.0 1.0 0.10526315789473684 0.47368421052631576 0.21052631578947367 0.10526315789473684 0.10526315789473684 0.0 0.0 0.0 0.0 0.0 0.0 0.0 0.0 0.0 0.0 0.5384615384615384 0.3076923076923077 0.07692307692307693 0.07692307692307693 0.0 0.0 0.0 0.0 0.0 0.0 0.0 0.125 0.0625 0.0625 0.3125 0.3125 0.125 0.0 0.0 0.0 0.0 0.0 0.0 0.0 0.06666666666666667 0.0 0.26666666666666666 0.4666666666666667 0.13333333333333333 0.06666666666666667 0.0 0.0 0.0 0.0 0.0 0.0 0.0 0.06666666666666667 0.13333333333333333 0.4 0.13333333333333333 0.26666666666666666 0.0 0.0 0.0 0.0 0.0 0.0 0.0 0.07692307692307693 0.0 0.3076923076923077 0.23076923076923078 0.3076923076923077 0.07692307692307693 0.0 0.0 0.0 0.0 0.0 0.0 0.0 0.07692307692307693 0.15384615384615385 0.23076923076923078 0.38461538461538464 0.15384615384615385 0.0 0.0 0.0 0.0 0.0 0.0 0.0 0.0 0.0 0.07692307692307693 0.3076923076923077 0.3076923076923077 0.3076923076923077 0.0 0.0 0.0 0.0 0.0 0.0 0.0 0.0 0.0 0.15384615384615385 0.7692307692307693 0.07692307692307693 0.0 0.0 0.0 0.0 0.0 0.0 0.0 0.0 0.0 0.16666666666666666 0.16666666666666666 0.5 0.16666666666666666 0.0 0.0 0.0 0.0 0.0 0.0 0.0 0.0 0.0 0.15384615384615385 0.23076923076923078 0.6153846153846154 0.0 0.0 0.0 0.0 0.0 0.0 0.0 0.0 0.0 0.0 0.0 1.0 0.06666666666666667 0.2 0.4 0.06666666666666667 0.13333333333333333 0.13333333333333333 0.0 0.0 0.0 0.0 0.0 0.0 0.0 0.0 0.09090909090909091 0.18181818181818182 0.5454545454545454 0.0 0.0 0.18181818181818182 0.0 0.0 0.0 0.0 0.0 0.0 0.08333333333333333 0.08333333333333333 0.08333333333333333 0.3333333333333333 0.3333333333333333 0.0 0.08333333333333333 0.0 0.0 0.0 0.0 0.0 0.0 0.058823529411764705 0.0 0.29411764705882354 0.29411764705882354 0.29411764705882354 0.058823529411764705 0.0 0.0 0.0 0.0 0.0 0.0 0.0 0.0 0.15384615384615385 0.07692307692307693 0.15384615384615385 0.23076923076923078 0.38461538461538464 0.0 0.0 0.0 0.0 0.0 0.0 0.0 0.0 0.14285714285714285 0.14285714285714285 0.2857142857142857 0.2857142857142857 0.14285714285714285 0.0 0.0 0.0 0.0 0.0 0.0 0.0 0.0 0.3333333333333333 0.3333333333333333 0.08333333333333333 0.25 0.0 0.0 0.0 0.0 0.0 0.0 0.0 0.0 0.058823529411764705 0.058823529411764705 0.5294117647058824 0.35294117647058826 0.0 0.0 0.0 0.0 0.0 0.0 0.0 0.0 0.0 0.0 0.3888888888888889 0.4444444444444444 0.16666666666666666 0.0 0.0 0.0 0.0 0.0 0.0 0.0 0.0 0.0 0.18181818181818182 0.45454545454545453 0.36363636363636365 0.0 0.0 0.0 0.0 0.0 0.0 0.0 0.0 0.0 0.0 0.3157894736842105 0.6842105263157895 0.0 0.0 0.0 0.0 0.0 0.0 0.0 0.0 0.0 0.0 0.06666666666666667 0.9333333333333333 0.05555555555555555 0.16666666666666666 0.16666666666666666 0.16666666666666666 0.05555555555555555 0.3333333333333333 0.05555555555555555 0.0 0.0 0.0 0.0 0.0 0.0 0.0 0.0 0.17647058823529413 0.11764705882352941 0.23529411764705882 0.058823529411764705 0.17647058823529413 0.11764705882352941 0.058823529411764705 0.058823529411764705 0.0 0.0 0.0 0.0 0.0 0.08333333333333333 0.08333333333333333 0.25 0.16666666666666666 0.16666666666666666 0.16666666666666666 0.08333333333333333 0.0 0.0 0.0 0.0 0.0 0.0 0.0 0.35714285714285715 0.14285714285714285 0.07142857142857142 0.21428571428571427 0.21428571428571427 0.0 0.0 0.0 0.0 0.0 0.0 0.0 0.09090909090909091 0.18181818181818182 0.2727272727272727 0.2727272727272727 0.18181818181818182 0.0 0.0 0.0 0.0 0.0 0.0 0.0 0.0 0.1111111111111111 0.2222222222222222 0.2222222222222222 0.3333333333333333 0.1111111111111111 0.0 0.0 0.0 0.0 0.0 0.0 0.0 0.0 0.0 0.5789473684210527 0.2631578947368421 0.15789473684210525 0.0 0.0 0.0 0.0 0.0 0.0 0.0 0.0 0.0 0.3076923076923077 0.46153846153846156 0.23076923076923078 0.0 0.0 0.0 0.0 0.0 0.0 0.0 0.0 0.0 0.13333333333333333 0.4666666666666667 0.4 0.0 0.0 0.0 0.0 0.0 0.0 0.0 0.0 0.0 0.0 0.2222222222222222 0.7777777777777778 0.0 0.0 0.0 0.0 0.0 0.0 0.0 0.0 0.0 0.0 0.0 1.0 0.0 0.0 0.0 0.0 0.0 0.0 0.0 0.0 0.0 0.0 0.0 1.0 </TABLE>
    </DEFINITION>
    <DEFINITION>
      <FOR>E</FOR>
      <GIVEN>C</GIVEN>
      <GIVEN>D</GIVEN>
      <TABLE>1.0 0.0 0.0 0.0 0.0 0.0 0.0 0.0 0.0 0.0 0.0 0.0 0.9375 0.0625 0.0 0.0 0.0 0.0 0.0 0.0 0.0 0.0 0.0 0.0 0.18181818181818182 0.8181818181818182 0.0 0.0 0.0 0.0 0.0 0.0 0.0 0.0 0.0 0.0 0.0 0.75 0.25 0.0 0.0 0.0 0.0 0.0 0.0 0.0 0.0 0.0 0.0 0.1111111111111111 0.6666666666666666 0.2222222222222222 0.0 0.0 0.0 0.0 0.0 0.0 0.0 0.0 0.0 0.0 0.2857142857142857 0.7142857142857143 0.0 0.0 0.0 0.0 0.0 0.0 0.0 0.0 0.0 0.0 0.0 0.5 0.4444444444444444 0.05555555555555555 0.0 0.0 0.0 0.0 0.0 0.0 0.0 0.0 0.0 0.06666666666666667 0.4666666666666667 0.4666666666666667 0.0 0.0 0.0 0.0 0.0 0.0 0.0 0.0 0.0 0.0 0.0 0.16666666666666666 0.6666666666666666 0.16666666666666666 0.0 0.0 0.0 0.0 0.0 0.0 0.0 0.0 0.0 0.0 0.23076923076923078 0.6923076923076923 0.07692307692307693 0.0 0.0 0.0 0.0 0.0 0.0 0.0 0.0 0.0 0.0 0.25 0.625 0.125 0.0 0.0 0.0 0.0 0.0 0.0 0.0 0.0 0.0 0.0 0.06666666666666667 0.06666666666666667 0.5333333333333333 0.3333333333333333 1.0 0.0 0.0 0.0 0.0 0.0 0.0 0.0 0.0 0.0 0.0 0.0 0.5294117647058824 0.47058823529411764 0.0 0.0 0.0 0.0 0.0 0.0 0.0 0.0 0.0 0.0 0.09090909090909091 0.7272727272727273 0.18181818181818182 0.0 0.0 0.0 0.0 0.0 0.0 0.0 0.0 0.0 0.0 0.25 0.75 0.0 0.0 0.0 0.0 0.0 0.0 0.0 0.0 0.0 0.0 0.0 0.4666666666666667 0.5333333333333333 0.0 0.0 0.0 0.0 0.0 0.0 0.0 0.0 0.0 0.0 0.0 0.6428571428571429 0.35714285714285715 0.0 0.0 0.0 0.0 0.0 0.0 0.0 0.0 0.0 0.0 0.0 0.2857142857142857 0.7142857142857143 0.0 0.0 0.0 0.0 0.0 0.0 0.0 0.0 0.0 0.0 0.0 0.5333333333333333 0.4666666666666667 0.0 0.0 0.0 0.0 0.0 0.0 0.0 0.0 0.0 0.0 0.08333333333333333 0.2916666666666667 0.5416666666666666 0.08333333333333333 0.0 0.0 0.0 0.0 0.0 0.0 0.0 0.0 0.0 0.0 0.21428571428571427 0.6428571428571429 0.14285714285714285 0.0 0.0 0.0 0.0 0.0 0.0 0.0 0.0 0.0 0.0 0.23076923076923078 0.6153846153846154 0.15384615384615385 0.0 0.0 0.0 0.0 0.0 0.0 0.0 0.0 0.0 0.0 0.058823529411764705 0.5294117647058824 0.4117647058823529 1.0 0.0 0.0 0.0 0.0 0.0 0.0 0.0 0.0 0.0 0.0 0.0 0.3 0.7 0.0 0.0 0.0 0.0 0.0 0.0 0.0 0.0 0.0 0.0 0.0 0.6666666666666666 0.3333333333333333 0.0 0.0 0.0 0.0 0.0 0.0 0.0 0.0 0.0 0.0 0.06666666666666667 0.8666666666666667 0.06666666666666667 0.0 0.0 0.0 0.0 0.0 0.0 0.0 0.0 0.0 0.0 0.0625 0.75 0.1875 0.0 0.0 0.0 0.0 0.0 0.0 0.0 0.0 0.0 0.0 0.25 0.75 0.0 0.0 0.0 0.0 0.0 0.0 0.0 0.0 0.0 0.0 0.0 0.15384615384615385 0.6923076923076923 0.15384615384615385 0.0 0.0 0.0 0.0 0.0 0.0 0.0 0.0 0.0 0.0 0.2857142857142857 0.5714285714285714 0.14285714285714285 0.0 0.0 0.0 0.0 0.0 0.0 0.0 0.0 0.0 0.0 0.21428571428571427 0.5714285714285714 0.21428571428571427 0.0 0.0 0.0 0.0 0.0 0.0 0.0 0.0 0.0 0.0 0.045454545454545456 0.5909090909090909 0.36363636363636365 0.0 0.0 0.0 0.0 0.0 0.0 0.0 0.0 0.0 0.0 0.0 0.6363636363636364 0.36363636363636365 0.0 0.0 0.0 0.0 0.0 0.0 0.0 0.0 0.0 0.0 0.0 0.3333333333333333 0.6666666666666666 1.0 0.0 0.0 0.0 0.0 0.0 0.0 0.0 0.0 0.0 0.0 0.0 0.23076923076923078 0.7307692307692307 0.038461538461538464 0.0 0.0 0.0 0.0 0.0 0.0 0.0 0.0 0.0 0.0 0.4375 0.5625 0.0 0.0 0.0 0.0 0.0 0.0 0.0 0.0 0.0 0.0 0.0 0.5714285714285714 0.42857142857142855 0.0 0.0 0.0 0.0 0.0 0.0 0.0 0.0 0.0 0.0 0.05555555555555555 0.5555555555555556 0.3333333333333333 0.05555555555555555 0.0 0.0 0.0 0.0 0.0 0.0 0.0 0.0 0.0 0.08333333333333333 0.4166666666666667 0.5 0.0 0.0 0.0 0.0 0.0 0.0 0.0 0.0 0.0 0.0 0.0 0.9090909090909091 0.09090909090909091 0.0 0.0 0.0 0.0 0.0 0.0 0.0 0.0 0.0 0.0 0.16666666666666666 0.5833333333333334 0.25 0.0 0.0 0.0 0.0 0.0 0.0 0.0 0.0 0.0 0.0 0.0 0.5882352941176471 0.4117647058823529 0.0 0.0 0.0 0.0 0.0 0.0 0.0 0.0 0.0 0.0 0.0625 0.5 0.4375 0.0 0.0 0.0 0.0 0.0 0.0 0.0 0.0 0.0 0.0 0.0 0.6 0.4 0.0 0.0 0.0 0.0 0.0 0.0 0.0 0.0 0.0 0.0 0.0 0.42857142857142855 0.5714285714285714 0.8888888888888888 0.1111111111111111 0.0 0.0 0.0 0.0 0.0 0.0 0.0 0.0 0.0 0.0 0.0 0.9166666666666666 0.08333333333333333 0.0 0.0 0.0 0.0 0.0 0.0 0.0 0.0 0.0 0.0 0.2857142857142857 0.7142857142857143 0.0 0.0 0.0 0.0 0.0 0.0 0.0 0.0 0.0 0.0 0.0 0.3684210526315789 0.631578947368421 0.0 0.0 0.0 0.0 0.0 0.0 0.0 0.0 0.0 0.0 0.0 0.18181818181818182 0.8181818181818182 0.0 0.0 0.0 0.0 0.0 0.0 0.0 0.0 0.0 0.0 0.0 0.4117647058823529 0.5882352941176471 0.0 0.0 0.0 0.0 0.0 0.0 0.0 0.0 0.0 0.0 0.0 0.35294117647058826 0.6470588235294118 0.0 0.0 0.0 0.0 0.0 0.0 0.0 0.0 0.0 0.0 0.0 0.4444444444444444 0.3333333333333333 0.2222222222222222 0.0 0.0 0.0 0.0 0.0 0.0 0.0 0.0 0.0 0.0 0.38461538461538464 0.5384615384615384 0.07692307692307693 0.0 0.0 0.0 0.0 0.0 0.0 0.0 0.0 0.0 0.0 0.4444444444444444 0.5555555555555556 0.0 0.0 0.0 0.0 0.0 0.0 0.0 0.0 0.0 0.0 0.0 0.36363636363636365 0.5454545454545454 0.09090909090909091 0.0 0.0 0.0 0.0 0.0 0.0 0.0 0.0 0.0 0.0 0.1875 0.8125 0.9230769230769231 0.07692307692307693 0.0 0.0 0.0 0.0 0.0 0.0 0.0 0.0 0.0 0.0 0.1 0.8 0.1 0.0 0.0 0.0 0.0 0.0 0.0 0.0 0.0 0.0 0.0 0.0625 0.9375 0.0 0.0 0.0 0.0 0.0 0.0 0.0 0.0 0.0 0.0 0.0 0.11764705882352941 0.7647058823529411 0.11764705882352941 0.0 0.0 0.0 0.0 0.0 0.0 0.0 0.0 0.0 0.0 0.25 0.6666666666666666 0.08333333333333333 0.0 0.0 0.0 0.0 0.0 0.0 0.0 0.0 0.0 0.0 0.2777777777777778 0.5555555555555556 0.16666666666666666 0.0 0.0 0.0 0.0 0.0 0.0 0.0 0.0 0.0 0.0 0.25 0.625 0.125 0.0 0.0 0.0 0.0 0.0 0.0 0.0 0.0 0.0 0.0 0.46153846153846156 0.38461538461538464 0.15384615384615385 0.0 0.0 0.0 0.0 0.0 0.0 0.0 0.0 0.0 0.0 0.2727272727272727 0.6363636363636364 0.09090909090909091 0.0 0.0 0.0 0.0 0.0 0.0 0.0 0.0 0.0 0.0 0.23076923076923078 0.7692307692307693 0.0 0.0 0.0 0.0 0.0 0.0 0.0 0.0 0.0 0.0 0.0 0.125 0.875 0.0 0.0 0.0 0.0 0.0 0.0 0.0 0.0 0.0 0.0 0.0 0.2 0.8 1.0 0.0 0.0 0.0 0.0 0.0 0.0 0.0 0.0 0.0 0.0 0.0 0.0 1.0 0.0 0.0 0.0 0.0 0.0 0.0 0.0 0.0 0.0 0.0 0.0 0.0 0.9090909090909091 0.09090909090909091 0.0 0.0 0.0 0.0 0.0 0.0 0.0 0.0 0.0 0.0 0.08333333333333333 0.75 0.16666666666666666 0.0 0.0 0.0 0.0 0.0 0.0 0.0 0.0 0.0 0.0 0.058823529411764705 0.7058823529411765 0.23529411764705882 0.0 0.0 0.0 0.0 0.0 0.0 0.0 0.0 0.0 0.0 0.14285714285714285 0.7142857142857143 0.14285714285714285 0.0 0.0 0.0 0.0 0.0 0.0 0.0 0.0 0.0 0.0 0.3076923076923077 0.6923076923076923 0.0 0.0 0.0 0.0 0.0 0.0 0.0 0.0 0.0 0.0 0.0 0.1875 0.75 0.0625 0.0 0.0 0.0 0.0 0.0 0.0 0.0 0.0 0.0 0.0 0.07692307692307693 0.7692307692307693 0.15384615384615385 0.0 0.0 0.0 0.0 0.0 0.0 0.0 0.0 0.0 0.0 0.0625 0.8125 0.125 0.0 0.0 0.0 0.0 0.0 0.0 0.0 0.0 0.0 0.0 0.10526315789473684 0.8421052631578947 0.05263157894736842 0.0 0.0 0.0 0.0 0.0 0.0 0.0 0.0 0.0 0.0 0.07142857142857142 0.9285714285714286 0.9285714285714286 0.07142857142857142 0.0 0.0 0.0 0.0 0.0 0.0 0.0 0.0 0.0 0.0 0.0 0.5714285714285714 0.42857142857142855 0.0 0.0 0.0 0.0 0.0 0.0 0.0 0.0 0.0 0.0 0.0 0.5 0.5 0.0 0.0 0.0 0.0 0.0 0.0 0.0 0.0 0.0 0.0 0.07142857142857142 0.35714285714285715 0.5714285714285714 0.0 0.0 0.0 0.0 0.0 0.0 0.0 0.0 0.0 0.0 0.0 0.4 0.6 0.0 0.0 0.0 0.0 0.0 0.0 0.0 0.0 0.0 0.0 0.0 0.47058823529411764 0.5294117647058824 0.0 0.0 0.0 0.0 0.0 0.0 0.0 0.0 0.0 0.0 0.14285714285714285 0.42857142857142855 0.42857142857142855 0.0 0.0 0.0 0.0 0.0 0.0 0.0 0.0 0.0 0.0 0.08333333333333333 0.3333333333333333 0.5833333333333334 0.0 0.0 0.0 0.0 0.0 0.0 0.0 0.0 0.0 0.0 0.0625 0.625 0.3125 0.0 0.0 0.0 0.0 0.0 0.0 0.0 0.0 0.0 0.0 0.07692307692307693 0.6923076923076923 0.23076923076923078 0.0 0.0 0.0 0.0 0.0 0.0 0.0 0.0 0.0 0.0 0.0 0.9333333333333333 0.06666666666666667 0.0 0.0 0.0 0.0 0.0 0.0 0.0 0.0 0.0 0.0 0.0 1.0 0.47058823529411764 0.5294117647058824 0.0 0.0 0.0 0.0 0.0 0.0 0.0 0.0 0.0 0.0 0.0 0.625 0.375 0.0 0.0 0.0 0.0 0.0 0.0 0.0 0.0 0.0 0.0 0.0 0.3333333333333333 0.6666666666666666 0.0 0.0 0.0 0.0 0.0 0.0 0.0 0.0 0.0 0.0 0.0 0.23076923076923078 0.7692307692307693 0.0 0.0 0.0 0.0 0.0 0.0 0.0 0.0 0.0 0.0 0.0 0.42857142857142855 0.5714285714285714 0.0 0.0 0.0 0.0 0.0 0.0 0.0 0.0 0.0 0.0 0.0625 0.3125 0.5 0.125 0.0 0.0 0.0 0.0 0.0 0.0 0.0 0.0 0.0 0.058823529411764705 0.29411764705882354 0.6470588235294118 0.0 0.0 0.0 0.0 0.0 0.0 0.0 0.0 0.0 0.0 0.058823529411764705 0.47058823529411764 0.47058823529411764 0.0 0.0 0.0 0.0 0.0 0.0 0.0 0.0 0.0 0.0 0.0 0.6153846153846154 0.38461538461538464 0.0 0.0 0.0 0.0 0.0 0.0 0.0 0.0 0.0 0.0 0.0 0.4444444444444444 0.5555555555555556 0.0 0.0 0.0 0.0 0.0 0.0 0.0 0.0 0.0 0.0 0.0 0.6666666666666666 0.3333333333333333 0.0 0.0 0.0 0.0 0.0 0.0 0.0 0.0 0.0 0.0 0.0 1.0 0.4375 0.5625 0.0 0.0 0.0 0.0 0.0 0.0 0.0 0.0 0.0 0.0 0.0 0.1 0.9 0.0 0.0 0.0 0.0 0.0 0.0 0.0 0.0 0.0 0.0 0.0 0.23529411764705882 0.5882352941176471 0.17647058823529413 0.0 0.0 0.0 0.0 0.0 0.0 0.0 0.0 0.0 0.0 0.1111111111111111 0.8333333333333334 0.05555555555555555 0.0 0.0 0.0 0.0 0.0 0.0 0.0 0.0 0.0 0.0 0.46153846153846156 0.23076923076923078 0.3076923076923077 0.0 0.0 0.0 0.0 0.0 0.0 0.0 0.0 0.0 0.0 0.1111111111111111 0.6666666666666666 0.2222222222222222 0.0 0.0 0.0 0.0 0.0 0.0 0.0 0.0 0.0 0.0 0.21052631578947367 0.7368421052631579 0.05263157894736842 0.0 0.0 0.0 0.0 0.0 0.0 0.0 0.0 0.0 0.0 0.3 0.7 0.0 0.0 0.0 0.0 0.0 0.0 0.0 0.0 0.0 0.0 0.0 0.2 0.8 0.0 0.0 0.0 0.0 0.0 0.0 0.0 0.0 0.0 0.0 0.0 0.5 0.5 0.0 0.0 0.0 0.0 0.0 0.0 0.0 0.0 0.0 0.0 0.0 0.7058823529411765 0.29411764705882354 0.0 0.0 0.0 0.0 0.0 0.0 0.0 0.0 0.0 0.0 0.0 1.0 0.35714285714285715 0.6428571428571429 0.0 0.0 0.0 0.0 0.0 0.0 0.0 0.0 0.0 0.0 0.0 0.29411764705882354 0.5294117647058824 0.11764705882352941 0.058823529411764705 0.0 0.0 0.0 0.0 0.0 0.0 0.0 0.0 0.0 0.14285714285714285 0.6428571428571429 0.14285714285714285 0.07142857142857142 0.0 0.0 0.0 0.0 0.0 0.0 0.0 0.0 0.0 0.0 0.3125 0.5625 0.125 0.0 0.0 0.0 0.0 0.0 0.0 0.0 0.0 0.0 0.08333333333333333 0.5833333333333334 0.3333333333333333 0.0 0.0 0.0 0.0 0.0 0.0 0.0 0.0 0.0 0.0 0.0 0.6 0.4 0.0 0.0 0.0 0.0 0.0 0.0 0.0 0.0 0.0 0.0 0.07142857142857142 0.6428571428571429 0.2857142857142857 0.0 0.0 0.0 0.0 0.0 0.0 0.0 0.0 0.0 0.0 0.11764705882352941 0.6470588235294118 0.23529411764705882 0.0 0.0 0.0 0.0 0.0 0.0 0.0 0.0 0.0 0.0 0.08333333333333333 0.9166666666666666 0.0 0.0 0.0 0.0 0.0 0.0 0.0 0.0 0.0 0.0 0.0 0.06666666666666667 0.9333333333333333 0.0 0.0 0.0 0.0 0.0 0.0 0.0 0.0 0.0 0.0 0.0 0.35714285714285715 0.6428571428571429 0.0 0.0 0.0 0.0 0.0 0.0 0.0 0.0 0.0 0.0 0.0 1.0 0.2222222222222222 0.1111111111111111 0.6666666666666666 0.0 0.0 0.0 0.0 0.0 0.0 0.0 0.0 0.0 0.0 0.0 0.35714285714285715 0.5714285714285714 0.07142857142857142 0.0 0.0 0.0 0.0 0.0 0.0 0.0 0.0 0.0 0.0 0.0 0.6666666666666666 0.3333333333333333 0.0 0.0 0.0 0.0 0.0 0.0 0.0 0.0 0.0 0.0 0.25 0.5625 0.1875 0.0 0.0 0.0 0.0 0.0 0.0 0.0 0.0 0.0 0.0 0.0 0.6842105263157895 0.3157894736842105 0.0 0.0 0.0 0.0 0.0 0.0 0.0 0.0 0.0 0.0 0.2777777777777778 0.2777777777777778 0.4444444444444444 0.0 0.0 0.0 0.0 0.0 0.0 0.0 0.0 0.0 0.0 0.125 0.4375 0.375 0.0625 0.0 0.0 0.0 0.0 0.0 0.0 0.0 0.0 0.07142857142857142 0.07142857142857142 0.7857142857142857 0.07142857142857142 0.0 0.0 0.0 0.0 0.0 0.0 0.0 0.0 0.0 0.0 0.5833333333333334 0.3333333333333333 0.08333333333333333 0.0 0.0 0.0 0.0 0.0 0.0 0.0 0.0 0.0 0.07142857142857142 0.7857142857142857 0.14285714285714285 0.0 0.0 0.0 0.0 0.0 0.0 0.0 0.0 0.0 0.0 0.07692307692307693 0.9230769230769231 0.0 0.0 0.0 0.0 0.0 0.0 0.0 0.0 0.0 0.0 0.0 1.0 </TABLE>
    </DEFINITION>
  </NETWORK>
</BIF>
