<?xml version='1.0' encoding='utf-8'?>
<BIF VERSION="0.3">
  <NETWORK>
    <NAME>UNTITLED</NAME>
    <VARIABLE TYPE="nature">
      <NAME>A</NAME>
      <OUTCOME>_13_807_17_379_</OUTCOME>
      <OUTCOME>_17_379_18_291_</OUTCOME>
      <OUTCOME>_18_291_18_985_</OUTCOME>
      <OUTCOME>_18_985_19_494_</OUTCOME>
      <OUTCOME>_19_494_19_956_</OUTCOME>
      <OUTCOME>_19_956_20_453_</OUTCOME>
      <OUTCOME>_20_453_20_976_</OUTCOME>
      <OUTCOME>_20_976_21_665_</OUTCOME>
      <OUTCOME>_21_665_22_549_</OUTCOME>
      <OUTCOME>_22_549_27_099_</OUTCOME>
      <PROPERTY />
    </VARIABLE>
    <VARIABLE TYPE="nature">
      <NAME>B</NAME>
      <OUTCOME>_13_861_17_438_</OUTCOME>
      <OUTCOME>_17_438_18_328_</OUTCOME>
      <OUTCOME>_18_328_18_98_</OUTCOME>
      <OUTCOME>_18_98_19_522_</OUTCOME>
      <OUTCOME>_19_522_19_998_</OUTCOME>
      <OUTCOME>_19_998_20_519_</OUTCOME>
      <OUTCOME>_20_519_21_106_</OUTCOME>
      <OUTCOME>_21_106_21_715_</OUTCOME>
      <OUTCOME>_21_715_22_553_</OUTCOME>
      <OUTCOME>_22_553_26_885_</OUTCOME>
      <PROPERTY />
    </VARIABLE>
    <VARIABLE TYPE="nature">
      <NAME>C</NAME>
      <OUTCOME>_8_55_12_447_</OUTCOME>
      <OUTCOME>_12_447_13_415_</OUTCOME>
      <OUTCOME>_13_415_14_002_</OUTCOME>
      <OUTCOME>_14_002_14_526_</OUTCOME>
      <OUTCOME>_14_526_15_01_</OUTCOME>
      <OUTCOME>_15_01_15_517_</OUTCOME>
      <OUTCOME>_15_517_16_065_</OUTCOME>
      <OUTCOME>_16_065_16_688_</OUTCOME>
      <OUTCOME>_16_688_17_561_</OUTCOME>
      <OUTCOME>_17_561_22_545_</OUTCOME>
      <PROPERTY />
    </VARIABLE>
    <VARIABLE TYPE="nature">
      <NAME>D</NAME>
      <OUTCOME>_72_81299999999999_91_041_</OUTCOME>
      <OUTCOME>_91_041_94_015_</OUTCOME>
      <OUTCOME>_94_015_96_202_</OUTCOME>
      <OUTCOME>_96_202_98_038_</OUTCOME>
      <OUTCOME>_98_038_99_864_</OUTCOME>
      <OUTCOME>_99_864_101_704_</OUTCOME>
      <OUTCOME>_101_704_103_89_</OUTCOME>
      <OUTCOME>_103_89_106_261_</OUTCOME>
      <OUTCOME>_106_261_109_56_</OUTCOME>
      <OUTCOME>_109_56_127_556_</OUTCOME>
      <PROPERTY />
    </VARIABLE>
    <VARIABLE TYPE="nature">
      <NAME>E</NAME>
      <OUTCOME>_264_567_316_019_</OUTCOME>
      <OUTCOME>_316_019_326_864_</OUTCOME>
      <OUTCOME>_326_864_333_347_</OUTCOME>
      <OUTCOME>_333_347_339_463_</OUTCOME>
      <OUTCOME>_339_463_345_287_</OUTCOME>
      <OUTCOME>_345_287_351_142_</OUTCOME>
      <OUTCOME>_351_142_356_593_</OUTCOME>
      <OUTCOME>_356_593_364_397_</OUTCOME>
      <OUTCOME>_364_397_374_739_</OUTCOME>
      <OUTCOME>_374_739_437_063_</OUTCOME>
      <PROPERTY />
    </VARIABLE>
    <DEFINITION>
      <FOR>A</FOR>
      <TABLE>0.1 0.1 0.1 0.1 0.1 0.1 0.1 0.1 0.1 0.1 </TABLE>
    </DEFINITION>
    <DEFINITION>
      <FOR>B</FOR>
      <TABLE>0.1 0.1 0.1 0.1 0.1 0.1 0.1 0.1 0.1 0.1 </TABLE>
    </DEFINITION>
    <DEFINITION>
      <FOR>C</FOR>
      <TABLE>0.1 0.1 0.1 0.1 0.1 0.1 0.1 0.1 0.1 0.1 </TABLE>
    </DEFINITION>
    <DEFINITION>
      <FOR>D</FOR>
      <GIVEN>A</GIVEN>
      <GIVEN>B</GIVEN>
      <TABLE>1.0 0.0 0.0 0.0 0.0 0.0 0.0 0.0 0.0 0.0 0.7916666666666666 0.20833333333333334 0.0 0.0 0.0 0.0 0.0 0.0 0.0 0.0 0.6470588235294118 0.35294117647058826 0.0 0.0 0.0 0.0 0.0 0.0 0.0 0.0 0.5238095238095238 0.47619047619047616 0.0 0.0 0.0 0.0 0.0 0.0 0.0 0.0 0.2916666666666667 0.4166666666666667 0.2916666666666667 0.0 0.0 0.0 0.0 0.0 0.0 0.0 0.14285714285714285 0.5714285714285714 0.21428571428571427 0.07142857142857142 0.0 0.0 0.0 0.0 0.0 0.0 0.05 0.35 0.25 0.3 0.05 0.0 0.0 0.0 0.0 0.0 0.0 0.045454545454545456 0.22727272727272727 0.45454545454545453 0.09090909090909091 0.13636363636363635 0.045454545454545456 0.0 0.0 0.0 0.0 0.0 0.11764705882352941 0.23529411764705882 0.29411764705882354 0.11764705882352941 0.17647058823529413 0.058823529411764705 0.0 0.0 0.0 0.0 0.0 0.11764705882352941 0.058823529411764705 0.058823529411764705 0.4117647058823529 0.23529411764705882 0.0 0.11764705882352941 1.0 0.0 0.0 0.0 0.0 0.0 0.0 0.0 0.0 0.0 0.7857142857142857 0.21428571428571427 0.0 0.0 0.0 0.0 0.0 0.0 0.0 0.0 0.125 0.8125 0.0625 0.0 0.0 0.0 0.0 0.0 0.0 0.0 0.043478260869565216 0.5217391304347826 0.30434782608695654 0.08695652173913043 0.043478260869565216 0.0 0.0 0.0 0.0 0.0 0.05 0.05 0.4 0.5 0.0 0.0 0.0 0.0 0.0 0.0 0.0 0.125 0.375 0.16666666666666666 0.16666666666666666 0.16666666666666666 0.0 0.0 0.0 0.0 0.0 0.0 0.07142857142857142 0.2857142857142857 0.5714285714285714 0.07142857142857142 0.0 0.0 0.0 0.0 0.0 0.0 0.034482758620689655 0.13793103448275862 0.3448275862068966 0.3448275862068966 0.13793103448275862 0.0 0.0 0.0 0.0 0.0 0.0 0.05263157894736842 0.0 0.2631578947368421 0.47368421052631576 0.10526315789473684 0.10526315789473684 0.0 0.0 0.0 0.0 0.0 0.0 0.0 0.09523809523809523 0.38095238095238093 0.38095238095238093 0.14285714285714285 0.8 0.2 0.0 0.0 0.0 0.0 0.0 0.0 0.0 0.0 0.625 0.3125 0.0625 0.0 0.0 0.0 0.0 0.0 0.0 0.0 0.058823529411764705 0.29411764705882354 0.5882352941176471 0.058823529411764705 0.0 0.0 0.0 0.0 0.0 0.0 0.0 0.4 0.3333333333333333 0.13333333333333333 0.06666666666666667 0.06666666666666667 0.0 0.0 0.0 0.0 0.0 0.21052631578947367 0.3684210526315789 0.3684210526315789 0.05263157894736842 0.0 0.0 0.0 0.0 0.0 0.0 0.037037037037037035 0.14814814814814814 0.37037037037037035 0.3333333333333333 0.1111111111111111 0.0 0.0 0.0 0.0 0.0 0.0 0.1 0.15 0.35 0.2 0.15 0.05 0.0 0.0 0.0 0.0 0.04 0.04 0.12 0.32 0.16 0.32 0.0 0.0 0.0 0.0 0.0 0.034482758620689655 0.10344827586206896 0.0 0.3448275862068966 0.4482758620689655 0.06896551724137931 0.0 0.0 0.0 0.0 0.0 0.0 0.058823529411764705 0.0 0.35294117647058826 0.47058823529411764 0.11764705882352941 0.9444444444444444 0.05555555555555555 0.0 0.0 0.0 0.0 0.0 0.0 0.0 0.0 0.3 0.5 0.2 0.0 0.0 0.0 0.0 0.0 0.0 0.0 0.0 0.4583333333333333 0.3333333333333333 0.125 0.08333333333333333 0.0 0.0 0.0 0.0 0.0 0.0 0.047619047619047616 0.2857142857142857 0.47619047619047616 0.14285714285714285 0.047619047619047616 0.0 0.0 0.0 0.0 0.0 0.05263157894736842 0.3157894736842105 0.3157894736842105 0.15789473684210525 0.15789473684210525 0.0 0.0 0.0 0.0 0.0 0.0 0.15 0.15 0.25 0.2 0.2 0.05 0.0 0.0 0.0 0.0 0.0 0.0 0.35714285714285715 0.5 0.07142857142857142 0.07142857142857142 0.0 0.0 0.0 0.0 0.0 0.0 0.0 0.05 0.4 0.45 0.1 0.0 0.0 0.0 0.0 0.0 0.0 0.05 0.3 0.25 0.35 0.05 0.0 0.0 0.0 0.0 0.0 0.0 0.0 0.20833333333333334 0.3333333333333333 0.4583333333333333 0.7333333333333333 0.2 0.06666666666666667 0.0 0.0 0.0 0.0 0.0 0.0 0.0 0.10526315789473684 0.47368421052631576 0.3684210526315789 0.05263157894736842 0.0 0.0 0.0 0.0 0.0 0.0 0.0 0.17391304347826086 0.5217391304347826 0.2608695652173913 0.043478260869565216 0.0 0.0 0.0 0.0 0.0 0.0 0.0 0.2222222222222222 0.48148148148148145 0.2222222222222222 0.07407407407407407 0.0 0.0 0.0 0.0 0.0 0.0 0.15789473684210525 0.3157894736842105 0.3157894736842105 0.10526315789473684 0.10526315789473684 0.0 0.0 0.0 0.0 0.0 0.0 0.06666666666666667 0.4 0.3333333333333333 0.2 0.0 0.0 0.0 0.0 0.0 0.0 0.0 0.15789473684210525 0.3684210526315789 0.42105263157894735 0.05263157894736842 0.0 0.0 0.0 0.0 0.0 0.0 0.1 0.2 0.5 0.15 0.05 0.0 0.0 0.0 0.0 0.0 0.0 0.045454545454545456 0.22727272727272727 0.4090909090909091 0.2727272727272727 0.045454545454545456 0.0 0.0 0.0 0.0 0.0 0.0 0.0 0.047619047619047616 0.5714285714285714 0.38095238095238093 0.7222222222222222 0.2222222222222222 0.0 0.05555555555555555 0.0 0.0 0.0 0.0 0.0 0.0 0.09375 0.34375 0.40625 0.125 0.03125 0.0 0.0 0.0 0.0 0.0 0.0 0.16666666666666666 0.25 0.2916666666666667 0.25 0.0 0.041666666666666664 0.0 0.0 0.0 0.0 0.0 0.09090909090909091 0.2727272727272727 0.45454545454545453 0.18181818181818182 0.0 0.0 0.0 0.0 0.0 0.0 0.06896551724137931 0.1724137931034483 0.3103448275862069 0.3448275862068966 0.06896551724137931 0.034482758620689655 0.0 0.0 0.0 0.0 0.0 0.0 0.2608695652173913 0.391304347826087 0.21739130434782608 0.13043478260869565 0.0 0.0 0.0 0.0 0.0 0.0 0.0 0.26666666666666666 0.4 0.26666666666666666 0.06666666666666667 0.0 0.0 0.0 0.0 0.0 0.06666666666666667 0.0 0.26666666666666666 0.4666666666666667 0.2 0.0 0.0 0.0 0.0 0.0 0.0 0.0 0.05555555555555555 0.16666666666666666 0.5555555555555556 0.2222222222222222 0.0 0.0 0.0 0.0 0.0 0.0 0.0 0.06666666666666667 0.13333333333333333 0.8 0.3157894736842105 0.5263157894736842 0.10526315789473684 0.05263157894736842 0.0 0.0 0.0 0.0 0.0 0.0 0.0 0.125 0.25 0.3125 0.3125 0.0 0.0 0.0 0.0 0.0 0.0 0.0 0.22727272727272727 0.4090909090909091 0.22727272727272727 0.09090909090909091 0.045454545454545456 0.0 0.0 0.0 0.0 0.0 0.05 0.2 0.35 0.4 0.0 0.0 0.0 0.0 0.0 0.0 0.0 0.15 0.25 0.4 0.15 0.05 0.0 0.0 0.0 0.0 0.0 0.05 0.05 0.35 0.45 0.1 0.0 0.0 0.0 0.0 0.0 0.0 0.0 0.16666666666666666 0.375 0.375 0.08333333333333333 0.0 0.0 0.0 0.0 0.0 0.0 0.0 0.35 0.55 0.1 0.0 0.0 0.0 0.0 0.0 0.0 0.0 0.0 0.15789473684210525 0.42105263157894735 0.42105263157894735 0.0 0.0 0.0 0.0 0.0 0.0 0.0 0.0 0.15 0.85 0.23076923076923078 0.46153846153846156 0.19230769230769232 0.038461538461538464 0.038461538461538464 0.038461538461538464 0.0 0.0 0.0 0.0 0.0 0.05263157894736842 0.5263157894736842 0.15789473684210525 0.2631578947368421 0.0 0.0 0.0 0.0 0.0 0.0 0.0 0.14285714285714285 0.19047619047619047 0.2857142857142857 0.23809523809523808 0.14285714285714285 0.0 0.0 0.0 0.0 0.0 0.05 0.05 0.3 0.3 0.2 0.1 0.0 0.0 0.0 0.0 0.0 0.08695652173913043 0.13043478260869565 0.391304347826087 0.21739130434782608 0.17391304347826086 0.0 0.0 0.0 0.0 0.0 0.0 0.0 0.46153846153846156 0.15384615384615385 0.38461538461538464 0.0 0.0 0.0 0.0 0.0 0.0 0.038461538461538464 0.038461538461538464 0.23076923076923078 0.4230769230769231 0.2692307692307692 0.0 0.0 0.0 0.0 0.0 0.0 0.0 0.058823529411764705 0.23529411764705882 0.6470588235294118 0.058823529411764705 0.0 0.0 0.0 0.0 0.0 0.0 0.0 0.21052631578947367 0.5263157894736842 0.2631578947368421 0.0 0.0 0.0 0.0 0.0 0.0 0.0 0.0 0.0 1.0 0.1111111111111111 0.3888888888888889 0.3333333333333333 0.1111111111111111 0.05555555555555555 0.0 0.0 0.0 0.0 0.0 0.0 0.05263157894736842 0.10526315789473684 0.47368421052631576 0.15789473684210525 0.21052631578947367 0.0 0.0 0.0 0.0 0.0 0.0 0.0 0.09523809523809523 0.23809523809523808 0.47619047619047616 0.19047619047619047 0.0 0.0 0.0 0.0 0.0 0.0 0.038461538461538464 0.19230769230769232 0.19230769230769232 0.46153846153846156 0.11538461538461539 0.0 0.0 0.0 0.0 0.0 0.0 0.0 0.3333333333333333 0.25 0.25 0.16666666666666666 0.0 0.0 0.0 0.0 0.0 0.047619047619047616 0.047619047619047616 0.23809523809523808 0.38095238095238093 0.2857142857142857 0.0 0.0 0.0 0.0 0.0 0.0 0.0 0.09523809523809523 0.2857142857142857 0.6190476190476191 0.0 0.0 0.0 0.0 0.0 0.0 0.0 0.0 0.16666666666666666 0.3888888888888889 0.4444444444444444 0.0 0.0 0.0 0.0 0.0 0.0 0.0 0.0 0.3333333333333333 0.6666666666666666 0.0 0.0 0.0 0.0 0.0 0.0 0.0 0.0 0.0 1.0 0.037037037037037035 0.18518518518518517 0.14814814814814814 0.18518518518518517 0.37037037037037035 0.037037037037037035 0.037037037037037035 0.0 0.0 0.0 0.0 0.0 0.0 0.19047619047619047 0.19047619047619047 0.19047619047619047 0.19047619047619047 0.14285714285714285 0.09523809523809523 0.0 0.0 0.0 0.0 0.06666666666666667 0.0 0.4 0.26666666666666666 0.13333333333333333 0.13333333333333333 0.0 0.0 0.0 0.0 0.0 0.0 0.0625 0.1875 0.4375 0.3125 0.0 0.0 0.0 0.0 0.0 0.0 0.06666666666666667 0.2 0.26666666666666666 0.4 0.06666666666666667 0.0 0.0 0.0 0.0 0.0 0.0 0.0 0.30434782608695654 0.4782608695652174 0.21739130434782608 0.0 0.0 0.0 0.0 0.0 0.0 0.0 0.037037037037037035 0.5555555555555556 0.4074074074074074 0.0 0.0 0.0 0.0 0.0 0.0 0.0 0.0 0.5714285714285714 0.42857142857142855 0.0 0.0 0.0 0.0 0.0 0.0 0.0 0.0 0.0625 0.9375 0.0 0.0 0.0 0.0 0.0 0.0 0.0 0.0 0.0 1.0 </TABLE>
    </DEFINITION>
    <DEFINITION>
      <FOR>E</FOR>
      <GIVEN>C</GIVEN>
      <GIVEN>D</GIVEN>
      <TABLE>1.0 0.0 0.0 0.0 0.0 0.0 0.0 0.0 0.0 0.0 0.8571428571428571 0.14285714285714285 0.0 0.0 0.0 0.0 0.0 0.0 0.0 0.0 0.15384615384615385 0.8461538461538461 0.0 0.0 0.0 0.0 0.0 0.0 0.0 0.0 0.058823529411764705 0.5882352941176471 0.29411764705882354 0.058823529411764705 0.0 0.0 0.0 0.0 0.0 0.0 0.0 0.05 0.65 0.3 0.0 0.0 0.0 0.0 0.0 0.0 0.0 0.0 0.23809523809523808 0.5714285714285714 0.19047619047619047 0.0 0.0 0.0 0.0 0.0 0.0 0.0 0.0 0.25 0.6 0.15 0.0 0.0 0.0 0.0 0.0 0.0 0.0 0.0 0.05 0.55 0.4 0.0 0.0 0.0 0.0 0.0 0.0 0.0 0.0 0.0625 0.375 0.5625 0.0 0.0 0.0 0.0 0.0 0.0 0.0 0.0 0.045454545454545456 0.045454545454545456 0.45454545454545453 0.45454545454545453 1.0 0.0 0.0 0.0 0.0 0.0 0.0 0.0 0.0 0.0 0.6190476190476191 0.38095238095238093 0.0 0.0 0.0 0.0 0.0 0.0 0.0 0.0 0.0 0.8333333333333334 0.16666666666666666 0.0 0.0 0.0 0.0 0.0 0.0 0.0 0.0 0.058823529411764705 0.8235294117647058 0.11764705882352941 0.0 0.0 0.0 0.0 0.0 0.0 0.0 0.0 0.2 0.75 0.05 0.0 0.0 0.0 0.0 0.0 0.0 0.0 0.0 0.06666666666666667 0.8 0.13333333333333333 0.0 0.0 0.0 0.0 0.0 0.0 0.0 0.0 0.19047619047619047 0.7142857142857143 0.09523809523809523 0.0 0.0 0.0 0.0 0.0 0.0 0.0 0.0 0.2222222222222222 0.5925925925925926 0.18518518518518517 0.0 0.0 0.0 0.0 0.0 0.0 0.0 0.0 0.0 0.8 0.2 0.0 0.0 0.0 0.0 0.0 0.0 0.0 0.0 0.0 0.55 0.45 1.0 0.0 0.0 0.0 0.0 0.0 0.0 0.0 0.0 0.0 0.16 0.84 0.0 0.0 0.0 0.0 0.0 0.0 0.0 0.0 0.0 0.55 0.45 0.0 0.0 0.0 0.0 0.0 0.0 0.0 0.0 0.0 0.3684210526315789 0.5789473684210527 0.05263157894736842 0.0 0.0 0.0 0.0 0.0 0.0 0.0 0.0625 0.4375 0.5 0.0 0.0 0.0 0.0 0.0 0.0 0.0 0.0 0.058823529411764705 0.7058823529411765 0.23529411764705882 0.0 0.0 0.0 0.0 0.0 0.0 0.0 0.0 0.1875 0.4375 0.375 0.0 0.0 0.0 0.0 0.0 0.0 0.0 0.0 0.037037037037037035 0.5555555555555556 0.4074074074074074 0.0 0.0 0.0 0.0 0.0 0.0 0.0 0.0 0.0 0.36 0.64 0.0 0.0 0.0 0.0 0.0 0.0 0.0 0.0 0.0 0.3333333333333333 0.6666666666666666 1.0 0.0 0.0 0.0 0.0 0.0 0.0 0.0 0.0 0.0 0.21052631578947367 0.7894736842105263 0.0 0.0 0.0 0.0 0.0 0.0 0.0 0.0 0.0 0.2962962962962963 0.7037037037037037 0.0 0.0 0.0 0.0 0.0 0.0 0.0 0.0 0.0 0.47619047619047616 0.47619047619047616 0.047619047619047616 0.0 0.0 0.0 0.0 0.0 0.0 0.0 0.0 0.4 0.6 0.0 0.0 0.0 0.0 0.0 0.0 0.0 0.0 0.0 0.47619047619047616 0.5238095238095238 0.0 0.0 0.0 0.0 0.0 0.0 0.0 0.0 0.0 0.5384615384615384 0.46153846153846156 0.0 0.0 0.0 0.0 0.0 0.0 0.0 0.0 0.0 0.5625 0.4375 0.0 0.0 0.0 0.0 0.0 0.0 0.0 0.0 0.0 0.3333333333333333 0.6666666666666666 0.0 0.0 0.0 0.0 0.0 0.0 0.0 0.0 0.0 0.29411764705882354 0.7058823529411765 0.9333333333333333 0.06666666666666667 0.0 0.0 0.0 0.0 0.0 0.0 0.0 0.0 0.1 0.8 0.1 0.0 0.0 0.0 0.0 0.0 0.0 0.0 0.0 0.21052631578947367 0.7368421052631579 0.05263157894736842 0.0 0.0 0.0 0.0 0.0 0.0 0.0 0.0 0.13043478260869565 0.8260869565217391 0.043478260869565216 0.0 0.0 0.0 0.0 0.0 0.0 0.0 0.0 0.3076923076923077 0.5769230769230769 0.11538461538461539 0.0 0.0 0.0 0.0 0.0 0.0 0.0 0.0 0.25 0.75 0.0 0.0 0.0 0.0 0.0 0.0 0.0 0.0 0.0 0.3333333333333333 0.6111111111111112 0.05555555555555555 0.0 0.0 0.0 0.0 0.0 0.0 0.0 0.0 0.05555555555555555 0.8888888888888888 0.05555555555555555 0.0 0.0 0.0 0.0 0.0 0.0 0.0 0.0 0.2222222222222222 0.7222222222222222 0.05555555555555555 0.0 0.0 0.0 0.0 0.0 0.0 0.0 0.0 0.16129032258064516 0.8387096774193549 0.8 0.2 0.0 0.0 0.0 0.0 0.0 0.0 0.0 0.0 0.0 0.9 0.1 0.0 0.0 0.0 0.0 0.0 0.0 0.0 0.0 0.16666666666666666 0.75 0.08333333333333333 0.0 0.0 0.0 0.0 0.0 0.0 0.0 0.0 0.04 0.8 0.16 0.0 0.0 0.0 0.0 0.0 0.0 0.0 0.0 0.1 0.8 0.1 0.0 0.0 0.0 0.0 0.0 0.0 0.0 0.0 0.19047619047619047 0.6190476190476191 0.19047619047619047 0.0 0.0 0.0 0.0 0.0 0.0 0.0 0.0 0.1 0.75 0.15 0.0 0.0 0.0 0.0 0.0 0.0 0.0 0.0 0.08695652173913043 0.7391304347826086 0.17391304347826086 0.0 0.0 0.0 0.0 0.0 0.0 0.0 0.0 0.0 0.9166666666666666 0.08333333333333333 0.0 0.0 0.0 0.0 0.0 0.0 0.0 0.0 0.1 0.9 0.6521739130434783 0.34782608695652173 0.0 0.0 0.0 0.0 0.0 0.0 0.0 0.0 0.0 0.6 0.4 0.0 0.0 0.0 0.0 0.0 0.0 0.0 0.0 0.0 0.5 0.5 0.0 0.0 0.0 0.0 0.0 0.0 0.0 0.0 0.0 0.3125 0.6875 0.0 0.0 0.0 0.0 0.0 0.0 0.0 0.0 0.04 0.48 0.48 0.0 0.0 0.0 0.0 0.0 0.0 0.0 0.0 0.14285714285714285 0.42857142857142855 0.42857142857142855 0.0 0.0 0.0 0.0 0.0 0.0 0.0 0.0 0.0 0.5 0.45 0.05 0.0 0.0 0.0 0.0 0.0 0.0 0.0 0.0 0.8125 0.1875 0.0 0.0 0.0 0.0 0.0 0.0 0.0 0.0 0.06666666666666667 0.8666666666666667 0.06666666666666667 0.0 0.0 0.0 0.0 0.0 0.0 0.0 0.0 0.047619047619047616 0.9523809523809523 0.6875 0.3125 0.0 0.0 0.0 0.0 0.0 0.0 0.0 0.0 0.0 0.375 0.5625 0.0625 0.0 0.0 0.0 0.0 0.0 0.0 0.0 0.0 0.5454545454545454 0.45454545454545453 0.0 0.0 0.0 0.0 0.0 0.0 0.0 0.0 0.0 0.5882352941176471 0.4117647058823529 0.0 0.0 0.0 0.0 0.0 0.0 0.0 0.0 0.0 0.3125 0.6875 0.0 0.0 0.0 0.0 0.0 0.0 0.0 0.0 0.0 0.2857142857142857 0.6785714285714286 0.03571428571428571 0.0 0.0 0.0 0.0 0.0 0.0 0.0 0.038461538461538464 0.4230769230769231 0.5384615384615384 0.0 0.0 0.0 0.0 0.0 0.0 0.0 0.0 0.0 0.6111111111111112 0.3888888888888889 0.0 0.0 0.0 0.0 0.0 0.0 0.0 0.0 0.0 0.5555555555555556 0.4444444444444444 0.0 0.0 0.0 0.0 0.0 0.0 0.0 0.0 0.0 1.0 0.5 0.5 0.0 0.0 0.0 0.0 0.0 0.0 0.0 0.0 0.0 0.08695652173913043 0.8695652173913043 0.043478260869565216 0.0 0.0 0.0 0.0 0.0 0.0 0.0 0.0 0.15 0.55 0.3 0.0 0.0 0.0 0.0 0.0 0.0 0.0 0.0 0.09090909090909091 0.6818181818181818 0.22727272727272727 0.0 0.0 0.0 0.0 0.0 0.0 0.0 0.0 0.0625 0.8125 0.125 0.0 0.0 0.0 0.0 0.0 0.0 0.0 0.0 0.2 0.7 0.1 0.0 0.0 0.0 0.0 0.0 0.0 0.0 0.0 0.26666666666666666 0.7333333333333333 0.0 0.0 0.0 0.0 0.0 0.0 0.0 0.0 0.0 0.1875 0.8125 0.0 0.0 0.0 0.0 0.0 0.0 0.0 0.0 0.0 0.5217391304347826 0.4782608695652174 0.0 0.0 0.0 0.0 0.0 0.0 0.0 0.0 0.0 1.0 0.125 0.5625 0.3125 0.0 0.0 0.0 0.0 0.0 0.0 0.0 0.0 0.0 0.5 0.45 0.05 0.0 0.0 0.0 0.0 0.0 0.0 0.0 0.0 0.38095238095238093 0.6190476190476191 0.0 0.0 0.0 0.0 0.0 0.0 0.0 0.0 0.0 0.21739130434782608 0.6086956521739131 0.17391304347826086 0.0 0.0 0.0 0.0 0.0 0.0 0.0 0.0 0.5 0.4230769230769231 0.07692307692307693 0.0 0.0 0.0 0.0 0.0 0.0 0.0 0.0 0.3333333333333333 0.5833333333333334 0.08333333333333333 0.0 0.0 0.0 0.0 0.0 0.0 0.0 0.0 0.5 0.5 0.0 0.0 0.0 0.0 0.0 0.0 0.0 0.0 0.05263157894736842 0.7894736842105263 0.15789473684210525 0.0 0.0 0.0 0.0 0.0 0.0 0.0 0.0 0.2222222222222222 0.7777777777777778 0.0 0.0 0.0 0.0 0.0 0.0 0.0 0.0 0.0 1.0 </TABLE>
    </DEFINITION>
  </NETWORK>
</BIF>
