<?xml version='1.0' encoding='utf-8'?>
<BIF VERSION="0.3">
  <NETWORK>
    <NAME>UNTITLED</NAME>
    <VARIABLE TYPE="nature">
      <NAME>A</NAME>
      <OUTCOME>_13_537_16_35_</OUTCOME>
      <OUTCOME>_16_35_19_149_</OUTCOME>
      <OUTCOME>_19_149_21_947_</OUTCOME>
      <OUTCOME>_21_947_24_746_</OUTCOME>
      <OUTCOME>_24_746_27_545_</OUTCOME>
      <PROPERTY />
    </VARIABLE>
    <VARIABLE TYPE="nature">
      <NAME>B</NAME>
      <OUTCOME>_13_137_15_968_</OUTCOME>
      <OUTCOME>_15_968_18_785_</OUTCOME>
      <OUTCOME>_18_785_21_602_</OUTCOME>
      <OUTCOME>_21_602_24_418_</OUTCOME>
      <OUTCOME>_24_418_27_235_</OUTCOME>
      <PROPERTY />
    </VARIABLE>
    <VARIABLE TYPE="nature">
      <NAME>C</NAME>
      <OUTCOME>_8_149_10_916_</OUTCOME>
      <OUTCOME>_10_916_13_669_</OUTCOME>
      <OUTCOME>_13_669_16_423_</OUTCOME>
      <OUTCOME>_16_423_19_176_</OUTCOME>
      <OUTCOME>_19_176_21_929_</OUTCOME>
      <PROPERTY />
    </VARIABLE>
    <VARIABLE TYPE="nature">
      <NAME>D</NAME>
      <OUTCOME>_76_422_86_673_</OUTCOME>
      <OUTCOME>_86_673_96_872_</OUTCOME>
      <OUTCOME>_96_872_107_072_</OUTCOME>
      <OUTCOME>_107_072_117_272_</OUTCOME>
      <OUTCOME>_117_272_127_472_</OUTCOME>
      <PROPERTY />
    </VARIABLE>
    <VARIABLE TYPE="nature">
      <NAME>E</NAME>
      <OUTCOME>_272_551_302_822_</OUTCOME>
      <OUTCOME>_302_822_332_942_</OUTCOME>
      <OUTCOME>_332_942_363_063_</OUTCOME>
      <OUTCOME>_363_063_393_183_</OUTCOME>
      <OUTCOME>_393_183_423_304_</OUTCOME>
      <PROPERTY />
    </VARIABLE>
    <DEFINITION>
      <FOR>A</FOR>
      <TABLE>0.0338 0.29679999999999995 0.5017999999999999 0.15839999999999999 0.009199999999999998 </TABLE>
    </DEFINITION>
    <DEFINITION>
      <FOR>B</FOR>
      <TABLE>0.021800000000000003 0.24900000000000005 0.524 0.19220000000000004 0.013000000000000003 </TABLE>
    </DEFINITION>
    <DEFINITION>
      <FOR>C</FOR>
      <TABLE>0.0214 0.235 0.507 0.219 0.0176 </TABLE>
    </DEFINITION>
    <DEFINITION>
      <FOR>D</FOR>
      <GIVEN>A</GIVEN>
      <GIVEN>B</GIVEN>
      <TABLE>0.2 0.2 0.2 0.2 0.2 0.6976744186046512 0.3023255813953489 0.0 0.0 0.0 0.07608695652173914 0.8804347826086957 0.043478260869565216 0.0 0.0 0.0 0.14705882352941177 0.8529411764705882 0.0 0.0 0.2 0.2 0.2 0.2 0.2 0.9259259259259259 0.07407407407407407 0.0 0.0 0.0 0.20916905444126074 0.7822349570200574 0.008595988538681949 0.0 0.0 0.0 0.5145018915510718 0.48549810844892816 0.0 0.0 0.0 0.010273972602739727 0.8116438356164384 0.17808219178082194 0.0 0.0 0.0 0.17391304347826086 0.7391304347826088 0.08695652173913043 0.5245901639344263 0.47540983606557374 0.0 0.0 0.0 0.015822784810126583 0.7721518987341772 0.21202531645569622 0.0 0.0 0.0 0.0941086457536343 0.8423871461361899 0.06350420811017599 0.0 0.0 0.0 0.3402061855670103 0.6556701030927835 0.004123711340206186 0.0 0.0 0.0 0.7083333333333333 0.2916666666666667 0.05 0.8999999999999999 0.05 0.0 0.0 0.0 0.2315270935960591 0.7684729064039408 0.0 0.0 0.0 0.0024570024570024574 0.6633906633906633 0.33415233415233414 0.0 0.0 0.0 0.020689655172413793 0.8482758620689654 0.1310344827586207 0.0 0.0 0.0 0.058823529411764705 0.9411764705882353 0.0 0.0 1.0 0.0 0.0 0.0 0.0 0.8333333333333334 0.16666666666666666 0.0 0.0 0.0 0.09523809523809525 0.8571428571428572 0.04761904761904762 0.0 0.0 0.0 0.19999999999999998 0.7999999999999999 0.0 0.0 0.0 0.0 1.0 </TABLE>
    </DEFINITION>
    <DEFINITION>
      <FOR>E</FOR>
      <GIVEN>C</GIVEN>
      <GIVEN>D</GIVEN>
      <TABLE>0.9999200063994882 1.9998400127989766e-05 1.9998400127989766e-05 1.9998400127989766e-05 1.9998400127989766e-05 0.19444286788065077 0.8055490240769818 2.7026807890746825e-06 2.7026807890746825e-06 2.7026807890746825e-06 1.7857047194390028e-06 0.4545430194935643 0.5454516233922773 1.7857047194390028e-06 1.7857047194390028e-06 7.692130181611195e-06 7.692130181611195e-06 0.4166570515039397 0.5833198721055155 7.692130181611195e-06 0.2 0.2 0.2 0.2 0.2 0.9999894737950124 2.63155124682898e-06 2.63155124682898e-06 2.63155124682898e-06 2.63155124682898e-06 0.06925203930153168 0.9224371634964019 0.008310244716183801 2.762429413022424e-07 2.762429413022424e-07 1.7123281807095273e-07 0.1509433445334889 0.8456257824432958 0.003430530557579293 1.7123281807095273e-07 5.464471916166257e-07 5.464471916166257e-07 0.23626334894677076 0.7637350117116544 5.464471916166257e-07 7.692130181611195e-06 7.692130181611195e-06 7.692130181611195e-06 0.4166570515039397 0.5833198721055155 0.7499976804195451 0.249999226806515 1.030924646624804e-06 1.030924646624804e-06 1.030924646624804e-06 0.005277043464355979 0.8522425194934907 0.14248017353761144 1.317522709480182e-07 1.317522709480182e-07 7.974480386845234e-08 0.009577013636172952 0.9042297041486628 0.08619312272555656 7.974480386845234e-08 2.4937643422621736e-07 2.4937643422621736e-07 0.014999992518706972 0.9499995261847749 0.0349999825436496 3.4482283002993063e-06 3.4482283002993063e-06 3.4482283002993063e-06 3.4482283002993063e-06 0.9999862070867989 0.35134857754679166 0.6486435277786924 2.6315581719091687e-06 2.6315581719091687e-06 2.6315581719091687e-06 3.267970652316355e-07 0.51475359370027 0.48524542590853464 3.267970652316355e-07 3.267970652316355e-07 1.7123278875027977e-07 1.7123278875027977e-07 0.7032586438827957 0.29674084241883814 1.7123278875027977e-07 6.289296309503819e-07 6.289296309503819e-07 6.289296309503819e-07 0.8670869715817828 0.13291114162932438 7.692071013199593e-06 7.692071013199593e-06 7.692071013199593e-06 7.692071013199593e-06 0.9999692317159471 0.4999700017998921 0.4999700017998921 1.9998800071995685e-05 1.9998800071995685e-05 1.9998800071995685e-05 3.1249707033996554e-06 0.32257762099609344 0.6774130040917962 3.1249707033996554e-06 3.1249707033996554e-06 2.702680789074683e-06 2.702680789074683e-06 0.49999594597881636 0.49999594597881636 2.702680789074683e-06 5.555462964506147e-06 5.555462964506147e-06 5.555462964506147e-06 0.7058705884313693 0.2941127451797372 0.2 0.2 0.2 0.2 0.2 </TABLE>
    </DEFINITION>
  </NETWORK>
</BIF>
