net {
}
node A{
    states = ("_13_537_16_35_"  "_16_35_19_149_"  "_19_149_21_947_"  "_21_947_24_746_"  "_24_746_27_545_");
    weight = None;
}
node B{
    states = ("_13_137_15_968_"  "_15_968_18_785_"  "_18_785_21_602_"  "_21_602_24_418_"  "_24_418_27_235_");
    weight = None;
}
node C{
    states = ("_8_149_10_916_"  "_10_916_13_669_"  "_13_669_16_423_"  "_16_423_19_176_"  "_19_176_21_929_");
    weight = None;
}
node D{
    states = ("_76_422_86_673_"  "_86_673_96_872_"  "_96_872_107_072_"  "_107_072_117_272_"  "_117_272_127_472_");
    weight = None;
}
node E{
    states = ("_272_551_302_822_"  "_302_822_332_942_"  "_332_942_363_063_"  "_363_063_393_183_"  "_393_183_423_304_");
    weight = None;
}
potential (A |){
 data = (0.0338 0.2968 0.5018 0.1584 0.0092);
}
potential (B |){
 data = (0.0218 0.249  0.524  0.1922 0.013 );
}
potential (C |){
 data = (0.0214 0.235  0.507  0.219  0.0176);
}
potential (D | A B){
 data = (((0.2        0.2        0.2        0.2        0.2       )
  (0.69767442 0.30232558 0.0         0.0         0.0        )
  (0.07608696 0.88043478 0.04347826 0.0         0.0        )
  (0.0         0.14705882 0.85294118 0.0         0.0        )
  (0.2        0.2        0.2        0.2        0.2       ))

 ((0.92592593 0.07407407 0.0         0.0         0.0        )
  (0.20916905 0.78223496 0.00859599 0.0         0.0        )
  (0.0         0.51450189 0.48549811 0.0         0.0        )
  (0.0         0.01027397 0.81164384 0.17808219 0.0        )
  (0.0         0.0         0.17391304 0.73913043 0.08695652))

 ((0.52459016 0.47540984 0.0         0.0         0.0        )
  (0.01582278 0.7721519  0.21202532 0.0         0.0        )
  (0.0         0.09410865 0.84238715 0.06350421 0.0        )
  (0.0         0.0         0.34020619 0.6556701  0.00412371)
  (0.0         0.0         0.0         0.70833333 0.29166667))

 ((0.05       0.9        0.05       0.0         0.0        )
  (0.0         0.23152709 0.76847291 0.0         0.0        )
  (0.0         0.002457   0.66339066 0.33415233 0.0        )
  (0.0         0.0         0.02068966 0.84827586 0.13103448)
  (0.0         0.0         0.0         0.05882353 0.94117647))

 ((0.0         0.0         1.0         0.0         0.0        )
  (0.0         0.0         0.83333333 0.16666667 0.0        )
  (0.0         0.0         0.0952381  0.85714286 0.04761905)
  (0.0         0.0         0.0         0.2        0.8       )
  (0.0         0.0         0.0         0.0         1.0        )));
}
potential (E | C D){
 data = (((9.99920006e-01 1.99984001e-05 1.99984001e-05 1.99984001e-05 1.99984001e-05)
  (1.94442868e-01 8.05549024e-01 2.70268079e-06 2.70268079e-06 2.70268079e-06)
  (1.78570472e-06 4.54543019e-01 5.45451623e-01 1.78570472e-06 1.78570472e-06)
  (7.69213018e-06 7.69213018e-06 4.16657052e-01 5.83319872e-01 7.69213018e-06)
  (2.00000000e-01 2.00000000e-01 2.00000000e-01 2.00000000e-01 2.00000000e-01))

 ((9.99989474e-01 2.63155125e-06 2.63155125e-06 2.63155125e-06 2.63155125e-06)
  (6.92520393e-02 9.22437163e-01 8.31024472e-03 2.76242941e-07 2.76242941e-07)
  (1.71232818e-07 1.50943345e-01 8.45625782e-01 3.43053056e-03 1.71232818e-07)
  (5.46447192e-07 5.46447192e-07 2.36263349e-01 7.63735012e-01 5.46447192e-07)
  (7.69213018e-06 7.69213018e-06 7.69213018e-06 4.16657052e-01 5.83319872e-01))

 ((7.49997680e-01 2.49999227e-01 1.03092465e-06 1.03092465e-06 1.03092465e-06)
  (5.27704346e-03 8.52242519e-01 1.42480174e-01 1.31752271e-07 1.31752271e-07)
  (7.97448039e-08 9.57701364e-03 9.04229704e-01 8.61931227e-02 7.97448039e-08)
  (2.49376434e-07 2.49376434e-07 1.49999925e-02 9.49999526e-01 3.49999825e-02)
  (3.44822830e-06 3.44822830e-06 3.44822830e-06 3.44822830e-06 9.99986207e-01))

 ((3.51348578e-01 6.48643528e-01 2.63155817e-06 2.63155817e-06 2.63155817e-06)
  (3.26797065e-07 5.14753594e-01 4.85245426e-01 3.26797065e-07 3.26797065e-07)
  (1.71232789e-07 1.71232789e-07 7.03258644e-01 2.96740842e-01 1.71232789e-07)
  (6.28929631e-07 6.28929631e-07 6.28929631e-07 8.67086972e-01 1.32911142e-01)
  (7.69207101e-06 7.69207101e-06 7.69207101e-06 7.69207101e-06 9.99969232e-01))

 ((4.99970002e-01 4.99970002e-01 1.99988001e-05 1.99988001e-05 1.99988001e-05)
  (3.12497070e-06 3.22577621e-01 6.77413004e-01 3.12497070e-06 3.12497070e-06)
  (2.70268079e-06 2.70268079e-06 4.99995946e-01 4.99995946e-01 2.70268079e-06)
  (5.55546296e-06 5.55546296e-06 5.55546296e-06 7.05870588e-01 2.94112745e-01)
  (2.00000000e-01 2.00000000e-01 2.00000000e-01 2.00000000e-01 2.00000000e-01)));
}
