<?xml version='1.0' encoding='utf-8'?>
<BIF VERSION="0.3">
  <NETWORK>
    <NAME>UNTITLED</NAME>
    <VARIABLE TYPE="nature">
      <NAME>A</NAME>
      <OUTCOME>_13_55_16_896_</OUTCOME>
      <OUTCOME>_16_896_17_647_</OUTCOME>
      <OUTCOME>_17_647_18_151_</OUTCOME>
      <OUTCOME>_18_151_18_591_</OUTCOME>
      <OUTCOME>_18_591_18_951_</OUTCOME>
      <OUTCOME>_18_951_19_27_</OUTCOME>
      <OUTCOME>_19_27_19_576_</OUTCOME>
      <OUTCOME>_19_576_19_865_</OUTCOME>
      <OUTCOME>_19_865_20_156_</OUTCOME>
      <OUTCOME>_20_156_20_444_</OUTCOME>
      <OUTCOME>_20_444_20_756_</OUTCOME>
      <OUTCOME>_20_756_21_107_</OUTCOME>
      <OUTCOME>_21_107_21_482_</OUTCOME>
      <OUTCOME>_21_482_21_879_</OUTCOME>
      <OUTCOME>_21_879_22_384_</OUTCOME>
      <OUTCOME>_22_384_23_129_</OUTCOME>
      <OUTCOME>_23_129_27_545_</OUTCOME>
      <PROPERTY />
    </VARIABLE>
    <VARIABLE TYPE="nature">
      <NAME>B</NAME>
      <OUTCOME>_13_15_16_846_</OUTCOME>
      <OUTCOME>_16_846_17_616_</OUTCOME>
      <OUTCOME>_17_616_18_143_</OUTCOME>
      <OUTCOME>_18_143_18_571_</OUTCOME>
      <OUTCOME>_18_571_18_915_</OUTCOME>
      <OUTCOME>_18_915_19_211_</OUTCOME>
      <OUTCOME>_19_211_19_522_</OUTCOME>
      <OUTCOME>_19_522_19_786_</OUTCOME>
      <OUTCOME>_19_786_20_08_</OUTCOME>
      <OUTCOME>_20_08_20_403_</OUTCOME>
      <OUTCOME>_20_403_20_707_</OUTCOME>
      <OUTCOME>_20_707_21_029_</OUTCOME>
      <OUTCOME>_21_029_21_388_</OUTCOME>
      <OUTCOME>_21_388_21_813_</OUTCOME>
      <OUTCOME>_21_813_22_345_</OUTCOME>
      <OUTCOME>_22_345_23_162_</OUTCOME>
      <OUTCOME>_23_162_27_235_</OUTCOME>
      <PROPERTY />
    </VARIABLE>
    <VARIABLE TYPE="nature">
      <NAME>C</NAME>
      <OUTCOME>_8_162_11_875_</OUTCOME>
      <OUTCOME>_11_875_12_636_</OUTCOME>
      <OUTCOME>_12_636_13_099_</OUTCOME>
      <OUTCOME>_13_099_13_513_</OUTCOME>
      <OUTCOME>_13_513_13_928_</OUTCOME>
      <OUTCOME>_13_928_14_265_</OUTCOME>
      <OUTCOME>_14_265_14_585_</OUTCOME>
      <OUTCOME>_14_585_14_898_</OUTCOME>
      <OUTCOME>_14_898_15_197_</OUTCOME>
      <OUTCOME>_15_197_15_494_</OUTCOME>
      <OUTCOME>_15_494_15_791_</OUTCOME>
      <OUTCOME>_15_791_16_111_</OUTCOME>
      <OUTCOME>_16_111_16_435_</OUTCOME>
      <OUTCOME>_16_435_16_838_</OUTCOME>
      <OUTCOME>_16_838_17_372_</OUTCOME>
      <OUTCOME>_17_372_18_138_</OUTCOME>
      <OUTCOME>_18_138_21_929_</OUTCOME>
      <PROPERTY />
    </VARIABLE>
    <VARIABLE TYPE="nature">
      <NAME>D</NAME>
      <OUTCOME>_76_472_88_454_</OUTCOME>
      <OUTCOME>_88_454_90_966_</OUTCOME>
      <OUTCOME>_90_966_92_968_</OUTCOME>
      <OUTCOME>_92_968_94_658_</OUTCOME>
      <OUTCOME>_94_658_95_902_</OUTCOME>
      <OUTCOME>_95_902_97_265_</OUTCOME>
      <OUTCOME>_97_265_98_393_</OUTCOME>
      <OUTCOME>_98_393_99_462_</OUTCOME>
      <OUTCOME>_99_462_100_658_</OUTCOME>
      <OUTCOME>_100_658_101_686_</OUTCOME>
      <OUTCOME>_101_686_102_76_</OUTCOME>
      <OUTCOME>_102_76_103_977_</OUTCOME>
      <OUTCOME>_103_977_105_078_</OUTCOME>
      <OUTCOME>_105_078_106_645_</OUTCOME>
      <OUTCOME>_106_645_108_698_</OUTCOME>
      <OUTCOME>_108_698_111_412_</OUTCOME>
      <OUTCOME>_111_412_127_472_</OUTCOME>
      <PROPERTY />
    </VARIABLE>
    <VARIABLE TYPE="nature">
      <NAME>E</NAME>
      <OUTCOME>_272_70000000000005_308_538_</OUTCOME>
      <OUTCOME>_308_538_317_157_</OUTCOME>
      <OUTCOME>_317_157_322_972_</OUTCOME>
      <OUTCOME>_322_972_327_823_</OUTCOME>
      <OUTCOME>_327_823_332_355_</OUTCOME>
      <OUTCOME>_332_355_336_467_</OUTCOME>
      <OUTCOME>_336_467_340_145_</OUTCOME>
      <OUTCOME>_340_145_343_614_</OUTCOME>
      <OUTCOME>_343_614_346_94_</OUTCOME>
      <OUTCOME>_346_94_350_151_</OUTCOME>
      <OUTCOME>_350_151_353_706_</OUTCOME>
      <OUTCOME>_353_706_357_413_</OUTCOME>
      <OUTCOME>_357_413_361_505_</OUTCOME>
      <OUTCOME>_361_505_366_105_</OUTCOME>
      <OUTCOME>_366_105_372_156_</OUTCOME>
      <OUTCOME>_372_156_380_767_</OUTCOME>
      <OUTCOME>_380_767_423_304_</OUTCOME>
      <PROPERTY />
    </VARIABLE>
    <DEFINITION>
      <FOR>A</FOR>
      <TABLE>0.059 0.05879999999999999 0.05879999999999999 0.05879999999999999 0.05879999999999999 0.05879999999999999 0.05879999999999999 0.05879999999999999 0.05879999999999999 0.05879999999999999 0.05879999999999999 0.05879999999999999 0.05879999999999999 0.05879999999999999 0.05879999999999999 0.05879999999999999 0.059 </TABLE>
    </DEFINITION>
    <DEFINITION>
      <FOR>B</FOR>
      <TABLE>0.059 0.05879999999999999 0.05879999999999999 0.05879999999999999 0.05879999999999999 0.05879999999999999 0.05879999999999999 0.05879999999999999 0.05879999999999999 0.05879999999999999 0.05879999999999999 0.05879999999999999 0.05879999999999999 0.05879999999999999 0.05879999999999999 0.05879999999999999 0.059 </TABLE>
    </DEFINITION>
    <DEFINITION>
      <FOR>C</FOR>
      <TABLE>0.059 0.05879999999999999 0.05879999999999999 0.05879999999999999 0.05879999999999999 0.05879999999999999 0.05879999999999999 0.05879999999999999 0.05879999999999999 0.05879999999999999 0.05879999999999999 0.05879999999999999 0.05879999999999999 0.05879999999999999 0.05879999999999999 0.05879999999999999 0.059 </TABLE>
    </DEFINITION>
    <DEFINITION>
      <FOR>D</FOR>
      <GIVEN>A</GIVEN>
      <GIVEN>B</GIVEN>
      <TABLE>1.0 0.0 0.0 0.0 0.0 0.0 0.0 0.0 0.0 0.0 0.0 0.0 0.0 0.0 0.0 0.0 0.0 1.0 0.0 0.0 0.0 0.0 0.0 0.0 0.0 0.0 0.0 0.0 0.0 0.0 0.0 0.0 0.0 0.0 0.7058823529411764 0.23529411764705882 0.058823529411764705 0.0 0.0 0.0 0.0 0.0 0.0 0.0 0.0 0.0 0.0 0.0 0.0 0.0 0.0 0.6470588235294117 0.3529411764705882 0.0 0.0 0.0 0.0 0.0 0.0 0.0 0.0 0.0 0.0 0.0 0.0 0.0 0.0 0.0 0.411764705882353 0.5294117647058824 0.058823529411764705 0.0 0.0 0.0 0.0 0.0 0.0 0.0 0.0 0.0 0.0 0.0 0.0 0.0 0.0 0.2777777777777778 0.5555555555555556 0.11111111111111112 0.05555555555555556 0.0 0.0 0.0 0.0 0.0 0.0 0.0 0.0 0.0 0.0 0.0 0.0 0.0 0.3333333333333333 0.4761904761904762 0.14285714285714285 0.04761904761904762 0.0 0.0 0.0 0.0 0.0 0.0 0.0 0.0 0.0 0.0 0.0 0.0 0.0 0.16666666666666666 0.5555555555555556 0.05555555555555556 0.22222222222222224 0.0 0.0 0.0 0.0 0.0 0.0 0.0 0.0 0.0 0.0 0.0 0.0 0.0 0.05263157894736841 0.4210526315789473 0.31578947368421045 0.10526315789473682 0.05263157894736841 0.05263157894736841 0.0 0.0 0.0 0.0 0.0 0.0 0.0 0.0 0.0 0.0 0.0 0.27272727272727276 0.09090909090909091 0.27272727272727276 0.18181818181818182 0.18181818181818182 0.0 0.0 0.0 0.0 0.0 0.0 0.0 0.0 0.0 0.0 0.0 0.0 0.0 0.05000000000000001 0.25000000000000006 0.4000000000000001 0.15000000000000002 0.15000000000000002 0.0 0.0 0.0 0.0 0.0 0.0 0.0 0.0 0.0 0.0 0.0 0.0 0.11764705882352941 0.11764705882352941 0.3529411764705882 0.1764705882352941 0.1764705882352941 0.058823529411764705 0.0 0.0 0.0 0.0 0.0 0.0 0.0 0.0 0.0 0.0 0.0 0.0 0.07142857142857144 0.21428571428571433 0.28571428571428575 0.14285714285714288 0.21428571428571433 0.07142857142857144 0.0 0.0 0.0 0.0 0.0 0.0 0.0 0.0 0.0 0.0 0.0 0.0 0.11111111111111109 0.11111111111111109 0.22222222222222218 0.27777777777777773 0.16666666666666663 0.055555555555555546 0.0 0.055555555555555546 0.0 0.0 0.0 0.0 0.0 0.0 0.0 0.0 0.0 0.05 0.05 0.25 0.2 0.1 0.15 0.15 0.0 0.0 0.05 0.0 0.0 0.0 0.0 0.0 0.0 0.0 0.0 0.0 0.23076923076923078 0.15384615384615383 0.23076923076923078 0.07692307692307691 0.07692307692307691 0.07692307692307691 0.07692307692307691 0.0 0.07692307692307691 0.0 0.0 0.0 0.0 0.0 0.0 0.0 0.058823529411764705 0.0 0.058823529411764705 0.11764705882352941 0.0 0.0 0.23529411764705882 0.11764705882352941 0.1764705882352941 0.11764705882352941 0.058823529411764705 0.0 0.058823529411764705 1.0 0.0 0.0 0.0 0.0 0.0 0.0 0.0 0.0 0.0 0.0 0.0 0.0 0.0 0.0 0.0 0.0 1.0 0.0 0.0 0.0 0.0 0.0 0.0 0.0 0.0 0.0 0.0 0.0 0.0 0.0 0.0 0.0 0.0 0.4444444444444445 0.5 0.05555555555555556 0.0 0.0 0.0 0.0 0.0 0.0 0.0 0.0 0.0 0.0 0.0 0.0 0.0 0.0 0.5384615384615384 0.38461538461538464 0.07692307692307691 0.0 0.0 0.0 0.0 0.0 0.0 0.0 0.0 0.0 0.0 0.0 0.0 0.0 0.0 0.0 0.3333333333333333 0.4666666666666667 0.2 0.0 0.0 0.0 0.0 0.0 0.0 0.0 0.0 0.0 0.0 0.0 0.0 0.0 0.0 0.43478260869565216 0.43478260869565216 0.043478260869565216 0.08695652173913043 0.0 0.0 0.0 0.0 0.0 0.0 0.0 0.0 0.0 0.0 0.0 0.0 0.04761904761904762 0.2857142857142857 0.380952380952381 0.1904761904761905 0.04761904761904762 0.04761904761904762 0.0 0.0 0.0 0.0 0.0 0.0 0.0 0.0 0.0 0.0 0.0 0.05263157894736842 0.15789473684210525 0.26315789473684215 0.15789473684210525 0.15789473684210525 0.10526315789473684 0.10526315789473684 0.0 0.0 0.0 0.0 0.0 0.0 0.0 0.0 0.0 0.0 0.0 0.05263157894736842 0.15789473684210525 0.3157894736842105 0.21052631578947367 0.10526315789473684 0.10526315789473684 0.05263157894736842 0.0 0.0 0.0 0.0 0.0 0.0 0.0 0.0 0.0 0.0 0.0 0.125 0.1875 0.5 0.1875 0.0 0.0 0.0 0.0 0.0 0.0 0.0 0.0 0.0 0.0 0.0 0.0 0.0 0.1 0.1 0.3 0.4 0.1 0.0 0.0 0.0 0.0 0.0 0.0 0.0 0.0 0.0 0.0 0.0 0.0 0.0 0.043478260869565216 0.2608695652173913 0.2608695652173913 0.13043478260869565 0.13043478260869565 0.08695652173913043 0.043478260869565216 0.043478260869565216 0.0 0.0 0.0 0.0 0.0 0.0 0.0 0.0 0.0 0.07142857142857142 0.14285714285714285 0.14285714285714285 0.14285714285714285 0.3571428571428571 0.14285714285714285 0.0 0.0 0.0 0.0 0.0 0.0 0.0 0.0 0.0 0.0 0.0 0.0 0.0 0.08333333333333333 0.16666666666666666 0.3333333333333333 0.08333333333333333 0.25 0.0 0.08333333333333333 0.0 0.0 0.0 0.0 0.0 0.0 0.0 0.0 0.0 0.0 0.05263157894736842 0.05263157894736842 0.15789473684210525 0.21052631578947367 0.3684210526315789 0.0 0.10526315789473684 0.0 0.05263157894736842 0.0 0.0 0.0 0.0 0.0 0.0 0.0 0.0 0.0 0.0 0.0 0.0 0.11111111111111109 0.11111111111111109 0.33333333333333326 0.22222222222222218 0.16666666666666663 0.055555555555555546 0.0 0.0 0.0 0.0 0.0 0.0 0.0 0.0 0.0 0.0 0.05555555555555556 0.0 0.05555555555555556 0.0 0.16666666666666666 0.3333333333333333 0.22222222222222224 0.05555555555555556 0.11111111111111112 0.9090909090909092 0.09090909090909091 0.0 0.0 0.0 0.0 0.0 0.0 0.0 0.0 0.0 0.0 0.0 0.0 0.0 0.0 0.0 0.611111111111111 0.3333333333333333 0.05555555555555556 0.0 0.0 0.0 0.0 0.0 0.0 0.0 0.0 0.0 0.0 0.0 0.0 0.0 0.0 0.15384615384615383 0.5384615384615384 0.23076923076923078 0.07692307692307691 0.0 0.0 0.0 0.0 0.0 0.0 0.0 0.0 0.0 0.0 0.0 0.0 0.0 0.07692307692307691 0.38461538461538464 0.30769230769230765 0.23076923076923078 0.0 0.0 0.0 0.0 0.0 0.0 0.0 0.0 0.0 0.0 0.0 0.0 0.0 0.04545454545454546 0.4090909090909091 0.22727272727272732 0.18181818181818185 0.13636363636363638 0.0 0.0 0.0 0.0 0.0 0.0 0.0 0.0 0.0 0.0 0.0 0.0 0.0625 0.125 0.5625 0.125 0.125 0.0 0.0 0.0 0.0 0.0 0.0 0.0 0.0 0.0 0.0 0.0 0.0 0.0 0.0 0.2857142857142857 0.2142857142857143 0.3571428571428571 0.14285714285714285 0.0 0.0 0.0 0.0 0.0 0.0 0.0 0.0 0.0 0.0 0.0 0.0 0.0 0.0909090909090909 0.5454545454545454 0.0909090909090909 0.1818181818181818 0.0909090909090909 0.0 0.0 0.0 0.0 0.0 0.0 0.0 0.0 0.0 0.0 0.0 0.0 0.058823529411764705 0.23529411764705882 0.411764705882353 0.23529411764705882 0.0 0.0 0.058823529411764705 0.0 0.0 0.0 0.0 0.0 0.0 0.0 0.0 0.0 0.0625 0.0625 0.0 0.1875 0.125 0.25 0.3125 0.0 0.0 0.0 0.0 0.0 0.0 0.0 0.0 0.0 0.0 0.0 0.049999999999999996 0.0 0.19999999999999998 0.3499999999999999 0.24999999999999994 0.0 0.09999999999999999 0.049999999999999996 0.0 0.0 0.0 0.0 0.0 0.0 0.0 0.0 0.0 0.0 0.0 0.058823529411764705 0.11764705882352941 0.3529411764705882 0.11764705882352941 0.29411764705882354 0.058823529411764705 0.0 0.0 0.0 0.0 0.0 0.0 0.0 0.0 0.0 0.0 0.0 0.049999999999999996 0.09999999999999999 0.19999999999999998 0.19999999999999998 0.29999999999999993 0.09999999999999999 0.0 0.049999999999999996 0.0 0.0 0.0 0.0 0.0 0.0 0.0 0.0 0.0 0.05555555555555556 0.0 0.16666666666666666 0.22222222222222224 0.05555555555555556 0.22222222222222224 0.16666666666666666 0.11111111111111112 0.0 0.0 0.0 0.0 0.0 0.0 0.0 0.0 0.0 0.0 0.0 0.0 0.0 0.11764705882352941 0.11764705882352941 0.47058823529411764 0.23529411764705882 0.0 0.058823529411764705 0.0 0.0 0.0 0.0 0.0 0.0 0.0 0.0 0.0 0.0 0.04761904761904762 0.09523809523809525 0.14285714285714285 0.09523809523809525 0.09523809523809525 0.1904761904761905 0.14285714285714285 0.14285714285714285 0.04761904761904762 0.0 0.0 0.0 0.0 0.0 0.0 0.0 0.0 0.0 0.0 0.0 0.05263157894736842 0.10526315789473684 0.10526315789473684 0.10526315789473684 0.3157894736842105 0.15789473684210525 0.15789473684210525 0.7727272727272727 0.2272727272727273 0.0 0.0 0.0 0.0 0.0 0.0 0.0 0.0 0.0 0.0 0.0 0.0 0.0 0.0 0.0 0.5263157894736843 0.10526315789473684 0.3684210526315789 0.0 0.0 0.0 0.0 0.0 0.0 0.0 0.0 0.0 0.0 0.0 0.0 0.0 0.0 0.25 0.3333333333333333 0.4166666666666667 0.0 0.0 0.0 0.0 0.0 0.0 0.0 0.0 0.0 0.0 0.0 0.0 0.0 0.0 0.0 0.42105263157894735 0.26315789473684215 0.3157894736842105 0.0 0.0 0.0 0.0 0.0 0.0 0.0 0.0 0.0 0.0 0.0 0.0 0.0 0.0 0.14285714285714288 0.42857142857142866 0.35714285714285715 0.0 0.07142857142857144 0.0 0.0 0.0 0.0 0.0 0.0 0.0 0.0 0.0 0.0 0.0 0.0 0.10526315789473684 0.26315789473684215 0.26315789473684215 0.26315789473684215 0.0 0.10526315789473684 0.0 0.0 0.0 0.0 0.0 0.0 0.0 0.0 0.0 0.0 0.0 0.0 0.11764705882352941 0.3529411764705882 0.3529411764705882 0.0 0.11764705882352941 0.0 0.058823529411764705 0.0 0.0 0.0 0.0 0.0 0.0 0.0 0.0 0.058823529411764705 0.058823529411764705 0.058823529411764705 0.1764705882352941 0.1764705882352941 0.0 0.411764705882353 0.058823529411764705 0.0 0.0 0.0 0.0 0.0 0.0 0.0 0.0 0.0 0.0 0.0 0.0 0.05263157894736842 0.15789473684210525 0.3157894736842105 0.21052631578947367 0.26315789473684215 0.0 0.0 0.0 0.0 0.0 0.0 0.0 0.0 0.0 0.0 0.0 0.0 0.04166666666666667 0.04166666666666667 0.125 0.25 0.20833333333333331 0.20833333333333331 0.08333333333333334 0.04166666666666667 0.0 0.0 0.0 0.0 0.0 0.0 0.0 0.0 0.0 0.33333333333333337 0.06666666666666668 0.33333333333333337 0.06666666666666668 0.06666666666666668 0.06666666666666668 0.06666666666666668 0.0 0.0 0.0 0.0 0.0 0.0 0.0 0.0 0.0 0.0 0.0 0.0 0.0 0.3333333333333333 0.16666666666666666 0.3333333333333333 0.0 0.08333333333333333 0.0 0.08333333333333333 0.0 0.0 0.0 0.0 0.0 0.0 0.0 0.0 0.0 0.125 0.125 0.25 0.25 0.0625 0.0625 0.125 0.0 0.0 0.0 0.0 0.0 0.0 0.0 0.0 0.0 0.0 0.1 0.05 0.05 0.1 0.25 0.2 0.05 0.15 0.05 0.0 0.0 0.0 0.0 0.0 0.0 0.0 0.0 0.0 0.0 0.16666666666666666 0.16666666666666666 0.11111111111111112 0.05555555555555556 0.16666666666666666 0.2777777777777778 0.05555555555555556 0.0 0.0 0.0 0.0 0.0 0.0 0.0 0.0 0.0 0.0 0.0 0.0 0.13333333333333333 0.0 0.2 0.3333333333333333 0.13333333333333333 0.2 0.0 0.0 0.0 0.0 0.0 0.0 0.0 0.0 0.0 0.0 0.0 0.0625 0.0625 0.0 0.0625 0.1875 0.375 0.1875 0.0625 1.0 0.0 0.0 0.0 0.0 0.0 0.0 0.0 0.0 0.0 0.0 0.0 0.0 0.0 0.0 0.0 0.0 0.29411764705882354 0.5882352941176471 0.058823529411764705 0.058823529411764705 0.0 0.0 0.0 0.0 0.0 0.0 0.0 0.0 0.0 0.0 0.0 0.0 0.0 0.08333333333333334 0.25000000000000006 0.5000000000000001 0.16666666666666669 0.0 0.0 0.0 0.0 0.0 0.0 0.0 0.0 0.0 0.0 0.0 0.0 0.0 0.0 0.11764705882352941 0.411764705882353 0.1764705882352941 0.29411764705882354 0.0 0.0 0.0 0.0 0.0 0.0 0.0 0.0 0.0 0.0 0.0 0.0 0.0 0.09090909090909093 0.18181818181818185 0.27272727272727276 0.27272727272727276 0.09090909090909093 0.0 0.0 0.09090909090909093 0.0 0.0 0.0 0.0 0.0 0.0 0.0 0.0 0.0 0.0 0.08695652173913042 0.21739130434782605 0.3043478260869565 0.17391304347826084 0.13043478260869565 0.04347826086956521 0.04347826086956521 0.0 0.0 0.0 0.0 0.0 0.0 0.0 0.0 0.0 0.0 0.04166666666666668 0.25000000000000006 0.3333333333333334 0.08333333333333336 0.20833333333333334 0.08333333333333336 0.0 0.0 0.0 0.0 0.0 0.0 0.0 0.0 0.0 0.0 0.0 0.0 0.0 0.33333333333333337 0.22222222222222224 0.22222222222222224 0.11111111111111112 0.11111111111111112 0.0 0.0 0.0 0.0 0.0 0.0 0.0 0.0 0.0 0.0 0.10526315789473684 0.05263157894736842 0.21052631578947367 0.05263157894736842 0.26315789473684215 0.10526315789473684 0.10526315789473684 0.0 0.10526315789473684 0.0 0.0 0.0 0.0 0.0 0.0 0.0 0.0 0.0 0.043478260869565216 0.043478260869565216 0.08695652173913043 0.21739130434782608 0.34782608695652173 0.043478260869565216 0.13043478260869565 0.08695652173913043 0.0 0.0 0.0 0.0 0.0 0.0 0.0 0.0 0.0 0.055555555555555546 0.055555555555555546 0.11111111111111109 0.11111111111111109 0.11111111111111109 0.33333333333333326 0.16666666666666663 0.0 0.0 0.055555555555555546 0.0 0.0 0.0 0.0 0.0 0.0 0.0 0.0 0.0 0.0 0.06666666666666667 0.2 0.13333333333333333 0.13333333333333333 0.4 0.0 0.06666666666666667 0.0 0.0 0.0 0.0 0.0 0.0 0.0 0.0 0.0 0.0 0.07999999999999999 0.039999999999999994 0.15999999999999998 0.15999999999999998 0.11999999999999998 0.11999999999999998 0.31999999999999995 0.0 0.0 0.0 0.0 0.0 0.0 0.0 0.0 0.0 0.0 0.0 0.0 0.13636363636363633 0.3636363636363636 0.13636363636363633 0.1818181818181818 0.04545454545454545 0.0909090909090909 0.04545454545454545 0.0 0.0 0.0 0.0 0.0 0.0 0.0 0.0 0.0 0.0 0.1 0.2 0.2 0.3 0.0 0.2 0.0 0.0 0.0 0.0 0.0 0.0 0.0 0.0 0.0 0.0 0.0 0.0 0.0 0.0 0.10526315789473682 0.21052631578947364 0.21052631578947364 0.31578947368421045 0.15789473684210523 0.0 0.0 0.0 0.0 0.0 0.0 0.0 0.0 0.0 0.0 0.04347826086956521 0.04347826086956521 0.0 0.13043478260869565 0.0 0.3043478260869565 0.3043478260869565 0.17391304347826084 0.7142857142857143 0.2380952380952381 0.04761904761904762 0.0 0.0 0.0 0.0 0.0 0.0 0.0 0.0 0.0 0.0 0.0 0.0 0.0 0.0 0.15384615384615383 0.46153846153846156 0.38461538461538464 0.0 0.0 0.0 0.0 0.0 0.0 0.0 0.0 0.0 0.0 0.0 0.0 0.0 0.0 0.04761904761904762 0.380952380952381 0.2380952380952381 0.2380952380952381 0.09523809523809525 0.0 0.0 0.0 0.0 0.0 0.0 0.0 0.0 0.0 0.0 0.0 0.0 0.0 0.0 0.3529411764705882 0.29411764705882354 0.29411764705882354 0.058823529411764705 0.0 0.0 0.0 0.0 0.0 0.0 0.0 0.0 0.0 0.0 0.0 0.0 0.0 0.15789473684210525 0.21052631578947367 0.3157894736842105 0.10526315789473684 0.10526315789473684 0.10526315789473684 0.0 0.0 0.0 0.0 0.0 0.0 0.0 0.0 0.0 0.0 0.0 0.05263157894736842 0.15789473684210525 0.3684210526315789 0.21052631578947367 0.10526315789473684 0.05263157894736842 0.05263157894736842 0.0 0.0 0.0 0.0 0.0 0.0 0.0 0.0 0.0 0.0 0.0 0.23076923076923078 0.15384615384615383 0.30769230769230765 0.23076923076923078 0.07692307692307691 0.0 0.0 0.0 0.0 0.0 0.0 0.0 0.0 0.0 0.0 0.0 0.0 0.0 0.11111111111111112 0.22222222222222224 0.2777777777777778 0.22222222222222224 0.11111111111111112 0.05555555555555556 0.0 0.0 0.0 0.0 0.0 0.0 0.0 0.0 0.0 0.0 0.13333333333333333 0.0 0.3333333333333333 0.26666666666666666 0.06666666666666667 0.2 0.0 0.0 0.0 0.0 0.0 0.0 0.0 0.0 0.0 0.0 0.0 0.08333333333333334 0.0 0.0 0.41666666666666674 0.16666666666666669 0.16666666666666669 0.0 0.16666666666666669 0.0 0.0 0.0 0.0 0.0 0.0 0.0 0.0 0.0 0.0 0.0625 0.125 0.0 0.0 0.1875 0.3125 0.125 0.125 0.0625 0.0 0.0 0.0 0.0 0.0 0.0 0.0 0.0 0.0 0.052631578947368425 0.15789473684210528 0.26315789473684215 0.052631578947368425 0.10526315789473685 0.15789473684210528 0.10526315789473685 0.10526315789473685 0.0 0.0 0.0 0.0 0.0 0.0 0.0 0.0 0.0 0.0 0.05555555555555556 0.05555555555555556 0.2777777777777778 0.22222222222222224 0.05555555555555556 0.2777777777777778 0.0 0.05555555555555556 0.0 0.0 0.0 0.0 0.0 0.0 0.0 0.0 0.0 0.05 0.0 0.05 0.2 0.25 0.15 0.15 0.15 0.0 0.0 0.0 0.0 0.0 0.0 0.0 0.0 0.0 0.0 0.0 0.0 0.055555555555555546 0.16666666666666663 0.11111111111111109 0.22222222222222218 0.27777777777777773 0.055555555555555546 0.11111111111111109 0.0 0.0 0.0 0.0 0.0 0.0 0.0 0.0 0.0 0.0 0.07142857142857142 0.0 0.2142857142857143 0.3571428571428571 0.2142857142857143 0.07142857142857142 0.07142857142857142 0.0 0.0 0.0 0.0 0.0 0.0 0.0 0.0 0.0 0.0 0.0 0.0 0.0 0.0 0.2380952380952381 0.1904761904761905 0.2857142857142857 0.2857142857142857 0.5238095238095238 0.4285714285714286 0.04761904761904762 0.0 0.0 0.0 0.0 0.0 0.0 0.0 0.0 0.0 0.0 0.0 0.0 0.0 0.0 0.125 0.3125 0.3125 0.25 0.0 0.0 0.0 0.0 0.0 0.0 0.0 0.0 0.0 0.0 0.0 0.0 0.0 0.043478260869565216 0.2608695652173913 0.30434782608695654 0.2608695652173913 0.13043478260869565 0.0 0.0 0.0 0.0 0.0 0.0 0.0 0.0 0.0 0.0 0.0 0.0 0.0 0.04 0.36 0.28 0.24000000000000002 0.08 0.0 0.0 0.0 0.0 0.0 0.0 0.0 0.0 0.0 0.0 0.0 0.0 0.0 0.1 0.4 0.4 0.1 0.0 0.0 0.0 0.0 0.0 0.0 0.0 0.0 0.0 0.0 0.0 0.0 0.0 0.09523809523809525 0.0 0.1904761904761905 0.3333333333333333 0.14285714285714285 0.14285714285714285 0.04761904761904762 0.04761904761904762 0.0 0.0 0.0 0.0 0.0 0.0 0.0 0.0 0.0 0.0 0.0 0.1875 0.25 0.25 0.3125 0.0 0.0 0.0 0.0 0.0 0.0 0.0 0.0 0.0 0.0 0.0 0.0 0.0 0.1 0.3 0.2 0.2 0.1 0.0 0.1 0.0 0.0 0.0 0.0 0.0 0.0 0.0 0.0 0.0 0.0 0.058823529411764705 0.11764705882352941 0.29411764705882354 0.1764705882352941 0.23529411764705882 0.058823529411764705 0.058823529411764705 0.0 0.0 0.0 0.0 0.0 0.0 0.0 0.0 0.0 0.0 0.0 0.0909090909090909 0.0909090909090909 0.2727272727272727 0.2727272727272727 0.1818181818181818 0.0909090909090909 0.0 0.0 0.0 0.0 0.0 0.0 0.0 0.0 0.0 0.0 0.0 0.05 0.05 0.3 0.3 0.2 0.05 0.05 0.0 0.0 0.0 0.0 0.0 0.0 0.0 0.0 0.0 0.0 0.07142857142857142 0.0 0.07142857142857142 0.07142857142857142 0.07142857142857142 0.14285714285714285 0.2857142857142857 0.07142857142857142 0.2142857142857143 0.0 0.0 0.0 0.0 0.0 0.0 0.0 0.0 0.0 0.0 0.06666666666666667 0.06666666666666667 0.0 0.13333333333333333 0.26666666666666666 0.4 0.06666666666666667 0.0 0.0 0.0 0.0 0.0 0.0 0.0 0.0 0.0 0.0 0.043478260869565216 0.043478260869565216 0.043478260869565216 0.17391304347826086 0.21739130434782608 0.34782608695652173 0.043478260869565216 0.08695652173913043 0.0 0.0 0.0 0.0 0.0 0.0 0.0 0.0 0.0 0.0 0.0 0.0 0.0625 0.1875 0.3125 0.1875 0.1875 0.0625 0.0 0.0 0.0 0.0 0.0 0.0 0.0 0.0 0.0 0.0 0.0 0.05 0.1 0.25 0.1 0.35 0.15 0.0 0.0 0.0 0.0 0.0 0.0 0.0 0.0 0.0 0.0 0.0 0.0 0.0 0.0 0.125 0.1875 0.25 0.4375 0.6 0.25 0.15 0.0 0.0 0.0 0.0 0.0 0.0 0.0 0.0 0.0 0.0 0.0 0.0 0.0 0.0 0.125 0.5625 0.25 0.0625 0.0 0.0 0.0 0.0 0.0 0.0 0.0 0.0 0.0 0.0 0.0 0.0 0.0 0.0625 0.0625 0.375 0.375 0.0625 0.0 0.0625 0.0 0.0 0.0 0.0 0.0 0.0 0.0 0.0 0.0 0.0 0.0 0.25 0.25 0.25 0.25 0.0 0.0 0.0 0.0 0.0 0.0 0.0 0.0 0.0 0.0 0.0 0.0 0.0 0.0 0.0 0.1904761904761905 0.14285714285714285 0.3333333333333333 0.2380952380952381 0.09523809523809525 0.0 0.0 0.0 0.0 0.0 0.0 0.0 0.0 0.0 0.0 0.0 0.07142857142857142 0.2142857142857143 0.14285714285714285 0.07142857142857142 0.2142857142857143 0.07142857142857142 0.14285714285714285 0.07142857142857142 0.0 0.0 0.0 0.0 0.0 0.0 0.0 0.0 0.0 0.0 0.045454545454545456 0.09090909090909091 0.36363636363636365 0.13636363636363635 0.2727272727272727 0.0 0.09090909090909091 0.0 0.0 0.0 0.0 0.0 0.0 0.0 0.0 0.0 0.0 0.0 0.0 0.11764705882352941 0.29411764705882354 0.29411764705882354 0.23529411764705882 0.058823529411764705 0.0 0.0 0.0 0.0 0.0 0.0 0.0 0.0 0.0 0.0 0.0 0.0 0.25 0.1875 0.0 0.125 0.3125 0.125 0.0 0.0 0.0 0.0 0.0 0.0 0.0 0.0 0.0 0.0 0.0 0.0 0.20000000000000004 0.06666666666666668 0.2666666666666667 0.13333333333333336 0.13333333333333336 0.13333333333333336 0.06666666666666668 0.0 0.0 0.0 0.0 0.0 0.0 0.0 0.0 0.0 0.0 0.08333333333333333 0.08333333333333333 0.08333333333333333 0.25 0.08333333333333333 0.3333333333333333 0.08333333333333333 0.0 0.0 0.0 0.0 0.0 0.0 0.0 0.0 0.0 0.0 0.0 0.13043478260869565 0.08695652173913043 0.34782608695652173 0.043478260869565216 0.17391304347826086 0.13043478260869565 0.043478260869565216 0.043478260869565216 0.0 0.0 0.0 0.0 0.0 0.0 0.0 0.0 0.0 0.0 0.045454545454545456 0.2727272727272727 0.2727272727272727 0.3181818181818182 0.045454545454545456 0.0 0.045454545454545456 0.0 0.0 0.0 0.0 0.0 0.0 0.0 0.0 0.0 0.0 0.0 0.1764705882352941 0.11764705882352941 0.29411764705882354 0.29411764705882354 0.11764705882352941 0.0 0.0 0.0 0.0 0.0 0.0 0.0 0.0 0.0 0.0 0.0 0.0 0.0 0.11764705882352941 0.1764705882352941 0.11764705882352941 0.3529411764705882 0.23529411764705882 0.0 0.0 0.0 0.0 0.0 0.0 0.0 0.0 0.0 0.0 0.0 0.0 0.06666666666666667 0.06666666666666667 0.13333333333333333 0.2 0.06666666666666667 0.3333333333333333 0.13333333333333333 0.0 0.0 0.0 0.0 0.0 0.0 0.0 0.0 0.0 0.0 0.0 0.0 0.0 0.0 0.10526315789473684 0.631578947368421 0.26315789473684215 0.4999999999999999 0.3499999999999999 0.09999999999999999 0.049999999999999996 0.0 0.0 0.0 0.0 0.0 0.0 0.0 0.0 0.0 0.0 0.0 0.0 0.0 0.0 0.29411764705882354 0.411764705882353 0.1764705882352941 0.058823529411764705 0.0 0.058823529411764705 0.0 0.0 0.0 0.0 0.0 0.0 0.0 0.0 0.0 0.0 0.0 0.10526315789473684 0.5263157894736843 0.21052631578947367 0.05263157894736842 0.10526315789473684 0.0 0.0 0.0 0.0 0.0 0.0 0.0 0.0 0.0 0.0 0.0 0.0 0.0 0.47058823529411764 0.11764705882352941 0.23529411764705882 0.058823529411764705 0.058823529411764705 0.058823529411764705 0.0 0.0 0.0 0.0 0.0 0.0 0.0 0.0 0.0 0.0 0.0 0.0625 0.0 0.3125 0.25 0.0625 0.1875 0.0625 0.0 0.0 0.0625 0.0 0.0 0.0 0.0 0.0 0.0 0.0 0.06666666666666668 0.20000000000000004 0.06666666666666668 0.33333333333333337 0.13333333333333336 0.06666666666666668 0.13333333333333336 0.0 0.0 0.0 0.0 0.0 0.0 0.0 0.0 0.0 0.0 0.0 0.0 0.25 0.25 0.1875 0.25 0.0625 0.0 0.0 0.0 0.0 0.0 0.0 0.0 0.0 0.0 0.0 0.0 0.0 0.0 0.09523809523809525 0.2857142857142857 0.1904761904761905 0.09523809523809525 0.2380952380952381 0.09523809523809525 0.0 0.0 0.0 0.0 0.0 0.0 0.0 0.0 0.0 0.04761904761904762 0.04761904761904762 0.0 0.14285714285714285 0.14285714285714285 0.2380952380952381 0.1904761904761905 0.04761904761904762 0.09523809523809525 0.0 0.04761904761904762 0.0 0.0 0.0 0.0 0.0 0.0 0.0 0.0 0.0 0.0 0.17391304347826084 0.17391304347826084 0.2608695652173913 0.3478260869565217 0.04347826086956521 0.0 0.0 0.0 0.0 0.0 0.0 0.0 0.0 0.0 0.0 0.0 0.0 0.05263157894736841 0.10526315789473682 0.15789473684210523 0.21052631578947364 0.15789473684210523 0.15789473684210523 0.15789473684210523 0.0 0.0 0.0 0.0 0.0 0.0 0.0 0.0 0.0 0.0 0.0625 0.1875 0.0 0.3125 0.3125 0.0625 0.0625 0.0 0.0 0.0 0.0 0.0 0.0 0.0 0.0 0.0 0.0 0.07142857142857142 0.0 0.07142857142857142 0.3571428571428571 0.14285714285714285 0.14285714285714285 0.2142857142857143 0.0 0.0 0.0 0.0 0.0 0.0 0.0 0.0 0.0 0.0 0.0 0.0 0.0 0.0 0.25 0.4166666666666667 0.0 0.3333333333333333 0.0 0.0 0.0 0.0 0.0 0.0 0.0 0.0 0.0 0.0 0.0 0.0 0.0 0.15789473684210523 0.10526315789473682 0.31578947368421045 0.2631578947368421 0.15789473684210523 0.0 0.0 0.0 0.0 0.0 0.0 0.0 0.0 0.0 0.0 0.0 0.0 0.0 0.14285714285714285 0.2857142857142857 0.14285714285714285 0.2857142857142857 0.14285714285714285 0.0 0.0 0.0 0.0 0.0 0.0 0.0 0.0 0.0 0.0 0.0 0.0 0.0 0.0 0.13333333333333333 0.4 0.4666666666666667 0.4499999999999999 0.39999999999999997 0.09999999999999999 0.0 0.049999999999999996 0.0 0.0 0.0 0.0 0.0 0.0 0.0 0.0 0.0 0.0 0.0 0.0 0.0 0.1904761904761905 0.1904761904761905 0.4761904761904762 0.09523809523809525 0.0 0.04761904761904762 0.0 0.0 0.0 0.0 0.0 0.0 0.0 0.0 0.0 0.0 0.0 0.08333333333333333 0.3333333333333333 0.25 0.25 0.08333333333333333 0.0 0.0 0.0 0.0 0.0 0.0 0.0 0.0 0.0 0.0 0.0 0.0 0.0 0.0 0.21052631578947367 0.26315789473684215 0.21052631578947367 0.15789473684210525 0.10526315789473684 0.05263157894736842 0.0 0.0 0.0 0.0 0.0 0.0 0.0 0.0 0.0 0.0 0.0 0.10526315789473684 0.21052631578947367 0.3684210526315789 0.10526315789473684 0.15789473684210525 0.05263157894736842 0.0 0.0 0.0 0.0 0.0 0.0 0.0 0.0 0.0 0.0 0.0 0.0 0.26666666666666666 0.3333333333333333 0.3333333333333333 0.0 0.06666666666666667 0.0 0.0 0.0 0.0 0.0 0.0 0.0 0.0 0.0 0.0 0.0 0.0 0.0625 0.0625 0.1875 0.25 0.25 0.0625 0.125 0.0 0.0 0.0 0.0 0.0 0.0 0.0 0.0 0.0 0.0 0.0625 0.125 0.1875 0.375 0.0 0.1875 0.0 0.0625 0.0 0.0 0.0 0.0 0.0 0.0 0.0 0.0 0.0 0.0 0.0 0.058823529411764705 0.29411764705882354 0.3529411764705882 0.11764705882352941 0.11764705882352941 0.0 0.058823529411764705 0.0 0.0 0.0 0.0 0.0 0.0 0.0 0.0 0.0 0.0 0.07142857142857142 0.0 0.2857142857142857 0.14285714285714285 0.21428571428571427 0.21428571428571427 0.07142857142857142 0.0 0.0 0.0 0.0 0.0 0.0 0.0 0.0 0.0 0.0 0.0 0.0 0.16666666666666666 0.22222222222222224 0.22222222222222224 0.22222222222222224 0.11111111111111112 0.05555555555555556 0.0 0.0 0.0 0.0 0.0 0.0 0.0 0.0 0.0 0.0 0.0 0.125 0.125 0.125 0.25 0.125 0.125 0.125 0.0 0.0 0.0 0.0 0.0 0.0 0.0 0.0 0.0 0.0 0.0 0.05555555555555556 0.05555555555555556 0.4444444444444445 0.2777777777777778 0.16666666666666666 0.0 0.0 0.0 0.0 0.0 0.0 0.0 0.0 0.0 0.0 0.0 0.0 0.05 0.15 0.05 0.25 0.15 0.3 0.05 0.0 0.0 0.0 0.0 0.0 0.0 0.0 0.0 0.0 0.0 0.0 0.0 0.08 0.12000000000000001 0.36 0.2 0.24000000000000002 0.0 0.0 0.0 0.0 0.0 0.0 0.0 0.0 0.0 0.0 0.0 0.0 0.0 0.05555555555555556 0.11111111111111112 0.3888888888888889 0.3333333333333333 0.11111111111111112 0.0 0.0 0.0 0.0 0.0 0.0 0.0 0.0 0.0 0.0 0.0 0.0 0.0 0.0 0.0 0.3888888888888889 0.611111111111111 0.2727272727272727 0.7272727272727272 0.0 0.0 0.0 0.0 0.0 0.0 0.0 0.0 0.0 0.0 0.0 0.0 0.0 0.0 0.0 0.0 0.09523809523809525 0.5238095238095238 0.14285714285714285 0.04761904761904762 0.14285714285714285 0.04761904761904762 0.0 0.0 0.0 0.0 0.0 0.0 0.0 0.0 0.0 0.0 0.0 0.03846153846153846 0.11538461538461538 0.2692307692307692 0.23076923076923075 0.1923076923076923 0.0 0.11538461538461538 0.03846153846153846 0.0 0.0 0.0 0.0 0.0 0.0 0.0 0.0 0.0 0.0 0.05000000000000001 0.30000000000000004 0.30000000000000004 0.20000000000000004 0.0 0.15000000000000002 0.0 0.0 0.0 0.0 0.0 0.0 0.0 0.0 0.0 0.0 0.0 0.0625 0.0625 0.25 0.125 0.1875 0.125 0.0625 0.0625 0.0625 0.0 0.0 0.0 0.0 0.0 0.0 0.0 0.0 0.0625 0.0 0.0625 0.25 0.125 0.3125 0.1875 0.0 0.0 0.0 0.0 0.0 0.0 0.0 0.0 0.0 0.0 0.0 0.0 0.13333333333333336 0.06666666666666668 0.20000000000000004 0.13333333333333336 0.13333333333333336 0.13333333333333336 0.06666666666666668 0.13333333333333336 0.0 0.0 0.0 0.0 0.0 0.0 0.0 0.0 0.0 0.0 0.0 0.1875 0.0 0.25 0.25 0.3125 0.0 0.0 0.0 0.0 0.0 0.0 0.0 0.0 0.0 0.0 0.0 0.0 0.05555555555555556 0.11111111111111112 0.3333333333333333 0.11111111111111112 0.22222222222222224 0.05555555555555556 0.11111111111111112 0.0 0.0 0.0 0.0 0.0 0.0 0.0 0.0 0.0 0.0 0.07692307692307691 0.07692307692307691 0.23076923076923078 0.15384615384615383 0.30769230769230765 0.0 0.0 0.0 0.15384615384615383 0.0 0.0 0.0 0.0 0.0 0.0 0.0 0.0 0.0 0.0 0.06666666666666667 0.3333333333333333 0.2 0.2 0.13333333333333333 0.0 0.06666666666666667 0.0 0.0 0.0 0.0 0.0 0.0 0.0 0.0 0.0 0.0 0.0 0.0967741935483871 0.0967741935483871 0.3225806451612903 0.1935483870967742 0.22580645161290322 0.06451612903225806 0.0 0.0 0.0 0.0 0.0 0.0 0.0 0.0 0.0 0.0 0.0 0.0 0.28571428571428575 0.0 0.35714285714285715 0.07142857142857144 0.21428571428571433 0.07142857142857144 0.0 0.0 0.0 0.0 0.0 0.0 0.0 0.0 0.0 0.0 0.0 0.0 0.0625 0.0625 0.125 0.5625 0.1875 0.0 0.0 0.0 0.0 0.0 0.0 0.0 0.0 0.0 0.0 0.0 0.0 0.0 0.11111111111111112 0.4444444444444445 0.22222222222222224 0.11111111111111112 0.11111111111111112 0.0 0.0 0.0 0.0 0.0 0.0 0.0 0.0 0.0 0.0 0.0 0.0 0.0 0.10526315789473684 0.26315789473684215 0.47368421052631576 0.15789473684210525 0.0 0.0 0.0 0.0 0.0 0.0 0.0 0.0 0.0 0.0 0.0 0.0 0.0 0.0 0.0 0.22222222222222224 0.7777777777777778 0.38461538461538464 0.30769230769230765 0.30769230769230765 0.0 0.0 0.0 0.0 0.0 0.0 0.0 0.0 0.0 0.0 0.0 0.0 0.0 0.0 0.0 0.15384615384615383 0.0 0.23076923076923078 0.30769230769230765 0.30769230769230765 0.0 0.0 0.0 0.0 0.0 0.0 0.0 0.0 0.0 0.0 0.0 0.0 0.08333333333333333 0.08333333333333333 0.25 0.3333333333333333 0.16666666666666666 0.0 0.08333333333333333 0.0 0.0 0.0 0.0 0.0 0.0 0.0 0.0 0.0 0.0 0.0 0.0 0.04761904761904762 0.14285714285714285 0.1904761904761905 0.2380952380952381 0.2380952380952381 0.14285714285714285 0.0 0.0 0.0 0.0 0.0 0.0 0.0 0.0 0.0 0.0 0.0 0.0 0.07142857142857144 0.07142857142857144 0.14285714285714288 0.28571428571428575 0.35714285714285715 0.07142857142857144 0.0 0.0 0.0 0.0 0.0 0.0 0.0 0.0 0.0 0.0 0.0 0.11111111111111112 0.0 0.11111111111111112 0.11111111111111112 0.11111111111111112 0.22222222222222224 0.11111111111111112 0.0 0.11111111111111112 0.11111111111111112 0.0 0.0 0.0 0.0 0.0 0.0 0.0 0.0 0.09523809523809525 0.09523809523809525 0.14285714285714285 0.2380952380952381 0.2380952380952381 0.14285714285714285 0.0 0.0 0.04761904761904762 0.0 0.0 0.0 0.0 0.0 0.0 0.0 0.0 0.0 0.125 0.25 0.25 0.125 0.25 0.0 0.0 0.0 0.0 0.0 0.0 0.0 0.0 0.0 0.0 0.0 0.0 0.0 0.14285714285714285 0.2142857142857143 0.2857142857142857 0.2142857142857143 0.07142857142857142 0.07142857142857142 0.0 0.0 0.0 0.0 0.0 0.0 0.0 0.0 0.0 0.0 0.045454545454545456 0.045454545454545456 0.18181818181818182 0.13636363636363635 0.18181818181818182 0.13636363636363635 0.18181818181818182 0.045454545454545456 0.045454545454545456 0.0 0.0 0.0 0.0 0.0 0.0 0.0 0.0 0.0 0.04166666666666667 0.04166666666666667 0.08333333333333334 0.16666666666666669 0.25 0.16666666666666669 0.16666666666666669 0.08333333333333334 0.0 0.0 0.0 0.0 0.0 0.0 0.0 0.0 0.0 0.0 0.0 0.037037037037037035 0.18518518518518517 0.18518518518518517 0.33333333333333337 0.14814814814814814 0.11111111111111112 0.0 0.0 0.0 0.0 0.0 0.0 0.0 0.0 0.0 0.0 0.0 0.0 0.045454545454545456 0.18181818181818182 0.2272727272727273 0.36363636363636365 0.13636363636363635 0.045454545454545456 0.0 0.0 0.0 0.0 0.0 0.0 0.0 0.0 0.0 0.0 0.04761904761904762 0.0 0.04761904761904762 0.09523809523809525 0.380952380952381 0.3333333333333333 0.09523809523809525 0.0 0.0 0.0 0.0 0.0 0.0 0.0 0.0 0.0 0.0 0.0 0.0 0.058823529411764705 0.1764705882352941 0.1764705882352941 0.23529411764705882 0.3529411764705882 0.0 0.0 0.0 0.0 0.0 0.0 0.0 0.0 0.0 0.0 0.0 0.0 0.0 0.0 0.1 0.15 0.44999999999999996 0.3 0.0 0.0 0.0 0.0 0.0 0.0 0.0 0.0 0.0 0.0 0.0 0.0 0.0 0.0 0.125 0.125 0.75 0.15384615384615383 0.38461538461538464 0.30769230769230765 0.07692307692307691 0.07692307692307691 0.0 0.0 0.0 0.0 0.0 0.0 0.0 0.0 0.0 0.0 0.0 0.0 0.0 0.0 0.15789473684210523 0.47368421052631565 0.21052631578947364 0.0 0.0 0.05263157894736841 0.05263157894736841 0.05263157894736841 0.0 0.0 0.0 0.0 0.0 0.0 0.0 0.0 0.0 0.0 0.26315789473684215 0.26315789473684215 0.21052631578947367 0.10526315789473684 0.10526315789473684 0.05263157894736842 0.0 0.0 0.0 0.0 0.0 0.0 0.0 0.0 0.0 0.0 0.0 0.07142857142857142 0.14285714285714285 0.2142857142857143 0.4285714285714286 0.0 0.07142857142857142 0.07142857142857142 0.0 0.0 0.0 0.0 0.0 0.0 0.0 0.0 0.0 0.0 0.0 0.0 0.11111111111111112 0.11111111111111112 0.22222222222222224 0.2777777777777778 0.05555555555555556 0.05555555555555556 0.11111111111111112 0.05555555555555556 0.0 0.0 0.0 0.0 0.0 0.0 0.0 0.0 0.06666666666666667 0.13333333333333333 0.0 0.13333333333333333 0.06666666666666667 0.2 0.3333333333333333 0.06666666666666667 0.0 0.0 0.0 0.0 0.0 0.0 0.0 0.0 0.0 0.0 0.07142857142857144 0.14285714285714288 0.21428571428571433 0.14285714285714288 0.14285714285714288 0.21428571428571433 0.07142857142857144 0.0 0.0 0.0 0.0 0.0 0.0 0.0 0.0 0.0 0.0 0.0 0.0 0.15 0.25 0.15 0.2 0.15 0.1 0.0 0.0 0.0 0.0 0.0 0.0 0.0 0.0 0.0 0.0 0.0 0.0 0.125 0.3125 0.375 0.0625 0.125 0.0 0.0 0.0 0.0 0.0 0.0 0.0 0.0 0.0 0.0 0.0 0.0 0.043478260869565216 0.08695652173913043 0.21739130434782608 0.30434782608695654 0.21739130434782608 0.13043478260869565 0.0 0.0 0.0 0.0 0.0 0.0 0.0 0.0 0.0 0.0 0.0 0.0 0.0 0.23076923076923078 0.38461538461538464 0.15384615384615383 0.07692307692307691 0.07692307692307691 0.07692307692307691 0.0 0.0 0.0 0.0 0.0 0.0 0.0 0.0 0.0 0.0 0.0 0.08333333333333334 0.16666666666666669 0.08333333333333334 0.5000000000000001 0.16666666666666669 0.0 0.0 0.0 0.0 0.0 0.0 0.0 0.0 0.0 0.0 0.0 0.0 0.0 0.04761904761904762 0.0 0.380952380952381 0.3333333333333333 0.1904761904761905 0.04761904761904762 0.0 0.0 0.0 0.0 0.0 0.0 0.0 0.0 0.0 0.0 0.0 0.058823529411764705 0.0 0.1764705882352941 0.23529411764705882 0.47058823529411764 0.058823529411764705 0.0 0.0 0.0 0.0 0.0 0.0 0.0 0.0 0.0 0.0 0.0 0.0 0.0 0.06666666666666667 0.3333333333333333 0.4666666666666667 0.13333333333333333 0.0 0.0 0.0 0.0 0.0 0.0 0.0 0.0 0.0 0.0 0.0 0.0 0.0 0.0 0.17857142857142858 0.5 0.3214285714285714 0.0 0.0 0.0 0.0 0.0 0.0 0.0 0.0 0.0 0.0 0.0 0.0 0.0 0.0 0.0 0.058823529411764705 0.9411764705882353 0.36842105263157887 0.15789473684210523 0.2631578947368421 0.10526315789473682 0.0 0.05263157894736841 0.05263157894736841 0.0 0.0 0.0 0.0 0.0 0.0 0.0 0.0 0.0 0.0 0.0 0.041666666666666664 0.08333333333333333 0.24999999999999997 0.12499999999999999 0.29166666666666663 0.16666666666666666 0.0 0.0 0.041666666666666664 0.0 0.0 0.0 0.0 0.0 0.0 0.0 0.0 0.0 0.0 0.0 0.26666666666666666 0.4666666666666667 0.06666666666666667 0.2 0.0 0.0 0.0 0.0 0.0 0.0 0.0 0.0 0.0 0.0 0.0 0.0625 0.0 0.125 0.125 0.3125 0.0625 0.125 0.1875 0.0 0.0 0.0 0.0 0.0 0.0 0.0 0.0 0.0 0.0 0.0 0.0 0.09523809523809525 0.14285714285714285 0.2857142857142857 0.14285714285714285 0.14285714285714285 0.14285714285714285 0.04761904761904762 0.0 0.0 0.0 0.0 0.0 0.0 0.0 0.0 0.0 0.0 0.0 0.055555555555555546 0.055555555555555546 0.22222222222222218 0.44444444444444436 0.16666666666666663 0.055555555555555546 0.0 0.0 0.0 0.0 0.0 0.0 0.0 0.0 0.0 0.0 0.0 0.0 0.07142857142857144 0.35714285714285715 0.14285714285714288 0.21428571428571433 0.14285714285714288 0.0 0.0 0.07142857142857144 0.0 0.0 0.0 0.0 0.0 0.0 0.0 0.0 0.08695652173913042 0.13043478260869565 0.04347826086956521 0.17391304347826084 0.08695652173913042 0.3043478260869565 0.13043478260869565 0.04347826086956521 0.0 0.0 0.0 0.0 0.0 0.0 0.0 0.0 0.0 0.0 0.05263157894736842 0.0 0.15789473684210525 0.26315789473684215 0.05263157894736842 0.26315789473684215 0.21052631578947367 0.0 0.0 0.0 0.0 0.0 0.0 0.0 0.0 0.0 0.0 0.0 0.07142857142857142 0.2142857142857143 0.07142857142857142 0.2142857142857143 0.07142857142857142 0.3571428571428571 0.0 0.0 0.0 0.0 0.0 0.0 0.0 0.0 0.0 0.0 0.0 0.0 0.0 0.0 0.23076923076923078 0.15384615384615383 0.46153846153846156 0.15384615384615383 0.0 0.0 0.0 0.0 0.0 0.0 0.0 0.0 0.0 0.0 0.0 0.0 0.0 0.06666666666666667 0.13333333333333333 0.26666666666666666 0.4666666666666667 0.06666666666666667 0.0 0.0 0.0 0.0 0.0 0.0 0.0 0.0 0.0 0.0 0.0 0.0 0.05555555555555556 0.22222222222222224 0.05555555555555556 0.2777777777777778 0.3888888888888889 0.0 0.0 0.0 0.0 0.0 0.0 0.0 0.0 0.0 0.0 0.0 0.0 0.0 0.0 0.13333333333333333 0.5333333333333333 0.3333333333333333 0.0 0.0 0.0 0.0 0.0 0.0 0.0 0.0 0.0 0.0 0.0 0.0 0.0 0.0 0.0 0.35000000000000003 0.45000000000000007 0.20000000000000004 0.0 0.0 0.0 0.0 0.0 0.0 0.0 0.0 0.0 0.0 0.0 0.0 0.0 0.058823529411764705 0.11764705882352941 0.3529411764705882 0.47058823529411764 0.0 0.0 0.0 0.0 0.0 0.0 0.0 0.0 0.0 0.0 0.0 0.0 0.0 0.0 0.07692307692307691 0.15384615384615383 0.7692307692307693 0.05263157894736842 0.3157894736842105 0.21052631578947367 0.21052631578947367 0.05263157894736842 0.15789473684210525 0.0 0.0 0.0 0.0 0.0 0.0 0.0 0.0 0.0 0.0 0.0 0.0 0.0 0.0 0.26666666666666666 0.13333333333333333 0.26666666666666666 0.3333333333333333 0.0 0.0 0.0 0.0 0.0 0.0 0.0 0.0 0.0 0.0 0.0 0.0 0.0 0.0 0.0 0.15384615384615383 0.30769230769230765 0.30769230769230765 0.07692307692307691 0.07692307692307691 0.07692307692307691 0.0 0.0 0.0 0.0 0.0 0.0 0.0 0.0 0.0 0.0 0.0 0.09523809523809525 0.14285714285714285 0.2380952380952381 0.2380952380952381 0.14285714285714285 0.09523809523809525 0.04761904761904762 0.0 0.0 0.0 0.0 0.0 0.0 0.0 0.0 0.0 0.0 0.05263157894736842 0.0 0.05263157894736842 0.26315789473684215 0.21052631578947367 0.21052631578947367 0.15789473684210525 0.05263157894736842 0.0 0.0 0.0 0.0 0.0 0.0 0.0 0.0 0.0 0.0 0.0 0.22222222222222218 0.22222222222222218 0.11111111111111109 0.11111111111111109 0.22222222222222218 0.055555555555555546 0.055555555555555546 0.0 0.0 0.0 0.0 0.0 0.0 0.0 0.0 0.0 0.05555555555555556 0.0 0.0 0.2777777777777778 0.11111111111111112 0.22222222222222224 0.16666666666666666 0.16666666666666666 0.0 0.0 0.0 0.0 0.0 0.0 0.0 0.0 0.0 0.0 0.0 0.03846153846153846 0.11538461538461538 0.30769230769230765 0.15384615384615383 0.15384615384615383 0.11538461538461538 0.07692307692307691 0.03846153846153846 0.0 0.0 0.0 0.0 0.0 0.0 0.0 0.0 0.06666666666666667 0.0 0.2 0.0 0.3333333333333333 0.26666666666666666 0.13333333333333333 0.0 0.0 0.0 0.0 0.0 0.0 0.0 0.0 0.0 0.0 0.0 0.0 0.0 0.04347826086956522 0.2173913043478261 0.3043478260869566 0.3478260869565218 0.08695652173913045 0.0 0.0 0.0 0.0 0.0 0.0 0.0 0.0 0.0 0.0 0.0 0.0 0.0 0.11111111111111109 0.27777777777777773 0.38888888888888884 0.16666666666666663 0.055555555555555546 0.0 0.0 0.0 0.0 0.0 0.0 0.0 0.0 0.0 0.0 0.0 0.0 0.21428571428571427 0.07142857142857142 0.42857142857142855 0.21428571428571427 0.07142857142857142 0.0 0.0 0.0 0.0 0.0 0.0 0.0 0.0 0.0 0.0 0.0 0.07142857142857142 0.0 0.07142857142857142 0.14285714285714285 0.4285714285714286 0.2857142857142857 0.0 0.0 0.0 0.0 0.0 0.0 0.0 0.0 0.0 0.0 0.0 0.0 0.0 0.058823529411764705 0.058823529411764705 0.23529411764705882 0.5294117647058824 0.11764705882352941 0.0 0.0 0.0 0.0 0.0 0.0 0.0 0.0 0.0 0.0 0.0 0.0 0.0 0.0 0.2142857142857143 0.2857142857142857 0.5 0.0 0.0 0.0 0.0 0.0 0.0 0.0 0.0 0.0 0.0 0.0 0.0 0.0 0.07692307692307691 0.0 0.46153846153846156 0.46153846153846156 0.0 0.0 0.0 0.0 0.0 0.0 0.0 0.0 0.0 0.0 0.0 0.0 0.0 0.0 0.0 0.0 1.0 0.049999999999999996 0.14999999999999997 0.19999999999999998 0.29999999999999993 0.09999999999999999 0.049999999999999996 0.09999999999999999 0.049999999999999996 0.0 0.0 0.0 0.0 0.0 0.0 0.0 0.0 0.0 0.0 0.0 0.0 0.11764705882352941 0.29411764705882354 0.29411764705882354 0.11764705882352941 0.058823529411764705 0.11764705882352941 0.0 0.0 0.0 0.0 0.0 0.0 0.0 0.0 0.0 0.0 0.0 0.0 0.04 0.04 0.32 0.12000000000000001 0.16 0.16 0.16 0.0 0.0 0.0 0.0 0.0 0.0 0.0 0.0 0.0 0.0 0.07142857142857144 0.07142857142857144 0.0 0.21428571428571433 0.14285714285714288 0.14285714285714288 0.28571428571428575 0.07142857142857144 0.0 0.0 0.0 0.0 0.0 0.0 0.0 0.0 0.0 0.0 0.0 0.0 0.12499999999999999 0.29166666666666663 0.12499999999999999 0.24999999999999997 0.12499999999999999 0.0 0.041666666666666664 0.041666666666666664 0.0 0.0 0.0 0.0 0.0 0.0 0.0 0.0 0.0 0.09523809523809525 0.0 0.1904761904761905 0.14285714285714285 0.1904761904761905 0.1904761904761905 0.1904761904761905 0.0 0.0 0.0 0.0 0.0 0.0 0.0 0.0 0.05263157894736842 0.0 0.05263157894736842 0.05263157894736842 0.10526315789473684 0.10526315789473684 0.26315789473684215 0.10526315789473684 0.21052631578947367 0.05263157894736842 0.0 0.0 0.0 0.0 0.0 0.0 0.0 0.0 0.0 0.0 0.04761904761904762 0.04761904761904762 0.2380952380952381 0.09523809523809525 0.2380952380952381 0.09523809523809525 0.1904761904761905 0.0 0.04761904761904762 0.0 0.0 0.0 0.0 0.0 0.0 0.0 0.05 0.05 0.0 0.05 0.25 0.25 0.2 0.15 0.0 0.0 0.0 0.0 0.0 0.0 0.0 0.0 0.0 0.0 0.0 0.0 0.0 0.0 0.2857142857142857 0.14285714285714285 0.3571428571428571 0.2142857142857143 0.0 0.0 0.0 0.0 0.0 0.0 0.0 0.0 0.0 0.0 0.0 0.0 0.07142857142857142 0.07142857142857142 0.4285714285714286 0.2142857142857143 0.2142857142857143 0.0 0.0 0.0 0.0 0.0 0.0 0.0 0.0 0.0 0.0 0.0 0.0 0.0 0.11764705882352941 0.23529411764705882 0.23529411764705882 0.29411764705882354 0.11764705882352941 0.0 0.0 0.0 0.0 0.0 0.0 0.0 0.0 0.0 0.0 0.0 0.0 0.0 0.07142857142857142 0.0 0.7142857142857142 0.2142857142857143 0.0 0.0 0.0 0.0 0.0 0.0 0.0 0.0 0.0 0.0 0.0 0.0 0.0 0.0 0.11111111111111112 0.7777777777777778 0.11111111111111112 0.0 0.0 0.0 0.0 0.0 0.0 0.0 0.0 0.0 0.0 0.0 0.0 0.0 0.11111111111111112 0.0 0.4444444444444445 0.4444444444444445 0.0 0.0 0.0 0.0 0.0 0.0 0.0 0.0 0.0 0.0 0.0 0.0 0.0 0.0 0.058823529411764705 0.0 0.9411764705882353 0.0 0.0 0.0 0.0 0.0 0.0 0.0 0.0 0.0 0.0 0.0 0.0 0.0 0.0 0.0 0.0 1.0 0.0 0.05263157894736842 0.05263157894736842 0.15789473684210525 0.15789473684210525 0.10526315789473684 0.15789473684210525 0.05263157894736842 0.15789473684210525 0.10526315789473684 0.0 0.0 0.0 0.0 0.0 0.0 0.0 0.0 0.0 0.0 0.0 0.0 0.08333333333333333 0.08333333333333333 0.16666666666666666 0.25 0.08333333333333333 0.08333333333333333 0.0 0.25 0.0 0.0 0.0 0.0 0.0 0.0 0.0 0.0 0.0 0.0 0.04761904761904762 0.09523809523809525 0.1904761904761905 0.1904761904761905 0.2380952380952381 0.09523809523809525 0.09523809523809525 0.0 0.0 0.04761904761904762 0.0 0.0 0.0 0.0 0.0 0.0 0.05263157894736842 0.0 0.05263157894736842 0.05263157894736842 0.15789473684210525 0.21052631578947367 0.10526315789473684 0.21052631578947367 0.05263157894736842 0.10526315789473684 0.0 0.0 0.0 0.0 0.0 0.0 0.0 0.0 0.0 0.0 0.0 0.0 0.0 0.2777777777777778 0.4444444444444445 0.11111111111111112 0.16666666666666666 0.0 0.0 0.0 0.0 0.0 0.0 0.0 0.0 0.0 0.0 0.0 0.07142857142857142 0.14285714285714285 0.14285714285714285 0.14285714285714285 0.21428571428571427 0.21428571428571427 0.0 0.07142857142857142 0.0 0.0 0.0 0.0 0.0 0.0 0.0 0.0 0.0 0.15384615384615383 0.15384615384615383 0.07692307692307691 0.15384615384615383 0.15384615384615383 0.30769230769230765 0.0 0.0 0.0 0.0 0.0 0.0 0.0 0.0 0.0 0.0 0.0 0.0 0.041666666666666664 0.0 0.12499999999999999 0.29166666666666663 0.37499999999999994 0.12499999999999999 0.041666666666666664 0.0 0.0 0.0 0.0 0.0 0.0 0.0 0.0 0.0 0.0 0.0 0.0 0.23076923076923078 0.23076923076923078 0.23076923076923078 0.30769230769230765 0.0 0.0 0.0 0.0 0.0 0.0 0.0 0.0 0.0 0.0 0.0 0.0 0.05 0.0 0.1 0.35 0.3 0.2 0.0 0.0 0.0 0.0 0.0 0.0 0.0 0.0 0.0 0.0 0.0 0.0 0.0 0.05263157894736842 0.26315789473684215 0.42105263157894735 0.26315789473684215 0.0 0.0 0.0 0.0 0.0 0.0 0.0 0.0 0.0 0.0 0.0 0.0 0.0 0.0 0.14285714285714285 0.4285714285714286 0.4285714285714286 0.0 0.0 0.0 0.0 0.0 0.0 0.0 0.0 0.0 0.0 0.0 0.0 0.0 0.0 0.13333333333333333 0.5333333333333333 0.3333333333333333 0.0 0.0 0.0 0.0 0.0 0.0 0.0 0.0 0.0 0.0 0.0 0.0 0.0 0.0 0.0 0.47058823529411764 0.5294117647058824 0.0 0.0 0.0 0.0 0.0 0.0 0.0 0.0 0.0 0.0 0.0 0.0 0.0 0.0 0.0 0.2272727272727273 0.7727272727272727 0.0 0.0 0.0 0.0 0.0 0.0 0.0 0.0 0.0 0.0 0.0 0.0 0.0 0.0 0.0 0.0 1.0 0.0 0.0 0.0 0.0 0.0 0.0 0.0 0.0 0.0 0.0 0.0 0.0 0.0 0.0 0.0 0.0 1.0 </TABLE>
    </DEFINITION>
    <DEFINITION>
      <FOR>E</FOR>
      <GIVEN>C</GIVEN>
      <GIVEN>D</GIVEN>
      <TABLE>0.9998933447098979 6.665955631399319e-06 6.665955631399319e-06 6.665955631399319e-06 6.665955631399319e-06 6.665955631399319e-06 6.665955631399319e-06 6.665955631399319e-06 6.665955631399319e-06 6.665955631399319e-06 6.665955631399319e-06 6.665955631399319e-06 6.665955631399319e-06 6.665955631399319e-06 6.665955631399319e-06 6.665955631399319e-06 6.665955631399319e-06 0.9229780325734334 0.07691483604778611 7.142091918722996e-06 7.142091918722996e-06 7.142091918722996e-06 7.142091918722996e-06 7.142091918722996e-06 7.142091918722996e-06 7.142091918722996e-06 7.142091918722996e-06 7.142091918722996e-06 7.142091918722996e-06 7.142091918722996e-06 7.142091918722996e-06 7.142091918722996e-06 7.142091918722996e-06 7.142091918722996e-06 0.4285314323044136 0.4285314323044136 0.14284381076813785 6.6660445025131004e-06 6.6660445025131004e-06 6.6660445025131004e-06 6.6660445025131004e-06 6.6660445025131004e-06 6.6660445025131004e-06 6.6660445025131004e-06 6.6660445025131004e-06 6.6660445025131004e-06 6.6660445025131004e-06 6.6660445025131004e-06 6.6660445025131004e-06 6.6660445025131004e-06 6.6660445025131004e-06 0.052627894994718795 0.7367905299260632 0.21051157997887518 4.999650024498286e-06 4.999650024498286e-06 4.999650024498286e-06 4.999650024498286e-06 4.999650024498286e-06 4.999650024498286e-06 4.999650024498286e-06 4.999650024498286e-06 4.999650024498286e-06 4.999650024498286e-06 4.999650024498286e-06 4.999650024498286e-06 4.999650024498286e-06 4.999650024498286e-06 4.3475614527811355e-06 0.2727106729471803 0.6817766823679509 0.045451778824530054 4.3475614527811355e-06 4.3475614527811355e-06 4.3475614527811355e-06 4.3475614527811355e-06 4.3475614527811355e-06 4.3475614527811355e-06 4.3475614527811355e-06 4.3475614527811355e-06 4.3475614527811355e-06 4.3475614527811355e-06 4.3475614527811355e-06 4.3475614527811355e-06 4.3475614527811355e-06 4.761609995571703e-06 0.09999380990700578 0.34997833467452016 0.49996904953502885 0.04999690495350289 4.761609995571703e-06 4.761609995571703e-06 4.761609995571703e-06 4.761609995571703e-06 4.761609995571703e-06 4.761609995571703e-06 4.761609995571703e-06 4.761609995571703e-06 4.761609995571703e-06 4.761609995571703e-06 4.761609995571703e-06 4.761609995571703e-06 4.545165307662241e-06 4.545165307662241e-06 0.14284805252652755 0.5237761925972677 0.33331212256189763 4.545165307662241e-06 4.545165307662241e-06 4.545165307662241e-06 4.545165307662241e-06 4.545165307662241e-06 4.545165307662241e-06 4.545165307662241e-06 4.545165307662241e-06 4.545165307662241e-06 4.545165307662241e-06 4.545165307662241e-06 4.545165307662241e-06 5.262797808570994e-06 5.262797808570994e-06 0.05555175464602715 0.27775877323013576 0.4999657918142444 0.16665526393808144 5.262797808570994e-06 5.262797808570994e-06 5.262797808570994e-06 5.262797808570994e-06 5.262797808570994e-06 5.262797808570994e-06 5.262797808570994e-06 5.262797808570994e-06 5.262797808570994e-06 5.262797808570994e-06 5.262797808570994e-06 4.166440984446676e-06 4.166440984446676e-06 4.166440984446676e-06 0.1304277177739829 0.3912831533219487 0.3478072473972877 0.1304277177739829 4.166440984446676e-06 4.166440984446676e-06 4.166440984446676e-06 4.166440984446676e-06 4.166440984446676e-06 4.166440984446676e-06 4.166440984446676e-06 4.166440984446676e-06 4.166440984446676e-06 4.166440984446676e-06 5.555123490395192e-06 5.555123490395192e-06 5.555123490395192e-06 5.555123490395192e-06 5.555123490395192e-06 0.29409477302092196 0.41173268222929077 0.29409477302092196 5.555123490395192e-06 5.555123490395192e-06 5.555123490395192e-06 5.555123490395192e-06 5.555123490395192e-06 5.555123490395192e-06 5.555123490395192e-06 5.555123490395192e-06 5.555123490395192e-06 5.8819031485827565e-06 5.8819031485827565e-06 5.8819031485827565e-06 5.8819031485827565e-06 5.8819031485827565e-06 0.06249522095369179 0.31247610476845894 0.37497132572215075 0.24998088381476716 5.8819031485827565e-06 5.8819031485827565e-06 5.8819031485827565e-06 5.8819031485827565e-06 5.8819031485827565e-06 5.8819031485827565e-06 5.8819031485827565e-06 5.8819031485827565e-06 6.6660445025131004e-06 6.6660445025131004e-06 6.6660445025131004e-06 6.6660445025131004e-06 6.6660445025131004e-06 6.6660445025131004e-06 6.6660445025131004e-06 0.5713752430725514 0.2856876215362757 0.14284381076813785 6.6660445025131004e-06 6.6660445025131004e-06 6.6660445025131004e-06 6.6660445025131004e-06 6.6660445025131004e-06 6.6660445025131004e-06 6.6660445025131004e-06 4.7616099955717026e-06 4.7616099955717026e-06 4.7616099955717026e-06 4.7616099955717026e-06 4.7616099955717026e-06 4.7616099955717026e-06 4.7616099955717026e-06 0.09999380990700577 0.39997523962802306 0.39997523962802306 0.09999380990700577 4.7616099955717026e-06 4.7616099955717026e-06 4.7616099955717026e-06 4.7616099955717026e-06 4.7616099955717026e-06 4.7616099955717026e-06 5.5551543499636136e-06 5.5551543499636136e-06 5.5551543499636136e-06 5.5551543499636136e-06 5.5551543499636136e-06 5.5551543499636136e-06 5.5551543499636136e-06 0.11763856270511182 0.1764578440576677 0.1764578440576677 0.5293735321730032 5.5551543499636136e-06 5.5551543499636136e-06 5.5551543499636136e-06 5.5551543499636136e-06 5.5551543499636136e-06 5.5551543499636136e-06 7.142193939134225e-06 7.142193939134225e-06 7.142193939134225e-06 7.142193939134225e-06 7.142193939134225e-06 7.142193939134225e-06 7.142193939134225e-06 7.142193939134225e-06 7.142193939134225e-06 7.142193939134225e-06 0.3076637389165512 0.3076637389165512 0.23074780418741342 0.1538318694582756 7.142193939134225e-06 7.142193939134225e-06 7.142193939134225e-06 5.5551234903951915e-06 5.5551234903951915e-06 5.5551234903951915e-06 5.5551234903951915e-06 5.5551234903951915e-06 5.5551234903951915e-06 5.5551234903951915e-06 5.5551234903951915e-06 5.5551234903951915e-06 5.5551234903951915e-06 5.5551234903951915e-06 5.5551234903951915e-06 0.2940947730209219 0.47055163683347506 0.23527581841673753 5.5551234903951915e-06 5.5551234903951915e-06 5.5551543499636136e-06 5.5551543499636136e-06 5.5551543499636136e-06 5.5551543499636136e-06 5.5551543499636136e-06 5.5551543499636136e-06 5.5551543499636136e-06 5.5551543499636136e-06 5.5551543499636136e-06 5.5551543499636136e-06 5.5551543499636136e-06 5.5551543499636136e-06 5.5551543499636136e-06 0.05881928135255591 0.3529156881153354 0.4117349694678914 0.1764578440576677 0.9999111190116436 5.555061772286909e-06 5.555061772286909e-06 5.555061772286909e-06 5.555061772286909e-06 5.555061772286909e-06 5.555061772286909e-06 5.555061772286909e-06 5.555061772286909e-06 5.555061772286909e-06 5.555061772286909e-06 5.555061772286909e-06 5.555061772286909e-06 5.555061772286909e-06 5.555061772286909e-06 5.555061772286909e-06 5.555061772286909e-06 0.7499338293679971 0.2499779431226657 5.881833955827428e-06 5.881833955827428e-06 5.881833955827428e-06 5.881833955827428e-06 5.881833955827428e-06 5.881833955827428e-06 5.881833955827428e-06 5.881833955827428e-06 5.881833955827428e-06 5.881833955827428e-06 5.881833955827428e-06 5.881833955827428e-06 5.881833955827428e-06 5.881833955827428e-06 5.881833955827428e-06 0.1304271743568582 0.8260387709267685 0.043475724785619396 4.166423625288526e-06 4.166423625288526e-06 4.166423625288526e-06 4.166423625288526e-06 4.166423625288526e-06 4.166423625288526e-06 4.166423625288526e-06 4.166423625288526e-06 4.166423625288526e-06 4.166423625288526e-06 4.166423625288526e-06 4.166423625288526e-06 4.166423625288526e-06 4.166423625288526e-06 5.5550926311696264e-06 0.2940931392972155 0.7058235343133171 5.5550926311696264e-06 5.5550926311696264e-06 5.5550926311696264e-06 5.5550926311696264e-06 5.5550926311696264e-06 5.5550926311696264e-06 5.5550926311696264e-06 5.5550926311696264e-06 5.5550926311696264e-06 5.5550926311696264e-06 5.5550926311696264e-06 5.5550926311696264e-06 5.5550926311696264e-06 5.5550926311696264e-06 4.999625028122892e-06 4.999625028122892e-06 0.6841592143747115 0.31576579124986687 4.999625028122892e-06 4.999625028122892e-06 4.999625028122892e-06 4.999625028122892e-06 4.999625028122892e-06 4.999625028122892e-06 4.999625028122892e-06 4.999625028122892e-06 4.999625028122892e-06 4.999625028122892e-06 4.999625028122892e-06 4.999625028122892e-06 4.999625028122892e-06 5.881833955827428e-06 5.881833955827428e-06 5.881833955827428e-06 0.4999558862453314 0.4999558862453314 5.881833955827428e-06 5.881833955827428e-06 5.881833955827428e-06 5.881833955827428e-06 5.881833955827428e-06 5.881833955827428e-06 5.881833955827428e-06 5.881833955827428e-06 5.881833955827428e-06 5.881833955827428e-06 5.881833955827428e-06 5.881833955827428e-06 6.249453172847378e-06 6.249453172847378e-06 6.249453172847378e-06 0.13332166768741072 0.6666083384370535 0.19998250153111607 6.249453172847378e-06 6.249453172847378e-06 6.249453172847378e-06 6.249453172847378e-06 6.249453172847378e-06 6.249453172847378e-06 6.249453172847378e-06 6.249453172847378e-06 6.249453172847378e-06 6.249453172847378e-06 6.249453172847378e-06 4.761587322749913e-06 4.761587322749913e-06 4.761587322749913e-06 4.761587322749913e-06 0.2999800013332445 0.599960002666489 0.09999333377774818 4.761587322749913e-06 4.761587322749913e-06 4.761587322749913e-06 4.761587322749913e-06 4.761587322749913e-06 4.761587322749913e-06 4.761587322749913e-06 4.761587322749913e-06 4.761587322749913e-06 4.761587322749913e-06 5.8819031485827565e-06 5.8819031485827565e-06 5.8819031485827565e-06 5.8819031485827565e-06 0.06249522095369179 0.24998088381476716 0.5624569885832261 0.12499044190738358 5.8819031485827565e-06 5.8819031485827565e-06 5.8819031485827565e-06 5.8819031485827565e-06 5.8819031485827565e-06 5.8819031485827565e-06 5.8819031485827565e-06 5.8819031485827565e-06 5.8819031485827565e-06 4.347580354153897e-06 4.347580354153897e-06 4.347580354153897e-06 4.347580354153897e-06 4.347580354153897e-06 0.04545197642979073 0.3181638350085351 0.49997174072769807 0.1363559292893722 4.347580354153897e-06 4.347580354153897e-06 4.347580354153897e-06 4.347580354153897e-06 4.347580354153897e-06 4.347580354153897e-06 4.347580354153897e-06 4.347580354153897e-06 5.8818685520016e-06 5.8818685520016e-06 5.8818685520016e-06 5.8818685520016e-06 5.8818685520016e-06 5.8818685520016e-06 5.8818685520016e-06 0.374969120190102 0.562453680285153 0.062494853365017 5.8818685520016e-06 5.8818685520016e-06 5.8818685520016e-06 5.8818685520016e-06 5.8818685520016e-06 5.8818685520016e-06 5.8818685520016e-06 4.3475614527811355e-06 4.3475614527811355e-06 4.3475614527811355e-06 4.3475614527811355e-06 4.3475614527811355e-06 4.3475614527811355e-06 4.3475614527811355e-06 4.3475614527811355e-06 0.3636142305962404 0.5908731247188906 0.04545177882453005 4.3475614527811355e-06 4.3475614527811355e-06 4.3475614527811355e-06 4.3475614527811355e-06 4.3475614527811355e-06 4.3475614527811355e-06 8.332361224523808e-06 8.332361224523808e-06 8.332361224523808e-06 8.332361224523808e-06 8.332361224523808e-06 8.332361224523808e-06 8.332361224523808e-06 8.332361224523808e-06 0.09089848608571426 0.363593944342857 0.5453909165142856 8.332361224523808e-06 8.332361224523808e-06 8.332361224523808e-06 8.332361224523808e-06 8.332361224523808e-06 8.332361224523808e-06 5.8818685520016e-06 5.8818685520016e-06 5.8818685520016e-06 5.8818685520016e-06 5.8818685520016e-06 5.8818685520016e-06 5.8818685520016e-06 5.8818685520016e-06 5.8818685520016e-06 5.8818685520016e-06 0.312474266825085 0.62494853365017 0.062494853365017 5.8818685520016e-06 5.8818685520016e-06 5.8818685520016e-06 5.8818685520016e-06 5.262770111675982e-06 5.262770111675982e-06 5.262770111675982e-06 5.262770111675982e-06 5.262770111675982e-06 5.262770111675982e-06 5.262770111675982e-06 5.262770111675982e-06 5.262770111675982e-06 5.262770111675982e-06 5.262770111675982e-06 0.22220584915965255 0.388860236029392 0.388860236029392 5.262770111675982e-06 5.262770111675982e-06 5.262770111675982e-06 6.249492228756413e-06 6.249492228756413e-06 6.249492228756413e-06 6.249492228756413e-06 6.249492228756413e-06 6.249492228756413e-06 6.249492228756413e-06 6.249492228756413e-06 6.249492228756413e-06 6.249492228756413e-06 6.249492228756413e-06 6.249492228756413e-06 0.1333225008801368 0.3999675026404105 0.33330625220034205 0.1333225008801368 6.249492228756413e-06 6.249414117426491e-06 6.249414117426491e-06 6.249414117426491e-06 6.249414117426491e-06 6.249414117426491e-06 6.249414117426491e-06 6.249414117426491e-06 6.249414117426491e-06 6.249414117426491e-06 6.249414117426491e-06 6.249414117426491e-06 6.249414117426491e-06 6.249414117426491e-06 6.249414117426491e-06 6.249414117426491e-06 0.4666229207678447 0.533283338020394 0.9999238153283561 4.761541977754077e-06 4.761541977754077e-06 4.761541977754077e-06 4.761541977754077e-06 4.761541977754077e-06 4.761541977754077e-06 4.761541977754077e-06 4.761541977754077e-06 4.761541977754077e-06 4.761541977754077e-06 4.761541977754077e-06 4.761541977754077e-06 4.761541977754077e-06 4.761541977754077e-06 4.761541977754077e-06 4.761541977754077e-06 0.6427928635707859 0.3571071464282144 6.666000066660002e-06 6.666000066660002e-06 6.666000066660002e-06 6.666000066660002e-06 6.666000066660002e-06 6.666000066660002e-06 6.666000066660002e-06 6.666000066660002e-06 6.666000066660002e-06 6.666000066660002e-06 6.666000066660002e-06 6.666000066660002e-06 6.666000066660002e-06 6.666000066660002e-06 6.666000066660002e-06 0.04999666688887409 0.7499500033331112 0.19998666755549635 4.761587322749913e-06 4.761587322749913e-06 4.761587322749913e-06 4.761587322749913e-06 4.761587322749913e-06 4.761587322749913e-06 4.761587322749913e-06 4.761587322749913e-06 4.761587322749913e-06 4.761587322749913e-06 4.761587322749913e-06 4.761587322749913e-06 4.761587322749913e-06 4.761587322749913e-06 5.8818685520016015e-06 0.06249485336501701 0.6874433870151871 0.24997941346006805 5.8818685520016015e-06 5.8818685520016015e-06 5.8818685520016015e-06 5.8818685520016015e-06 5.8818685520016015e-06 5.8818685520016015e-06 5.8818685520016015e-06 5.8818685520016015e-06 5.8818685520016015e-06 5.8818685520016015e-06 5.8818685520016015e-06 5.8818685520016015e-06 5.8818685520016015e-06 6.6660445025131004e-06 6.6660445025131004e-06 0.2856876215362757 0.6427971484566204 0.07142190538406892 6.6660445025131004e-06 6.6660445025131004e-06 6.6660445025131004e-06 6.6660445025131004e-06 6.6660445025131004e-06 6.6660445025131004e-06 6.6660445025131004e-06 6.6660445025131004e-06 6.6660445025131004e-06 6.6660445025131004e-06 6.6660445025131004e-06 6.6660445025131004e-06 7.691479379143785e-06 7.691479379143785e-06 7.691479379143785e-06 0.4999461596443461 0.41662179970362173 0.08332435994072433 7.691479379143785e-06 7.691479379143785e-06 7.691479379143785e-06 7.691479379143785e-06 7.691479379143785e-06 7.691479379143785e-06 7.691479379143785e-06 7.691479379143785e-06 7.691479379143785e-06 7.691479379143785e-06 7.691479379143785e-06 8.332361224523808e-06 8.332361224523808e-06 8.332361224523808e-06 8.332361224523808e-06 0.363593944342857 0.5453909165142856 0.09089848608571426 8.332361224523808e-06 8.332361224523808e-06 8.332361224523808e-06 8.332361224523808e-06 8.332361224523808e-06 8.332361224523808e-06 8.332361224523808e-06 8.332361224523808e-06 8.332361224523808e-06 8.332361224523808e-06 4.3475614527811355e-06 4.3475614527811355e-06 4.3475614527811355e-06 4.3475614527811355e-06 0.09090355764906011 0.4999695670698306 0.4090660094207705 4.3475614527811355e-06 4.3475614527811355e-06 4.3475614527811355e-06 4.3475614527811355e-06 4.3475614527811355e-06 4.3475614527811355e-06 4.3475614527811355e-06 4.3475614527811355e-06 4.3475614527811355e-06 4.3475614527811355e-06 4.999675021123627e-06 4.999675021123627e-06 4.999675021123627e-06 4.999675021123627e-06 4.999675021123627e-06 0.052628158117090804 0.6315378974050897 0.2631407905854541 0.052628158117090804 4.999675021123627e-06 4.999675021123627e-06 4.999675021123627e-06 4.999675021123627e-06 4.999675021123627e-06 4.999675021123627e-06 4.999675021123627e-06 4.999675021123627e-06 7.691479379143787e-06 7.691479379143787e-06 7.691479379143787e-06 7.691479379143787e-06 7.691479379143787e-06 7.691479379143787e-06 0.1666487198814487 0.5832705195850705 0.24997307982217307 7.691479379143787e-06 7.691479379143787e-06 7.691479379143787e-06 7.691479379143787e-06 7.691479379143787e-06 7.691479379143787e-06 7.691479379143787e-06 7.691479379143787e-06 5.8818685520016e-06 5.8818685520016e-06 5.8818685520016e-06 5.8818685520016e-06 5.8818685520016e-06 5.8818685520016e-06 5.8818685520016e-06 0.124989706730034 0.562453680285153 0.312474266825085 5.8818685520016e-06 5.8818685520016e-06 5.8818685520016e-06 5.8818685520016e-06 5.8818685520016e-06 5.8818685520016e-06 5.8818685520016e-06 4.761609995571703e-06 4.761609995571703e-06 4.761609995571703e-06 4.761609995571703e-06 4.761609995571703e-06 4.761609995571703e-06 4.761609995571703e-06 0.04999690495350289 0.19998761981401156 0.5499659544885318 0.19998761981401156 4.761609995571703e-06 4.761609995571703e-06 4.761609995571703e-06 4.761609995571703e-06 4.761609995571703e-06 4.761609995571703e-06 5.5551234903951915e-06 5.5551234903951915e-06 5.5551234903951915e-06 5.5551234903951915e-06 5.5551234903951915e-06 5.5551234903951915e-06 5.5551234903951915e-06 5.5551234903951915e-06 5.5551234903951915e-06 0.11763790920836877 0.47055163683347506 0.41173268222929066 5.5551234903951915e-06 5.5551234903951915e-06 5.5551234903951915e-06 5.5551234903951915e-06 5.5551234903951915e-06 5.8818685520016015e-06 5.8818685520016015e-06 5.8818685520016015e-06 5.8818685520016015e-06 5.8818685520016015e-06 5.8818685520016015e-06 5.8818685520016015e-06 5.8818685520016015e-06 5.8818685520016015e-06 5.8818685520016015e-06 0.12498970673003403 0.6249485336501701 0.24997941346006805 5.8818685520016015e-06 5.8818685520016015e-06 5.8818685520016015e-06 5.8818685520016015e-06 4.761587322749912e-06 4.761587322749912e-06 4.761587322749912e-06 4.761587322749912e-06 4.761587322749912e-06 4.761587322749912e-06 4.761587322749912e-06 4.761587322749912e-06 4.761587322749912e-06 4.761587322749912e-06 4.761587322749912e-06 0.049996666888874074 0.49996666888874075 0.44997000199986664 4.761587322749912e-06 4.761587322749912e-06 4.761587322749912e-06 3.703525385814757e-06 3.703525385814757e-06 3.703525385814757e-06 3.703525385814757e-06 3.703525385814757e-06 3.703525385814757e-06 3.703525385814757e-06 3.703525385814757e-06 3.703525385814757e-06 3.703525385814757e-06 3.703525385814757e-06 3.703525385814757e-06 0.03845968669884556 0.30767749359076446 0.5384356137838378 0.11537906009653666 3.703525385814757e-06 4.999625028122891e-06 4.999625028122891e-06 4.999625028122891e-06 4.999625028122891e-06 4.999625028122891e-06 4.999625028122891e-06 4.999625028122891e-06 4.999625028122891e-06 4.999625028122891e-06 4.999625028122891e-06 4.999625028122891e-06 4.999625028122891e-06 4.999625028122891e-06 4.999625028122891e-06 4.999625028122891e-06 0.6841592143747114 0.3157657912498668 0.9999111190116436 5.555061772286909e-06 5.555061772286909e-06 5.555061772286909e-06 5.555061772286909e-06 5.555061772286909e-06 5.555061772286909e-06 5.555061772286909e-06 5.555061772286909e-06 5.555061772286909e-06 5.555061772286909e-06 5.555061772286909e-06 5.555061772286909e-06 5.555061772286909e-06 5.555061772286909e-06 5.555061772286909e-06 5.555061772286909e-06 0.5293676507349878 0.4705490228755448 5.5550926311696264e-06 5.5550926311696264e-06 5.5550926311696264e-06 5.5550926311696264e-06 5.5550926311696264e-06 5.5550926311696264e-06 5.5550926311696264e-06 5.5550926311696264e-06 5.5550926311696264e-06 5.5550926311696264e-06 5.5550926311696264e-06 5.5550926311696264e-06 5.5550926311696264e-06 5.5550926311696264e-06 5.5550926311696264e-06 3.9997600143991366e-06 0.6666266690665227 0.33331333453326134 3.9997600143991366e-06 3.9997600143991366e-06 3.9997600143991366e-06 3.9997600143991366e-06 3.9997600143991366e-06 3.9997600143991366e-06 3.9997600143991366e-06 3.9997600143991366e-06 3.9997600143991366e-06 3.9997600143991366e-06 3.9997600143991366e-06 3.9997600143991366e-06 3.9997600143991366e-06 3.9997600143991366e-06 5.881833955827428e-06 5.881833955827428e-06 0.6874393435873307 0.3124724289033321 5.881833955827428e-06 5.881833955827428e-06 5.881833955827428e-06 5.881833955827428e-06 5.881833955827428e-06 5.881833955827428e-06 5.881833955827428e-06 5.881833955827428e-06 5.881833955827428e-06 5.881833955827428e-06 5.881833955827428e-06 5.881833955827428e-06 5.881833955827428e-06 4.545165307662241e-06 4.545165307662241e-06 0.09523203501768504 0.7142402626326377 0.19046407003537008 4.545165307662241e-06 4.545165307662241e-06 4.545165307662241e-06 4.545165307662241e-06 4.545165307662241e-06 4.545165307662241e-06 4.545165307662241e-06 4.545165307662241e-06 4.545165307662241e-06 4.545165307662241e-06 4.545165307662241e-06 4.545165307662241e-06 5.8818685520016015e-06 5.8818685520016015e-06 5.8818685520016015e-06 0.31247426682508506 0.43746397355511907 0.24997941346006805 5.8818685520016015e-06 5.8818685520016015e-06 5.8818685520016015e-06 5.8818685520016015e-06 5.8818685520016015e-06 5.8818685520016015e-06 5.8818685520016015e-06 5.8818685520016015e-06 5.8818685520016015e-06 5.8818685520016015e-06 5.8818685520016015e-06 4.9996500244982855e-06 4.9996500244982855e-06 4.9996500244982855e-06 4.9996500244982855e-06 0.47365105495246906 0.36839526496303154 0.15788368498415636 4.9996500244982855e-06 4.9996500244982855e-06 4.9996500244982855e-06 4.9996500244982855e-06 4.9996500244982855e-06 4.9996500244982855e-06 4.9996500244982855e-06 4.9996500244982855e-06 4.9996500244982855e-06 4.9996500244982855e-06 6.249492228756415e-06 6.249492228756415e-06 6.249492228756415e-06 6.249492228756415e-06 0.06666125044006842 0.3999675026404106 0.46662875308047896 0.06666125044006842 6.249492228756415e-06 6.249492228756415e-06 6.249492228756415e-06 6.249492228756415e-06 6.249492228756415e-06 6.249492228756415e-06 6.249492228756415e-06 6.249492228756415e-06 6.249492228756415e-06 8.33243065334589e-06 8.33243065334589e-06 8.33243065334589e-06 8.33243065334589e-06 8.33243065334589e-06 0.09089924349104606 0.3635969739641842 0.45449621745523033 0.09089924349104606 8.33243065334589e-06 8.33243065334589e-06 8.33243065334589e-06 8.33243065334589e-06 8.33243065334589e-06 8.33243065334589e-06 8.33243065334589e-06 8.33243065334589e-06 5.262742415072495e-06 5.262742415072495e-06 5.262742415072495e-06 5.262742415072495e-06 5.262742415072495e-06 5.262742415072495e-06 5.262742415072495e-06 0.44440935949501065 0.5555116993687633 5.262742415072495e-06 5.262742415072495e-06 5.262742415072495e-06 5.262742415072495e-06 5.262742415072495e-06 5.262742415072495e-06 5.262742415072495e-06 5.262742415072495e-06 5.881903148582756e-06 5.881903148582756e-06 5.881903148582756e-06 5.881903148582756e-06 5.881903148582756e-06 5.881903148582756e-06 5.881903148582756e-06 0.12499044190738355 0.18748566286107532 0.4999617676295342 0.18748566286107532 5.881903148582756e-06 5.881903148582756e-06 5.881903148582756e-06 5.881903148582756e-06 5.881903148582756e-06 5.881903148582756e-06 6.249453172847378e-06 6.249453172847378e-06 6.249453172847378e-06 6.249453172847378e-06 6.249453172847378e-06 6.249453172847378e-06 6.249453172847378e-06 6.249453172847378e-06 0.13332166768741072 0.33330416921852674 0.5332866707496429 6.249453172847378e-06 6.249453172847378e-06 6.249453172847378e-06 6.249453172847378e-06 6.249453172847378e-06 6.249453172847378e-06 3.845961548076442e-06 3.845961548076442e-06 3.845961548076442e-06 3.845961548076442e-06 3.845961548076442e-06 3.845961548076442e-06 3.845961548076442e-06 3.845961548076442e-06 3.845961548076442e-06 0.039998000099995004 0.47997600119994 0.39998000099995 0.07999600019999001 3.845961548076442e-06 3.845961548076442e-06 3.845961548076442e-06 3.845961548076442e-06 4.999650024498286e-06 4.999650024498286e-06 4.999650024498286e-06 4.999650024498286e-06 4.999650024498286e-06 4.999650024498286e-06 4.999650024498286e-06 4.999650024498286e-06 4.999650024498286e-06 4.999650024498286e-06 0.1578836849841564 0.42102315995775036 0.42102315995775036 4.999650024498286e-06 4.999650024498286e-06 4.999650024498286e-06 4.999650024498286e-06 7.142142928564286e-06 7.142142928564286e-06 7.142142928564286e-06 7.142142928564286e-06 7.142142928564286e-06 7.142142928564286e-06 7.142142928564286e-06 7.142142928564286e-06 7.142142928564286e-06 7.142142928564286e-06 7.142142928564286e-06 7.142142928564286e-06 0.2307461561536154 0.4614923123072308 0.30766154153815384 7.142142928564286e-06 7.142142928564286e-06 5.8818685520016e-06 5.8818685520016e-06 5.8818685520016e-06 5.8818685520016e-06 5.8818685520016e-06 5.8818685520016e-06 5.8818685520016e-06 5.8818685520016e-06 5.8818685520016e-06 5.8818685520016e-06 5.8818685520016e-06 5.8818685520016e-06 5.8818685520016e-06 0.124989706730034 0.499958826920136 0.374969120190102 5.8818685520016e-06 5.8818685520016e-06 5.8818685520016e-06 5.8818685520016e-06 5.8818685520016e-06 5.8818685520016e-06 5.8818685520016e-06 5.8818685520016e-06 5.8818685520016e-06 5.8818685520016e-06 5.8818685520016e-06 5.8818685520016e-06 5.8818685520016e-06 5.8818685520016e-06 5.8818685520016e-06 0.062494853365017 0.249979413460068 0.6874433870151869 0.9472973737496004 0.05262763187497781 4.999625028122892e-06 4.999625028122892e-06 4.999625028122892e-06 4.999625028122892e-06 4.999625028122892e-06 4.999625028122892e-06 4.999625028122892e-06 4.999625028122892e-06 4.999625028122892e-06 4.999625028122892e-06 4.999625028122892e-06 4.999625028122892e-06 4.999625028122892e-06 4.999625028122892e-06 4.999625028122892e-06 0.17390217459234886 0.8260353293136571 4.166406266275025e-06 4.166406266275025e-06 4.166406266275025e-06 4.166406266275025e-06 4.166406266275025e-06 4.166406266275025e-06 4.166406266275025e-06 4.166406266275025e-06 4.166406266275025e-06 4.166406266275025e-06 4.166406266275025e-06 4.166406266275025e-06 4.166406266275025e-06 4.166406266275025e-06 4.166406266275025e-06 5.555123490395192e-06 0.3529137276251063 0.5293705914376595 0.11763790920836878 5.555123490395192e-06 5.555123490395192e-06 5.555123490395192e-06 5.555123490395192e-06 5.555123490395192e-06 5.555123490395192e-06 5.555123490395192e-06 5.555123490395192e-06 5.555123490395192e-06 5.555123490395192e-06 5.555123490395192e-06 5.555123490395192e-06 5.555123490395192e-06 3.703497953817381e-06 3.703497953817381e-06 0.6922692329058643 0.3076752146248286 3.703497953817381e-06 3.703497953817381e-06 3.703497953817381e-06 3.703497953817381e-06 3.703497953817381e-06 3.703497953817381e-06 3.703497953817381e-06 3.703497953817381e-06 3.703497953817381e-06 3.703497953817381e-06 3.703497953817381e-06 3.703497953817381e-06 3.703497953817381e-06 5.8818685520016015e-06 5.8818685520016015e-06 0.06249485336501701 0.3749691201901021 0.5624536802851531 5.8818685520016015e-06 5.8818685520016015e-06 5.8818685520016015e-06 5.8818685520016015e-06 5.8818685520016015e-06 5.8818685520016015e-06 5.8818685520016015e-06 5.8818685520016015e-06 5.8818685520016015e-06 5.8818685520016015e-06 5.8818685520016015e-06 5.8818685520016015e-06 4.54516530766224e-06 4.54516530766224e-06 4.54516530766224e-06 0.09523203501768503 0.5237761925972676 0.3809281400707401 4.54516530766224e-06 4.54516530766224e-06 4.54516530766224e-06 4.54516530766224e-06 4.54516530766224e-06 4.54516530766224e-06 4.54516530766224e-06 4.54516530766224e-06 4.54516530766224e-06 4.54516530766224e-06 4.54516530766224e-06 3.845946756713101e-06 3.845946756713101e-06 3.845946756713101e-06 3.845946756713101e-06 0.0799956925396325 0.5599698477774274 0.35998061642834617 3.845946756713101e-06 3.845946756713101e-06 3.845946756713101e-06 3.845946756713101e-06 3.845946756713101e-06 3.845946756713101e-06 3.845946756713101e-06 3.845946756713101e-06 3.845946756713101e-06 3.845946756713101e-06 9.089752213354668e-06 9.089752213354668e-06 9.089752213354668e-06 9.089752213354668e-06 9.089752213354668e-06 0.19997454869380268 0.5999236460814079 0.19997454869380268 9.089752213354668e-06 9.089752213354668e-06 9.089752213354668e-06 9.089752213354668e-06 9.089752213354668e-06 9.089752213354668e-06 9.089752213354668e-06 9.089752213354668e-06 9.089752213354668e-06 7.691479379143785e-06 7.691479379143785e-06 7.691479379143785e-06 7.691479379143785e-06 7.691479379143785e-06 7.691479379143785e-06 0.33329743976289733 0.4999461596443461 0.16664871988144866 7.691479379143785e-06 7.691479379143785e-06 7.691479379143785e-06 7.691479379143785e-06 7.691479379143785e-06 7.691479379143785e-06 7.691479379143785e-06 7.691479379143785e-06 5.555123490395192e-06 5.555123490395192e-06 5.555123490395192e-06 5.555123490395192e-06 5.555123490395192e-06 5.555123490395192e-06 5.555123490395192e-06 0.41173268222929077 0.5293705914376595 0.05881895460418439 5.555123490395192e-06 5.555123490395192e-06 5.555123490395192e-06 5.555123490395192e-06 5.555123490395192e-06 5.555123490395192e-06 5.555123490395192e-06 5.555123490395192e-06 5.555123490395192e-06 5.555123490395192e-06 5.555123490395192e-06 5.555123490395192e-06 5.555123490395192e-06 5.555123490395192e-06 5.555123490395192e-06 0.3529137276251063 0.5293705914376595 0.11763790920836878 5.555123490395192e-06 5.555123490395192e-06 5.555123490395192e-06 5.555123490395192e-06 5.555123490395192e-06 5.555123490395192e-06 1.1109259567849805e-05 1.1109259567849805e-05 1.1109259567849805e-05 1.1109259567849805e-05 1.1109259567849805e-05 1.1109259567849805e-05 1.1109259567849805e-05 1.1109259567849805e-05 1.1109259567849805e-05 0.3749375104149309 0.6248958506915515 1.1109259567849805e-05 1.1109259567849805e-05 1.1109259567849805e-05 1.1109259567849805e-05 1.1109259567849805e-05 1.1109259567849805e-05 4.9996500244982855e-06 4.9996500244982855e-06 4.9996500244982855e-06 4.9996500244982855e-06 4.9996500244982855e-06 4.9996500244982855e-06 4.9996500244982855e-06 4.9996500244982855e-06 4.9996500244982855e-06 4.9996500244982855e-06 0.26313947497359397 0.5789068449419067 0.15788368498415636 4.9996500244982855e-06 4.9996500244982855e-06 4.9996500244982855e-06 4.9996500244982855e-06 7.142142928564286e-06 7.142142928564286e-06 7.142142928564286e-06 7.142142928564286e-06 7.142142928564286e-06 7.142142928564286e-06 7.142142928564286e-06 7.142142928564286e-06 7.142142928564286e-06 7.142142928564286e-06 7.142142928564286e-06 0.2307461561536154 0.4614923123072308 0.30766154153815384 7.142142928564286e-06 7.142142928564286e-06 7.142142928564286e-06 6.666044502513099e-06 6.666044502513099e-06 6.666044502513099e-06 6.666044502513099e-06 6.666044502513099e-06 6.666044502513099e-06 6.666044502513099e-06 6.666044502513099e-06 6.666044502513099e-06 6.666044502513099e-06 6.666044502513099e-06 6.666044502513099e-06 0.14284381076813782 0.6427971484566202 0.21426571615220674 6.666044502513099e-06 6.666044502513099e-06 4.761587322749912e-06 4.761587322749912e-06 4.761587322749912e-06 4.761587322749912e-06 4.761587322749912e-06 4.761587322749912e-06 4.761587322749912e-06 4.761587322749912e-06 4.761587322749912e-06 4.761587322749912e-06 4.761587322749912e-06 4.761587322749912e-06 4.761587322749912e-06 0.049996666888874074 0.44997000199986664 0.49996666888874075 4.761587322749912e-06 5.5551234903951915e-06 5.5551234903951915e-06 5.5551234903951915e-06 5.5551234903951915e-06 5.5551234903951915e-06 5.5551234903951915e-06 5.5551234903951915e-06 5.5551234903951915e-06 5.5551234903951915e-06 5.5551234903951915e-06 5.5551234903951915e-06 5.5551234903951915e-06 5.5551234903951915e-06 5.5551234903951915e-06 0.05881895460418438 0.47055163683347506 0.47055163683347506 0.8888187189900214 0.11110233987375268 5.262742415072496e-06 5.262742415072496e-06 5.262742415072496e-06 5.262742415072496e-06 5.262742415072496e-06 5.262742415072496e-06 5.262742415072496e-06 5.262742415072496e-06 5.262742415072496e-06 5.262742415072496e-06 5.262742415072496e-06 5.262742415072496e-06 5.262742415072496e-06 5.262742415072496e-06 5.262742415072496e-06 0.2999800013332445 0.6499566695553631 0.04999666688887409 4.761587322749913e-06 4.761587322749913e-06 4.761587322749913e-06 4.761587322749913e-06 4.761587322749913e-06 4.761587322749913e-06 4.761587322749913e-06 4.761587322749913e-06 4.761587322749913e-06 4.761587322749913e-06 4.761587322749913e-06 4.761587322749913e-06 4.761587322749913e-06 4.761587322749913e-06 5.555123490395192e-06 0.41173268222929077 0.5293705914376595 0.05881895460418439 5.555123490395192e-06 5.555123490395192e-06 5.555123490395192e-06 5.555123490395192e-06 5.555123490395192e-06 5.555123490395192e-06 5.555123490395192e-06 5.555123490395192e-06 5.555123490395192e-06 5.555123490395192e-06 5.555123490395192e-06 5.555123490395192e-06 5.555123490395192e-06 5.881833955827428e-06 5.881833955827428e-06 0.3124724289033321 0.6874393435873307 5.881833955827428e-06 5.881833955827428e-06 5.881833955827428e-06 5.881833955827428e-06 5.881833955827428e-06 5.881833955827428e-06 5.881833955827428e-06 5.881833955827428e-06 5.881833955827428e-06 5.881833955827428e-06 5.881833955827428e-06 5.881833955827428e-06 5.881833955827428e-06 5.262797808570994e-06 5.262797808570994e-06 0.05555175464602715 0.6110693011062986 0.27775877323013576 0.05555175464602715 5.262797808570994e-06 5.262797808570994e-06 5.262797808570994e-06 5.262797808570994e-06 5.262797808570994e-06 5.262797808570994e-06 5.262797808570994e-06 5.262797808570994e-06 5.262797808570994e-06 5.262797808570994e-06 5.262797808570994e-06 8.332291796858729e-06 8.332291796858729e-06 8.332291796858729e-06 8.332291796858729e-06 0.5453863721580258 0.4544886434650215 8.332291796858729e-06 8.332291796858729e-06 8.332291796858729e-06 8.332291796858729e-06 8.332291796858729e-06 8.332291796858729e-06 8.332291796858729e-06 8.332291796858729e-06 8.332291796858729e-06 8.332291796858729e-06 8.332291796858729e-06 5.555123490395192e-06 5.555123490395192e-06 5.555123490395192e-06 5.555123490395192e-06 0.11763790920836878 0.5293705914376595 0.3529137276251063 5.555123490395192e-06 5.555123490395192e-06 5.555123490395192e-06 5.555123490395192e-06 5.555123490395192e-06 5.555123490395192e-06 5.555123490395192e-06 5.555123490395192e-06 5.555123490395192e-06 5.555123490395192e-06 6.249453172847378e-06 6.249453172847378e-06 6.249453172847378e-06 6.249453172847378e-06 6.249453172847378e-06 0.06666083384370536 0.6666083384370535 0.26664333537482143 6.249453172847378e-06 6.249453172847378e-06 6.249453172847378e-06 6.249453172847378e-06 6.249453172847378e-06 6.249453172847378e-06 6.249453172847378e-06 6.249453172847378e-06 6.249453172847378e-06 4.3475614527811355e-06 4.3475614527811355e-06 4.3475614527811355e-06 4.3475614527811355e-06 4.3475614527811355e-06 4.3475614527811355e-06 0.045451778824530054 0.7272284611924809 0.2272588941226503 4.3475614527811355e-06 4.3475614527811355e-06 4.3475614527811355e-06 4.3475614527811355e-06 4.3475614527811355e-06 4.3475614527811355e-06 4.3475614527811355e-06 4.3475614527811355e-06 4.166423625288525e-06 4.166423625288525e-06 4.166423625288525e-06 4.166423625288525e-06 4.166423625288525e-06 4.166423625288525e-06 4.166423625288525e-06 0.08695144957123878 0.5217086974274326 0.3912815230705745 4.166423625288525e-06 4.166423625288525e-06 4.166423625288525e-06 4.166423625288525e-06 4.166423625288525e-06 4.166423625288525e-06 4.166423625288525e-06 4.545165307662241e-06 4.545165307662241e-06 4.545165307662241e-06 4.545165307662241e-06 4.545165307662241e-06 4.545165307662241e-06 4.545165307662241e-06 4.545165307662241e-06 0.2856961050530551 0.5237761925972677 0.19046407003537008 4.545165307662241e-06 4.545165307662241e-06 4.545165307662241e-06 4.545165307662241e-06 4.545165307662241e-06 4.545165307662241e-06 6.249453172847378e-06 6.249453172847378e-06 6.249453172847378e-06 6.249453172847378e-06 6.249453172847378e-06 6.249453172847378e-06 6.249453172847378e-06 6.249453172847378e-06 6.249453172847378e-06 0.33330416921852674 0.5332866707496429 0.13332166768741072 6.249453172847378e-06 6.249453172847378e-06 6.249453172847378e-06 6.249453172847378e-06 6.249453172847378e-06 6.6660445025131004e-06 6.6660445025131004e-06 6.6660445025131004e-06 6.6660445025131004e-06 6.6660445025131004e-06 6.6660445025131004e-06 6.6660445025131004e-06 6.6660445025131004e-06 6.6660445025131004e-06 6.6660445025131004e-06 0.07142190538406892 0.7142190538406893 0.2142657161522068 6.6660445025131004e-06 6.6660445025131004e-06 6.6660445025131004e-06 6.6660445025131004e-06 5.262770111675982e-06 5.262770111675982e-06 5.262770111675982e-06 5.262770111675982e-06 5.262770111675982e-06 5.262770111675982e-06 5.262770111675982e-06 5.262770111675982e-06 5.262770111675982e-06 5.262770111675982e-06 5.262770111675982e-06 0.05555146228991314 0.5555146228991313 0.388860236029392 5.262770111675982e-06 5.262770111675982e-06 5.262770111675982e-06 5.5551234903951915e-06 5.5551234903951915e-06 5.5551234903951915e-06 5.5551234903951915e-06 5.5551234903951915e-06 5.5551234903951915e-06 5.5551234903951915e-06 5.5551234903951915e-06 5.5551234903951915e-06 5.5551234903951915e-06 5.5551234903951915e-06 5.5551234903951915e-06 0.11763790920836877 0.47055163683347506 0.41173268222929066 5.5551234903951915e-06 5.5551234903951915e-06 7.142091918722995e-06 7.142091918722995e-06 7.142091918722995e-06 7.142091918722995e-06 7.142091918722995e-06 7.142091918722995e-06 7.142091918722995e-06 7.142091918722995e-06 7.142091918722995e-06 7.142091918722995e-06 7.142091918722995e-06 7.142091918722995e-06 7.142091918722995e-06 7.142091918722995e-06 0.4614890162867165 0.5384038523345026 7.142091918722995e-06 4.999625028122891e-06 4.999625028122891e-06 4.999625028122891e-06 4.999625028122891e-06 4.999625028122891e-06 4.999625028122891e-06 4.999625028122891e-06 4.999625028122891e-06 4.999625028122891e-06 4.999625028122891e-06 4.999625028122891e-06 4.999625028122891e-06 4.999625028122891e-06 4.999625028122891e-06 4.999625028122891e-06 0.47364868687480016 0.526276318749778 0.9443698889268977 0.05555116993687634 5.262742415072496e-06 5.262742415072496e-06 5.262742415072496e-06 5.262742415072496e-06 5.262742415072496e-06 5.262742415072496e-06 5.262742415072496e-06 5.262742415072496e-06 5.262742415072496e-06 5.262742415072496e-06 5.262742415072496e-06 5.262742415072496e-06 5.262742415072496e-06 5.262742415072496e-06 5.262742415072496e-06 0.26664166901019704 0.7332645897780418 6.249414117426493e-06 6.249414117426493e-06 6.249414117426493e-06 6.249414117426493e-06 6.249414117426493e-06 6.249414117426493e-06 6.249414117426493e-06 6.249414117426493e-06 6.249414117426493e-06 6.249414117426493e-06 6.249414117426493e-06 6.249414117426493e-06 6.249414117426493e-06 6.249414117426493e-06 6.249414117426493e-06 7.691479379143787e-06 0.33329743976289744 0.4999461596443462 0.16664871988144872 7.691479379143787e-06 7.691479379143787e-06 7.691479379143787e-06 7.691479379143787e-06 7.691479379143787e-06 7.691479379143787e-06 7.691479379143787e-06 7.691479379143787e-06 7.691479379143787e-06 7.691479379143787e-06 7.691479379143787e-06 7.691479379143787e-06 7.691479379143787e-06 4.761587322749913e-06 4.761587322749913e-06 0.2499833344443704 0.5499633357776149 0.19998666755549635 4.761587322749913e-06 4.761587322749913e-06 4.761587322749913e-06 4.761587322749913e-06 4.761587322749913e-06 4.761587322749913e-06 4.761587322749913e-06 4.761587322749913e-06 4.761587322749913e-06 4.761587322749913e-06 4.761587322749913e-06 4.761587322749913e-06 4.7615646501440385e-06 4.7615646501440385e-06 4.7615646501440385e-06 0.3999714306120992 0.5999571459181487 4.7615646501440385e-06 4.7615646501440385e-06 4.7615646501440385e-06 4.7615646501440385e-06 4.7615646501440385e-06 4.7615646501440385e-06 4.7615646501440385e-06 4.7615646501440385e-06 4.7615646501440385e-06 4.7615646501440385e-06 4.7615646501440385e-06 4.7615646501440385e-06 4.999650024498286e-06 4.999650024498286e-06 4.999650024498286e-06 4.999650024498286e-06 0.21051157997887518 0.7367905299260632 0.052627894994718795 4.999650024498286e-06 4.999650024498286e-06 4.999650024498286e-06 4.999650024498286e-06 4.999650024498286e-06 4.999650024498286e-06 4.999650024498286e-06 4.999650024498286e-06 4.999650024498286e-06 4.999650024498286e-06 5.555123490395192e-06 5.555123490395192e-06 5.555123490395192e-06 5.555123490395192e-06 5.555123490395192e-06 0.5293705914376595 0.41173268222929077 0.05881895460418439 5.555123490395192e-06 5.555123490395192e-06 5.555123490395192e-06 5.555123490395192e-06 5.555123490395192e-06 5.555123490395192e-06 5.555123490395192e-06 5.555123490395192e-06 5.555123490395192e-06 3.999792010815438e-06 3.999792010815438e-06 3.999792010815438e-06 3.999792010815438e-06 3.999792010815438e-06 0.04166450011266081 0.3333160009012865 0.5833030015772513 0.04166450011266081 3.999792010815438e-06 3.999792010815438e-06 3.999792010815438e-06 3.999792010815438e-06 3.999792010815438e-06 3.999792010815438e-06 3.999792010815438e-06 3.999792010815438e-06 6.249492228756415e-06 6.249492228756415e-06 6.249492228756415e-06 6.249492228756415e-06 6.249492228756415e-06 6.249492228756415e-06 0.06666125044006842 0.3333062522003421 0.46662875308047896 0.13332250088013683 6.249492228756415e-06 6.249492228756415e-06 6.249492228756415e-06 6.249492228756415e-06 6.249492228756415e-06 6.249492228756415e-06 6.249492228756415e-06 4.999625028122892e-06 4.999625028122892e-06 4.999625028122892e-06 4.999625028122892e-06 4.999625028122892e-06 4.999625028122892e-06 4.999625028122892e-06 4.999625028122892e-06 0.5262763187497781 0.4736486868748002 4.999625028122892e-06 4.999625028122892e-06 4.999625028122892e-06 4.999625028122892e-06 4.999625028122892e-06 4.999625028122892e-06 4.999625028122892e-06 8.33243065334589e-06 8.33243065334589e-06 8.33243065334589e-06 8.33243065334589e-06 8.33243065334589e-06 8.33243065334589e-06 8.33243065334589e-06 8.33243065334589e-06 0.09089924349104604 0.18179848698209208 0.5453954609462763 0.18179848698209208 8.33243065334589e-06 8.33243065334589e-06 8.33243065334589e-06 8.33243065334589e-06 8.33243065334589e-06 4.166440984446676e-06 4.166440984446676e-06 4.166440984446676e-06 4.166440984446676e-06 4.166440984446676e-06 4.166440984446676e-06 4.166440984446676e-06 4.166440984446676e-06 4.166440984446676e-06 0.1304277177739829 0.5217108710959316 0.30433134147262675 0.04347590592466096 4.166440984446676e-06 4.166440984446676e-06 4.166440984446676e-06 4.166440984446676e-06 5.8818685520016015e-06 5.8818685520016015e-06 5.8818685520016015e-06 5.8818685520016015e-06 5.8818685520016015e-06 5.8818685520016015e-06 5.8818685520016015e-06 5.8818685520016015e-06 5.8818685520016015e-06 5.8818685520016015e-06 0.06249485336501701 0.4999588269201361 0.43746397355511907 5.8818685520016015e-06 5.8818685520016015e-06 5.8818685520016015e-06 5.8818685520016015e-06 6.249453172847376e-06 6.249453172847376e-06 6.249453172847376e-06 6.249453172847376e-06 6.249453172847376e-06 6.249453172847376e-06 6.249453172847376e-06 6.249453172847376e-06 6.249453172847376e-06 6.249453172847376e-06 6.249453172847376e-06 0.06666083384370534 0.4666258369059374 0.4666258369059374 6.249453172847376e-06 6.249453172847376e-06 6.249453172847376e-06 8.332361224523808e-06 8.332361224523808e-06 8.332361224523808e-06 8.332361224523808e-06 8.332361224523808e-06 8.332361224523808e-06 8.332361224523808e-06 8.332361224523808e-06 8.332361224523808e-06 8.332361224523808e-06 8.332361224523808e-06 8.332361224523808e-06 0.09089848608571424 0.5453909165142855 0.36359394434285697 8.332361224523808e-06 8.332361224523808e-06 6.249414117426491e-06 6.249414117426491e-06 6.249414117426491e-06 6.249414117426491e-06 6.249414117426491e-06 6.249414117426491e-06 6.249414117426491e-06 6.249414117426491e-06 6.249414117426491e-06 6.249414117426491e-06 6.249414117426491e-06 6.249414117426491e-06 6.249414117426491e-06 6.249414117426491e-06 0.266641669010197 0.7332645897780415 6.249414117426491e-06 3.9997600143991366e-06 3.9997600143991366e-06 3.9997600143991366e-06 3.9997600143991366e-06 3.9997600143991366e-06 3.9997600143991366e-06 3.9997600143991366e-06 3.9997600143991366e-06 3.9997600143991366e-06 3.9997600143991366e-06 3.9997600143991366e-06 3.9997600143991366e-06 3.9997600143991366e-06 3.9997600143991366e-06 3.9997600143991366e-06 0.20832083408328833 0.7916191695164957 0.9284785807133574 0.07142142928564288 6.666000066660002e-06 6.666000066660002e-06 6.666000066660002e-06 6.666000066660002e-06 6.666000066660002e-06 6.666000066660002e-06 6.666000066660002e-06 6.666000066660002e-06 6.666000066660002e-06 6.666000066660002e-06 6.666000066660002e-06 6.666000066660002e-06 6.666000066660002e-06 6.666000066660002e-06 6.666000066660002e-06 0.05881895460418439 0.7646464098543971 0.17645686381255316 5.555123490395192e-06 5.555123490395192e-06 5.555123490395192e-06 5.555123490395192e-06 5.555123490395192e-06 5.555123490395192e-06 5.555123490395192e-06 5.555123490395192e-06 5.555123490395192e-06 5.555123490395192e-06 5.555123490395192e-06 5.555123490395192e-06 5.555123490395192e-06 5.555123490395192e-06 4.761587322749914e-06 0.14999000066662227 0.6999533364442373 0.14999000066662227 4.761587322749914e-06 4.761587322749914e-06 4.761587322749914e-06 4.761587322749914e-06 4.761587322749914e-06 4.761587322749914e-06 4.761587322749914e-06 4.761587322749914e-06 4.761587322749914e-06 4.761587322749914e-06 4.761587322749914e-06 4.761587322749914e-06 4.761587322749914e-06 4.3475614527811355e-06 4.3475614527811355e-06 0.09090355764906011 0.5454213458943606 0.36361423059624043 4.3475614527811355e-06 4.3475614527811355e-06 4.3475614527811355e-06 4.3475614527811355e-06 4.3475614527811355e-06 4.3475614527811355e-06 4.3475614527811355e-06 4.3475614527811355e-06 4.3475614527811355e-06 4.3475614527811355e-06 4.3475614527811355e-06 4.3475614527811355e-06 5.555123490395192e-06 5.555123490395192e-06 5.555123490395192e-06 0.23527581841673756 0.5881895460418439 0.17645686381255316 5.555123490395192e-06 5.555123490395192e-06 5.555123490395192e-06 5.555123490395192e-06 5.555123490395192e-06 5.555123490395192e-06 5.555123490395192e-06 5.555123490395192e-06 5.555123490395192e-06 5.555123490395192e-06 5.555123490395192e-06 5.8818685520016015e-06 5.8818685520016015e-06 5.8818685520016015e-06 5.8818685520016015e-06 0.12498970673003403 0.7499382403802042 0.12498970673003403 5.8818685520016015e-06 5.8818685520016015e-06 5.8818685520016015e-06 5.8818685520016015e-06 5.8818685520016015e-06 5.8818685520016015e-06 5.8818685520016015e-06 5.8818685520016015e-06 5.8818685520016015e-06 5.8818685520016015e-06 5.555123490395192e-06 5.555123490395192e-06 5.555123490395192e-06 5.555123490395192e-06 5.555123490395192e-06 0.29409477302092196 0.5293705914376595 0.17645686381255316 5.555123490395192e-06 5.555123490395192e-06 5.555123490395192e-06 5.555123490395192e-06 5.555123490395192e-06 5.555123490395192e-06 5.555123490395192e-06 5.555123490395192e-06 5.555123490395192e-06 4.3475614527811355e-06 4.3475614527811355e-06 4.3475614527811355e-06 4.3475614527811355e-06 4.3475614527811355e-06 4.3475614527811355e-06 0.2272588941226503 0.5454213458943606 0.2272588941226503 4.3475614527811355e-06 4.3475614527811355e-06 4.3475614527811355e-06 4.3475614527811355e-06 4.3475614527811355e-06 4.3475614527811355e-06 4.3475614527811355e-06 4.3475614527811355e-06 5.2628255057575315e-06 5.2628255057575315e-06 5.2628255057575315e-06 5.2628255057575315e-06 5.2628255057575315e-06 5.2628255057575315e-06 0.05555204700521838 0.33331228203131025 0.44441637604174705 0.11110409401043676 0.05555204700521838 5.2628255057575315e-06 5.2628255057575315e-06 5.2628255057575315e-06 5.2628255057575315e-06 5.2628255057575315e-06 5.2628255057575315e-06 7.142091918722996e-06 7.142091918722996e-06 7.142091918722996e-06 7.142091918722996e-06 7.142091918722996e-06 7.142091918722996e-06 7.142091918722996e-06 7.142091918722996e-06 0.30765934419114443 0.6922335244300749 7.142091918722996e-06 7.142091918722996e-06 7.142091918722996e-06 7.142091918722996e-06 7.142091918722996e-06 7.142091918722996e-06 7.142091918722996e-06 6.249414117426491e-06 6.249414117426491e-06 6.249414117426491e-06 6.249414117426491e-06 6.249414117426491e-06 6.249414117426491e-06 6.249414117426491e-06 6.249414117426491e-06 6.249414117426491e-06 0.533283338020394 0.4666229207678447 6.249414117426491e-06 6.249414117426491e-06 6.249414117426491e-06 6.249414117426491e-06 6.249414117426491e-06 6.249414117426491e-06 7.142142928564286e-06 7.142142928564286e-06 7.142142928564286e-06 7.142142928564286e-06 7.142142928564286e-06 7.142142928564286e-06 7.142142928564286e-06 7.142142928564286e-06 7.142142928564286e-06 7.142142928564286e-06 0.5384076976917692 0.2307461561536154 0.2307461561536154 7.142142928564286e-06 7.142142928564286e-06 7.142142928564286e-06 7.142142928564286e-06 6.249453172847376e-06 6.249453172847376e-06 6.249453172847376e-06 6.249453172847376e-06 6.249453172847376e-06 6.249453172847376e-06 6.249453172847376e-06 6.249453172847376e-06 6.249453172847376e-06 6.249453172847376e-06 6.249453172847376e-06 0.4666258369059374 0.4666258369059374 0.06666083384370534 6.249453172847376e-06 6.249453172847376e-06 6.249453172847376e-06 3.703511669765271e-06 3.703511669765271e-06 3.703511669765271e-06 3.703511669765271e-06 3.703511669765271e-06 3.703511669765271e-06 3.703511669765271e-06 3.703511669765271e-06 3.703511669765271e-06 3.703511669765271e-06 3.703511669765271e-06 3.703511669765271e-06 0.30767635410357635 0.6538122524700998 0.038459544262947044 3.703511669765271e-06 3.703511669765271e-06 4.999625028122891e-06 4.999625028122891e-06 4.999625028122891e-06 4.999625028122891e-06 4.999625028122891e-06 4.999625028122891e-06 4.999625028122891e-06 4.999625028122891e-06 4.999625028122891e-06 4.999625028122891e-06 4.999625028122891e-06 4.999625028122891e-06 4.999625028122891e-06 0.21051052749991117 0.7894144781246669 4.999625028122891e-06 4.999625028122891e-06 6.666000066660001e-06 6.666000066660001e-06 6.666000066660001e-06 6.666000066660001e-06 6.666000066660001e-06 6.666000066660001e-06 6.666000066660001e-06 6.666000066660001e-06 6.666000066660001e-06 6.666000066660001e-06 6.666000066660001e-06 6.666000066660001e-06 6.666000066660001e-06 6.666000066660001e-06 0.4285285757138572 0.5713714342851429 6.666000066660001e-06 5.881833955827427e-06 5.881833955827427e-06 5.881833955827427e-06 5.881833955827427e-06 5.881833955827427e-06 5.881833955827427e-06 5.881833955827427e-06 5.881833955827427e-06 5.881833955827427e-06 5.881833955827427e-06 5.881833955827427e-06 5.881833955827427e-06 5.881833955827427e-06 5.881833955827427e-06 5.881833955827427e-06 0.37496691468399845 0.6249448578066641 0.8094686184816405 0.1904632043486213 4.545144649228463e-06 4.545144649228463e-06 4.545144649228463e-06 4.545144649228463e-06 4.545144649228463e-06 4.545144649228463e-06 4.545144649228463e-06 4.545144649228463e-06 4.545144649228463e-06 4.545144649228463e-06 4.545144649228463e-06 4.545144649228463e-06 4.545144649228463e-06 4.545144649228463e-06 4.545144649228463e-06 0.052627894994718795 0.526278949947188 0.42102315995775036 4.999650024498286e-06 4.999650024498286e-06 4.999650024498286e-06 4.999650024498286e-06 4.999650024498286e-06 4.999650024498286e-06 4.999650024498286e-06 4.999650024498286e-06 4.999650024498286e-06 4.999650024498286e-06 4.999650024498286e-06 4.999650024498286e-06 4.999650024498286e-06 4.999650024498286e-06 5.555123490395192e-06 0.05881895460418439 0.7646464098543971 0.17645686381255316 5.555123490395192e-06 5.555123490395192e-06 5.555123490395192e-06 5.555123490395192e-06 5.555123490395192e-06 5.555123490395192e-06 5.555123490395192e-06 5.555123490395192e-06 5.555123490395192e-06 5.555123490395192e-06 5.555123490395192e-06 5.555123490395192e-06 5.555123490395192e-06 5.555123490395192e-06 5.555123490395192e-06 0.05881895460418439 0.7058274552502126 0.23527581841673756 5.555123490395192e-06 5.555123490395192e-06 5.555123490395192e-06 5.555123490395192e-06 5.555123490395192e-06 5.555123490395192e-06 5.555123490395192e-06 5.555123490395192e-06 5.555123490395192e-06 5.555123490395192e-06 5.555123490395192e-06 5.555123490395192e-06 5.8818685520016015e-06 5.8818685520016015e-06 5.8818685520016015e-06 0.06249485336501701 0.8124330937452211 0.12498970673003403 5.8818685520016015e-06 5.8818685520016015e-06 5.8818685520016015e-06 5.8818685520016015e-06 5.8818685520016015e-06 5.8818685520016015e-06 5.8818685520016015e-06 5.8818685520016015e-06 5.8818685520016015e-06 5.8818685520016015e-06 5.8818685520016015e-06 5.262797808570993e-06 5.262797808570993e-06 5.262797808570993e-06 5.262797808570993e-06 0.16665526393808142 0.6110693011062985 0.16665526393808142 0.05555175464602714 5.262797808570993e-06 5.262797808570993e-06 5.262797808570993e-06 5.262797808570993e-06 5.262797808570993e-06 5.262797808570993e-06 5.262797808570993e-06 5.262797808570993e-06 5.262797808570993e-06 4.545165307662241e-06 4.545165307662241e-06 4.545165307662241e-06 4.545165307662241e-06 4.545165307662241e-06 0.2380800875442126 0.6666242451237953 0.09523203501768504 4.545165307662241e-06 4.545165307662241e-06 4.545165307662241e-06 4.545165307662241e-06 4.545165307662241e-06 4.545165307662241e-06 4.545165307662241e-06 4.545165307662241e-06 4.545165307662241e-06 5.8818685520016015e-06 5.8818685520016015e-06 5.8818685520016015e-06 5.8818685520016015e-06 5.8818685520016015e-06 5.8818685520016015e-06 0.24997941346006805 0.6249485336501701 0.12498970673003403 5.8818685520016015e-06 5.8818685520016015e-06 5.8818685520016015e-06 5.8818685520016015e-06 5.8818685520016015e-06 5.8818685520016015e-06 5.8818685520016015e-06 5.8818685520016015e-06 5.262770111675982e-06 5.262770111675982e-06 5.262770111675982e-06 5.262770111675982e-06 5.262770111675982e-06 5.262770111675982e-06 5.262770111675982e-06 0.27775731144956567 0.5555146228991313 0.1666543868697394 5.262770111675982e-06 5.262770111675982e-06 5.262770111675982e-06 5.262770111675982e-06 5.262770111675982e-06 5.262770111675982e-06 5.262770111675982e-06 5.262770111675983e-06 5.262770111675983e-06 5.262770111675983e-06 5.262770111675983e-06 5.262770111675983e-06 5.262770111675983e-06 5.262770111675983e-06 5.262770111675983e-06 0.2222058491596526 0.4444116983193052 0.33330877373947887 5.262770111675983e-06 5.262770111675983e-06 5.262770111675983e-06 5.262770111675983e-06 5.262770111675983e-06 5.262770111675983e-06 4.999675021123627e-06 4.999675021123627e-06 4.999675021123627e-06 4.999675021123627e-06 4.999675021123627e-06 4.999675021123627e-06 4.999675021123627e-06 4.999675021123627e-06 0.052628158117090804 0.21051263246836321 0.5789097392879989 0.15788447435127242 4.999675021123627e-06 4.999675021123627e-06 4.999675021123627e-06 4.999675021123627e-06 4.999675021123627e-06 5.262770111675982e-06 5.262770111675982e-06 5.262770111675982e-06 5.262770111675982e-06 5.262770111675982e-06 5.262770111675982e-06 5.262770111675982e-06 5.262770111675982e-06 5.262770111675982e-06 5.262770111675982e-06 0.22220584915965255 0.4444116983193051 0.3333087737394788 5.262770111675982e-06 5.262770111675982e-06 5.262770111675982e-06 