<?xml version='1.0' encoding='utf-8'?>
<BIF VERSION="0.3">
  <NETWORK>
    <NAME>UNTITLED</NAME>
    <VARIABLE TYPE="nature">
      <NAME>A</NAME>
      <OUTCOME>_13_537_15_301_</OUTCOME>
      <OUTCOME>_15_301_17_05_</OUTCOME>
      <OUTCOME>_17_05_18_799_</OUTCOME>
      <OUTCOME>_18_799_20_548_</OUTCOME>
      <OUTCOME>_20_548_22_297_</OUTCOME>
      <OUTCOME>_22_297_24_046_</OUTCOME>
      <OUTCOME>_24_046_25_796_</OUTCOME>
      <OUTCOME>_25_796_27_545_</OUTCOME>
      <PROPERTY />
    </VARIABLE>
    <VARIABLE TYPE="nature">
      <NAME>B</NAME>
      <OUTCOME>_13_137_14_911_</OUTCOME>
      <OUTCOME>_14_911_16_672_</OUTCOME>
      <OUTCOME>_16_672_18_432_</OUTCOME>
      <OUTCOME>_18_432_20_193_</OUTCOME>
      <OUTCOME>_20_193_21_954_</OUTCOME>
      <OUTCOME>_21_954_23_714_</OUTCOME>
      <OUTCOME>_23_714_25_475_</OUTCOME>
      <OUTCOME>_25_475_27_235_</OUTCOME>
      <PROPERTY />
    </VARIABLE>
    <VARIABLE TYPE="nature">
      <NAME>C</NAME>
      <OUTCOME>_8_149_9_884_</OUTCOME>
      <OUTCOME>_9_884_11_604_</OUTCOME>
      <OUTCOME>_11_604_13_325_</OUTCOME>
      <OUTCOME>_13_325_15_046_</OUTCOME>
      <OUTCOME>_15_046_16_767_</OUTCOME>
      <OUTCOME>_16_767_18_487_</OUTCOME>
      <OUTCOME>_18_487_20_208_</OUTCOME>
      <OUTCOME>_20_208_21_929_</OUTCOME>
      <PROPERTY />
    </VARIABLE>
    <VARIABLE TYPE="nature">
      <NAME>D</NAME>
      <OUTCOME>_76_422_82_848_</OUTCOME>
      <OUTCOME>_82_848_89_223_</OUTCOME>
      <OUTCOME>_89_223_95_597_</OUTCOME>
      <OUTCOME>_95_597_101_972_</OUTCOME>
      <OUTCOME>_101_972_108_347_</OUTCOME>
      <OUTCOME>_108_347_114_722_</OUTCOME>
      <OUTCOME>_114_722_121_097_</OUTCOME>
      <OUTCOME>_121_097_127_472_</OUTCOME>
      <PROPERTY />
    </VARIABLE>
    <VARIABLE TYPE="nature">
      <NAME>E</NAME>
      <OUTCOME>_272_551_291_527_</OUTCOME>
      <OUTCOME>_291_527_310_352_</OUTCOME>
      <OUTCOME>_310_352_329_177_</OUTCOME>
      <OUTCOME>_329_177_348_002_</OUTCOME>
      <OUTCOME>_348_002_366_828_</OUTCOME>
      <OUTCOME>_366_828_385_653_</OUTCOME>
      <OUTCOME>_385_653_404_478_</OUTCOME>
      <OUTCOME>_404_478_423_304_</OUTCOME>
      <PROPERTY />
    </VARIABLE>
    <DEFINITION>
      <FOR>A</FOR>
      <TABLE>0.0086 0.0616 0.19619999999999999 0.3426 0.2602 0.10900000000000001 0.0202 0.0015999999999999999 </TABLE>
    </DEFINITION>
    <DEFINITION>
      <FOR>B</FOR>
      <TABLE>0.0048 0.045 0.1682 0.3302 0.29359999999999997 0.1254 0.0306 0.0022 </TABLE>
    </DEFINITION>
    <DEFINITION>
      <FOR>C</FOR>
      <TABLE>0.006 0.0388 0.16219999999999998 0.2916 0.3162 0.1424 0.0382 0.0046 </TABLE>
    </DEFINITION>
    <DEFINITION>
      <FOR>D</FOR>
      <GIVEN>A</GIVEN>
      <GIVEN>B</GIVEN>
      <TABLE>0.125 0.125 0.125 0.125 0.125 0.125 0.125 0.125 1.0 0.0 0.0 0.0 0.0 0.0 0.0 0.0 0.7999999999999999 0.19999999999999998 0.0 0.0 0.0 0.0 0.0 0.0 0.0 0.7222222222222222 0.2777777777777778 0.0 0.0 0.0 0.0 0.0 0.0 0.07142857142857142 0.7142857142857142 0.2142857142857143 0.0 0.0 0.0 0.0 0.0 0.0 0.19999999999999998 0.7999999999999999 0.0 0.0 0.0 0.0 0.125 0.125 0.125 0.125 0.125 0.125 0.125 0.125 0.125 0.125 0.125 0.125 0.125 0.125 0.125 0.125 1.0 0.0 0.0 0.0 0.0 0.0 0.0 0.0 0.6428571428571428 0.3571428571428571 0.0 0.0 0.0 0.0 0.0 0.0 0.1111111111111111 0.7407407407407407 0.14814814814814817 0.0 0.0 0.0 0.0 0.0 0.0 0.3137254901960784 0.6274509803921569 0.058823529411764705 0.0 0.0 0.0 0.0 0.0 0.010638297872340425 0.4680851063829787 0.5106382978723404 0.010638297872340425 0.0 0.0 0.0 0.0 0.0 0.0 0.787878787878788 0.21212121212121213 0.0 0.0 0.0 0.0 0.0 0.0 0.11111111111111112 0.7777777777777778 0.11111111111111112 0.0 0.0 0.0 0.0 0.0 0.0 0.0 1.0 0.0 0.0 0.7999999999999999 0.19999999999999998 0.0 0.0 0.0 0.0 0.0 0.0 0.18604651162790697 0.7674418604651163 0.046511627906976744 0.0 0.0 0.0 0.0 0.0 0.006711409395973155 0.5302013422818792 0.4630872483221477 0.0 0.0 0.0 0.0 0.0 0.0 0.03235294117647059 0.6558823529411765 0.3088235294117647 0.0029411764705882353 0.0 0.0 0.0 0.0 0.0 0.10431654676258993 0.7410071942446044 0.15467625899280577 0.0 0.0 0.0 0.0 0.0 0.0 0.2578125 0.6875 0.0546875 0.0 0.0 0.0 0.0 0.0 0.0 0.611111111111111 0.3888888888888889 0.0 0.0 0.0 0.0 0.0 0.0 0.0 1.0 0.0 0.0 0.4444444444444445 0.5555555555555556 0.0 0.0 0.0 0.0 0.0 0.0 0.04938271604938272 0.7160493827160495 0.2345679012345679 0.0 0.0 0.0 0.0 0.0 0.0 0.10508474576271187 0.8203389830508474 0.07457627118644068 0.0 0.0 0.0 0.0 0.0 0.0 0.23062730627306274 0.7250922509225092 0.04428044280442805 0.0 0.0 0.0 0.0 0.0 0.007722007722007725 0.42664092664092673 0.5559845559845561 0.009652509652509654 0.0 0.0 0.0 0.0 0.0 0.013888888888888888 0.6203703703703705 0.3611111111111111 0.004629629629629629 0.0 0.0 0.0 0.0 0.0 0.10416666666666669 0.7291666666666667 0.16666666666666669 0.0 0.0 0.0 0.0 0.0 0.0 0.25 0.75 0.0 0.0 0.7999999999999999 0.19999999999999998 0.0 0.0 0.0 0.0 0.0 0.0 0.30357142857142855 0.6428571428571429 0.05357142857142857 0.0 0.0 0.0 0.0 0.0 0.01785714285714286 0.40625 0.5625 0.013392857142857144 0.0 0.0 0.0 0.0 0.0 0.02163461538461538 0.6418269230769229 0.3341346153846153 0.002403846153846154 0.0 0.0 0.0 0.0 0.0 0.08270676691729324 0.7518796992481204 0.16541353383458648 0.0 0.0 0.0 0.0 0.0 0.0 0.21341463414634146 0.7439024390243902 0.042682926829268296 0.0 0.0 0.0 0.0 0.0 0.0 0.48571428571428565 0.5142857142857142 0.0 0.0 0.0 0.0 0.0 0.0 0.0 0.5 0.5 0.0 0.6666666666666666 0.3333333333333333 0.0 0.0 0.0 0.0 0.0 0.0 0.04166666666666667 0.7083333333333333 0.25 0.0 0.0 0.0 0.0 0.0 0.0 0.11235955056179776 0.7752808988764045 0.11235955056179776 0.0 0.0 0.0 0.0 0.0 0.0 0.235 0.7 0.065 0.0 0.0 0.0 0.0 0.0 0.0 0.3722627737226277 0.6277372262773723 0.0 0.0 0.0 0.0 0.0 0.0 0.05714285714285714 0.5428571428571429 0.39999999999999997 0.0 0.0 0.0 0.0 0.0 0.0 0.05 0.65 0.3 0.0 0.0 0.0 0.0 0.0 0.0 0.0 1.0 0.0 0.0 1.0 0.0 0.0 0.0 0.0 0.0 0.0 0.0 0.0 1.0 0.0 0.0 0.0 0.0 0.0 0.0 0.0 0.36363636363636365 0.6363636363636364 0.0 0.0 0.0 0.0 0.0 0.0 0.0 0.7666666666666666 0.23333333333333334 0.0 0.0 0.0 0.0 0.0 0.0 0.03703703703703703 0.9259259259259258 0.03703703703703703 0.0 0.0 0.0 0.0 0.0 0.0 0.2727272727272727 0.6363636363636364 0.0909090909090909 0.0 0.0 0.0 0.0 0.0 0.0 0.6 0.39999999999999997 0.125 0.125 0.125 0.125 0.125 0.125 0.125 0.125 0.125 0.125 0.125 0.125 0.125 0.125 0.125 0.125 0.0 0.0 0.0 1.0 0.0 0.0 0.0 0.0 0.0 0.0 0.0 0.0 0.6666666666666666 0.3333333333333333 0.0 0.0 0.0 0.0 0.0 0.0 0.6666666666666666 0.0 0.3333333333333333 0.0 0.0 0.0 0.0 0.0 0.0 0.0 1.0 0.0 0.125 0.125 0.125 0.125 0.125 0.125 0.125 0.125 0.125 0.125 0.125 0.125 0.125 0.125 0.125 0.125 0.125 0.125 0.125 0.125 0.125 0.125 0.125 0.125 </TABLE>
    </DEFINITION>
    <DEFINITION>
      <FOR>E</FOR>
      <GIVEN>C</GIVEN>
      <GIVEN>D</GIVEN>
      <TABLE>0.9996501224571392 4.9982506122856967e-05 4.9982506122856967e-05 4.9982506122856967e-05 4.9982506122856967e-05 4.9982506122856967e-05 4.9982506122856967e-05 4.9982506122856967e-05 3.3325557369947e-05 0.9997667210984099 3.3325557369947e-05 3.3325557369947e-05 3.3325557369947e-05 3.3325557369947e-05 3.3325557369947e-05 3.3325557369947e-05 2.4996250562415647e-05 0.6665666816644172 0.3332833408322086 2.4996250562415647e-05 2.4996250562415647e-05 2.4996250562415647e-05 2.4996250562415647e-05 2.4996250562415647e-05 7.1425510335271354e-06 7.1425510335271354e-06 0.692278023249553 0.3076791214442458 7.1425510335271354e-06 7.1425510335271354e-06 7.1425510335271354e-06 7.1425510335271354e-06 1.6664722449047615e-05 1.6664722449047615e-05 1.6664722449047615e-05 0.9998833469428567 1.6664722449047615e-05 1.6664722449047615e-05 1.6664722449047615e-05 1.6664722449047615e-05 1.6665000166650003e-05 1.6665000166650003e-05 1.6665000166650003e-05 1.6665000166650003e-05 0.7999200079992002 0.19998000199980004 1.6665000166650003e-05 1.6665000166650003e-05 4.998250612285699e-05 4.998250612285699e-05 4.998250612285699e-05 4.998250612285699e-05 4.998250612285699e-05 0.9996501224571397 4.998250612285699e-05 4.998250612285699e-05 0.125 0.125 0.125 0.125 0.125 0.125 0.125 0.125 0.125 0.125 0.125 0.125 0.125 0.125 0.125 0.125 0.46151868216636877 0.5384384625274302 7.1425510335271354e-06 7.1425510335271354e-06 7.1425510335271354e-06 7.1425510335271354e-06 7.1425510335271354e-06 7.1425510335271354e-06 2.3809183678328394e-06 0.2926787457043295 0.707306968785463 2.3809183678328394e-06 2.3809183678328394e-06 2.3809183678328394e-06 2.3809183678328394e-06 2.3809183678328394e-06 1.3513403945373413e-06 1.3513403945373413e-06 0.5205437245806854 0.4794481673769471 1.3513403945373413e-06 1.3513403945373413e-06 1.3513403945373413e-06 1.3513403945373413e-06 1.9999760002879964e-06 1.9999760002879964e-06 1.9999760002879964e-06 0.5306058776274276 0.4693821225165706 1.9999760002879964e-06 1.9999760002879964e-06 1.9999760002879964e-06 6.249765633788733e-06 6.249765633788733e-06 6.249765633788733e-06 6.249765633788733e-06 0.6666416676041316 0.3333208338020658 6.249765633788733e-06 6.249765633788733e-06 2.4996250562415643e-05 2.4996250562415643e-05 2.4996250562415643e-05 2.4996250562415643e-05 2.4996250562415643e-05 0.666566681664417 0.3332833408322085 2.4996250562415643e-05 0.125 0.125 0.125 0.125 0.125 0.125 0.125 0.125 0.999883346942857 1.6664722449047615e-05 1.6664722449047615e-05 1.6664722449047615e-05 1.6664722449047615e-05 1.6664722449047615e-05 1.6664722449047615e-05 1.6664722449047615e-05 0.09999901640311731 0.8999911476280558 1.6393281377560216e-06 1.6393281377560216e-06 1.6393281377560216e-06 1.6393281377560216e-06 1.6393281377560216e-06 1.6393281377560216e-06 6.249980468811034e-07 0.2201250982725899 0.7735824882151016 0.0062892885220739965 6.249980468811034e-07 6.249980468811034e-07 6.249980468811034e-07 6.249980468811034e-07 3.831410284654628e-07 3.831410284654628e-07 0.20769190981508587 0.788460028001715 0.003846146478057146 3.831410284654628e-07 3.831410284654628e-07 3.831410284654628e-07 4.504492330200909e-07 4.504492330200909e-07 4.504492330200909e-07 0.25339298031247826 0.7466043169921235 4.504492330200909e-07 4.504492330200909e-07 4.504492330200909e-07 1.0988938534471201e-06 1.0988938534471201e-06 1.0988938534471201e-06 1.0988938534471201e-06 0.3444421733971473 0.655551233239732 1.0988938534471201e-06 1.0988938534471201e-06 6.249765633788733e-06 6.249765633788733e-06 6.249765633788733e-06 6.249765633788733e-06 6.249765633788733e-06 0.26665666704165264 0.7333058343645447 6.249765633788733e-06 4.9982506122857e-05 4.9982506122857e-05 4.9982506122857e-05 4.9982506122857e-05 4.9982506122857e-05 4.9982506122857e-05 4.9982506122857e-05 0.9996501224571399 0.8749691187369858 0.12499558839099797 5.882145336046964e-06 5.882145336046964e-06 5.882145336046964e-06 5.882145336046964e-06 5.882145336046964e-06 5.882145336046964e-06 0.02105252193039564 0.8631533991462212 0.11578887061717603 1.0416612413477011e-06 1.0416612413477011e-06 1.0416612413477011e-06 1.0416612413477011e-06 1.0416612413477011e-06 3.164551954822857e-07 0.031745981515048344 0.8888874824213537 0.07936495378762086 3.164551954822857e-07 3.164551954822857e-07 3.164551954822857e-07 3.164551954822857e-07 2.0746866445159293e-07 2.0746866445159293e-07 0.04989599813671573 0.8898119667714307 0.060290997748531514 2.0746866445159293e-07 2.0746866445159293e-07 2.0746866445159293e-07 2.717387612245093e-07 2.717387612245093e-07 2.717387612245093e-07 0.046321462948788285 0.9046309234704534 0.0490462548869523 2.717387612245093e-07 2.717387612245093e-07 6.369406466858387e-07 6.369406466858387e-07 6.369406466858387e-07 6.369406466858387e-07 0.044871651968444656 0.9102535113598773 0.044871651968444656 6.369406466858387e-07 4.166562502604102e-06 4.166562502604102e-06 4.166562502604102e-06 4.166562502604102e-06 4.166562502604102e-06 4.166562502604102e-06 0.913020652744551 0.08695434788043342 1.6665000166650003e-05 1.6665000166650003e-05 1.6665000166650003e-05 1.6665000166650003e-05 1.6665000166650003e-05 1.6665000166650003e-05 0.19998000199980004 0.7999200079992002 0.6666358988559503 0.33331794942797516 7.69195267910712e-06 7.69195267910712e-06 7.69195267910712e-06 7.69195267910712e-06 7.69195267910712e-06 7.69195267910712e-06 9.090859504402702e-07 0.6513725938475697 0.34862195163672743 9.090859504402702e-07 9.090859504402702e-07 9.090859504402702e-07 9.090859504402702e-07 9.090859504402702e-07 3.0959694811712434e-07 3.0959694811712434e-07 0.664595038750058 0.3354031036682536 3.0959694811712434e-07 3.0959694811712434e-07 3.0959694811712434e-07 3.0959694811712434e-07 2.066113141182057e-07 2.066113141182057e-07 2.066113141182057e-07 0.6935809207272436 0.30641783960487184 2.066113141182057e-07 2.066113141182057e-07 2.066113141182057e-07 2.2421494500231617e-07 2.2421494500231617e-07 2.2421494500231617e-07 2.2421494500231617e-07 0.7483136000416628 0.25168505466866736 2.2421494500231617e-07 2.2421494500231617e-07 5.681798812049505e-07 5.681798812049505e-07 5.681798812049505e-07 5.681798812049505e-07 5.681798812049505e-07 0.7999972727365703 0.19999931818414257 5.681798812049505e-07 3.3332666679999734e-06 3.3332666679999734e-06 3.3332666679999734e-06 3.3332666679999734e-06 3.3332666679999734e-06 3.3332666679999734e-06 0.9310158624413719 0.06896413795862015 1.4284285857128572e-05 1.4284285857128572e-05 1.4284285857128572e-05 1.4284285857128572e-05 1.4284285857128572e-05 1.4284285857128572e-05 1.4284285857128572e-05 0.9999000099990001 1.4284285857128578e-05 0.9999000099990003 1.4284285857128578e-05 1.4284285857128578e-05 1.4284285857128578e-05 1.4284285857128578e-05 1.4284285857128578e-05 1.4284285857128578e-05 2.040791337248931e-06 0.22916386057857785 0.7708238946733983 2.040791337248931e-06 2.040791337248931e-06 2.040791337248931e-06 2.040791337248931e-06 2.040791337248931e-06 8.196680999929508e-07 8.196680999929508e-07 0.3801634196000363 0.6198316623913636 8.196680999929508e-07 8.196680999929508e-07 8.196680999929508e-07 8.196680999929508e-07 3.906240844748022e-07 3.906240844748022e-07 3.906240844748022e-07 0.43137153799256583 0.5686261182629276 3.906240844748022e-07 3.906240844748022e-07 3.906240844748022e-07 4.950480345107886e-07 4.950480345107886e-07 4.950480345107886e-07 4.950480345107886e-07 0.542286946460624 0.45771008325116885 4.950480345107886e-07 4.950480345107886e-07 1.5624853516998277e-06 1.5624853516998277e-06 1.5624853516998277e-06 1.5624853516998277e-06 1.5624853516998277e-06 0.5555503472710499 0.44444027781683987 1.5624853516998277e-06 5.262991694999106e-06 5.262991694999106e-06 5.262991694999106e-06 5.262991694999106e-06 5.262991694999106e-06 5.262991694999106e-06 0.5555380122499056 0.4444304097999245 0.125 0.125 0.125 0.125 0.125 0.125 0.125 0.125 4.9982506122856967e-05 0.9996501224571392 4.9982506122856967e-05 4.9982506122856967e-05 4.9982506122856967e-05 4.9982506122856967e-05 4.9982506122856967e-05 4.9982506122856967e-05 7.69195267910712e-06 0.16665897471398758 0.8332948735699379 7.69195267910712e-06 7.69195267910712e-06 7.69195267910712e-06 7.69195267910712e-06 7.69195267910712e-06 2.2221975311385425e-06 2.2221975311385425e-06 0.22727020204826 0.7499916667592581 0.022727020204826 2.2221975311385425e-06 2.2221975311385425e-06 2.2221975311385425e-06 1.5151377411720499e-06 1.5151377411720499e-06 1.5151377411720499e-06 0.24615160841195147 0.7538393007616014 1.5151377411720499e-06 1.5151377411720499e-06 1.5151377411720499e-06 1.999976000287996e-06 1.999976000287996e-06 1.999976000287996e-06 1.999976000287996e-06 0.26530293881371375 0.7346850613302843 1.999976000287996e-06 1.999976000287996e-06 5.5553703765430035e-06 5.5553703765430035e-06 5.5553703765430035e-06 5.5553703765430035e-06 5.5553703765430035e-06 0.2352862747712331 0.7646803930065076 5.5553703765430035e-06 2.4996250562415643e-05 2.4996250562415643e-05 2.4996250562415643e-05 2.4996250562415643e-05 2.4996250562415643e-05 2.4996250562415643e-05 0.3332833408322085 0.666566681664417 0.125 0.125 0.125 0.125 0.125 0.125 0.125 0.125 4.9982506122856967e-05 0.9996501224571392 4.9982506122856967e-05 4.9982506122856967e-05 4.9982506122856967e-05 4.9982506122856967e-05 4.9982506122856967e-05 4.9982506122856967e-05 0.125 0.125 0.125 0.125 0.125 0.125 0.125 0.125 1.4284489900865642e-05 1.4284489900865642e-05 1.4284489900865642e-05 0.8332619108838291 0.1666523821767658 1.4284489900865642e-05 1.4284489900865642e-05 1.4284489900865642e-05 1.4284489900865642e-05 1.4284489900865642e-05 1.4284489900865642e-05 1.4284489900865642e-05 0.8332619108838291 0.1666523821767658 1.4284489900865642e-05 1.4284489900865642e-05 1.249906257030723e-05 1.249906257030723e-05 1.249906257030723e-05 1.249906257030723e-05 1.249906257030723e-05 0.7142321468746988 0.2856928587498795 1.249906257030723e-05 2.499562576549104e-05 2.499562576549104e-05 2.499562576549104e-05 2.499562576549104e-05 2.499562576549104e-05 2.499562576549104e-05 0.9998250306196416 2.499562576549104e-05 0.125 0.125 0.125 0.125 0.125 0.125 0.125 0.125 0.125 0.125 0.125 0.125 0.125 0.125 0.125 0.125 </TABLE>
    </DEFINITION>
  </NETWORK>
</BIF>
