<?xml version='1.0' encoding='utf-8'?>
<BIF VERSION="0.3">
  <NETWORK>
    <NAME>UNTITLED</NAME>
    <VARIABLE TYPE="nature">
      <NAME>A</NAME>
      <OUTCOME>_6_987_10_577_</OUTCOME>
      <OUTCOME>_10_577_14_139_</OUTCOME>
      <OUTCOME>_14_139_17_701_</OUTCOME>
      <OUTCOME>_17_701_21_263_</OUTCOME>
      <OUTCOME>_21_263_24_825_</OUTCOME>
      <OUTCOME>_24_825_28_386_</OUTCOME>
      <OUTCOME>_28_386_31_948_</OUTCOME>
      <OUTCOME>_31_948_35_51_</OUTCOME>
      <PROPERTY />
    </VARIABLE>
    <VARIABLE TYPE="nature">
      <NAME>B</NAME>
      <OUTCOME>_4_49_8_149_</OUTCOME>
      <OUTCOME>_8_149_11_779_</OUTCOME>
      <OUTCOME>_11_779_15_408_</OUTCOME>
      <OUTCOME>_15_408_19_038_</OUTCOME>
      <OUTCOME>_19_038_22_668_</OUTCOME>
      <OUTCOME>_22_668_26_298_</OUTCOME>
      <OUTCOME>_26_298_29_927_</OUTCOME>
      <OUTCOME>_29_927_33_557_</OUTCOME>
      <PROPERTY />
    </VARIABLE>
    <VARIABLE TYPE="nature">
      <NAME>C</NAME>
      <OUTCOME>_0_451_4_067_</OUTCOME>
      <OUTCOME>_4_067_7_654_</OUTCOME>
      <OUTCOME>_7_654_11_241_</OUTCOME>
      <OUTCOME>_11_241_14_828_</OUTCOME>
      <OUTCOME>_14_828_18_414_</OUTCOME>
      <OUTCOME>_18_414_22_001_</OUTCOME>
      <OUTCOME>_22_001_25_588_</OUTCOME>
      <OUTCOME>_25_588_29_175_</OUTCOME>
      <PROPERTY />
    </VARIABLE>
    <VARIABLE TYPE="nature">
      <NAME>D</NAME>
      <OUTCOME>_46_97_60_466_</OUTCOME>
      <OUTCOME>_60_466_73_855_</OUTCOME>
      <OUTCOME>_73_855_87_244_</OUTCOME>
      <OUTCOME>_87_244_100_634_</OUTCOME>
      <OUTCOME>_100_634_114_023_</OUTCOME>
      <OUTCOME>_114_023_127_412_</OUTCOME>
      <OUTCOME>_127_412_140_801_</OUTCOME>
      <OUTCOME>_140_801_154_19_</OUTCOME>
      <PROPERTY />
    </VARIABLE>
    <VARIABLE TYPE="nature">
      <NAME>E</NAME>
      <OUTCOME>_182_047_222_298_</OUTCOME>
      <OUTCOME>_222_298_262_231_</OUTCOME>
      <OUTCOME>_262_231_302_163_</OUTCOME>
      <OUTCOME>_302_163_342_095_</OUTCOME>
      <OUTCOME>_342_095_382_027_</OUTCOME>
      <OUTCOME>_382_027_421_96_</OUTCOME>
      <OUTCOME>_421_96_461_892_</OUTCOME>
      <OUTCOME>_461_892_501_824_</OUTCOME>
      <PROPERTY />
    </VARIABLE>
    <DEFINITION>
      <FOR>A</FOR>
      <TABLE>0.013333333333333334 0.11 0.18666666666666668 0.2833333333333333 0.23 0.13 0.03666666666666667 0.01 </TABLE>
    </DEFINITION>
    <DEFINITION>
      <FOR>B</FOR>
      <TABLE>0.01 0.03333333333333333 0.14666666666666667 0.28 0.2733333333333333 0.16 0.08 0.016666666666666666 </TABLE>
    </DEFINITION>
    <DEFINITION>
      <FOR>C</FOR>
      <TABLE>0.02 0.06666666666666667 0.15333333333333332 0.25333333333333335 0.2733333333333333 0.15 0.06333333333333334 0.02 </TABLE>
    </DEFINITION>
    <DEFINITION>
      <FOR>D</FOR>
      <GIVEN>A</GIVEN>
      <GIVEN>B</GIVEN>
      <TABLE>0.125 0.125 0.125 0.125 0.125 0.125 0.125 0.125 0.125 0.125 0.125 0.125 0.125 0.125 0.125 0.125 0.125 0.125 0.125 0.125 0.125 0.125 0.125 0.125 0.125 0.125 0.125 0.125 0.125 0.125 0.125 0.125 0.0 0.0 1.0 0.0 0.0 0.0 0.0 0.0 0.0 0.0 1.0 0.0 0.0 0.0 0.0 0.0 0.125 0.125 0.125 0.125 0.125 0.125 0.125 0.125 0.0 0.0 0.0 0.0 1.0 0.0 0.0 0.0 0.125 0.125 0.125 0.125 0.125 0.125 0.125 0.125 1.0 0.0 0.0 0.0 0.0 0.0 0.0 0.0 0.4 0.6 0.0 0.0 0.0 0.0 0.0 0.0 0.0 0.3333333333333333 0.6666666666666666 0.0 0.0 0.0 0.0 0.0 0.0 0.0 0.125 0.875 0.0 0.0 0.0 0.0 0.0 0.0 0.0 0.6666666666666666 0.3333333333333333 0.0 0.0 0.0 0.0 0.0 0.0 0.0 0.75 0.25 0.0 0.0 0.125 0.125 0.125 0.125 0.125 0.125 0.125 0.125 0.125 0.125 0.125 0.125 0.125 0.125 0.125 0.125 0.0 1.0 0.0 0.0 0.0 0.0 0.0 0.0 0.0 0.4444444444444444 0.5555555555555556 0.0 0.0 0.0 0.0 0.0 0.0 0.09090909090909091 0.7272727272727273 0.18181818181818182 0.0 0.0 0.0 0.0 0.0 0.0 0.18181818181818182 0.6818181818181818 0.13636363636363635 0.0 0.0 0.0 0.0 0.0 0.0 0.4444444444444444 0.5555555555555556 0.0 0.0 0.0 0.0 0.0 0.0 0.0 0.5 0.5 0.0 0.0 0.0 0.0 0.0 0.0 0.0 0.0 1.0 0.0 0.0 1.0 0.0 0.0 0.0 0.0 0.0 0.0 0.0 0.6666666666666666 0.3333333333333333 0.0 0.0 0.0 0.0 0.0 0.0 0.15384615384615385 0.7692307692307693 0.07692307692307693 0.0 0.0 0.0 0.0 0.0 0.0 0.17857142857142858 0.7857142857142857 0.03571428571428571 0.0 0.0 0.0 0.0 0.0 0.0 0.29411764705882354 0.6470588235294118 0.058823529411764705 0.0 0.0 0.0 0.0 0.0 0.0 0.6 0.4 0.0 0.0 0.0 0.0 0.0 0.0 0.25 0.5 0.25 0.0 0.125 0.125 0.125 0.125 0.125 0.125 0.125 0.125 0.5 0.5 0.0 0.0 0.0 0.0 0.0 0.0 0.0 0.3333333333333333 0.6666666666666666 0.0 0.0 0.0 0.0 0.0 0.0 0.0 0.5555555555555556 0.4444444444444444 0.0 0.0 0.0 0.0 0.0 0.0 0.058823529411764705 0.7647058823529411 0.17647058823529413 0.0 0.0 0.0 0.0 0.0 0.0 0.1111111111111111 0.6111111111111112 0.2777777777777778 0.0 0.0 0.0 0.0 0.0 0.0 0.3076923076923077 0.6923076923076923 0.0 0.0 0.0 0.0 0.0 0.0 0.0 0.5 0.5 0.0 0.0 0.0 0.0 0.0 0.0 0.0 1.0 0.0 0.125 0.125 0.125 0.125 0.125 0.125 0.125 0.125 0.0 0.0 1.0 0.0 0.0 0.0 0.0 0.0 0.0 0.0 0.16666666666666666 0.8333333333333334 0.0 0.0 0.0 0.0 0.0 0.0 0.0 0.16666666666666666 0.8333333333333334 0.0 0.0 0.0 0.0 0.0 0.0 0.0 0.21428571428571427 0.7857142857142857 0.0 0.0 0.0 0.0 0.0 0.0 0.0 0.3333333333333333 0.6666666666666666 0.0 0.0 0.0 0.0 0.0 0.0 0.5 0.5 0.0 0.0 0.0 0.0 0.0 0.0 0.0 0.0 1.0 0.125 0.125 0.125 0.125 0.125 0.125 0.125 0.125 0.125 0.125 0.125 0.125 0.125 0.125 0.125 0.125 0.0 0.0 0.0 0.0 1.0 0.0 0.0 0.0 0.0 0.0 0.0 0.0 1.0 0.0 0.0 0.0 0.0 0.0 0.0 0.0 0.0 1.0 0.0 0.0 0.0 0.0 0.0 0.0 0.0 0.0 1.0 0.0 0.0 0.0 0.0 0.0 0.0 0.0 1.0 0.0 0.0 0.0 0.0 0.0 0.0 0.0 0.0 1.0 0.125 0.125 0.125 0.125 0.125 0.125 0.125 0.125 0.125 0.125 0.125 0.125 0.125 0.125 0.125 0.125 0.0 0.0 0.0 0.0 0.0 1.0 0.0 0.0 0.0 0.0 0.0 0.0 0.0 1.0 0.0 0.0 0.125 0.125 0.125 0.125 0.125 0.125 0.125 0.125 0.0 0.0 0.0 0.0 0.0 0.0 1.0 0.0 0.125 0.125 0.125 0.125 0.125 0.125 0.125 0.125 0.125 0.125 0.125 0.125 0.125 0.125 0.125 0.125 </TABLE>
    </DEFINITION>
    <DEFINITION>
      <FOR>E</FOR>
      <GIVEN>C</GIVEN>
      <GIVEN>D</GIVEN>
      <TABLE>0.125 0.125 0.125 0.125 0.125 0.125 0.125 0.125 1.0 0.0 0.0 0.0 0.0 0.0 0.0 0.0 0.0 1.0 0.0 0.0 0.0 0.0 0.0 0.0 0.0 0.0 1.0 0.0 0.0 0.0 0.0 0.0 0.0 0.0 0.0 1.0 0.0 0.0 0.0 0.0 0.0 0.0 0.0 0.0 1.0 0.0 0.0 0.0 0.125 0.125 0.125 0.125 0.125 0.125 0.125 0.125 0.125 0.125 0.125 0.125 0.125 0.125 0.125 0.125 0.125 0.125 0.125 0.125 0.125 0.125 0.125 0.125 0.125 0.125 0.125 0.125 0.125 0.125 0.125 0.125 0.0 0.5 0.5 0.0 0.0 0.0 0.0 0.0 0.0 0.0 0.2727272727272727 0.7272727272727273 0.0 0.0 0.0 0.0 0.0 0.0 0.0 0.75 0.25 0.0 0.0 0.0 0.0 0.0 0.0 0.0 0.0 1.0 0.0 0.0 0.0 0.0 0.0 0.0 0.0 0.5 0.5 0.0 0.125 0.125 0.125 0.125 0.125 0.125 0.125 0.125 0.125 0.125 0.125 0.125 0.125 0.125 0.125 0.125 0.0 1.0 0.0 0.0 0.0 0.0 0.0 0.0 0.0 0.0 1.0 0.0 0.0 0.0 0.0 0.0 0.0 0.0 0.2727272727272727 0.7272727272727273 0.0 0.0 0.0 0.0 0.0 0.0 0.0 0.1111111111111111 0.8888888888888888 0.0 0.0 0.0 0.0 0.0 0.0 0.0 0.23076923076923078 0.7692307692307693 0.0 0.0 0.0 0.0 0.0 0.0 0.0 0.3333333333333333 0.6666666666666666 0.0 0.125 0.125 0.125 0.125 0.125 0.125 0.125 0.125 1.0 0.0 0.0 0.0 0.0 0.0 0.0 0.0 0.0 0.8571428571428571 0.14285714285714285 0.0 0.0 0.0 0.0 0.0 0.0 0.07142857142857142 0.9285714285714286 0.0 0.0 0.0 0.0 0.0 0.0 0.0 0.0 0.9473684210526315 0.05263157894736842 0.0 0.0 0.0 0.0 0.0 0.0 0.05263157894736842 0.8421052631578947 0.10526315789473684 0.0 0.0 0.0 0.0 0.0 0.0 0.09090909090909091 0.9090909090909091 0.0 0.0 0.0 0.0 0.0 0.0 0.0 0.0 1.0 0.0 0.0 0.0 0.0 0.0 0.0 0.0 0.0 1.0 1.0 0.0 0.0 0.0 0.0 0.0 0.0 0.0 0.0 1.0 0.0 0.0 0.0 0.0 0.0 0.0 0.0 0.0 0.6666666666666666 0.3333333333333333 0.0 0.0 0.0 0.0 0.0 0.0 0.0 0.76 0.24 0.0 0.0 0.0 0.0 0.0 0.0 0.0 0.65 0.35 0.0 0.0 0.0 0.0 0.0 0.0 0.0 0.9 0.1 0.0 0.0 0.0 0.0 0.0 0.0 0.0 0.5 0.5 0.125 0.125 0.125 0.125 0.125 0.125 0.125 0.125 0.125 0.125 0.125 0.125 0.125 0.125 0.125 0.125 0.0 0.4 0.6 0.0 0.0 0.0 0.0 0.0 0.0 0.0 0.375 0.625 0.0 0.0 0.0 0.0 0.0 0.0 0.0 0.5 0.5 0.0 0.0 0.0 0.0 0.0 0.0 0.0 0.5454545454545454 0.45454545454545453 0.0 0.0 0.0 0.0 0.0 0.0 0.0 1.0 0.0 0.0 0.0 0.0 0.0 0.0 0.0 0.0 1.0 0.0 0.125 0.125 0.125 0.125 0.125 0.125 0.125 0.125 0.125 0.125 0.125 0.125 0.125 0.125 0.125 0.125 0.0 0.0 1.0 0.0 0.0 0.0 0.0 0.0 0.0 0.0 0.3333333333333333 0.6666666666666666 0.0 0.0 0.0 0.0 0.0 0.0 0.0 0.5714285714285714 0.42857142857142855 0.0 0.0 0.0 0.0 0.0 0.0 0.0 0.2 0.8 0.0 0.0 0.0 0.0 0.0 0.0 0.0 0.0 1.0 0.0 0.0 0.0 0.0 0.0 0.0 0.0 0.0 1.0 0.125 0.125 0.125 0.125 0.125 0.125 0.125 0.125 0.125 0.125 0.125 0.125 0.125 0.125 0.125 0.125 0.125 0.125 0.125 0.125 0.125 0.125 0.125 0.125 0.0 0.0 0.0 1.0 0.0 0.0 0.0 0.0 0.125 0.125 0.125 0.125 0.125 0.125 0.125 0.125 0.0 0.0 0.0 0.0 0.0 1.0 0.0 0.0 0.0 0.0 0.0 0.0 0.0 1.0 0.0 0.0 0.0 0.0 0.0 0.0 0.0 0.0 0.0 1.0 0.125 0.125 0.125 0.125 0.125 0.125 0.125 0.125 </TABLE>
    </DEFINITION>
  </NETWORK>
</BIF>
