<?xml version='1.0' encoding='utf-8'?>
<BIF VERSION="0.3">
  <NETWORK>
    <NAME>UNTITLED</NAME>
    <VARIABLE TYPE="nature">
      <NAME>A</NAME>
      <OUTCOME>_0_699_3_2_</OUTCOME>
      <OUTCOME>_3_2_4_3_</OUTCOME>
      <OUTCOME>_4_3_4_7_</OUTCOME>
      <OUTCOME>_4_7_5_2_</OUTCOME>
      <OUTCOME>_5_2_6_033_</OUTCOME>
      <OUTCOME>_6_033_6_8_</OUTCOME>
      <OUTCOME>_6_8_7_77_</OUTCOME>
      <OUTCOME>_7_77_8_5_</OUTCOME>
      <OUTCOME>_8_5_9_27_</OUTCOME>
      <OUTCOME>_9_27_16_6_</OUTCOME>
      <PROPERTY />
    </VARIABLE>
    <VARIABLE TYPE="nature">
      <NAME>B</NAME>
      <OUTCOME>_0_849_6_333_</OUTCOME>
      <OUTCOME>_6_333_8_067_</OUTCOME>
      <OUTCOME>_8_067_9_3_</OUTCOME>
      <OUTCOME>_9_3_10_467_</OUTCOME>
      <OUTCOME>_10_467_11_767_</OUTCOME>
      <OUTCOME>_11_767_12_7_</OUTCOME>
      <OUTCOME>_12_7_14_5_</OUTCOME>
      <OUTCOME>_14_5_15_69_</OUTCOME>
      <OUTCOME>_15_69_16_35_</OUTCOME>
      <OUTCOME>_16_35_23_8_</OUTCOME>
      <PROPERTY />
    </VARIABLE>
    <DEFINITION>
      <FOR>A</FOR>
      <TABLE>0.10687022900763359 0.09923664122137404 0.09923664122137404 0.09923664122137404 0.09923664122137404 0.09923664122137404 0.09923664122137404 0.09923664122137404 0.10687022900763359 0.0916030534351145 </TABLE>
    </DEFINITION>
    <DEFINITION>
      <FOR>B</FOR>
      <GIVEN>A</GIVEN>
      <TABLE>0.42857142857142855 0.2857142857142857 0.14285714285714285 0.07142857142857142 0.0 0.07142857142857142 0.0 0.0 0.0 0.0 0.23076923076923078 0.15384615384615385 0.23076923076923078 0.23076923076923078 0.0 0.0 0.07692307692307693 0.0 0.0 0.07692307692307693 0.23076923076923078 0.15384615384615385 0.0 0.3076923076923077 0.15384615384615385 0.0 0.15384615384615385 0.0 0.0 0.0 0.0 0.15384615384615385 0.23076923076923078 0.0 0.23076923076923078 0.3076923076923077 0.07692307692307693 0.0 0.0 0.0 0.15384615384615385 0.0 0.23076923076923078 0.07692307692307693 0.15384615384615385 0.15384615384615385 0.07692307692307693 0.15384615384615385 0.0 0.0 0.0 0.23076923076923078 0.0 0.0 0.15384615384615385 0.07692307692307693 0.15384615384615385 0.07692307692307693 0.07692307692307693 0.23076923076923078 0.0 0.0 0.07692307692307693 0.15384615384615385 0.23076923076923078 0.07692307692307693 0.07692307692307693 0.07692307692307693 0.15384615384615385 0.15384615384615385 0.0 0.0 0.07692307692307693 0.0 0.0 0.15384615384615385 0.15384615384615385 0.15384615384615385 0.15384615384615385 0.3076923076923077 0.0 0.0 0.07142857142857142 0.07142857142857142 0.07142857142857142 0.07142857142857142 0.0 0.35714285714285715 0.2857142857142857 0.07142857142857142 0.0 0.0 0.0 0.0 0.0 0.16666666666666666 0.16666666666666666 0.16666666666666666 0.3333333333333333 0.16666666666666666 </TABLE>
    </DEFINITION>
  </NETWORK>
</BIF>
