<?xml version='1.0' encoding='utf-8'?>
<BIF VERSION="0.3">
  <NETWORK>
    <NAME>UNTITLED</NAME>
    <VARIABLE TYPE="nature">
      <NAME>A</NAME>
      <OUTCOME>_13_807_18_287_</OUTCOME>
      <OUTCOME>_18_287_19_448_</OUTCOME>
      <OUTCOME>_19_448_20_401_</OUTCOME>
      <OUTCOME>_20_401_21_685_</OUTCOME>
      <OUTCOME>_21_685_26_204_</OUTCOME>
      <PROPERTY />
    </VARIABLE>
    <VARIABLE TYPE="nature">
      <NAME>B</NAME>
      <OUTCOME>_14_191_18_467_</OUTCOME>
      <OUTCOME>_18_467_19_45_</OUTCOME>
      <OUTCOME>_19_45_20_468_</OUTCOME>
      <OUTCOME>_20_468_21_629_</OUTCOME>
      <OUTCOME>_21_629_25_67_</OUTCOME>
      <PROPERTY />
    </VARIABLE>
    <VARIABLE TYPE="nature">
      <NAME>C</NAME>
      <OUTCOME>_9_555_13_227_</OUTCOME>
      <OUTCOME>_13_227_14_614_</OUTCOME>
      <OUTCOME>_14_614_15_544_</OUTCOME>
      <OUTCOME>_15_544_16_673_</OUTCOME>
      <OUTCOME>_16_673_22_099_</OUTCOME>
      <PROPERTY />
    </VARIABLE>
    <VARIABLE TYPE="nature">
      <NAME>D</NAME>
      <OUTCOME>_79_45599999999999_94_235_</OUTCOME>
      <OUTCOME>_94_235_97_87_</OUTCOME>
      <OUTCOME>_97_87_101_679_</OUTCOME>
      <OUTCOME>_101_679_105_711_</OUTCOME>
      <OUTCOME>_105_711_119_279_</OUTCOME>
      <PROPERTY />
    </VARIABLE>
    <VARIABLE TYPE="nature">
      <NAME>E</NAME>
      <OUTCOME>_277_187_327_434_</OUTCOME>
      <OUTCOME>_327_434_338_169_</OUTCOME>
      <OUTCOME>_338_169_350_599_</OUTCOME>
      <OUTCOME>_350_599_362_63_</OUTCOME>
      <OUTCOME>_362_63_404_553_</OUTCOME>
      <PROPERTY />
    </VARIABLE>
    <DEFINITION>
      <FOR>A</FOR>
      <TABLE>0.2 0.2 0.2 0.2 0.2 </TABLE>
    </DEFINITION>
    <DEFINITION>
      <FOR>B</FOR>
      <TABLE>0.2 0.2 0.2 0.2 0.2 </TABLE>
    </DEFINITION>
    <DEFINITION>
      <FOR>C</FOR>
      <TABLE>0.2 0.2 0.2 0.2 0.2 </TABLE>
    </DEFINITION>
    <DEFINITION>
      <FOR>D</FOR>
      <GIVEN>A</GIVEN>
      <GIVEN>B</GIVEN>
      <TABLE>1.0 0.0 0.0 0.0 0.0 0.75 0.25 0.0 0.0 0.0 0.28 0.6 0.12 0.0 0.0 0.05 0.55 0.3 0.1 0.0 0.0 0.06451612903225806 0.45161290322580644 0.3870967741935484 0.0967741935483871 0.9473684210526315 0.05263157894736842 0.0 0.0 0.0 0.4117647058823529 0.5294117647058824 0.058823529411764705 0.0 0.0 0.1 0.4 0.4 0.1 0.0 0.0 0.19230769230769232 0.5769230769230769 0.23076923076923078 0.0 0.0 0.0 0.0 0.19047619047619047 0.8095238095238095 0.9166666666666666 0.041666666666666664 0.041666666666666664 0.0 0.0 0.05555555555555555 0.7222222222222222 0.16666666666666666 0.05555555555555555 0.0 0.0 0.30434782608695654 0.5217391304347826 0.13043478260869565 0.043478260869565216 0.0 0.0 0.21875 0.59375 0.1875 0.0 0.0 0.0 0.391304347826087 0.6086956521739131 0.32 0.56 0.12 0.0 0.0 0.045454545454545456 0.36363636363636365 0.5909090909090909 0.0 0.0 0.0 0.03333333333333333 0.4666666666666667 0.4666666666666667 0.03333333333333333 0.0 0.0 0.23809523809523808 0.47619047619047616 0.2857142857142857 0.0 0.0 0.0 0.0 1.0 0.25 0.35714285714285715 0.21428571428571427 0.14285714285714285 0.03571428571428571 0.0 0.038461538461538464 0.2692307692307692 0.6153846153846154 0.07692307692307693 0.0 0.0 0.045454545454545456 0.45454545454545453 0.5 0.0 0.0 0.0 0.38095238095238093 0.6190476190476191 0.0 0.0 0.0 0.0 1.0 </TABLE>
    </DEFINITION>
    <DEFINITION>
      <FOR>E</FOR>
      <GIVEN>C</GIVEN>
      <GIVEN>D</GIVEN>
      <TABLE>1.0 0.0 0.0 0.0 0.0 0.6666666666666666 0.3333333333333333 0.0 0.0 0.0 0.06666666666666667 0.7 0.23333333333333334 0.0 0.0 0.0 0.0 0.7272727272727273 0.2727272727272727 0.0 0.0 0.0 0.0 0.44 0.56 1.0 0.0 0.0 0.0 0.0 0.10714285714285714 0.8928571428571429 0.0 0.0 0.0 0.0 0.2692307692307692 0.7307692307692307 0.0 0.0 0.0 0.0 0.2857142857142857 0.7142857142857143 0.0 0.0 0.0 0.0 0.08333333333333333 0.9166666666666666 0.9230769230769231 0.07692307692307693 0.0 0.0 0.0 0.0 0.8695652173913043 0.13043478260869565 0.0 0.0 0.0 0.05 0.85 0.1 0.0 0.0 0.0 0.13793103448275862 0.8275862068965517 0.034482758620689655 0.0 0.0 0.0 0.13636363636363635 0.8636363636363636 0.7647058823529411 0.23529411764705882 0.0 0.0 0.0 0.0 0.68 0.32 0.0 0.0 0.0 0.0 0.7619047619047619 0.23809523809523808 0.0 0.0 0.0 0.0 0.9722222222222222 0.027777777777777776 0.0 0.0 0.0 0.0 1.0 0.5185185185185185 0.37037037037037035 0.1111111111111111 0.0 0.0 0.0 0.2608695652173913 0.7391304347826086 0.0 0.0 0.0 0.0 0.2608695652173913 0.7391304347826086 0.0 0.0 0.0 0.0 0.2631578947368421 0.7368421052631579 0.0 0.0 0.0 0.0 1.0 </TABLE>
    </DEFINITION>
  </NETWORK>
</BIF>
