<?xml version='1.0' encoding='utf-8'?>
<BIF VERSION="0.3">
  <NETWORK>
    <NAME>UNTITLED</NAME>
    <VARIABLE TYPE="nature">
      <NAME>A</NAME>
      <OUTCOME>_6_079_8_192_</OUTCOME>
      <OUTCOME>_8_192_9_206_</OUTCOME>
      <OUTCOME>_9_206_10_416_</OUTCOME>
      <OUTCOME>_10_416_11_894_</OUTCOME>
      <OUTCOME>_11_894_14_95_</OUTCOME>
      <PROPERTY />
    </VARIABLE>
    <VARIABLE TYPE="nature">
      <NAME>B</NAME>
      <OUTCOME>_4_801_7_16_</OUTCOME>
      <OUTCOME>_7_16_8_0_</OUTCOME>
      <OUTCOME>_8_0_8_6_</OUTCOME>
      <OUTCOME>_8_6_9_1_</OUTCOME>
      <OUTCOME>_9_1_10_8_</OUTCOME>
      <PROPERTY />
    </VARIABLE>
    <DEFINITION>
      <FOR>A</FOR>
      <TABLE>0.20057306590257878 0.20057306590257878 0.1977077363896848 0.20057306590257878 0.20057306590257878 </TABLE>
    </DEFINITION>
    <DEFINITION>
      <FOR>B</FOR>
      <GIVEN>A</GIVEN>
      <TABLE>0.15714285714285714 0.08571428571428572 0.07142857142857142 0.21428571428571427 0.4714285714285714 0.24285714285714285 0.12857142857142856 0.15714285714285714 0.18571428571428572 0.2857142857142857 0.18840579710144928 0.2463768115942029 0.30434782608695654 0.2318840579710145 0.028985507246376812 0.24285714285714285 0.2857142857142857 0.32857142857142857 0.11428571428571428 0.02857142857142857 0.17142857142857143 0.3142857142857143 0.2571428571428571 0.21428571428571427 0.04285714285714286 </TABLE>
    </DEFINITION>
  </NETWORK>
</BIF>
