<?xml version='1.0' encoding='utf-8'?>
<BIF VERSION="0.3">
  <NETWORK>
    <NAME>UNTITLED</NAME>
    <VARIABLE TYPE="nature">
      <NAME>A</NAME>
      <OUTCOME>_223_487_234_001_</OUTCOME>
      <OUTCOME>_234_001_244_432_</OUTCOME>
      <OUTCOME>_244_432_254_864_</OUTCOME>
      <OUTCOME>_254_864_265_295_</OUTCOME>
      <OUTCOME>_265_295_275_726_</OUTCOME>
      <OUTCOME>_275_726_286_157_</OUTCOME>
      <OUTCOME>_286_157_296_589_</OUTCOME>
      <OUTCOME>_296_589_307_02_</OUTCOME>
      <PROPERTY />
    </VARIABLE>
    <VARIABLE TYPE="nature">
      <NAME>B</NAME>
      <OUTCOME>_223_967_234_402_</OUTCOME>
      <OUTCOME>_234_402_244_755_</OUTCOME>
      <OUTCOME>_244_755_255_108_</OUTCOME>
      <OUTCOME>_255_108_265_46_</OUTCOME>
      <OUTCOME>_265_46_275_812_</OUTCOME>
      <OUTCOME>_275_812_286_165_</OUTCOME>
      <OUTCOME>_286_165_296_518_</OUTCOME>
      <OUTCOME>_296_518_306_87_</OUTCOME>
      <PROPERTY />
    </VARIABLE>
    <DEFINITION>
      <FOR>A</FOR>
      <TABLE>0.04407368116501109 0.06750892082168 0.09972032018516733 0.074259812903848 0.15285948500337546 0.12961712797762562 0.2096634198090462 0.22229723213424632 </TABLE>
    </DEFINITION>
    <DEFINITION>
      <FOR>B</FOR>
      <GIVEN>A</GIVEN>
      <TABLE>0.6520787746170679 0.3479212253829322 0.0 0.0 0.0 0.0 0.0 0.0 0.1 0.7314285714285714 0.16714285714285715 0.0014285714285714286 0.0 0.0 0.0 0.0 0.0 0.15473887814313347 0.7601547388781431 0.0851063829787234 0.0 0.0 0.0 0.0 0.0 0.0 0.11818181818181818 0.7259740259740259 0.15584415584415584 0.0 0.0 0.0 0.0 0.0 0.0 0.05741324921135647 0.889589905362776 0.05299684542586751 0.0 0.0 0.0 0.0 0.0 0.0 0.0744047619047619 0.8266369047619048 0.09895833333333333 0.0 0.0 0.0 0.0 0.0 0.00045998160073597056 0.05519779208831647 0.8886844526218951 0.05565777368905244 0.0 0.0 0.0 0.0 0.0 0.0 0.04511930585683297 0.954880694143167 </TABLE>
    </DEFINITION>
  </NETWORK>
</BIF>
