<?xml version='1.0' encoding='utf-8'?>
<BIF VERSION="0.3">
  <NETWORK>
    <NAME>UNTITLED</NAME>
    <VARIABLE TYPE="nature">
      <NAME>A</NAME>
      <OUTCOME>_223_487_229_531_</OUTCOME>
      <OUTCOME>_229_531_235_491_</OUTCOME>
      <OUTCOME>_235_491_241_452_</OUTCOME>
      <OUTCOME>_241_452_247_413_</OUTCOME>
      <OUTCOME>_247_413_253_374_</OUTCOME>
      <OUTCOME>_253_374_259_334_</OUTCOME>
      <OUTCOME>_259_334_265_295_</OUTCOME>
      <OUTCOME>_265_295_271_256_</OUTCOME>
      <OUTCOME>_271_256_277_216_</OUTCOME>
      <OUTCOME>_277_216_283_177_</OUTCOME>
      <OUTCOME>_283_177_289_138_</OUTCOME>
      <OUTCOME>_289_138_295_099_</OUTCOME>
      <OUTCOME>_295_099_301_059_</OUTCOME>
      <OUTCOME>_301_059_307_02_</OUTCOME>
      <PROPERTY />
    </VARIABLE>
    <VARIABLE TYPE="nature">
      <NAME>B</NAME>
      <OUTCOME>_223_967_229_966_</OUTCOME>
      <OUTCOME>_229_966_235_881_</OUTCOME>
      <OUTCOME>_235_881_241_797_</OUTCOME>
      <OUTCOME>_241_797_247_713_</OUTCOME>
      <OUTCOME>_247_713_253_629_</OUTCOME>
      <OUTCOME>_253_629_259_544_</OUTCOME>
      <OUTCOME>_259_544_265_46_</OUTCOME>
      <OUTCOME>_265_46_271_376_</OUTCOME>
      <OUTCOME>_271_376_277_291_</OUTCOME>
      <OUTCOME>_277_291_283_207_</OUTCOME>
      <OUTCOME>_283_207_289_123_</OUTCOME>
      <OUTCOME>_289_123_295_039_</OUTCOME>
      <OUTCOME>_295_039_300_954_</OUTCOME>
      <OUTCOME>_300_954_306_87_</OUTCOME>
      <PROPERTY />
    </VARIABLE>
    <DEFINITION>
      <FOR>A</FOR>
      <TABLE>0.016009258366284116 0.034525990934516346 0.030379014369756003 0.06905198186903269 0.05121033850901726 0.03915517407657441 0.0452309769505256 0.06307262031054103 0.11081107146301475 0.06905198186903269 0.08245732471790915 0.11736908091426367 0.24785418073102516 0.02382100491850709 </TABLE>
    </DEFINITION>
    <DEFINITION>
      <FOR>B</FOR>
      <GIVEN>A</GIVEN>
      <TABLE>0.6144578313253012 0.3855421686746988 0.0 0.0 0.0 0.0 0.0 0.0 0.0 0.0 0.0 0.0 0.0 0.0 0.15921787709497207 0.7653631284916201 0.06983240223463687 0.00558659217877095 0.0 0.0 0.0 0.0 0.0 0.0 0.0 0.0 0.0 0.0 0.015873015873015872 0.1111111111111111 0.638095238095238 0.2126984126984127 0.01904761904761905 0.0031746031746031746 0.0 0.0 0.0 0.0 0.0 0.0 0.0 0.0 0.0 0.013966480446927373 0.2053072625698324 0.6410614525139665 0.12150837988826815 0.018156424581005588 0.0 0.0 0.0 0.0 0.0 0.0 0.0 0.0 0.0 0.0 0.02071563088512241 0.2824858757062147 0.5612052730696798 0.1318267419962335 0.003766478342749529 0.0 0.0 0.0 0.0 0.0 0.0 0.0 0.0 0.0 0.0 0.007389162561576354 0.1748768472906404 0.6847290640394089 0.12807881773399016 0.0049261083743842365 0.0 0.0 0.0 0.0 0.0 0.0 0.0 0.0 0.0 0.0 0.010660980810234541 0.21535181236673773 0.5223880597014925 0.2515991471215352 0.0 0.0 0.0 0.0 0.0 0.0 0.0 0.0 0.0 0.0 0.0 0.0030581039755351682 0.12844036697247707 0.7232415902140673 0.14220183486238533 0.0030581039755351682 0.0 0.0 0.0 0.0 0.0 0.0 0.0 0.0 0.0 0.0 0.004351610095735422 0.08964316797214969 0.8302872062663186 0.07136640557006092 0.004351610095735422 0.0 0.0 0.0 0.0 0.0 0.0 0.0 0.0 0.0 0.0 0.0013966480446927375 0.12290502793296089 0.7541899441340782 0.11452513966480447 0.006983240223463687 0.0 0.0 0.0 0.0 0.0 0.0 0.0 0.0 0.0 0.0 0.00935672514619883 0.09590643274853801 0.7707602339181286 0.1239766081871345 0.0 0.0 0.0 0.0 0.0 0.0 0.0 0.0 0.0 0.0 0.0 0.0049301561216105174 0.08134757600657354 0.8323746918652424 0.08134757600657354 0.0 0.0 0.0 0.0 0.0 0.0 0.0 0.0 0.0 0.0 0.0 0.0 0.04085603112840467 0.9280155642023347 0.0311284046692607 0.0 0.0 0.0 0.0 0.0 0.0 0.0 0.0 0.0 0.0 0.0 0.012145748987854251 0.2388663967611336 0.7489878542510121 </TABLE>
    </DEFINITION>
  </NETWORK>
</BIF>
