<?xml version='1.0' encoding='utf-8'?>
<BIF VERSION="0.3">
  <NETWORK>
    <NAME>UNTITLED</NAME>
    <VARIABLE TYPE="nature">
      <NAME>A</NAME>
      <OUTCOME>_6_071_6_714_</OUTCOME>
      <OUTCOME>_6_714_7_347_</OUTCOME>
      <OUTCOME>_7_347_7_981_</OUTCOME>
      <OUTCOME>_7_981_8_614_</OUTCOME>
      <OUTCOME>_8_614_9_248_</OUTCOME>
      <OUTCOME>_9_248_9_881_</OUTCOME>
      <OUTCOME>_9_881_10_515_</OUTCOME>
      <OUTCOME>_10_515_11_149_</OUTCOME>
      <OUTCOME>_11_149_11_782_</OUTCOME>
      <OUTCOME>_11_782_12_416_</OUTCOME>
      <OUTCOME>_12_416_13_049_</OUTCOME>
      <OUTCOME>_13_049_13_683_</OUTCOME>
      <OUTCOME>_13_683_14_316_</OUTCOME>
      <OUTCOME>_14_316_14_95_</OUTCOME>
      <PROPERTY />
    </VARIABLE>
    <VARIABLE TYPE="nature">
      <NAME>B</NAME>
      <OUTCOME>_415_514_530_386_</OUTCOME>
      <OUTCOME>_530_386_643_671_</OUTCOME>
      <OUTCOME>_643_671_756_957_</OUTCOME>
      <OUTCOME>_756_957_870_243_</OUTCOME>
      <OUTCOME>_870_243_983_529_</OUTCOME>
      <OUTCOME>_983_529_1096_814_</OUTCOME>
      <OUTCOME>_1096_814_1210_1_</OUTCOME>
      <OUTCOME>_1210_1_1323_386_</OUTCOME>
      <OUTCOME>_1323_386_1436_671_</OUTCOME>
      <OUTCOME>_1436_671_1549_957_</OUTCOME>
      <OUTCOME>_1549_957_1663_243_</OUTCOME>
      <OUTCOME>_1663_243_1776_529_</OUTCOME>
      <OUTCOME>_1776_529_1889_814_</OUTCOME>
      <OUTCOME>_1889_814_2003_1_</OUTCOME>
      <PROPERTY />
    </VARIABLE>
    <DEFINITION>
      <FOR>A</FOR>
      <TABLE>0.02865329512893983 0.06017191977077364 0.06876790830945559 0.1489971346704871 0.09742120343839542 0.10888252148997135 0.10888252148997135 0.10028653295128939 0.06303724928366762 0.07449856733524356 0.06303724928366762 0.05157593123209169 0.017191977077363897 0.008595988538681949 </TABLE>
    </DEFINITION>
    <DEFINITION>
      <FOR>B</FOR>
      <GIVEN>A</GIVEN>
      <TABLE>0.0 0.0 0.5 0.3 0.2 0.0 0.0 0.0 0.0 0.0 0.0 0.0 0.0 0.0 0.0 0.047619047619047616 0.19047619047619047 0.5238095238095238 0.19047619047619047 0.047619047619047616 0.0 0.0 0.0 0.0 0.0 0.0 0.0 0.0 0.041666666666666664 0.08333333333333333 0.2916666666666667 0.2916666666666667 0.08333333333333333 0.08333333333333333 0.08333333333333333 0.041666666666666664 0.0 0.0 0.0 0.0 0.0 0.0 0.0 0.07692307692307693 0.19230769230769232 0.17307692307692307 0.057692307692307696 0.07692307692307693 0.019230769230769232 0.07692307692307693 0.1346153846153846 0.07692307692307693 0.019230769230769232 0.038461538461538464 0.0 0.057692307692307696 0.0 0.0 0.38235294117647056 0.35294117647058826 0.11764705882352941 0.08823529411764706 0.058823529411764705 0.0 0.0 0.0 0.0 0.0 0.0 0.0 0.0 0.02631578947368421 0.23684210526315788 0.3684210526315789 0.23684210526315788 0.13157894736842105 0.0 0.0 0.0 0.0 0.0 0.0 0.0 0.0 0.0 0.07894736842105263 0.2894736842105263 0.2631578947368421 0.10526315789473684 0.05263157894736842 0.02631578947368421 0.07894736842105263 0.02631578947368421 0.0 0.02631578947368421 0.02631578947368421 0.02631578947368421 0.0 0.05714285714285714 0.2 0.37142857142857144 0.05714285714285714 0.05714285714285714 0.0 0.02857142857142857 0.08571428571428572 0.08571428571428572 0.0 0.0 0.0 0.02857142857142857 0.02857142857142857 0.22727272727272727 0.22727272727272727 0.13636363636363635 0.045454545454545456 0.18181818181818182 0.0 0.0 0.0 0.0 0.045454545454545456 0.09090909090909091 0.0 0.045454545454545456 0.0 0.23076923076923078 0.2692307692307692 0.11538461538461539 0.11538461538461539 0.038461538461538464 0.038461538461538464 0.038461538461538464 0.07692307692307693 0.038461538461538464 0.0 0.0 0.038461538461538464 0.0 0.0 0.09090909090909091 0.2727272727272727 0.13636363636363635 0.09090909090909091 0.13636363636363635 0.0 0.045454545454545456 0.0 0.0 0.045454545454545456 0.0 0.09090909090909091 0.045454545454545456 0.045454545454545456 0.05555555555555555 0.6666666666666666 0.0 0.05555555555555555 0.05555555555555555 0.05555555555555555 0.0 0.05555555555555555 0.0 0.05555555555555555 0.0 0.0 0.0 0.0 0.16666666666666666 0.5 0.16666666666666666 0.0 0.16666666666666666 0.0 0.0 0.0 0.0 0.0 0.0 0.0 0.0 0.0 0.3333333333333333 0.3333333333333333 0.3333333333333333 0.0 0.0 0.0 0.0 0.0 0.0 0.0 0.0 0.0 0.0 0.0 </TABLE>
    </DEFINITION>
  </NETWORK>
</BIF>
