<?xml version='1.0' encoding='utf-8'?>
<BIF VERSION="0.3">
  <NETWORK>
    <NAME>UNTITLED</NAME>
    <VARIABLE TYPE="nature">
      <NAME>A</NAME>
      <OUTCOME>_0_753_3_225_</OUTCOME>
      <OUTCOME>_3_225_4_659_</OUTCOME>
      <OUTCOME>_4_659_6_155_</OUTCOME>
      <OUTCOME>_6_155_7_52_</OUTCOME>
      <OUTCOME>_7_52_8_661_</OUTCOME>
      <OUTCOME>_8_661_9_947_</OUTCOME>
      <OUTCOME>_9_947_11_408_</OUTCOME>
      <OUTCOME>_11_408_12_506_</OUTCOME>
      <OUTCOME>_12_506_13_612_</OUTCOME>
      <OUTCOME>_13_612_14_832_</OUTCOME>
      <OUTCOME>_14_832_15_702_</OUTCOME>
      <OUTCOME>_15_702_16_865_</OUTCOME>
      <OUTCOME>_16_865_19_867_</OUTCOME>
      <OUTCOME>_19_867_23_959_</OUTCOME>
      <PROPERTY />
    </VARIABLE>
    <VARIABLE TYPE="nature">
      <NAME>B</NAME>
      <OUTCOME>_0_0203_1_036_</OUTCOME>
      <OUTCOME>_1_036_1_666_</OUTCOME>
      <OUTCOME>_1_666_2_067_</OUTCOME>
      <OUTCOME>_2_067_2_293_</OUTCOME>
      <OUTCOME>_2_293_2_521_</OUTCOME>
      <OUTCOME>_2_521_2_787_</OUTCOME>
      <OUTCOME>_2_787_3_029_</OUTCOME>
      <OUTCOME>_3_029_3_317_</OUTCOME>
      <OUTCOME>_3_317_3_772_</OUTCOME>
      <OUTCOME>_3_772_4_143_</OUTCOME>
      <OUTCOME>_4_143_4_428_</OUTCOME>
      <OUTCOME>_4_428_4_852_</OUTCOME>
      <OUTCOME>_4_852_5_35_</OUTCOME>
      <OUTCOME>_5_35_9_131_</OUTCOME>
      <PROPERTY />
    </VARIABLE>
    <DEFINITION>
      <FOR>A</FOR>
      <TABLE>0.07397260273972603 0.07123287671232877 0.07123287671232877 0.07123287671232877 0.0684931506849315 0.07397260273972603 0.07123287671232877 0.07123287671232877 0.07123287671232877 0.0684931506849315 0.07397260273972603 0.07123287671232877 0.0684931506849315 0.07397260273972603 </TABLE>
    </DEFINITION>
    <DEFINITION>
      <FOR>B</FOR>
      <GIVEN>A</GIVEN>
      <TABLE>0.2962962962962963 0.3333333333333333 0.14814814814814814 0.07407407407407407 0.07407407407407407 0.0 0.0 0.0 0.037037037037037035 0.037037037037037035 0.0 0.0 0.0 0.0 0.15384615384615385 0.11538461538461539 0.19230769230769232 0.34615384615384615 0.0 0.038461538461538464 0.038461538461538464 0.038461538461538464 0.038461538461538464 0.0 0.0 0.0 0.038461538461538464 0.0 0.19230769230769232 0.15384615384615385 0.23076923076923078 0.11538461538461539 0.0 0.15384615384615385 0.0 0.07692307692307693 0.038461538461538464 0.0 0.0 0.038461538461538464 0.0 0.0 0.038461538461538464 0.038461538461538464 0.2692307692307692 0.11538461538461539 0.19230769230769232 0.15384615384615385 0.07692307692307693 0.038461538461538464 0.07692307692307693 0.0 0.0 0.0 0.0 0.0 0.0 0.08 0.0 0.12 0.32 0.08 0.2 0.08 0.08 0.0 0.0 0.0 0.0 0.04 0.07407407407407407 0.18518518518518517 0.037037037037037035 0.1111111111111111 0.14814814814814814 0.18518518518518517 0.07407407407407407 0.07407407407407407 0.037037037037037035 0.0 0.037037037037037035 0.037037037037037035 0.0 0.0 0.07692307692307693 0.038461538461538464 0.038461538461538464 0.0 0.11538461538461539 0.15384615384615385 0.23076923076923078 0.038461538461538464 0.11538461538461539 0.11538461538461539 0.07692307692307693 0.0 0.0 0.0 0.038461538461538464 0.0 0.0 0.07692307692307693 0.038461538461538464 0.07692307692307693 0.15384615384615385 0.23076923076923078 0.23076923076923078 0.038461538461538464 0.07692307692307693 0.038461538461538464 0.0 0.0 0.07692307692307693 0.0 0.038461538461538464 0.038461538461538464 0.07692307692307693 0.0 0.11538461538461539 0.15384615384615385 0.07692307692307693 0.038461538461538464 0.11538461538461539 0.15384615384615385 0.07692307692307693 0.038461538461538464 0.04 0.0 0.04 0.0 0.04 0.04 0.08 0.2 0.2 0.12 0.12 0.04 0.08 0.0 0.0 0.0 0.0 0.0 0.0 0.07407407407407407 0.0 0.0 0.037037037037037035 0.14814814814814814 0.1111111111111111 0.2962962962962963 0.2222222222222222 0.1111111111111111 0.038461538461538464 0.0 0.0 0.0 0.0 0.0 0.0 0.038461538461538464 0.0 0.19230769230769232 0.19230769230769232 0.15384615384615385 0.19230769230769232 0.19230769230769232 0.0 0.0 0.0 0.0 0.0 0.04 0.0 0.04 0.04 0.24 0.2 0.04 0.08 0.32 0.0 0.037037037037037035 0.0 0.0 0.0 0.0 0.037037037037037035 0.0 0.0 0.037037037037037035 0.1111111111111111 0.18518518518518517 0.25925925925925924 0.3333333333333333 </TABLE>
    </DEFINITION>
  </NETWORK>
</BIF>
