<?xml version='1.0' encoding='UTF-8'?>
<BIF VERSION="0.3">
  <NETWORK>
    <NAME>UNTITLED</NAME>
    <VARIABLE TYPE="nature">
      <NAME>P38</NAME>
      <OUTCOME>0</OUTCOME>
      <OUTCOME>1</OUTCOME>
      <OUTCOME>2</OUTCOME>
      <OUTCOME>3</OUTCOME>
      <PROPERTY/>
    </VARIABLE>
    <VARIABLE TYPE="nature">
      <NAME>PIP2</NAME>
      <OUTCOME>0</OUTCOME>
      <OUTCOME>1</OUTCOME>
      <OUTCOME>2</OUTCOME>
      <OUTCOME>3</OUTCOME>
      <PROPERTY/>
    </VARIABLE>
    <VARIABLE TYPE="nature">
      <NAME>PIP3</NAME>
      <OUTCOME>0</OUTCOME>
      <OUTCOME>1</OUTCOME>
      <OUTCOME>2</OUTCOME>
      <OUTCOME>3</OUTCOME>
      <PROPERTY/>
    </VARIABLE>
    <VARIABLE TYPE="nature">
      <NAME>PKA</NAME>
      <OUTCOME>0</OUTCOME>
      <OUTCOME>1</OUTCOME>
      <OUTCOME>2</OUTCOME>
      <OUTCOME>3</OUTCOME>
      <PROPERTY/>
    </VARIABLE>
    <VARIABLE TYPE="nature">
      <NAME>PKC</NAME>
      <OUTCOME>0</OUTCOME>
      <OUTCOME>1</OUTCOME>
      <OUTCOME>2</OUTCOME>
      <OUTCOME>3</OUTCOME>
      <PROPERTY/>
    </VARIABLE>
    <VARIABLE TYPE="nature">
      <NAME>p44/42</NAME>
      <OUTCOME>0</OUTCOME>
      <OUTCOME>1</OUTCOME>
      <OUTCOME>2</OUTCOME>
      <OUTCOME>3</OUTCOME>
      <PROPERTY/>
    </VARIABLE>
    <VARIABLE TYPE="nature">
      <NAME>pakts473</NAME>
      <OUTCOME>0</OUTCOME>
      <OUTCOME>1</OUTCOME>
      <OUTCOME>2</OUTCOME>
      <OUTCOME>3</OUTCOME>
      <PROPERTY/>
    </VARIABLE>
    <VARIABLE TYPE="nature">
      <NAME>pjnk</NAME>
      <OUTCOME>0</OUTCOME>
      <OUTCOME>1</OUTCOME>
      <OUTCOME>2</OUTCOME>
      <OUTCOME>3</OUTCOME>
      <PROPERTY/>
    </VARIABLE>
    <VARIABLE TYPE="nature">
      <NAME>plcg</NAME>
      <OUTCOME>0</OUTCOME>
      <OUTCOME>1</OUTCOME>
      <OUTCOME>2</OUTCOME>
      <OUTCOME>3</OUTCOME>
      <PROPERTY/>
    </VARIABLE>
    <VARIABLE TYPE="nature">
      <NAME>pmek</NAME>
      <OUTCOME>0</OUTCOME>
      <OUTCOME>1</OUTCOME>
      <OUTCOME>2</OUTCOME>
      <OUTCOME>3</OUTCOME>
      <OUTCOME>4</OUTCOME>
      <OUTCOME>5</OUTCOME>
      <OUTCOME>6</OUTCOME>
      <OUTCOME>7</OUTCOME>
      <OUTCOME>8</OUTCOME>
      <OUTCOME>9</OUTCOME>
      <OUTCOME>10</OUTCOME>
      <OUTCOME>11</OUTCOME>
      <OUTCOME>12</OUTCOME>
      <OUTCOME>13</OUTCOME>
      <OUTCOME>14</OUTCOME>
      <OUTCOME>15</OUTCOME>
      <OUTCOME>16</OUTCOME>
      <OUTCOME>17</OUTCOME>
      <OUTCOME>18</OUTCOME>
      <OUTCOME>19</OUTCOME>
      <OUTCOME>20</OUTCOME>
      <OUTCOME>21</OUTCOME>
      <OUTCOME>22</OUTCOME>
      <OUTCOME>23</OUTCOME>
      <OUTCOME>24</OUTCOME>
      <OUTCOME>25</OUTCOME>
      <OUTCOME>26</OUTCOME>
      <OUTCOME>27</OUTCOME>
      <OUTCOME>28</OUTCOME>
      <OUTCOME>29</OUTCOME>
      <OUTCOME>30</OUTCOME>
      <OUTCOME>31</OUTCOME>
      <OUTCOME>32</OUTCOME>
      <OUTCOME>33</OUTCOME>
      <OUTCOME>34</OUTCOME>
      <OUTCOME>35</OUTCOME>
      <OUTCOME>36</OUTCOME>
      <OUTCOME>37</OUTCOME>
      <OUTCOME>38</OUTCOME>
      <OUTCOME>39</OUTCOME>
      <OUTCOME>40</OUTCOME>
      <OUTCOME>41</OUTCOME>
      <OUTCOME>42</OUTCOME>
      <OUTCOME>43</OUTCOME>
      <OUTCOME>44</OUTCOME>
      <OUTCOME>45</OUTCOME>
      <OUTCOME>46</OUTCOME>
      <OUTCOME>47</OUTCOME>
      <OUTCOME>48</OUTCOME>
      <OUTCOME>49</OUTCOME>
      <OUTCOME>50</OUTCOME>
      <OUTCOME>51</OUTCOME>
      <OUTCOME>52</OUTCOME>
      <OUTCOME>53</OUTCOME>
      <OUTCOME>54</OUTCOME>
      <OUTCOME>55</OUTCOME>
      <OUTCOME>56</OUTCOME>
      <OUTCOME>57</OUTCOME>
      <OUTCOME>58</OUTCOME>
      <OUTCOME>59</OUTCOME>
      <OUTCOME>60</OUTCOME>
      <OUTCOME>61</OUTCOME>
      <OUTCOME>62</OUTCOME>
      <OUTCOME>63</OUTCOME>
      <OUTCOME>64</OUTCOME>
      <OUTCOME>65</OUTCOME>
      <OUTCOME>66</OUTCOME>
      <OUTCOME>67</OUTCOME>
      <OUTCOME>68</OUTCOME>
      <OUTCOME>69</OUTCOME>
      <OUTCOME>70</OUTCOME>
      <OUTCOME>71</OUTCOME>
      <OUTCOME>72</OUTCOME>
      <OUTCOME>73</OUTCOME>
      <OUTCOME>74</OUTCOME>
      <OUTCOME>75</OUTCOME>
      <OUTCOME>76</OUTCOME>
      <OUTCOME>77</OUTCOME>
      <OUTCOME>78</OUTCOME>
      <OUTCOME>79</OUTCOME>
      <OUTCOME>80</OUTCOME>
      <OUTCOME>81</OUTCOME>
      <OUTCOME>82</OUTCOME>
      <OUTCOME>83</OUTCOME>
      <OUTCOME>84</OUTCOME>
      <OUTCOME>85</OUTCOME>
      <OUTCOME>86</OUTCOME>
      <OUTCOME>87</OUTCOME>
      <OUTCOME>88</OUTCOME>
      <OUTCOME>89</OUTCOME>
      <OUTCOME>90</OUTCOME>
      <OUTCOME>91</OUTCOME>
      <OUTCOME>92</OUTCOME>
      <OUTCOME>93</OUTCOME>
      <OUTCOME>94</OUTCOME>
      <OUTCOME>95</OUTCOME>
      <OUTCOME>96</OUTCOME>
      <OUTCOME>97</OUTCOME>
      <OUTCOME>98</OUTCOME>
      <OUTCOME>99</OUTCOME>
      <OUTCOME>100</OUTCOME>
      <OUTCOME>101</OUTCOME>
      <OUTCOME>102</OUTCOME>
      <OUTCOME>103</OUTCOME>
      <OUTCOME>104</OUTCOME>
      <OUTCOME>105</OUTCOME>
      <OUTCOME>106</OUTCOME>
      <OUTCOME>107</OUTCOME>
      <OUTCOME>108</OUTCOME>
      <OUTCOME>109</OUTCOME>
      <OUTCOME>110</OUTCOME>
      <OUTCOME>111</OUTCOME>
      <OUTCOME>112</OUTCOME>
      <OUTCOME>113</OUTCOME>
      <OUTCOME>114</OUTCOME>
      <OUTCOME>115</OUTCOME>
      <OUTCOME>116</OUTCOME>
      <OUTCOME>117</OUTCOME>
      <OUTCOME>118</OUTCOME>
      <OUTCOME>119</OUTCOME>
      <OUTCOME>120</OUTCOME>
      <OUTCOME>121</OUTCOME>
      <OUTCOME>122</OUTCOME>
      <OUTCOME>123</OUTCOME>
      <OUTCOME>124</OUTCOME>
      <OUTCOME>125</OUTCOME>
      <OUTCOME>126</OUTCOME>
      <OUTCOME>127</OUTCOME>
      <OUTCOME>128</OUTCOME>
      <OUTCOME>129</OUTCOME>
      <OUTCOME>130</OUTCOME>
      <OUTCOME>131</OUTCOME>
      <OUTCOME>132</OUTCOME>
      <OUTCOME>133</OUTCOME>
      <OUTCOME>134</OUTCOME>
      <OUTCOME>135</OUTCOME>
      <OUTCOME>136</OUTCOME>
      <OUTCOME>137</OUTCOME>
      <OUTCOME>138</OUTCOME>
      <OUTCOME>139</OUTCOME>
      <OUTCOME>140</OUTCOME>
      <OUTCOME>141</OUTCOME>
      <OUTCOME>142</OUTCOME>
      <OUTCOME>143</OUTCOME>
      <OUTCOME>144</OUTCOME>
      <OUTCOME>145</OUTCOME>
      <OUTCOME>146</OUTCOME>
      <OUTCOME>147</OUTCOME>
      <OUTCOME>148</OUTCOME>
      <OUTCOME>149</OUTCOME>
      <OUTCOME>150</OUTCOME>
      <OUTCOME>151</OUTCOME>
      <OUTCOME>152</OUTCOME>
      <OUTCOME>153</OUTCOME>
      <OUTCOME>154</OUTCOME>
      <OUTCOME>155</OUTCOME>
      <OUTCOME>156</OUTCOME>
      <OUTCOME>157</OUTCOME>
      <OUTCOME>158</OUTCOME>
      <OUTCOME>159</OUTCOME>
      <OUTCOME>160</OUTCOME>
      <OUTCOME>161</OUTCOME>
      <OUTCOME>162</OUTCOME>
      <OUTCOME>163</OUTCOME>
      <OUTCOME>164</OUTCOME>
      <OUTCOME>165</OUTCOME>
      <OUTCOME>166</OUTCOME>
      <OUTCOME>167</OUTCOME>
      <OUTCOME>168</OUTCOME>
      <OUTCOME>169</OUTCOME>
      <OUTCOME>170</OUTCOME>
      <OUTCOME>171</OUTCOME>
      <OUTCOME>172</OUTCOME>
      <OUTCOME>173</OUTCOME>
      <OUTCOME>174</OUTCOME>
      <OUTCOME>175</OUTCOME>
      <OUTCOME>176</OUTCOME>
      <OUTCOME>177</OUTCOME>
      <OUTCOME>178</OUTCOME>
      <OUTCOME>179</OUTCOME>
      <OUTCOME>180</OUTCOME>
      <OUTCOME>181</OUTCOME>
      <OUTCOME>182</OUTCOME>
      <OUTCOME>183</OUTCOME>
      <OUTCOME>184</OUTCOME>
      <OUTCOME>185</OUTCOME>
      <OUTCOME>186</OUTCOME>
      <OUTCOME>187</OUTCOME>
      <OUTCOME>188</OUTCOME>
      <OUTCOME>189</OUTCOME>
      <OUTCOME>190</OUTCOME>
      <OUTCOME>191</OUTCOME>
      <OUTCOME>192</OUTCOME>
      <OUTCOME>193</OUTCOME>
      <OUTCOME>194</OUTCOME>
      <OUTCOME>195</OUTCOME>
      <OUTCOME>196</OUTCOME>
      <OUTCOME>197</OUTCOME>
      <OUTCOME>198</OUTCOME>
      <OUTCOME>199</OUTCOME>
      <OUTCOME>200</OUTCOME>
      <OUTCOME>201</OUTCOME>
      <OUTCOME>202</OUTCOME>
      <OUTCOME>203</OUTCOME>
      <OUTCOME>204</OUTCOME>
      <OUTCOME>205</OUTCOME>
      <OUTCOME>206</OUTCOME>
      <OUTCOME>207</OUTCOME>
      <OUTCOME>208</OUTCOME>
      <OUTCOME>209</OUTCOME>
      <OUTCOME>210</OUTCOME>
      <OUTCOME>211</OUTCOME>
      <OUTCOME>212</OUTCOME>
      <OUTCOME>213</OUTCOME>
      <OUTCOME>214</OUTCOME>
      <OUTCOME>215</OUTCOME>
      <OUTCOME>216</OUTCOME>
      <OUTCOME>217</OUTCOME>
      <OUTCOME>218</OUTCOME>
      <OUTCOME>219</OUTCOME>
      <OUTCOME>220</OUTCOME>
      <OUTCOME>221</OUTCOME>
      <OUTCOME>222</OUTCOME>
      <OUTCOME>223</OUTCOME>
      <OUTCOME>224</OUTCOME>
      <OUTCOME>225</OUTCOME>
      <OUTCOME>226</OUTCOME>
      <OUTCOME>227</OUTCOME>
      <OUTCOME>228</OUTCOME>
      <OUTCOME>229</OUTCOME>
      <OUTCOME>230</OUTCOME>
      <OUTCOME>231</OUTCOME>
      <OUTCOME>232</OUTCOME>
      <OUTCOME>233</OUTCOME>
      <OUTCOME>234</OUTCOME>
      <OUTCOME>235</OUTCOME>
      <OUTCOME>236</OUTCOME>
      <OUTCOME>237</OUTCOME>
      <OUTCOME>238</OUTCOME>
      <OUTCOME>239</OUTCOME>
      <OUTCOME>240</OUTCOME>
      <OUTCOME>241</OUTCOME>
      <OUTCOME>242</OUTCOME>
      <OUTCOME>243</OUTCOME>
      <OUTCOME>244</OUTCOME>
      <OUTCOME>245</OUTCOME>
      <OUTCOME>246</OUTCOME>
      <OUTCOME>247</OUTCOME>
      <OUTCOME>248</OUTCOME>
      <OUTCOME>249</OUTCOME>
      <OUTCOME>250</OUTCOME>
      <OUTCOME>251</OUTCOME>
      <OUTCOME>252</OUTCOME>
      <OUTCOME>253</OUTCOME>
      <OUTCOME>254</OUTCOME>
      <OUTCOME>255</OUTCOME>
      <OUTCOME>256</OUTCOME>
      <OUTCOME>257</OUTCOME>
      <OUTCOME>258</OUTCOME>
      <OUTCOME>259</OUTCOME>
      <OUTCOME>260</OUTCOME>
      <OUTCOME>261</OUTCOME>
      <OUTCOME>262</OUTCOME>
      <OUTCOME>263</OUTCOME>
      <OUTCOME>264</OUTCOME>
      <OUTCOME>265</OUTCOME>
      <OUTCOME>266</OUTCOME>
      <OUTCOME>267</OUTCOME>
      <OUTCOME>268</OUTCOME>
      <OUTCOME>269</OUTCOME>
      <OUTCOME>270</OUTCOME>
      <OUTCOME>271</OUTCOME>
      <OUTCOME>272</OUTCOME>
      <OUTCOME>273</OUTCOME>
      <OUTCOME>274</OUTCOME>
      <OUTCOME>275</OUTCOME>
      <OUTCOME>276</OUTCOME>
      <OUTCOME>277</OUTCOME>
      <OUTCOME>278</OUTCOME>
      <OUTCOME>279</OUTCOME>
      <OUTCOME>280</OUTCOME>
      <OUTCOME>281</OUTCOME>
      <OUTCOME>282</OUTCOME>
      <OUTCOME>283</OUTCOME>
      <OUTCOME>284</OUTCOME>
      <OUTCOME>285</OUTCOME>
      <OUTCOME>286</OUTCOME>
      <OUTCOME>287</OUTCOME>
      <OUTCOME>288</OUTCOME>
      <OUTCOME>289</OUTCOME>
      <OUTCOME>290</OUTCOME>
      <OUTCOME>291</OUTCOME>
      <OUTCOME>292</OUTCOME>
      <OUTCOME>293</OUTCOME>
      <OUTCOME>294</OUTCOME>
      <OUTCOME>295</OUTCOME>
      <OUTCOME>296</OUTCOME>
      <OUTCOME>297</OUTCOME>
      <OUTCOME>298</OUTCOME>
      <OUTCOME>299</OUTCOME>
      <OUTCOME>300</OUTCOME>
      <OUTCOME>301</OUTCOME>
      <OUTCOME>302</OUTCOME>
      <OUTCOME>303</OUTCOME>
      <OUTCOME>304</OUTCOME>
      <OUTCOME>305</OUTCOME>
      <OUTCOME>306</OUTCOME>
      <OUTCOME>307</OUTCOME>
      <OUTCOME>308</OUTCOME>
      <OUTCOME>309</OUTCOME>
      <OUTCOME>310</OUTCOME>
      <OUTCOME>311</OUTCOME>
      <OUTCOME>312</OUTCOME>
      <OUTCOME>313</OUTCOME>
      <OUTCOME>314</OUTCOME>
      <OUTCOME>315</OUTCOME>
      <OUTCOME>316</OUTCOME>
      <OUTCOME>317</OUTCOME>
      <OUTCOME>318</OUTCOME>
      <OUTCOME>319</OUTCOME>
      <OUTCOME>320</OUTCOME>
      <OUTCOME>321</OUTCOME>
      <OUTCOME>322</OUTCOME>
      <OUTCOME>323</OUTCOME>
      <OUTCOME>324</OUTCOME>
      <OUTCOME>325</OUTCOME>
      <OUTCOME>326</OUTCOME>
      <OUTCOME>327</OUTCOME>
      <OUTCOME>328</OUTCOME>
      <OUTCOME>329</OUTCOME>
      <OUTCOME>330</OUTCOME>
      <OUTCOME>331</OUTCOME>
      <OUTCOME>332</OUTCOME>
      <OUTCOME>333</OUTCOME>
      <OUTCOME>334</OUTCOME>
      <OUTCOME>335</OUTCOME>
      <OUTCOME>336</OUTCOME>
      <OUTCOME>337</OUTCOME>
      <OUTCOME>338</OUTCOME>
      <OUTCOME>339</OUTCOME>
      <OUTCOME>340</OUTCOME>
      <OUTCOME>341</OUTCOME>
      <OUTCOME>342</OUTCOME>
      <OUTCOME>343</OUTCOME>
      <OUTCOME>344</OUTCOME>
      <OUTCOME>345</OUTCOME>
      <OUTCOME>346</OUTCOME>
      <OUTCOME>347</OUTCOME>
      <OUTCOME>348</OUTCOME>
      <OUTCOME>349</OUTCOME>
      <OUTCOME>350</OUTCOME>
      <OUTCOME>351</OUTCOME>
      <OUTCOME>352</OUTCOME>
      <OUTCOME>353</OUTCOME>
      <OUTCOME>354</OUTCOME>
      <OUTCOME>355</OUTCOME>
      <OUTCOME>356</OUTCOME>
      <OUTCOME>357</OUTCOME>
      <OUTCOME>358</OUTCOME>
      <OUTCOME>359</OUTCOME>
      <OUTCOME>360</OUTCOME>
      <OUTCOME>361</OUTCOME>
      <OUTCOME>362</OUTCOME>
      <OUTCOME>363</OUTCOME>
      <OUTCOME>364</OUTCOME>
      <OUTCOME>365</OUTCOME>
      <OUTCOME>366</OUTCOME>
      <OUTCOME>367</OUTCOME>
      <OUTCOME>368</OUTCOME>
      <OUTCOME>369</OUTCOME>
      <OUTCOME>370</OUTCOME>
      <OUTCOME>371</OUTCOME>
      <OUTCOME>372</OUTCOME>
      <OUTCOME>373</OUTCOME>
      <OUTCOME>374</OUTCOME>
      <OUTCOME>375</OUTCOME>
      <OUTCOME>376</OUTCOME>
      <OUTCOME>377</OUTCOME>
      <OUTCOME>378</OUTCOME>
      <OUTCOME>379</OUTCOME>
      <OUTCOME>380</OUTCOME>
      <OUTCOME>381</OUTCOME>
      <OUTCOME>382</OUTCOME>
      <OUTCOME>383</OUTCOME>
      <OUTCOME>384</OUTCOME>
      <OUTCOME>385</OUTCOME>
      <OUTCOME>386</OUTCOME>
      <OUTCOME>387</OUTCOME>
      <OUTCOME>388</OUTCOME>
      <OUTCOME>389</OUTCOME>
      <OUTCOME>390</OUTCOME>
      <OUTCOME>391</OUTCOME>
      <OUTCOME>392</OUTCOME>
      <OUTCOME>393</OUTCOME>
      <OUTCOME>394</OUTCOME>
      <OUTCOME>395</OUTCOME>
      <OUTCOME>396</OUTCOME>
      <OUTCOME>397</OUTCOME>
      <OUTCOME>398</OUTCOME>
      <OUTCOME>399</OUTCOME>
      <OUTCOME>400</OUTCOME>
      <OUTCOME>401</OUTCOME>
      <OUTCOME>402</OUTCOME>
      <OUTCOME>403</OUTCOME>
      <OUTCOME>404</OUTCOME>
      <OUTCOME>405</OUTCOME>
      <OUTCOME>406</OUTCOME>
      <OUTCOME>407</OUTCOME>
      <OUTCOME>408</OUTCOME>
      <OUTCOME>409</OUTCOME>
      <OUTCOME>410</OUTCOME>
      <OUTCOME>411</OUTCOME>
      <OUTCOME>412</OUTCOME>
      <OUTCOME>413</OUTCOME>
      <OUTCOME>414</OUTCOME>
      <OUTCOME>415</OUTCOME>
      <OUTCOME>416</OUTCOME>
      <OUTCOME>417</OUTCOME>
      <OUTCOME>418</OUTCOME>
      <OUTCOME>419</OUTCOME>
      <OUTCOME>420</OUTCOME>
      <OUTCOME>421</OUTCOME>
      <OUTCOME>422</OUTCOME>
      <OUTCOME>423</OUTCOME>
      <OUTCOME>424</OUTCOME>
      <OUTCOME>425</OUTCOME>
      <OUTCOME>426</OUTCOME>
      <OUTCOME>427</OUTCOME>
      <OUTCOME>428</OUTCOME>
      <OUTCOME>429</OUTCOME>
      <OUTCOME>430</OUTCOME>
      <OUTCOME>431</OUTCOME>
      <OUTCOME>432</OUTCOME>
      <OUTCOME>433</OUTCOME>
      <OUTCOME>434</OUTCOME>
      <OUTCOME>435</OUTCOME>
      <OUTCOME>436</OUTCOME>
      <OUTCOME>437</OUTCOME>
      <OUTCOME>438</OUTCOME>
      <PROPERTY/>
    </VARIABLE>
    <VARIABLE TYPE="nature">
      <NAME>praf</NAME>
      <OUTCOME>0</OUTCOME>
      <OUTCOME>1</OUTCOME>
      <OUTCOME>2</OUTCOME>
      <OUTCOME>3</OUTCOME>
      <OUTCOME>4</OUTCOME>
      <OUTCOME>5</OUTCOME>
      <OUTCOME>6</OUTCOME>
      <OUTCOME>7</OUTCOME>
      <OUTCOME>8</OUTCOME>
      <OUTCOME>9</OUTCOME>
      <OUTCOME>10</OUTCOME>
      <OUTCOME>11</OUTCOME>
      <OUTCOME>12</OUTCOME>
      <OUTCOME>13</OUTCOME>
      <OUTCOME>14</OUTCOME>
      <OUTCOME>15</OUTCOME>
      <OUTCOME>16</OUTCOME>
      <OUTCOME>17</OUTCOME>
      <OUTCOME>18</OUTCOME>
      <OUTCOME>19</OUTCOME>
      <PROPERTY/>
    </VARIABLE>
    <DEFINITION>
      <FOR>P38</FOR>
      <GIVEN>PKA</GIVEN>
      <GIVEN>PKC</GIVEN>
      <TABLE>0.0 1.0 0.0 0.0 0.375 0.625 0.0 0.0 0.006535947712418301 0.6339869281045751 0.35947712418300654 0.0 0.0 0.001941747572815534 0.3786407766990291 0.6194174757281553 0.205607476635514 0.7850467289719626 0.009345794392523364 0.0 0.08108108108108109 0.918918918918919 0.0 0.0 0.047337278106508875 0.9201183431952663 0.029585798816568046 0.0029585798816568047 0.0 0.041666666666666664 0.375 0.5833333333333334 0.6302250803858521 0.3215434083601286 0.03536977491961415 0.012861736334405145 0.3 0.6466666666666666 0.02 0.03333333333333333 0.07054673721340388 0.908289241622575 0.014109347442680775 0.007054673721340388 0.0 0.9117647058823529 0.058823529411764705 0.029411764705882353 0.5417867435158501 0.4207492795389049 0.03170028818443804 0.005763688760806916 0.3333333333333333 0.6585365853658537 0.0040650406504065045 0.0040650406504065045 0.06121372031662269 0.9321899736147757 0.004485488126649077 0.0021108179419525065 0.0 0.9530201342281879 0.040268456375838924 0.006711409395973154 </TABLE>
    </DEFINITION>
    <DEFINITION>
      <FOR>PIP2</FOR>
      <GIVEN>plcg</GIVEN>
      <TABLE>0.584931506849315 0.3804794520547945 0.029794520547945205 0.004794520547945206 0.49582898852971846 0.42909280500521374 0.06856100104275287 0.006517205422314911 0.0 0.48125 0.509375 0.009375 0.0 0.0 0.30256410256410254 0.6974358974358974 </TABLE>
    </DEFINITION>
    <DEFINITION>
      <FOR>PIP3</FOR>
      <TABLE>0.28931154567372086 0.20613447629252613 0.31221537637289043 0.19233860166086258 </TABLE>
    </DEFINITION>
    <DEFINITION>
      <FOR>PKA</FOR>
      <TABLE>0.09067773908384677 0.08411465309402626 0.21818912402893115 0.6070184837931958 </TABLE>
    </DEFINITION>
    <DEFINITION>
      <FOR>PKC</FOR>
      <GIVEN>PIP2</GIVEN>
      <GIVEN>plcg</GIVEN>
      <TABLE>0.06908665105386416 0.07084309133489461 0.8290398126463701 0.031030444964871194 0.14773922187171398 0.07570977917981073 0.7481598317560463 0.028391167192429023 0.25 0.25 0.25 0.25 0.25 0.25 0.25 0.25 0.09360936093609361 0.06840684068406841 0.8136813681368137 0.024302430243024302 0.13487241798298907 0.0899149453219927 0.7253948967193196 0.04981773997569866 0.006493506493506494 0.01948051948051948 0.2987012987012987 0.6753246753246753 0.25 0.25 0.25 0.25 0.06896551724137931 0.10344827586206896 0.8160919540229885 0.011494252873563218 0.11406844106463879 0.04182509505703422 0.8174904942965779 0.026615969581749048 0.0 0.006134969325153374 0.27607361963190186 0.7177914110429447 0.0 0.0 0.11864406779661017 0.8813559322033898 0.0 0.07142857142857142 0.9285714285714286 0.0 0.16 0.0 0.76 0.08 0.0 0.3333333333333333 0.0 0.6666666666666666 0.0 0.0 0.20220588235294118 0.7977941176470589 </TABLE>
    </DEFINITION>
    <DEFINITION>
      <FOR>p44/42</FOR>
      <GIVEN>PKA</GIVEN>
      <GIVEN>pmek</GIVEN>
      <TABLE>1.0 0.0 0.0 0.0 0.25 0.25 0.25 0.25 0.25 0.25 0.25 0.25 0.0 0.0 1.0 0.0 0.25 0.25 0.25 0.25 0.25 0.25 0.25 0.25 0.25 0.25 0.25 0.25 0.25 0.25 0.25 0.25 0.25 0.25 0.25 0.25 0.3333333333333333 0.0 0.3333333333333333 0.3333333333333333 1.0 0.0 0.0 0.0 0.0 0.0 1.0 0.0 0.25 0.25 0.25 0.25 0.0 1.0 0.0 0.0 0.0 0.5 0.0 0.5 0.0 0.0 1.0 0.0 0.25 0.25 0.25 0.25 0.0 0.5 0.5 0.0 0.25 0.25 0.25 0.25 0.0 0.3333333333333333 0.6666666666666666 0.0 0.25 0.25 0.25 0.25 0.5 0.0 0.5 0.0 0.0 1.0 0.0 0.0 0.0 0.3333333333333333 0.6666666666666666 0.0 0.0 1.0 0.0 0.0 0.25 0.25 0.25 0.25 0.25 0.25 0.25 0.25 0.25 0.25 0.25 0.25 0.25 0.25 0.25 0.25 0.0 0.5 0.5 0.0 0.25 0.25 0.25 0.25 0.0 0.0 0.5 0.5 0.25 0.25 0.25 0.25 0.25 0.25 0.25 0.25 0.5 0.0 0.5 0.0 0.25 0.25 0.25 0.25 0.25 0.25 0.25 0.25 0.25 0.25 0.25 0.25 0.0 0.0 1.0 0.0 0.0 0.5 0.5 0.0 0.25 0.25 0.25 0.25 0.25 0.25 0.25 0.25 0.25 0.25 0.25 0.25 0.0 0.0 1.0 0.0 0.0 0.0 0.0 1.0 0.0 0.0 1.0 0.0 1.0 0.0 0.0 0.0 0.25 0.25 0.25 0.25 0.0 0.0 1.0 0.0 0.0 0.0 1.0 0.0 0.0 0.0 0.0 1.0 0.0 0.0 1.0 0.0 0.25 0.25 0.25 0.25 0.25 0.25 0.25 0.25 0.25 0.25 0.25 0.25 0.25 0.25 0.25 0.25 0.0 0.0 0.0 1.0 0.25 0.25 0.25 0.25 0.25 0.25 0.25 0.25 0.25 0.25 0.25 0.25 0.25 0.25 0.25 0.25 0.25 0.25 0.25 0.25 0.25 0.25 0.25 0.25 0.0 0.0 0.0 1.0 0.25 0.25 0.25 0.25 0.25 0.25 0.25 0.25 0.0 0.0 1.0 0.0 0.25 0.25 0.25 0.25 0.25 0.25 0.25 0.25 0.25 0.25 0.25 0.25 0.0 0.0 1.0 0.0 0.25 0.25 0.25 0.25 0.25 0.25 0.25 0.25 0.25 0.25 0.25 0.25 0.25 0.25 0.25 0.25 0.0 0.0 0.0 1.0 0.25 0.25 0.25 0.25 0.25 0.25 0.25 0.25 0.25 0.25 0.25 0.25 0.0 1.0 0.0 0.0 0.25 0.25 0.25 0.25 1.0 0.0 0.0 0.0 0.25 0.25 0.25 0.25 0.25 0.25 0.25 0.25 0.25 0.25 0.25 0.25 0.0 0.0 0.0 1.0 0.25 0.25 0.25 0.25 0.25 0.25 0.25 0.25 0.25 0.25 0.25 0.25 0.0 0.0 1.0 0.0 0.25 0.25 0.25 0.25 0.25 0.25 0.25 0.25 0.25 0.25 0.25 0.25 0.25 0.25 0.25 0.25 0.0 0.0 1.0 0.0 0.0 0.0 1.0 0.0 1.0 0.0 0.0 0.0 0.25 0.25 0.25 0.25 0.0 0.0 0.0 1.0 0.0 0.0 0.0 1.0 0.25 0.25 0.25 0.25 0.25 0.25 0.25 0.25 0.0 0.0 0.0 1.0 0.0 0.0 1.0 0.0 0.0 0.0 1.0 0.0 0.0 0.0 1.0 0.0 0.25 0.25 0.25 0.25 0.25 0.25 0.25 0.25 0.25 0.25 0.25 0.25 0.0 0.0 0.0 1.0 0.25 0.25 0.25 0.25 0.0 0.5 0.5 0.0 0.25 0.25 0.25 0.25 0.0 0.0 0.5 0.5 0.0 0.0 0.0 1.0 0.25 0.25 0.25 0.25 0.0 0.0 0.0 1.0 0.0 0.0 1.0 0.0 0.25 0.25 0.25 0.25 0.25 0.25 0.25 0.25 0.25 0.25 0.25 0.25 0.25 0.25 0.25 0.25 0.0 0.5 0.0 0.5 0.25 0.25 0.25 0.25 0.0 0.0 1.0 0.0 0.0 0.0 1.0 0.0 0.5 0.0 0.0 0.5 0.0 0.0 0.0 1.0 0.0 0.0 0.0 1.0 0.0 0.0 0.0 1.0 0.25 0.25 0.25 0.25 0.0 0.0 0.5 0.5 0.0 0.0 0.0 1.0 0.0 0.0 0.0 1.0 0.0 0.0 1.0 0.0 0.25 0.25 0.25 0.25 0.0 0.0 0.0 1.0 0.25 0.25 0.25 0.25 0.25 0.25 0.25 0.25 0.0 0.0 0.0 1.0 0.0 0.0 0.0 1.0 0.0 0.0 0.3333333333333333 0.6666666666666666 0.0 0.0 1.0 0.0 0.25 0.25 0.25 0.25 0.25 0.25 0.25 0.25 0.0 0.0 0.0 1.0 0.25 0.25 0.25 0.25 0.25 0.25 0.25 0.25 0.25 0.25 0.25 0.25 0.0 0.0 0.0 1.0 0.0 0.0 0.0 1.0 0.0 0.0 0.5 0.5 0.0 0.0 0.0 1.0 0.0 0.0 0.0 1.0 0.25 0.25 0.25 0.25 0.0 0.0 1.0 0.0 0.25 0.25 0.25 0.25 0.0 0.0 0.0 1.0 0.0 0.0 1.0 0.0 0.0 0.0 0.0 1.0 0.0 0.0 1.0 0.0 0.25 0.25 0.25 0.25 0.0 0.0 0.5 0.5 0.0 0.0 1.0 0.0 0.0 0.0 0.0 1.0 0.0 0.0 0.5 0.5 0.25 0.25 0.25 0.25 0.25 0.25 0.25 0.25 0.0 0.0 0.0 1.0 0.0 0.0 1.0 0.0 0.25 0.25 0.25 0.25 0.25 0.25 0.25 0.25 0.0 0.0 1.0 0.0 0.0 0.0 0.0 1.0 0.0 0.0 0.0 1.0 0.0 0.0 0.0 1.0 0.0 0.0 0.0 1.0 0.0 0.0 0.6666666666666666 0.3333333333333333 0.0 0.0 0.3333333333333333 0.6666666666666666 0.25 0.25 0.25 0.25 0.0 0.0 1.0 0.0 0.0 0.0 0.75 0.25 0.0 0.0 0.0 1.0 0.25 0.25 0.25 0.25 0.0 0.0 0.0 1.0 0.0 0.0 0.0 1.0 0.0 0.0 0.5 0.5 0.25 0.25 0.25 0.25 0.0 0.0 0.5 0.5 0.0 0.0 0.0 1.0 0.25 0.25 0.25 0.25 0.0 0.0 0.0 1.0 0.0 0.0 1.0 0.0 0.0 0.0 0.5 0.5 0.0 0.0 0.5 0.5 0.0 0.0 0.5 0.5 0.0 0.0 0.0 1.0 0.0 0.0 0.5 0.5 0.0 0.0 0.5 0.5 0.0 0.0 1.0 0.0 0.0 0.0 1.0 0.0 0.0 0.0 0.0 1.0 0.25 0.25 0.25 0.25 0.0 0.0 0.25 0.75 0.0 0.0 0.0 1.0 0.0 0.0 1.0 0.0 0.0 0.0 1.0 0.0 0.5 0.0 0.0 0.5 0.0 0.0 0.0 1.0 0.0 0.0 0.3333333333333333 0.6666666666666666 0.0 0.0 0.0 1.0 0.0 0.0 1.0 0.0 0.0 0.25 0.0 0.75 0.0 0.0 0.5 0.5 0.0 0.0 0.75 0.25 0.0 0.0 0.0 1.0 0.0 0.0 0.8 0.2 0.0 0.0 0.0 1.0 0.0 0.0 0.75 0.25 0.0 0.0 0.3333333333333333 0.6666666666666666 0.25 0.25 0.25 0.25 0.0 0.0 0.6666666666666666 0.3333333333333333 0.0 0.0 0.25 0.75 0.0 0.0 0.2857142857142857 0.7142857142857143 0.0 0.0 0.5 0.5 0.0 0.0 1.0 0.0 0.0 0.0 0.5 0.5 0.0 0.0 0.5 0.5 0.0 0.0 0.4 0.6 0.0 0.0 1.0 0.0 0.0 0.0 0.3333333333333333 0.6666666666666666 0.0 0.0 0.0 1.0 0.0 0.0 0.6 0.4 0.0 0.0 1.0 0.0 0.0 0.0 0.5 0.5 0.0 0.0 0.0 1.0 0.0 0.0 0.0 1.0 0.0 0.0 0.75 0.25 0.0 0.0 0.0 1.0 0.0 0.0 0.2857142857142857 0.7142857142857143 0.0 0.0 0.0 1.0 0.0 0.0 0.25 0.75 0.0 0.0 0.3333333333333333 0.6666666666666666 0.0 0.0 0.3333333333333333 0.6666666666666666 0.0 0.0 0.5 0.5 0.0 0.0 0.5 0.5 0.0 0.0 0.5 0.5 0.0 0.0 0.2 0.8 0.0 0.0 1.0 0.0 0.0 0.0 0.2857142857142857 0.7142857142857143 0.0 0.0 0.3333333333333333 0.6666666666666666 0.0 0.0 0.6666666666666666 0.3333333333333333 0.0 0.0 0.5 0.5 0.0 0.0 0.25 0.75 0.0 0.0 0.3333333333333333 0.6666666666666666 0.0 0.0 0.0 1.0 0.0 0.0 0.2 0.8 0.2 0.0 0.6 0.2 0.0 0.0 0.5 0.5 0.0 0.0 0.6666666666666666 0.3333333333333333 0.0 0.0 0.6666666666666666 0.3333333333333333 0.0 0.0 0.5 0.5 0.5 0.0 0.0 0.5 0.0 0.0 1.0 0.0 0.0 0.0 0.0 1.0 0.0 0.0 0.5 0.5 0.0 0.0 1.0 0.0 0.25 0.25 0.25 0.25 0.0 0.0 0.3333333333333333 0.6666666666666666 0.0 0.0 0.3333333333333333 0.6666666666666666 0.0 0.0 0.5 0.5 0.0 0.0 0.5 0.5 0.0 0.0 1.0 0.0 0.0 0.0 0.2 0.8 0.0 0.0 0.25 0.75 0.0 0.5 0.0 0.5 0.0 0.0 1.0 0.0 0.0 0.0 1.0 0.0 0.0 0.0 0.3333333333333333 0.6666666666666666 0.0 0.0 0.125 0.875 0.0 0.0 0.2 0.8 0.0 0.0 0.16666666666666666 0.8333333333333334 0.2 0.0 0.2 0.6 0.0 0.0 0.5 0.5 0.0 0.0 0.3333333333333333 0.6666666666666666 0.0 0.0 0.0 1.0 0.0 0.0 1.0 0.0 0.0 0.0 1.0 0.0 0.0 0.0 0.0 1.0 0.0 0.0 0.6666666666666666 0.3333333333333333 0.0 0.0 0.0 1.0 0.0 0.0 0.6666666666666666 0.3333333333333333 0.0 0.0 0.0 1.0 0.0 0.0 1.0 0.0 0.0 0.0 0.0 1.0 0.0 0.0 0.0 1.0 0.0 0.0 0.0 1.0 0.0 0.0 0.6 0.4 0.0 0.0 0.0 1.0 0.0 0.0 0.0 1.0 0.0 0.0 0.6666666666666666 0.3333333333333333 0.0 0.0 0.0 1.0 0.0 0.0 1.0 0.0 0.25 0.25 0.25 0.25 0.0 0.0 0.0 1.0 0.0 0.0 0.5 0.5 0.0 0.0 0.75 0.25 0.0 0.0 0.5 0.5 0.0 0.0 0.0 1.0 0.0 0.0 0.0 1.0 0.0 0.0 1.0 0.0 0.0 0.0 0.5 0.5 0.0 0.0 0.3333333333333333 0.6666666666666666 0.25 0.25 0.25 0.25 0.0 0.0 0.0 1.0 0.0 0.0 1.0 0.0 0.0 0.0 0.0 1.0 0.0 0.0 0.0 1.0 0.0 0.0 0.5 0.5 0.0 0.0 0.75 0.25 0.25 0.25 0.25 0.25 0.0 0.0 1.0 0.0 0.0 0.0 0.0 1.0 0.25 0.25 0.25 0.25 0.25 0.25 0.25 0.25 0.0 0.0 1.0 0.0 0.0 0.0 1.0 0.0 0.0 0.0 0.0 1.0 0.0 0.0 0.0 1.0 0.0 0.0 0.5 0.5 0.0 0.0 1.0 0.0 0.0 0.0 0.5 0.5 0.0 0.0 0.0 1.0 0.25 0.25 0.25 0.25 0.0 0.0 0.0 1.0 0.25 0.25 0.25 0.25 0.0 0.0 1.0 0.0 0.0 0.0 0.25 0.75 0.0 0.0 0.3333333333333333 0.6666666666666666 0.0 0.0 0.25 0.75 0.0 0.0 1.0 0.0 0.25 0.25 0.25 0.25 0.0 0.0 1.0 0.0 0.0 0.0 0.6666666666666666 0.3333333333333333 0.0 0.0 0.0 1.0 0.0 0.0 0.0 1.0 0.0 0.0 1.0 0.0 0.0 0.0 1.0 0.0 0.0 0.0 0.3333333333333333 0.6666666666666666 0.0 0.0 0.0 1.0 0.0 0.0 1.0 0.0 0.0 0.0 0.0 1.0 0.25 0.25 0.25 0.25 0.0 0.0 0.0 1.0 0.25 0.25 0.25 0.25 0.0 0.0 0.0 1.0 0.0 0.0 0.5 0.5 0.0 0.0 0.0 1.0 0.0 0.0 1.0 0.0 0.0 0.0 0.5 0.5 0.25 0.25 0.25 0.25 0.0 0.0 0.0 1.0 0.25 0.25 0.25 0.25 0.0 0.0 1.0 0.0 0.0 0.0 0.0 1.0 0.0 0.0 0.0 1.0 0.0 0.0 0.5 0.5 0.0 0.0 0.0 1.0 0.0 0.0 0.0 1.0 0.0 0.0 0.0 1.0 0.0 0.0 0.0 1.0 0.0 0.0 0.4 0.6 0.25 0.25 0.25 0.25 0.0 0.0 0.0 1.0 0.0 0.0 0.0 1.0 0.0 0.0 0.0 1.0 0.0 0.0 1.0 0.0 0.0 0.0 0.3333333333333333 0.6666666666666666 0.25 0.25 0.25 0.25 0.25 0.25 0.25 0.25 0.0 0.0 1.0 0.0 0.0 0.0 0.0 1.0 0.0 0.0 0.0 1.0 0.0 0.0 1.0 0.0 0.25 0.25 0.25 0.25 0.0 0.0 1.0 0.0 0.25 0.25 0.25 0.25 0.0 0.0 0.0 1.0 0.25 0.25 0.25 0.25 0.0 0.0 1.0 0.0 0.25 0.25 0.25 0.25 0.25 0.25 0.25 0.25 0.25 0.25 0.25 0.25 0.0 0.0 0.0 1.0 0.0 0.0 0.5 0.5 0.0 0.0 0.2 0.8 0.0 0.0 1.0 0.0 0.0 0.0 1.0 0.0 0.25 0.25 0.25 0.25 0.0 0.0 1.0 0.0 0.25 0.25 0.25 0.25 0.0 0.0 0.0 1.0 0.0 0.0 0.3333333333333333 0.6666666666666666 0.25 0.25 0.25 0.25 0.0 0.0 0.0 1.0 0.0 0.0 0.0 1.0 0.0 0.0 0.0 1.0 0.0 0.0 0.0 1.0 0.0 0.0 1.0 0.0 0.0 0.0 0.5 0.5 0.0 0.0 0.3333333333333333 0.6666666666666666 0.0 0.0 1.0 0.0 0.25 0.25 0.25 0.25 0.0 0.0 1.0 0.0 0.0 0.0 0.0 1.0 0.25 0.25 0.25 0.25 0.0 0.0 1.0 0.0 0.0 0.0 1.0 0.0 0.25 0.25 0.25 0.25 0.0 0.0 0.5 0.5 0.25 0.25 0.25 0.25 0.0 0.0 1.0 0.0 0.25 0.25 0.25 0.25 0.25 0.25 0.25 0.25 0.0 0.0 0.0 1.0 0.0 0.0 0.0 1.0 0.0 0.0 1.0 0.0 0.25 0.25 0.25 0.25 0.0 0.0 0.0 1.0 0.0 0.0 0.0 1.0 0.25 0.25 0.25 0.25 0.0 0.0 0.0 1.0 0.25 0.25 0.25 0.25 0.25 0.25 0.25 0.25 0.0 0.0 1.0 0.0 0.0 0.0 0.0 1.0 0.25 0.25 0.25 0.25 0.0 0.0 0.0 1.0 0.0 0.0 1.0 0.0 0.09090909090909091 0.2727272727272727 0.6363636363636364 0.0 0.0 0.3333333333333333 0.6666666666666666 0.0 0.0 0.0 1.0 0.0 0.25 0.25 0.25 0.25 0.25 0.25 0.25 0.25 0.25 0.25 0.25 0.25 0.0 1.0 0.0 0.0 0.0 0.0 1.0 0.0 0.25 0.25 0.25 0.25 0.2 0.2 0.6 0.0 0.0 0.3333333333333333 0.6666666666666666 0.0 0.0 1.0 0.0 0.0 0.2222222222222222 0.2222222222222222 0.5555555555555556 0.0 0.0 0.0 1.0 0.0 0.0 0.16666666666666666 0.6666666666666666 0.16666666666666666 0.0 0.0 1.0 0.0 0.125 0.125 0.75 0.0 0.1 0.0 0.9 0.0 0.0 0.3333333333333333 0.6666666666666666 0.0 0.25 0.25 0.5 0.0 0.0 0.6666666666666666 0.3333333333333333 0.0 0.0 0.0 1.0 0.0 0.0 0.3333333333333333 0.6666666666666666 0.0 0.0 0.3333333333333333 0.6666666666666666 0.0 0.3333333333333333 0.2222222222222222 0.4444444444444444 0.0 0.0 0.0 1.0 0.0 0.25 0.25 0.5 0.0 0.0 0.25 0.75 0.0 0.0 0.0 1.0 0.0 0.0 0.0 1.0 0.0 0.0 0.14285714285714285 0.8571428571428571 0.0 0.0 0.14285714285714285 0.8571428571428571 0.0 0.0 0.0 1.0 0.0 0.2 0.4 0.4 0.0 0.2 0.0 0.8 0.0 0.0 0.0 1.0 0.0 0.0 1.0 0.0 0.0 0.25 0.25 0.25 0.25 0.16666666666666666 0.0 0.8333333333333334 0.0 0.5 0.0 0.5 0.0 0.0 1.0 0.0 0.0 0.3333333333333333 0.0 0.6666666666666666 0.0 0.0 0.0 1.0 0.0 0.0 0.0 1.0 0.0 0.0 1.0 0.0 0.0 0.0 0.0 1.0 0.0 0.0 0.5 0.5 0.0 0.5 0.0 0.5 0.0 0.0 0.0 1.0 0.0 0.0 1.0 0.0 0.0 0.5 0.0 0.5 0.0 0.25 0.25 0.25 0.25 0.25 0.25 0.25 0.25 0.5 0.0 0.5 0.0 0.3333333333333333 0.0 0.6666666666666666 0.0 1.0 0.0 0.0 0.0 0.25 0.25 0.25 0.25 0.0 0.6666666666666666 0.3333333333333333 0.0 0.0 1.0 0.0 0.0 0.0 0.0 1.0 0.0 0.25 0.25 0.25 0.25 0.0 1.0 0.0 0.0 1.0 0.0 0.0 0.0 0.25 0.25 0.25 0.25 0.25 0.25 0.25 0.25 0.5 0.0 0.5 0.0 0.25 0.25 0.25 0.25 0.0 1.0 0.0 0.0 1.0 0.0 0.0 0.0 0.0 1.0 0.0 0.0 0.25 0.75 0.0 0.0 0.25 0.25 0.25 0.25 0.5 0.5 0.0 0.0 0.25 0.25 0.25 0.25 0.25 0.25 0.25 0.25 0.25 0.25 0.25 0.25 0.3333333333333333 0.3333333333333333 0.3333333333333333 0.0 0.25 0.25 0.25 0.25 0.3333333333333333 0.3333333333333333 0.3333333333333333 0.0 0.25 0.25 0.25 0.25 1.0 0.0 0.0 0.0 0.25 0.25 0.25 0.25 0.0 0.0 1.0 0.0 0.25 0.25 0.25 0.25 0.0 1.0 0.0 0.0 0.5 0.5 0.0 0.0 0.25 0.25 0.25 0.25 1.0 0.0 0.0 0.0 1.0 0.0 0.0 0.0 1.0 0.0 0.0 0.0 0.5 0.0 0.5 0.0 0.25 0.25 0.25 0.25 0.0 1.0 0.0 0.0 0.5 0.5 0.0 0.0 0.0 1.0 0.0 0.0 0.0 0.0 1.0 0.0 0.5 0.0 0.5 0.0 0.25 0.25 0.25 0.25 0.25 0.25 0.25 0.25 0.0 0.0 0.0 1.0 0.25 0.25 0.25 0.25 0.25 0.25 0.25 0.25 0.25 0.25 0.25 0.25 0.25 0.25 0.25 0.25 1.0 0.0 0.0 0.0 0.3333333333333333 0.0 0.3333333333333333 0.3333333333333333 1.0 0.0 0.0 0.0 0.25 0.25 0.25 0.25 0.25 0.25 0.25 0.25 0.25 0.25 0.25 0.25 0.25 0.25 0.25 0.25 0.25 0.25 0.25 0.25 0.5 0.0 0.5 0.0 0.0 0.0 1.0 0.0 0.25 0.25 0.25 0.25 0.0 0.0 1.0 0.0 0.25 0.25 0.25 0.25 0.25 0.25 0.25 0.25 1.0 0.0 0.0 0.0 0.25 0.25 0.25 0.25 0.25 0.25 0.25 0.25 0.25 0.25 0.25 0.25 0.25 0.25 0.25 0.25 0.0 0.5 0.25 0.25 0.5 0.0 0.5 0.0 0.25 0.25 0.25 0.25 0.0 1.0 0.0 0.0 0.25 0.25 0.25 0.25 1.0 0.0 0.0 0.0 0.25 0.25 0.25 0.25 0.0 0.0 1.0 0.0 0.0 1.0 0.0 0.0 0.0 0.0 1.0 0.0 1.0 0.0 0.0 0.0 0.5 0.5 0.0 0.0 0.25 0.25 0.25 0.25 0.25 0.25 0.25 0.25 1.0 0.0 0.0 0.0 1.0 0.0 0.0 0.0 0.25 0.25 0.25 0.25 0.25 0.25 0.25 0.25 0.0 1.0 0.0 0.0 0.0 0.5 0.0 0.5 1.0 0.0 0.0 0.0 0.25 0.25 0.25 0.25 0.3333333333333333 0.0 0.6666666666666666 0.0 0.0 1.0 0.0 0.0 0.25 0.25 0.25 0.25 0.0 0.0 1.0 0.0 0.25 0.25 0.25 0.25 0.25 0.25 0.25 0.25 0.25 0.25 0.25 0.25 0.5 0.0 0.5 0.0 0.5 0.0 0.5 0.0 1.0 0.0 0.0 0.0 0.25 0.25 0.25 0.25 0.25 0.25 0.25 0.25 0.0 1.0 0.0 0.0 1.0 0.0 0.0 0.0 0.5 0.5 0.0 0.0 1.0 0.0 0.0 0.0 0.5 0.0 0.0 0.5 0.5 0.5 0.0 0.0 0.6666666666666666 0.0 0.0 0.3333333333333333 0.2 0.4 0.2 0.2 0.0 0.0 1.0 0.0 0.25 0.25 0.25 0.25 0.0 1.0 0.0 0.0 1.0 0.0 0.0 0.0 0.0 0.0 0.0 1.0 0.0 1.0 0.0 0.0 0.25 0.25 0.25 0.25 0.0 1.0 0.0 0.0 0.25 0.25 0.25 0.25 0.25 0.25 0.25 0.25 0.5 0.5 0.0 0.0 0.6666666666666666 0.0 0.3333333333333333 0.0 0.25 0.25 0.25 0.25 0.0 0.0 0.0 1.0 0.0 0.0 0.0 1.0 0.5 0.0 0.5 0.0 0.25 0.25 0.25 0.25 1.0 0.0 0.0 0.0 0.0 1.0 0.0 0.0 0.0 1.0 0.0 0.0 0.3333333333333333 0.3333333333333333 0.3333333333333333 0.0 0.6666666666666666 0.0 0.0 0.3333333333333333 0.0 1.0 0.0 0.0 0.5 0.5 0.0 0.0 1.0 0.0 0.0 0.0 0.0 0.5 0.5 0.0 0.0 1.0 0.0 0.0 0.5 0.0 0.5 0.0 0.0 0.0 0.5 0.5 1.0 0.0 0.0 0.0 0.6666666666666666 0.3333333333333333 0.0 0.0 0.3333333333333333 0.0 0.3333333333333333 0.3333333333333333 0.0 0.0 0.0 1.0 0.25 0.25 0.25 0.25 0.0 1.0 0.0 0.0 0.5 0.0 0.5 0.0 0.5 0.0 0.5 0.0 0.0 0.0 0.0 1.0 0.0 0.0 0.0 1.0 0.5 0.0 0.0 0.5 0.6666666666666666 0.0 0.0 0.3333333333333333 0.6666666666666666 0.3333333333333333 0.0 0.0 0.25 0.25 0.25 0.25 1.0 0.0 0.0 0.0 0.25 0.25 0.25 0.25 0.0 1.0 0.0 0.0 1.0 0.0 0.0 0.0 0.0 0.0 0.0 1.0 0.5 0.5 0.0 0.0 0.0 1.0 0.0 0.0 0.5 0.5 0.0 0.0 0.0 0.0 0.6666666666666666 0.3333333333333333 0.25 0.25 0.25 0.25 0.5 0.5 0.0 0.0 0.5 0.5 0.0 0.0 0.0 0.5 0.5 0.0 0.2 0.2 0.4 0.2 0.0 0.0 0.6666666666666666 0.3333333333333333 0.5 0.0 0.0 0.5 0.0 1.0 0.0 0.0 0.25 0.25 0.25 0.25 0.25 0.5 0.25 0.0 0.0 0.3333333333333333 0.3333333333333333 0.3333333333333333 0.3333333333333333 0.6666666666666666 0.0 0.0 0.5 0.0 0.5 0.0 0.0 0.3333333333333333 0.0 0.6666666666666666 1.0 0.0 0.0 0.0 0.8 0.0 0.2 0.0 0.3333333333333333 0.3333333333333333 0.3333333333333333 0.0 0.0 0.5 0.5 0.0 0.0 0.5 0.0 0.5 1.0 0.0 0.0 0.0 1.0 0.0 0.0 0.0 0.3333333333333333 0.3333333333333333 0.0 0.3333333333333333 0.6 0.2 0.0 0.2 0.0 1.0 0.0 0.0 0.5 0.25 0.25 0.0 0.25 0.25 0.25 0.25 0.6666666666666666 0.3333333333333333 0.0 0.0 0.0 1.0 0.0 0.0 0.25 0.25 0.25 0.25 0.25 0.25 0.25 0.25 0.25 0.25 0.25 0.25 0.25 0.25 0.25 0.25 0.0 0.0 0.5 0.5 0.75 0.0 0.0 0.25 1.0 0.0 0.0 0.0 0.0 0.0 0.0 1.0 0.6666666666666666 0.3333333333333333 0.0 0.0 0.0 0.5 0.5 0.0 1.0 0.0 0.0 0.0 1.0 0.0 0.0 0.0 0.75 0.25 0.0 0.0 0.0 0.0 0.0 1.0 1.0 0.0 0.0 0.0 1.0 0.0 0.0 0.0 0.25 0.25 0.0 0.5 0.6666666666666666 0.0 0.3333333333333333 0.0 0.25 0.25 0.25 0.25 0.0 1.0 0.0 0.0 1.0 0.0 0.0 0.0 1.0 0.0 0.0 0.0 0.0 0.0 1.0 0.0 1.0 0.0 0.0 0.0 0.0 0.0 1.0 0.0 0.5 0.25 0.25 0.0 0.25 0.25 0.25 0.25 0.25 0.25 0.25 0.25 1.0 0.0 0.0 0.0 0.25 0.25 0.25 0.25 0.0 0.6666666666666666 0.3333333333333333 0.0 0.25 0.25 0.25 0.25 0.0 0.5 0.0 0.5 0.25 0.25 0.25 0.25 0.5 0.0 0.0 0.5 0.25 0.25 0.25 0.25 0.0 1.0 0.0 0.0 0.3333333333333333 0.0 0.6666666666666666 0.0 0.3333333333333333 0.3333333333333333 0.3333333333333333 0.0 0.0 1.0 0.0 0.0 0.0 1.0 0.0 0.0 0.0 0.5 0.0 0.5 0.6666666666666666 0.0 0.3333333333333333 0.0 0.25 0.25 0.25 0.25 0.25 0.25 0.25 0.25 0.25 0.25 0.25 0.25 0.0 0.3333333333333333 0.0 0.6666666666666666 0.0 0.0 1.0 0.0 1.0 0.0 0.0 0.0 0.5 0.5 0.0 0.0 0.25 0.25 0.25 0.25 0.0 1.0 0.0 0.0 1.0 0.0 0.0 0.0 1.0 0.0 0.0 0.0 0.0 0.0 0.5 0.5 0.0 0.0 0.0 1.0 1.0 0.0 0.0 0.0 0.5 0.5 0.0 0.0 0.25 0.25 0.25 0.25 0.0 1.0 0.0 0.0 0.5 0.5 0.0 0.0 0.0 0.5 0.0 0.5 0.25 0.25 0.25 0.25 0.25 0.25 0.25 0.25 0.5 0.0 0.5 0.0 0.0 0.0 1.0 0.0 0.25 0.25 0.25 0.25 0.5 0.0 0.5 0.0 0.0 0.0 1.0 0.0 0.25 0.25 0.25 0.25 0.0 0.0 0.0 1.0 1.0 0.0 0.0 0.0 0.25 0.25 0.25 0.25 1.0 0.0 0.0 0.0 0.0 1.0 0.0 0.0 1.0 0.0 0.0 0.0 1.0 0.0 0.0 0.0 0.25 0.25 0.25 0.25 0.25 0.25 0.25 0.25 0.5 0.0 0.0 0.5 0.5 0.0 0.5 0.0 0.0 0.0 1.0 0.0 0.5 0.0 0.5 0.0 0.25 0.25 0.25 0.25 1.0 0.0 0.0 0.0 0.25 0.25 0.25 0.25 1.0 0.0 0.0 0.0 0.25 0.25 0.25 0.25 0.25 0.25 0.25 0.25 0.0 0.0 0.0 1.0 1.0 0.0 0.0 0.0 1.0 0.0 0.0 0.0 0.0 1.0 0.0 0.0 0.25 0.25 0.25 0.25 0.25 0.25 0.25 0.25 0.0 0.0 0.0 1.0 0.3333333333333333 0.3333333333333333 0.3333333333333333 0.0 1.0 0.0 0.0 0.0 0.5 0.0 0.5 0.0 0.25 0.25 0.25 0.25 0.25 0.25 0.25 0.25 0.0 0.0 1.0 0.0 0.0 1.0 0.0 0.0 0.25 0.25 0.25 0.25 0.25 0.25 0.25 0.25 0.6666666666666666 0.3333333333333333 0.0 0.0 0.0 1.0 0.0 0.0 1.0 0.0 0.0 0.0 0.0 0.0 0.0 1.0 1.0 0.0 0.0 0.0 0.5 0.0 0.5 0.0 0.25 0.25 0.25 0.25 0.0 0.0 0.0 1.0 0.25 0.25 0.25 0.25 0.0 0.0 1.0 0.0 1.0 0.0 0.0 0.0 0.5 0.0 0.5 0.0 0.5 0.5 0.0 0.0 0.25 0.25 0.25 0.25 0.25 0.25 0.25 0.25 1.0 0.0 0.0 0.0 0.0 1.0 0.0 0.0 0.25 0.25 0.25 0.25 0.25 0.25 0.25 0.25 0.25 0.25 0.25 0.25 0.25 0.25 0.25 0.25 0.2 0.2 0.2 0.4 0.0 0.0 0.5 0.5 0.25 0.25 0.25 0.25 1.0 0.0 0.0 0.0 0.25 0.25 0.25 0.25 0.0 0.0 0.0 1.0 0.0 1.0 0.0 0.0 0.0 0.0 1.0 0.0 1.0 0.0 0.0 0.0 0.25 0.25 0.25 0.25 0.6666666666666666 0.3333333333333333 0.0 0.0 0.3333333333333333 0.3333333333333333 0.0 0.3333333333333333 0.0 0.0 1.0 0.0 0.25 0.25 0.25 0.25 1.0 0.0 0.0 0.0 0.0 1.0 0.0 0.0 0.0 0.0 0.0 1.0 0.25 0.25 0.25 0.25 0.0 0.0 0.5 0.5 0.0 1.0 0.0 0.0 1.0 0.0 0.0 0.0 1.0 0.0 0.0 0.0 1.0 0.0 0.0 0.0 1.0 0.0 0.0 0.0 0.0 0.0 1.0 0.0 0.25 0.25 0.25 0.25 0.0 1.0 0.0 0.0 0.25 0.25 0.25 0.25 0.25 0.25 0.25 0.25 0.0 1.0 0.0 0.0 0.0 0.0 1.0 0.0 0.0 1.0 0.0 0.0 0.25 0.25 0.25 0.25 0.25 0.25 0.5 0.0 1.0 0.0 0.0 0.0 0.25 0.25 0.25 0.25 1.0 0.0 0.0 0.0 0.0 0.5 0.5 0.0 0.25 0.25 0.25 0.25 0.3333333333333333 0.6666666666666666 0.0 0.0 0.25 0.25 0.25 0.25 0.5 0.0 0.0 0.5 0.25 0.25 0.25 0.25 0.25 0.25 0.25 0.25 0.25 0.25 0.25 0.25 0.25 0.25 0.25 0.25 0.25 0.25 0.25 0.25 0.5 0.5 0.0 0.0 0.25 0.25 0.25 0.25 0.5 0.5 0.0 0.0 0.0 1.0 0.0 0.0 1.0 0.0 0.0 0.0 0.25 0.25 0.25 0.25 1.0 0.0 0.0 0.0 0.0 1.0 0.0 0.0 0.25 0.25 0.25 0.25 0.5 0.0 0.0 0.5 1.0 0.0 0.0 0.0 1.0 0.0 0.0 0.0 0.25 0.25 0.25 0.25 1.0 0.0 0.0 0.0 0.25 0.25 0.25 0.25 0.25 0.25 0.25 0.25 0.25 0.25 0.25 0.25 0.25 0.25 0.25 0.25 0.0 0.0 1.0 0.0 0.25 0.25 0.25 0.25 0.25 0.25 0.25 0.25 0.0 0.043824701195219126 0.9442231075697212 0.01195219123505976 0.0 0.0 0.9821428571428571 0.017857142857142856 0.0 0.0 1.0 0.0 0.0 0.06666666666666667 0.8666666666666667 0.06666666666666667 0.0 0.0 1.0 0.0 0.0 0.0 1.0 0.0 0.0 0.0 1.0 0.0 0.0 0.0 0.875 0.125 0.0 0.05 0.85 0.1 0.0 0.0 1.0 0.0 0.06666666666666667 0.0 0.9333333333333333 0.0 0.0 0.05 0.95 0.0 0.0 0.0 0.9285714285714286 0.07142857142857142 0.0 0.05128205128205128 0.9230769230769231 0.02564102564102564 0.029411764705882353 0.0 0.9117647058823529 0.058823529411764705 0.0 0.02564102564102564 0.9743589743589743 0.0 0.023255813953488372 0.0 0.9534883720930233 0.023255813953488372 0.0 0.022222222222222223 0.9555555555555556 0.022222222222222223 0.0 0.020833333333333332 0.9166666666666666 0.0625 0.022222222222222223 0.022222222222222223 0.9555555555555556 0.0 0.0 0.0 0.9736842105263158 0.02631578947368421 0.0 0.0 1.0 0.0 0.0 0.0 1.0 0.0 0.0 0.0 0.9444444444444444 0.05555555555555555 0.0 0.02702702702702703 0.972972972972973 0.0 0.0 0.03333333333333333 0.9333333333333333 0.03333333333333333 0.037037037037037035 0.037037037037037035 0.9259259259259259 0.0 0.0 0.16666666666666666 0.8 0.03333333333333333 0.0 0.0 1.0 0.0 0.0 0.0 1.0 0.0 0.0 0.0 1.0 0.0 0.0 0.03571428571428571 0.9642857142857143 0.0 0.037037037037037035 0.0 0.8888888888888888 0.07407407407407407 0.037037037037037035 0.0 0.9629629629629629 0.0 0.0 0.0 1.0 0.0 0.0 0.0 1.0 0.0 0.0 0.0 0.9285714285714286 0.07142857142857142 0.047619047619047616 0.0 0.9523809523809523 0.0 0.0 0.0 0.8333333333333334 0.16666666666666666 0.07142857142857142 0.0 0.9285714285714286 0.0 0.1111111111111111 0.0 0.8888888888888888 0.0 0.0 0.0 1.0 0.0 0.0 0.2 0.8 0.0 0.0 0.0 0.8333333333333334 0.16666666666666666 0.0 0.0 1.0 0.0 0.14285714285714285 0.14285714285714285 0.7142857142857143 0.0 0.0 0.16666666666666666 0.8333333333333334 0.0 0.0 0.0 1.0 0.0 0.0 0.0 0.8333333333333334 0.16666666666666666 0.0 0.0 0.8888888888888888 0.1111111111111111 0.0 0.0 1.0 0.0 0.0 0.0 1.0 0.0 0.0 0.0 1.0 0.0 0.2 0.0 0.8 0.0 0.0 0.0 1.0 0.0 0.0 0.0 1.0 0.0 0.0 0.0 1.0 0.0 0.0 0.3333333333333333 0.6666666666666666 0.0 0.0 0.0 0.75 0.25 0.0 0.0 1.0 0.0 0.0 0.0 1.0 0.0 0.0 0.0 1.0 0.0 1.0 0.0 0.0 0.0 0.0 0.0 0.5 0.5 1.0 0.0 0.0 0.0 0.0 0.0 1.0 0.0 0.0 0.0 1.0 0.0 0.25 0.25 0.25 0.25 0.25 0.25 0.25 0.25 0.0 0.0 1.0 0.0 0.25 0.25 0.25 0.25 0.0 0.0 1.0 0.0 0.0 0.5 0.5 0.0 0.0 0.0 1.0 0.0 0.0 0.0 1.0 0.0 0.0 0.0 1.0 0.0 0.0 0.5 0.5 0.0 0.25 0.25 0.25 0.25 0.0 0.0 1.0 0.0 0.0 0.0 1.0 0.0 0.0 0.0 1.0 0.0 0.0 0.0 1.0 0.0 0.0 0.0 1.0 0.0 0.0 0.0 1.0 0.0 0.0 0.25 0.75 0.0 0.0 0.0 1.0 0.0 0.25 0.25 0.25 0.25 0.0 0.0 1.0 0.0 0.0 0.0 1.0 0.0 0.0 0.0 1.0 0.0 0.0 0.0 1.0 0.0 0.0 0.0 1.0 0.0 0.0 0.0 1.0 0.0 0.0 0.3333333333333333 0.6666666666666666 0.0 0.25 0.25 0.25 0.25 0.25 0.25 0.25 0.25 0.25 0.25 0.25 0.25 0.0 0.0 1.0 0.0 0.0 0.0 1.0 0.0 0.0 0.5 0.5 0.0 0.25 0.25 0.25 0.25 0.25 0.25 0.25 0.25 0.0 0.0 1.0 0.0 0.25 0.25 0.25 0.25 0.0 0.0 1.0 0.0 0.0 0.0 1.0 0.0 0.0 0.0 1.0 0.0 0.25 0.25 0.25 0.25 0.0 1.0 0.0 0.0 1.0 0.0 0.0 0.0 0.0 0.0 1.0 0.0 0.0 0.0 1.0 0.0 0.25 0.25 0.25 0.25 0.25 0.25 0.25 0.25 0.0 0.0 1.0 0.0 0.25 0.25 0.25 0.25 0.25 0.25 0.25 0.25 0.25 0.25 0.25 0.25 0.25 0.25 0.25 0.25 0.25 0.25 0.25 0.25 0.0 0.0 1.0 0.0 0.5 0.0 0.5 0.0 0.0 0.0 1.0 0.0 0.25 0.25 0.25 0.25 0.25 0.25 0.25 0.25 0.25 0.25 0.25 0.25 0.25 0.25 0.25 0.25 0.25 0.25 0.25 0.25 0.25 0.25 0.25 0.25 0.25 0.25 0.25 0.25 0.0 0.5 0.5 0.0 0.25 0.25 0.25 0.25 0.25 0.25 0.25 0.25 0.0 1.0 0.0 0.0 0.25 0.25 0.25 0.25 0.6666666666666666 0.0 0.3333333333333333 0.0 0.25 0.25 0.25 0.25 0.0 0.0 1.0 0.0 1.0 0.0 0.0 0.0 0.25 0.25 0.25 0.25 0.25 0.25 0.25 0.25 0.25 0.25 0.25 0.25 0.25 0.25 0.25 0.25 0.0 0.0 1.0 0.0 0.25 0.25 0.25 0.25 0.0 0.0 1.0 0.0 0.0 0.0 1.0 0.0 1.0 0.0 0.0 0.0 0.25 0.25 0.25 0.25 0.25 0.25 0.25 0.25 0.25 0.25 0.25 0.25 0.25 0.25 0.25 0.25 0.0 0.0 1.0 0.0 0.25 0.25 0.25 0.25 0.25 0.25 0.25 0.25 0.0 0.0 1.0 0.0 0.25 0.25 0.25 0.25 0.25 0.25 0.25 0.25 0.25 0.25 0.25 0.25 0.0 0.0 1.0 0.0 0.25 0.25 0.25 0.25 0.25 0.25 0.25 0.25 0.25 0.25 0.25 0.25 0.25 0.25 0.25 0.25 0.25 0.25 0.25 0.25 0.25 0.25 0.25 0.25 0.25 0.25 0.25 0.25 0.25 0.25 0.25 0.25 1.0 0.0 0.0 0.0 0.0 0.0 1.0 0.0 0.25 0.25 0.25 0.25 0.0 0.0 1.0 0.0 0.0 1.0 0.0 0.0 0.25 0.25 0.25 0.25 0.25 0.25 0.25 0.25 0.25 0.25 0.25 0.25 0.25 0.25 0.25 0.25 0.0 1.0 0.0 0.0 0.25 0.25 0.25 0.25 0.25 0.25 0.25 0.25 1.0 0.0 0.0 0.0 0.0 0.5 0.5 0.0 0.25 0.25 0.25 0.25 0.0 0.0 1.0 0.0 0.25 0.25 0.25 0.25 0.25 0.25 0.25 0.25 0.25 0.25 0.25 0.25 0.0 1.0 0.0 0.0 0.25 0.25 0.25 0.25 0.0 0.3333333333333333 0.3333333333333333 0.3333333333333333 0.25 0.25 0.25 0.25 0.0 1.0 0.0 0.0 0.0 1.0 0.0 0.0 0.25 0.25 0.25 0.25 0.0 1.0 0.0 0.0 0.0 1.0 0.0 0.0 0.25 0.25 0.25 0.25 0.25 0.25 0.25 0.25 0.25 0.25 0.25 0.25 0.0 0.0 1.0 0.0 0.0 1.0 0.0 0.0 0.25 0.25 0.25 0.25 0.25 0.25 0.25 0.25 0.25 0.25 0.25 0.25 0.25 0.25 0.25 0.25 0.25 0.25 0.25 0.25 1.0 0.0 0.0 0.0 0.0 0.6666666666666666 0.3333333333333333 0.0 0.25 0.25 0.25 0.25 0.25 0.25 0.25 0.25 0.0 0.0 1.0 0.0 0.0 1.0 0.0 0.0 0.25 0.25 0.25 0.25 1.0 0.0 0.0 0.0 0.0 0.0 1.0 0.0 0.25 0.25 0.25 0.25 0.25 0.25 0.25 0.25 0.0 0.0 1.0 0.0 0.25 0.25 0.25 0.25 0.25 0.25 0.25 0.25 0.25 0.25 0.25 0.25 0.25 0.25 0.25 0.25 0.0 0.0 1.0 0.0 0.0 0.0 1.0 0.0 0.0 1.0 0.0 0.0 0.25 0.25 0.25 0.25 0.25 0.25 0.25 0.25 0.0 0.0 1.0 0.0 0.25 0.25 0.25 0.25 0.0 0.0 1.0 0.0 0.3333333333333333 0.0 0.6666666666666666 0.0 0.25 0.25 0.25 0.25 0.5 0.5 0.0 0.0 0.0 0.0 1.0 0.0 0.0 0.0 1.0 0.0 0.0 0.0 1.0 0.0 0.5 0.5 0.0 0.0 0.25 0.25 0.25 0.25 0.0 0.0 1.0 0.0 0.25 0.25 0.25 0.25 0.25 0.25 0.25 0.25 0.0 1.0 0.0 0.0 0.0 0.0 1.0 0.0 0.6666666666666666 0.0 0.3333333333333333 0.0 0.25 0.25 0.25 0.25 0.25 0.25 0.25 0.25 0.25 0.25 0.25 0.25 0.0 0.0 1.0 0.0 0.25 0.25 0.25 0.25 1.0 0.0 0.0 0.0 1.0 0.0 0.0 0.0 0.6666666666666666 0.0 0.3333333333333333 0.0 0.0 0.0 1.0 0.0 0.25 0.25 0.25 0.25 0.5 0.0 0.5 0.0 0.25 0.25 0.25 0.25 0.25 0.25 0.5 0.0 0.0 0.0 1.0 0.0 0.0 0.0 1.0 0.0 0.0 1.0 0.0 0.0 0.0 1.0 0.0 0.0 0.0 0.0 1.0 0.0 0.0 0.0 1.0 0.0 0.25 0.25 0.25 0.25 0.0 0.5 0.5 0.0 0.0 1.0 0.0 0.0 0.25 0.25 0.25 0.25 0.0 1.0 0.0 0.0 0.25 0.25 0.25 0.25 0.25 0.25 0.25 0.25 0.25 0.25 0.25 0.25 1.0 0.0 0.0 0.0 0.25 0.25 0.25 0.25 0.25 0.25 0.25 0.25 0.5 0.0 0.5 0.0 0.25 0.25 0.25 0.25 0.25 0.25 0.25 0.25 0.25 0.25 0.25 0.25 0.0 0.0 1.0 0.0 0.25 0.25 0.25 0.25 0.0 1.0 0.0 0.0 0.25 0.25 0.25 0.25 0.25 0.25 0.25 0.25 0.25 0.25 0.25 0.25 1.0 0.0 0.0 0.0 1.0 0.0 0.0 0.0 0.25 0.25 0.25 0.25 0.25 0.25 0.25 0.25 0.25 0.25 0.25 0.25 0.25 0.25 0.25 0.25 0.25 0.25 0.25 0.25 0.25 0.25 0.25 0.25 0.5 0.5 0.0 0.0 0.25 0.25 0.25 0.25 0.25 0.25 0.25 0.25 0.25 0.25 0.25 0.25 0.0 1.0 0.0 0.0 0.0 0.0 1.0 0.0 0.25 0.25 0.25 0.25 0.0 1.0 0.0 0.0 0.0 1.0 0.0 0.0 0.0 1.0 0.0 0.0 0.25 0.25 0.25 0.25 0.25 0.25 0.25 0.25 0.0 0.0 1.0 0.0 0.0 1.0 0.0 0.0 0.25 0.25 0.25 0.25 0.5 0.0 0.5 0.0 0.25 0.25 0.25 0.25 0.25 0.25 0.25 0.25 0.25 0.25 0.25 0.25 0.25 0.25 0.25 0.25 0.25 0.25 0.25 0.25 0.25 0.25 0.25 0.25 0.0 1.0 0.0 0.0 0.25 0.25 0.25 0.25 0.25 0.25 0.25 0.25 0.25 0.25 0.25 0.25 0.25 0.25 0.25 0.25 1.0 0.0 0.0 0.0 0.25 0.25 0.25 0.25 0.25 0.25 0.25 0.25 0.25 0.25 0.25 0.25 0.25 0.25 0.25 0.25 0.0 0.0 1.0 0.0 1.0 0.0 0.0 0.0 0.25 0.25 0.25 0.25 1.0 0.0 0.0 0.0 0.25 0.25 0.25 0.25 0.0 0.0 1.0 0.0 0.25 0.25 0.25 0.25 0.25 0.25 0.25 0.25 0.0 1.0 0.0 0.0 0.0 0.0 1.0 0.0 0.25 0.25 0.25 0.25 0.25 0.25 0.25 0.25 1.0 0.0 0.0 0.0 0.25 0.25 0.25 0.25 0.25 0.25 0.25 0.25 0.25 0.25 0.25 0.25 0.25 0.25 0.25 0.25 0.25 0.25 0.25 0.25 0.25 0.25 0.25 0.25 0.25 0.25 0.25 0.25 0.25 0.25 0.25 0.25 0.0 0.0 1.0 0.0 0.25 0.25 0.25 0.25 0.0 1.0 0.0 0.0 0.25 0.25 0.25 0.25 0.25 0.25 0.25 0.25 0.25 0.25 0.25 0.25 0.25 0.25 0.25 0.25 0.25 0.25 0.25 0.25 0.25 0.25 0.25 0.25 0.25 0.25 0.25 0.25 0.25 0.25 0.25 0.25 0.25 0.25 0.25 0.25 0.0 1.0 0.0 0.0 0.0 1.0 0.0 0.0 0.25 0.25 0.25 0.25 0.25 0.25 0.25 0.25 0.25 0.25 0.25 0.25 1.0 0.0 0.0 0.0 0.25 0.25 0.25 0.25 0.25 0.25 0.25 0.25 0.25 0.25 0.25 0.25 0.25 0.25 0.25 0.25 0.0 0.0 1.0 0.0 0.25 0.25 0.25 0.25 0.25 0.25 0.25 0.25 1.0 0.0 0.0 0.0 0.25 0.25 0.25 0.25 0.25 0.25 0.25 0.25 0.0 1.0 0.0 0.0 0.25 0.25 0.25 0.25 0.25 0.25 0.25 0.25 0.25 0.25 0.25 0.25 0.0 0.0 1.0 0.0 0.0 0.0 1.0 0.0 0.25 0.25 0.25 0.25 0.25 0.25 0.25 0.25 0.0 0.0 1.0 0.0 0.0 1.0 0.0 0.0 0.25 0.25 0.25 0.25 0.25 0.25 0.25 0.25 0.25 0.25 0.25 0.25 0.25 0.25 0.25 0.25 0.25 0.25 0.25 0.25 0.0 0.0 1.0 0.0 0.25 0.25 0.25 0.25 0.25 0.25 0.25 0.25 0.0 0.0 1.0 0.0 0.25 0.25 0.25 0.25 0.25 0.25 0.25 0.25 0.25 0.25 0.25 0.25 0.25 0.25 0.25 0.25 0.0 0.0 1.0 0.0 0.25 0.25 0.25 0.25 0.0 0.0 1.0 0.0 0.0 0.5 0.5 0.0 0.0 1.0 0.0 0.0 0.25 0.25 0.25 0.25 0.25 0.25 0.25 0.25 0.25 0.25 0.25 0.25 0.25 0.25 0.25 0.25 1.0 0.0 0.0 0.0 0.25 0.25 0.25 0.25 0.0 0.5 0.5 0.0 0.25 0.25 0.25 0.25 0.0 0.5 0.5 0.0 0.25 0.25 0.25 0.25 0.25 0.25 0.25 0.25 0.25 0.25 0.25 0.25 0.25 0.25 0.25 0.25 0.25 0.25 0.25 0.25 0.0 1.0 0.0 0.0 0.25 0.25 0.25 0.25 0.0 1.0 0.0 0.0 0.25 0.25 0.25 0.25 0.25 0.25 0.25 0.25 0.0 0.0 1.0 0.0 0.25 0.25 0.25 0.25 0.25 0.25 0.25 0.25 1.0 0.0 0.0 0.0 0.25 0.25 0.25 0.25 0.25 0.25 0.25 0.25 0.25 0.25 0.25 0.25 0.25 0.25 0.25 0.25 0.25 0.25 0.25 0.25 0.25 0.25 0.25 0.25 0.25 0.25 0.25 0.25 0.25 0.25 0.25 0.25 0.25 0.25 0.25 0.25 0.0 1.0 0.0 0.0 0.25 0.25 0.25 0.25 0.25 0.25 0.25 0.25 0.25 0.25 0.25 0.25 0.25 0.25 0.25 0.25 0.25 0.25 0.25 0.25 0.004878048780487805 0.03414634146341464 0.6731707317073171 0.28780487804878047 0.0 0.015151515151515152 0.7272727272727273 0.25757575757575757 0.0 0.0 0.8 0.2 0.0 0.024390243902439025 0.7560975609756098 0.21951219512195122 0.0 0.029411764705882353 0.8529411764705882 0.11764705882352941 0.0 0.0 0.8235294117647058 0.17647058823529413 0.0 0.024390243902439025 0.8292682926829268 0.14634146341463414 0.0 0.0 0.7592592592592593 0.24074074074074073 0.0 0.02 0.6 0.38 0.0 0.0 0.8243243243243243 0.17567567567567569 0.0 0.014084507042253521 0.7464788732394366 0.23943661971830985 0.0 0.02666666666666667 0.7733333333333333 0.2 0.0 0.008130081300813009 0.7967479674796748 0.1951219512195122 0.0 0.0 0.8470588235294118 0.15294117647058825 0.007575757575757576 0.03787878787878788 0.8560606060606061 0.09848484848484848 0.0 0.02631578947368421 0.8157894736842105 0.15789473684210525 0.0 0.019230769230769232 0.8076923076923077 0.17307692307692307 0.0 0.0 0.8591549295774648 0.14084507042253522 0.0 0.007575757575757576 0.8787878787878788 0.11363636363636363 0.0 0.006211180124223602 0.84472049689441 0.14906832298136646 0.0 0.028169014084507043 0.8309859154929577 0.14084507042253522 0.0 0.02631578947368421 0.8157894736842105 0.15789473684210525 0.0 0.014925373134328358 0.8805970149253731 0.1044776119402985 0.0 0.007692307692307693 0.8384615384615385 0.15384615384615385 0.007874015748031496 0.0 0.84251968503937 0.14960629921259844 0.0 0.019417475728155338 0.8543689320388349 0.1262135922330097 0.0 0.0 0.8854166666666666 0.11458333333333333 0.0 0.0 0.8217821782178217 0.1782178217821782 0.013157894736842105 0.013157894736842105 0.881578947368421 0.09210526315789473 0.0 0.023529411764705882 0.8 0.17647058823529413 0.012195121951219513 0.012195121951219513 0.8292682926829268 0.14634146341463414 0.0 0.045454545454545456 0.8181818181818182 0.13636363636363635 0.0 0.0 0.7931034482758621 0.20689655172413793 0.0 0.016129032258064516 0.8548387096774194 0.12903225806451613 0.0 0.0 0.8888888888888888 0.1111111111111111 0.0 0.06521739130434782 0.8695652173913043 0.06521739130434782 0.0 0.022222222222222223 0.8222222222222222 0.15555555555555556 0.0 0.022727272727272728 0.8636363636363636 0.11363636363636363 0.0 0.030303030303030304 0.7272727272727273 0.24242424242424243 0.0 0.021739130434782608 0.7608695652173914 0.21739130434782608 0.0 0.0 0.8333333333333334 0.16666666666666666 0.0 0.037037037037037035 0.7407407407407407 0.2222222222222222 0.0 0.0 0.8235294117647058 0.17647058823529413 0.0 0.02631578947368421 0.868421052631579 0.10526315789473684 0.0 0.05555555555555555 0.8888888888888888 0.05555555555555555 0.0 0.0 0.88 0.12 0.0 0.0 0.9310344827586207 0.06896551724137931 0.0 0.045454545454545456 0.7727272727272727 0.18181818181818182 0.0 0.0 0.9411764705882353 0.058823529411764705 0.0 0.0 0.75 0.25 0.0 0.0 0.8125 0.1875 0.0 0.07142857142857142 0.6428571428571429 0.2857142857142857 0.0 0.0 0.7222222222222222 0.2777777777777778 0.0 0.0 1.0 0.0 0.0 0.0 0.6875 0.3125 0.0 0.0 0.75 0.25 0.0 0.0 0.8461538461538461 0.15384615384615385 0.0 0.0625 0.875 0.0625 0.0 0.09090909090909091 0.9090909090909091 0.0 0.0 0.0 1.0 0.0 0.0 0.0625 0.8125 0.125 0.0 0.0 0.75 0.25 0.0 0.0 0.8333333333333334 0.16666666666666666 0.0 0.0 0.7333333333333333 0.26666666666666666 0.0 0.0 1.0 0.0 0.0 0.0 0.875 0.125 0.0 0.1 0.9 0.0 0.0 0.0 1.0 0.0 0.0 0.0 0.5714285714285714 0.42857142857142855 0.0 0.0 1.0 0.0 0.0 0.0 0.875 0.125 0.0 0.0 1.0 0.0 0.0 0.0 1.0 0.0 0.0 0.0 0.8 0.2 0.0 0.0 0.6666666666666666 0.3333333333333333 0.0 0.0 0.875 0.125 0.0 0.0 0.9090909090909091 0.09090909090909091 0.0 0.16666666666666666 0.6666666666666666 0.16666666666666666 0.0 0.0 0.8461538461538461 0.15384615384615385 0.1111111111111111 0.0 0.7777777777777778 0.1111111111111111 0.0 0.0 0.5 0.5 0.0 0.0 1.0 0.0 0.0 0.0 0.8333333333333334 0.16666666666666666 0.0 0.0 1.0 0.0 0.0 0.0 0.9 0.1 0.0 0.0 0.8 0.2 0.0 0.0 1.0 0.0 0.0 0.0 0.3333333333333333 0.6666666666666666 0.0 0.0 1.0 0.0 0.0 0.0 0.5 0.5 0.0 0.0 0.75 0.25 0.0 0.0 1.0 0.0 0.0 0.0 0.7142857142857143 0.2857142857142857 0.0 0.0 1.0 0.0 0.0 0.0 1.0 0.0 0.0 0.0 1.0 0.0 0.0 0.0 0.8571428571428571 0.14285714285714285 0.0 0.0 0.8333333333333334 0.16666666666666666 0.0 0.0 1.0 0.0 0.0 0.0 1.0 0.0 0.0 0.0 0.6666666666666666 0.3333333333333333 0.0 0.0 0.6666666666666666 0.3333333333333333 0.0 0.0 0.8 0.2 0.0 0.0 0.6 0.4 0.0 0.0 0.8333333333333334 0.16666666666666666 0.0 0.0 0.8333333333333334 0.16666666666666666 0.0 0.0 1.0 0.0 0.0 0.0 1.0 0.0 0.0 0.0 1.0 0.0 0.0 0.0 0.75 0.25 0.25 0.25 0.25 0.25 0.0 0.0 1.0 0.0 0.0 0.0 1.0 0.0 0.0 0.0 0.3333333333333333 0.6666666666666666 0.0 0.0 1.0 0.0 0.0 0.0 1.0 0.0 0.25 0.25 0.25 0.25 0.0 0.0 0.75 0.25 0.0 0.0 0.5 0.5 0.0 0.0 1.0 0.0 0.0 0.0 1.0 0.0 0.0 0.0 1.0 0.0 0.25 0.25 0.25 0.25 0.0 0.0 0.8 0.2 0.0 0.0 0.0 1.0 0.0 0.0 1.0 0.0 0.0 0.0 0.6666666666666666 0.3333333333333333 0.0 0.0 1.0 0.0 0.0 0.0 1.0 0.0 0.0 0.0 1.0 0.0 0.0 0.6666666666666666 0.3333333333333333 0.0 0.0 0.0 1.0 0.0 0.0 0.0 1.0 0.0 0.0 0.0 1.0 0.0 0.25 0.25 0.25 0.25 0.0 0.0 1.0 0.0 0.0 0.0 1.0 0.0 0.25 0.25 0.25 0.25 0.25 0.25 0.25 0.25 0.0 0.0 1.0 0.0 0.0 0.0 1.0 0.0 0.25 0.25 0.25 0.25 0.0 0.0 1.0 0.0 0.0 0.0 0.8 0.2 0.0 0.0 1.0 0.0 0.25 0.25 0.25 0.25 0.0 0.0 1.0 0.0 0.0 0.0 1.0 0.0 0.25 0.25 0.25 0.25 0.0 0.0 1.0 0.0 0.0 0.0 1.0 0.0 0.0 0.0 1.0 0.0 0.0 0.0 0.6666666666666666 0.3333333333333333 0.0 0.0 0.5 0.5 0.0 0.0 1.0 0.0 0.25 0.25 0.25 0.25 0.0 0.0 1.0 0.0 0.25 0.25 0.25 0.25 0.25 0.25 0.25 0.25 0.0 0.0 1.0 0.0 0.25 0.25 0.25 0.25 0.25 0.25 0.25 0.25 0.25 0.25 0.25 0.25 0.25 0.25 0.25 0.25 0.0 0.0 1.0 0.0 0.25 0.25 0.25 0.25 0.0 0.0 0.0 1.0 0.0 0.5 0.5 0.0 0.0 0.0 1.0 0.0 0.0 0.0 1.0 0.0 0.25 0.25 0.25 0.25 0.0 0.0 1.0 0.0 0.0 0.0 1.0 0.0 0.0 0.0 1.0 0.0 0.25 0.25 0.25 0.25 0.0 0.0 0.0 1.0 0.25 0.25 0.25 0.25 0.25 0.25 0.25 0.25 0.25 0.25 0.25 0.25 0.0 0.0 1.0 0.0 0.0 0.0 1.0 0.0 0.25 0.25 0.25 0.25 0.25 0.25 0.25 0.25 0.25 0.25 0.25 0.25 0.25 0.25 0.25 0.25 0.25 0.25 0.25 0.25 0.0 0.0 0.0 1.0 0.25 0.25 0.25 0.25 1.0 0.0 0.0 0.0 0.0 0.0 1.0 0.0 1.0 0.0 0.0 0.0 0.0 0.0 1.0 0.0 0.25 0.25 0.25 0.25 0.0 0.0 1.0 0.0 0.0 0.0 1.0 0.0 0.25 0.25 0.25 0.25 0.25 0.25 0.25 0.25 0.0 0.0 1.0 0.0 0.25 0.25 0.25 0.25 0.0 0.0 1.0 0.0 0.0 0.0 1.0 0.0 0.0 0.0 1.0 0.0 0.0 0.0 1.0 0.0 0.0 0.0 1.0 0.0 0.0 0.5 0.5 0.0 0.0 0.0 1.0 0.0 0.3333333333333333 0.0 0.6666666666666666 0.0 0.0 0.0 1.0 0.0 1.0 0.0 0.0 0.0 0.25 0.25 0.25 0.25 0.0 0.0 1.0 0.0 0.25 0.25 0.25 0.25 0.0 0.0 1.0 0.0 0.0 0.0 1.0 0.0 0.0 0.0 1.0 0.0 0.25 0.25 0.25 0.25 0.0 0.3333333333333333 0.6666666666666666 0.0 0.0 0.0 1.0 0.0 0.25 0.25 0.25 0.25 0.0 0.0 1.0 0.0 0.0 0.0 1.0 0.0 0.0 0.0 1.0 0.0 0.0 0.0 1.0 0.0 0.0 0.0 1.0 0.0 0.25 0.25 0.25 0.25 0.0 0.0 1.0 0.0 0.0 0.0 1.0 0.0 0.25 0.25 0.25 0.25 0.0 0.0 1.0 0.0 0.25 0.25 0.25 0.25 0.0 0.0 1.0 0.0 0.0 0.0 1.0 0.0 0.25 0.25 0.25 0.25 0.25 0.25 0.25 0.25 0.0 0.0 1.0 0.0 0.0 0.0 1.0 0.0 0.0 0.0 1.0 0.0 0.0 0.0 1.0 0.0 0.0 0.0 1.0 0.0 0.0 0.0 0.5 0.5 0.0 0.0 0.6666666666666666 0.3333333333333333 0.25 0.25 0.25 0.25 0.25 0.25 0.25 0.25 0.25 0.25 0.25 0.25 0.0 0.0 1.0 0.0 0.0 0.0 1.0 0.0 0.25 0.25 0.25 0.25 0.0 0.0 1.0 0.0 0.25 0.25 0.25 0.25 0.25 0.25 0.25 0.25 0.0 0.0 1.0 0.0 0.0 0.0 1.0 0.0 0.25 0.25 0.25 0.25 0.25 0.25 0.25 0.25 0.25 0.25 0.25 0.25 0.0 0.0 1.0 0.0 0.0 0.0 1.0 0.0 0.0 0.0 1.0 0.0 0.25 0.25 0.25 0.25 0.0 0.0 1.0 0.0 0.0 0.0 1.0 0.0 0.25 0.25 0.25 0.25 0.0 0.0 1.0 0.0 0.0 0.0 1.0 0.0 0.25 0.25 0.25 0.25 0.25 0.25 0.25 0.25 0.0 0.0 1.0 0.0 0.25 0.25 0.25 0.25 0.25 0.25 0.25 0.25 0.25 0.25 0.25 0.25 0.0 0.0 1.0 0.0 0.25 0.25 0.25 0.25 0.25 0.25 0.25 0.25 0.0 0.0 1.0 0.0 0.25 0.25 0.25 0.25 0.25 0.25 0.25 0.25 0.0 0.5 0.5 0.0 0.0 1.0 0.0 0.0 0.25 0.25 0.25 0.25 0.0 0.0 1.0 0.0 0.25 0.25 0.25 0.25 0.0 0.0 1.0 0.0 0.0 0.0 1.0 0.0 0.0 0.0 1.0 0.0 0.0 1.0 0.0 0.0 0.25 0.25 0.25 0.25 0.0 0.0 1.0 0.0 0.25 0.25 0.25 0.25 0.25 0.25 0.25 0.25 0.0 0.0 1.0 0.0 0.0 0.0 1.0 0.0 0.25 0.25 0.25 0.25 0.0 0.0 1.0 0.0 0.25 0.25 0.25 0.25 0.25 0.25 0.25 0.25 0.25 0.25 0.25 0.25 0.0 0.0 1.0 0.0 0.0 0.0 1.0 0.0 0.0 0.0 1.0 0.0 0.25 0.25 0.25 0.25 0.0 0.0 1.0 0.0 0.0 0.0 1.0 0.0 0.25 0.25 0.25 0.25 0.0 0.0 1.0 0.0 0.25 0.25 0.25 0.25 0.25 0.25 0.25 0.25 0.0 0.0 1.0 0.0 0.0 0.0 1.0 0.0 0.25 0.25 0.25 0.25 0.0 0.0 1.0 0.0 0.0 0.0 1.0 0.0 0.25 0.25 0.25 0.25 0.0 0.0 1.0 0.0 0.0 0.0 1.0 0.0 0.25 0.25 0.25 0.25 0.25 0.25 0.25 0.25 0.0 0.0 1.0 0.0 0.25 0.25 0.25 0.25 0.25 0.25 0.25 0.25 0.0 0.0 1.0 0.0 0.25 0.25 0.25 0.25 0.25 0.25 0.25 0.25 0.25 0.25 0.25 0.25 0.0 0.0 1.0 0.0 0.25 0.25 0.25 0.25 0.0 0.0 1.0 0.0 0.25 0.25 0.25 0.25 0.25 0.25 0.25 0.25 0.25 0.25 0.25 0.25 0.0 0.0 1.0 0.0 0.25 0.25 0.25 0.25 0.25 0.25 0.25 0.25 0.25 0.25 0.25 0.25 0.0 0.0 1.0 0.0 0.25 0.25 0.25 0.25 0.25 0.25 0.25 0.25 0.0 0.0 1.0 0.0 0.25 0.25 0.25 0.25 0.0 0.0 1.0 0.0 0.25 0.25 0.25 0.25 0.0 0.0 1.0 0.0 0.0 0.0 1.0 0.0 0.0 0.0 1.0 0.0 0.25 0.25 0.25 0.25 0.25 0.25 0.25 0.25 0.0 0.0 1.0 0.0 0.25 0.25 0.25 0.25 0.0 0.0 1.0 0.0 0.25 0.25 0.25 0.25 0.25 0.25 0.25 0.25 0.0 0.0 1.0 0.0 0.25 0.25 0.25 0.25 0.25 0.25 0.25 0.25 0.0 0.0 1.0 0.0 0.25 0.25 0.25 0.25 0.0 0.0 1.0 0.0 0.25 0.25 0.25 0.25 0.25 0.25 0.25 0.25 0.25 0.25 0.25 0.25 0.25 0.25 0.25 0.25 0.25 0.25 0.25 0.25 0.0 0.0 1.0 0.0 0.25 0.25 0.25 0.25 0.25 0.25 0.25 0.25 0.25 0.25 0.25 0.25 0.25 0.25 0.25 0.25 0.25 0.25 0.25 0.25 0.0 0.3333333333333333 0.6666666666666666 0.0 0.0 0.0 1.0 0.0 0.25 0.25 0.25 0.25 0.0 0.0 1.0 0.0 0.25 0.25 0.25 0.25 0.25 0.25 0.25 0.25 0.25 0.25 0.25 0.25 0.25 0.25 0.25 0.25 0.25 0.25 0.25 0.25 0.25 0.25 0.25 0.25 0.25 0.25 0.25 0.25 0.0 0.0 1.0 0.0 0.25 0.25 0.25 0.25 0.0 0.0 1.0 0.0 0.0 0.0 1.0 0.0 0.25 0.25 0.25 0.25 0.25 0.25 0.25 0.25 0.0 0.0 1.0 0.0 0.25 0.25 0.25 0.25 0.0 0.0 1.0 0.0 0.25 0.25 0.25 0.25 0.0 0.0 1.0 0.0 0.25 0.25 0.25 0.25 0.0 0.5 0.5 0.0 0.0 1.0 0.0 0.0 0.25 0.25 0.25 0.25 0.25 0.25 0.25 0.25 0.0 0.0 1.0 0.0 0.25 0.25 0.25 0.25 0.0 0.0 1.0 0.0 0.0 0.0 1.0 0.0 0.0 0.0 1.0 0.0 0.25 0.25 0.25 0.25 0.0 0.0 1.0 0.0 0.25 0.25 0.25 0.25 0.25 0.25 0.25 0.25 0.0 0.0 1.0 0.0 0.25 0.25 0.25 0.25 0.25 0.25 0.25 0.25 0.0 0.0 1.0 0.0 0.0 0.0 1.0 0.0 0.0 0.0 1.0 0.0 0.0 0.0 1.0 0.0 0.25 0.25 0.25 0.25 0.25 0.25 0.25 0.25 0.0 0.0 1.0 0.0 0.25 0.25 0.25 0.25 0.25 0.25 0.25 0.25 0.25 0.25 0.25 0.25 0.25 0.25 0.25 0.25 0.25 0.25 0.25 0.25 0.25 0.25 0.25 0.25 0.0 0.0 1.0 0.0 0.25 0.25 0.25 0.25 0.25 0.25 0.25 0.25 0.25 0.25 0.25 0.25 0.25 0.25 0.25 0.25 0.0 0.0 1.0 0.0 0.25 0.25 0.25 0.25 0.25 0.25 0.25 0.25 0.25 0.25 0.25 0.25 0.25 0.25 0.25 0.25 0.25 0.25 0.25 0.25 1.0 0.0 0.0 0.0 0.25 0.25 0.25 0.25 0.0 0.5 0.5 0.0 0.25 0.25 0.25 0.25 0.25 0.25 0.25 0.25 0.25 0.25 0.25 0.25 0.25 0.25 0.25 0.25 0.25 0.25 0.25 0.25 0.25 0.25 0.25 0.25 </TABLE>
    </DEFINITION>
    <DEFINITION>
      <FOR>pakts473</FOR>
      <GIVEN>PIP3</GIVEN>
      <GIVEN>PKA</GIVEN>
      <TABLE>0.04664723032069971 0.10787172011661808 0.37317784256559766 0.47230320699708456 0.6344086021505376 0.17204301075268819 0.03763440860215054 0.15591397849462366 0.75 0.23295454545454544 0.017045454545454544 0.0 0.6004691164972635 0.32212666145426117 0.07193119624706802 0.00547302580140735 0.07432432432432433 0.13513513513513514 0.3108108108108108 0.4797297297297297 0.6850393700787402 0.1968503937007874 0.047244094488188976 0.07086614173228346 0.8262108262108262 0.15954415954415954 0.014245014245014245 0.0 0.6276013143483024 0.3187294633077766 0.047097480832420595 0.0065717415115005475 0.15833333333333333 0.058333333333333334 0.31666666666666665 0.4666666666666667 0.6859903381642513 0.2318840579710145 0.03864734299516908 0.043478260869565216 0.8226351351351351 0.16891891891891891 0.008445945945945946 0.0 0.6281869688385269 0.30807365439093487 0.059490084985835696 0.00424929178470255 0.07575757575757576 0.06060606060606061 0.3787878787878788 0.48484848484848486 0.6388888888888888 0.28703703703703703 0.009259259259259259 0.06481481481481481 0.8173652694610778 0.17664670658682635 0.005988023952095809 0.0 0.6551724137931034 0.2683189655172414 0.06788793103448276 0.008620689655172414 </TABLE>
    </DEFINITION>
    <DEFINITION>
      <FOR>pjnk</FOR>
      <GIVEN>PKA</GIVEN>
      <GIVEN>PKC</GIVEN>
      <TABLE>0.0 0.0 1.0 0.0 0.0 0.0 1.0 0.0 0.006535947712418301 0.0 0.5555555555555556 0.43790849673202614 0.0 0.0 0.10097087378640776 0.8990291262135922 0.14018691588785046 0.028037383177570093 0.8317757009345794 0.0 0.08108108108108109 0.06306306306306306 0.8558558558558559 0.0 0.029585798816568046 0.011834319526627219 0.8994082840236687 0.05917159763313609 0.0 0.0 0.18055555555555555 0.8194444444444444 0.6881028938906752 0.09003215434083602 0.22186495176848875 0.0 0.2733333333333333 0.08666666666666667 0.64 0.0 0.053791887125220456 0.014991181657848324 0.9126984126984127 0.018518518518518517 0.0 0.0 0.8529411764705882 0.14705882352941177 0.5619596541786743 0.07780979827089338 0.36023054755043227 0.0 0.18292682926829268 0.044715447154471545 0.7723577235772358 0.0 0.02849604221635884 0.012664907651715039 0.9271767810026386 0.0316622691292876 0.013422818791946308 0.006711409395973154 0.5838926174496645 0.3959731543624161 </TABLE>
    </DEFINITION>
    <DEFINITION>
      <FOR>plcg</FOR>
      <GIVEN>PIP3</GIVEN>
      <TABLE>0.3226851851851852 0.5171296296296296 0.09768518518518518 0.0625 0.4093567251461988 0.4951267056530214 0.028589993502274202 0.06692657569850552 0.49377949377949376 0.45774345774345776 0.009009009009009009 0.039468039468039465 0.30779944289693595 0.6197771587743732 0.03064066852367688 0.04178272980501393 </TABLE>
    </DEFINITION>
    <DEFINITION>
      <FOR>pmek</FOR>
      <GIVEN>PKA</GIVEN>
      <GIVEN>PKC</GIVEN>
      <GIVEN>praf</GIVEN>
      <TABLE>0.002277904328018223 0.002277904328018223 0.002277904328018223 0.002277904328018223 0.002277904328018223 0.002277904328018223 0.002277904328018223 0.002277904328018223 0.002277904328018223 0.002277904328018223 0.002277904328018223 0.002277904328018223 0.002277904328018223 0.002277904328018223 0.002277904328018223 0.002277904328018223 0.002277904328018223 0.002277904328018223 0.002277904328018223 0.002277904328018223 0.002277904328018223 0.002277904328018223 0.002277904328018223 0.002277904328018223 0.002277904328018223 0.002277904328018223 0.002277904328018223 0.002277904328018223 0.002277904328018223 0.002277904328018223 0.002277904328018223 0.002277904328018223 0.002277904328018223 0.002277904328018223 0.002277904328018223 0.002277904328018223 0.002277904328018223 0.002277904328018223 0.002277904328018223 0.002277904328018223 0.002277904328018223 0.002277904328018223 0.002277904328018223 0.002277904328018223 0.002277904328018223 0.002277904328018223 0.002277904328018223 0.002277904328018223 0.002277904328018223 0.002277904328018223 0.002277904328018223 0.002277904328018223 0.002277904328018223 0.002277904328018223 0.002277904328018223 0.002277904328018223 0.002277904328018223 0.002277904328018223 0.002277904328018223 0.002277904328018223 0.002277904328018223 0.002277904328018223 0.002277904328018223 0.002277904328018223 0.002277904328018223 0.002277904328018223 0.002277904328018223 0.002277904328018223 0.002277904328018223 0.002277904328018223 0.002277904328018223 0.002277904328018223 0.002277904328018223 0.002277904328018223 0.002277904328018223 0.002277904328018223 0.002277904328018223 0.002277904328018223 0.002277904328018223 0.002277904328018223 0.002277904328018223 0.002277904328018223 0.002277904328018223 0.002277904328018223 0.002277904328018223 0.002277904328018223 0.002277904328018223 0.002277904328018223 0.002277904328018223 0.002277904328018223 0.002277904328018223 0.002277904328018223 0.002277904328018223 0.002277904328018223 0.002277904328018223 0.002277904328018223 0.002277904328018223 0.002277904328018223 0.002277904328018223 0.002277904328018223 0.002277904328018223 0.002277904328018223 0.002277904328018223 0.002277904328018223 0.002277904328018223 0.002277904328018223 0.002277904328018223 0.002277904328018223 0.002277904328018223 0.002277904328018223 0.002277904328018223 0.002277904328018223 0.002277904328018223 0.002277904328018223 0.002277904328018223 0.002277904328018223 0.002277904328018223 0.002277904328018223 0.002277904328018223 0.002277904328018223 0.002277904328018223 0.002277904328018223 0.002277904328018223 0.002277904328018223 0.002277904328018223 0.002277904328018223 0.002277904328018223 0.002277904328018223 0.002277904328018223 0.002277904328018223 0.002277904328018223 0.002277904328018223 0.002277904328018223 0.002277904328018223 0.002277904328018223 0.002277904328018223 0.002277904328018223 0.002277904328018223 0.002277904328018223 0.002277904328018223 0.002277904328018223 0.002277904328018223 0.002277904328018223 0.002277904328018223 0.002277904328018223 0.002277904328018223 0.002277904328018223 0.002277904328018223 0.002277904328018223 0.002277904328018223 0.002277904328018223 0.002277904328018223 0.002277904328018223 0.002277904328018223 0.002277904328018223 0.002277904328018223 0.002277904328018223 0.002277904328018223 0.002277904328018223 0.002277904328018223 0.002277904328018223 0.002277904328018223 0.002277904328018223 0.002277904328018223 0.002277904328018223 0.002277904328018223 0.002277904328018223 0.002277904328018223 0.002277904328018223 0.002277904328018223 0.002277904328018223 0.002277904328018223 0.002277904328018223 0.002277904328018223 0.002277904328018223 0.002277904328018223 0.002277904328018223 0.002277904328018223 0.002277904328018223 0.002277904328018223 0.002277904328018223 0.002277904328018223 0.002277904328018223 0.002277904328018223 0.002277904328018223 0.002277904328018223 0.002277904328018223 0.002277904328018223 0.002277904328018223 0.002277904328018223 0.002277904328018223 0.002277904328018223 0.002277904328018223 0.002277904328018223 0.002277904328018223 0.002277904328018223 0.002277904328018223 0.002277904328018223 0.002277904328018223 0.002277904328018223 0.002277904328018223 0.002277904328018223 0.002277904328018223 0.002277904328018223 0.002277904328018223 0.002277904328018223 0.002277904328018223 0.002277904328018223 0.002277904328018223 0.002277904328018223 0.002277904328018223 0.002277904328018223 0.002277904328018223 0.002277904328018223 0.002277904328018223 0.002277904328018223 0.002277904328018223 0.002277904328018223 0.002277904328018223 0.002277904328018223 0.002277904328018223 0.002277904328018223 0.002277904328018223 0.002277904328018223 0.002277904328018223 0.002277904328018223 0.002277904328018223 0.002277904328018223 0.002277904328018223 0.002277904328018223 0.002277904328018223 0.002277904328018223 0.002277904328018223 0.002277904328018223 0.002277904328018223 0.002277904328018223 0.002277904328018223 0.002277904328018223 0.002277904328018223 0.002277904328018223 0.002277904328018223 0.002277904328018223 0.002277904328018223 0.002277904328018223 0.002277904328018223 0.002277904328018223 0.002277904328018223 0.002277904328018223 0.002277904328018223 0.002277904328018223 0.002277904328018223 0.002277904328018223 0.002277904328018223 0.002277904328018223 0.002277904328018223 0.002277904328018223 0.002277904328018223 0.002277904328018223 0.002277904328018223 0.002277904328018223 0.002277904328018223 0.002277904328018223 0.002277904328018223 0.002277904328018223 0.002277904328018223 0.002277904328018223 0.002277904328018223 0.002277904328018223 0.002277904328018223 0.002277904328018223 0.002277904328018223 0.002277904328018223 0.002277904328018223 0.002277904328018223 0.002277904328018223 0.002277904328018223 0.002277904328018223 0.002277904328018223 0.002277904328018223 0.002277904328018223 0.002277904328018223 0.002277904328018223 0.002277904328018223 0.002277904328018223 0.002277904328018223 0.002277904328018223 0.002277904328018223 0.002277904328018223 0.002277904328018223 0.002277904328018223 0.002277904328018223 0.002277904328018223 0.002277904328018223 0.002277904328018223 0.002277904328018223 0.002277904328018223 0.002277904328018223 0.002277904328018223 0.002277904328018223 0.002277904328018223 0.002277904328018223 0.002277904328018223 0.002277904328018223 0.002277904328018223 0.002277904328018223 0.002277904328018223 0.002277904328018223 0.002277904328018223 0.002277904328018223 0.002277904328018223 0.002277904328018223 0.002277904328018223 0.002277904328018223 0.002277904328018223 0.002277904328018223 0.002277904328018223 0.002277904328018223 0.002277904328018223 0.002277904328018223 0.002277904328018223 0.002277904328018223 0.002277904328018223 0.002277904328018223 0.002277904328018223 0.002277904328018223 0.002277904328018223 0.002277904328018223 0.002277904328018223 0.002277904328018223 0.002277904328018223 0.002277904328018223 0.002277904328018223 0.002277904328018223 0.002277904328018223 0.002277904328018223 0.002277904328018223 0.002277904328018223 0.002277904328018223 0.002277904328018223 0.002277904328018223 0.002277904328018223 0.002277904328018223 0.002277904328018223 0.002277904328018223 0.002277904328018223 0.002277904328018223 0.002277904328018223 0.002277904328018223 0.002277904328018223 0.002277904328018223 0.002277904328018223 0.002277904328018223 0.002277904328018223 0.002277904328018223 0.002277904328018223 0.002277904328018223 0.002277904328018223 0.002277904328018223 0.002277904328018223 0.002277904328018223 0.002277904328018223 0.002277904328018223 0.002277904328018223 0.002277904328018223 0.002277904328018223 0.002277904328018223 0.002277904328018223 0.002277904328018223 0.002277904328018223 0.002277904328018223 0.002277904328018223 0.002277904328018223 0.002277904328018223 0.002277904328018223 0.002277904328018223 0.002277904328018223 0.002277904328018223 0.002277904328018223 0.002277904328018223 0.002277904328018223 0.002277904328018223 0.002277904328018223 0.002277904328018223 0.002277904328018223 0.002277904328018223 0.002277904328018223 0.002277904328018223 0.002277904328018223 0.002277904328018223 0.002277904328018223 0.002277904328018223 0.002277904328018223 0.002277904328018223 0.002277904328018223 0.002277904328018223 0.002277904328018223 0.002277904328018223 0.002277904328018223 0.002277904328018223 0.002277904328018223 0.002277904328018223 0.002277904328018223 0.002277904328018223 0.002277904328018223 0.002277904328018223 0.002277904328018223 0.002277904328018223 0.002277904328018223 0.002277904328018223 0.002277904328018223 0.002277904328018223 0.002277904328018223 0.002277904328018223 0.002277904328018223 0.002277904328018223 0.002277904328018223 0.002277904328018223 0.002277904328018223 0.002277904328018223 0.002277904328018223 0.002277904328018223 0.002277904328018223 0.002277904328018223 0.002277904328018223 0.002277904328018223 0.002277904328018223 0.002277904328018223 0.002277904328018223 0.002277904328018223 0.002277904328018223 0.002277904328018223 0.002277904328018223 0.002277904328018223 0.002277904328018223 0.002277904328018223 0.002277904328018223 0.002277904328018223 0.002277904328018223 0.002277904328018223 0.002277904328018223 0.002277904328018223 0.002277904328018223 0.002277904328018223 0.002277904328018223 0.002277904328018223 0.002277904328018223 0.002277904328018223 0.002277904328018223 0.002277904328018223 0.002277904328018223 0.002277904328018223 0.002277904328018223 0.002277904328018223 0.002277904328018223 0.002277904328018223 0.002277904328018223 0.002277904328018223 0.002277904328018223 0.002277904328018223 0.002277904328018223 0.002277904328018223 0.002277904328018223 0.002277904328018223 0.002277904328018223 0.002277904328018223 0.002277904328018223 0.002277904328018223 0.002277904328018223 0.002277904328018223 0.002277904328018223 0.002277904328018223 0.002277904328018223 0.002277904328018223 0.002277904328018223 0.002277904328018223 0.002277904328018223 0.002277904328018223 0.002277904328018223 0.002277904328018223 0.002277904328018223 0.002277904328018223 0.002277904328018223 0.002277904328018223 0.002277904328018223 0.002277904328018223 0.002277904328018223 0.002277904328018223 0.002277904328018223 0.002277904328018223 0.002277904328018223 0.002277904328018223 0.002277904328018223 0.002277904328018223 0.002277904328018223 0.002277904328018223 0.002277904328018223 0.002277904328018223 0.002277904328018223 0.002277904328018223 0.002277904328018223 0.002277904328018223 0.002277904328018223 0.002277904328018223 0.002277904328018223 0.002277904328018223 0.002277904328018223 0.002277904328018223 0.002277904328018223 0.002277904328018223 0.002277904328018223 0.002277904328018223 0.002277904328018223 0.002277904328018223 0.002277904328018223 0.002277904328018223 0.002277904328018223 0.002277904328018223 0.002277904328018223 0.002277904328018223 0.002277904328018223 0.002277904328018223 0.002277904328018223 0.002277904328018223 0.002277904328018223 0.002277904328018223 0.002277904328018223 0.002277904328018223 0.002277904328018223 0.002277904328018223 0.002277904328018223 0.002277904328018223 0.002277904328018223 0.002277904328018223 0.002277904328018223 0.002277904328018223 0.002277904328018223 0.002277904328018223 0.002277904328018223 0.002277904328018223 0.002277904328018223 0.002277904328018223 0.002277904328018223 0.002277904328018223 0.002277904328018223 0.002277904328018223 0.002277904328018223 0.002277904328018223 0.002277904328018223 0.002277904328018223 0.002277904328018223 0.002277904328018223 0.002277904328018223 0.002277904328018223 0.002277904328018223 0.002277904328018223 0.002277904328018223 0.002277904328018223 0.002277904328018223 0.002277904328018223 0.002277904328018223 0.002277904328018223 0.002277904328018223 0.002277904328018223 0.002277904328018223 0.002277904328018223 0.002277904328018223 0.002277904328018223 0.002277904328018223 0.002277904328018223 0.002277904328018223 0.002277904328018223 0.002277904328018223 0.002277904328018223 0.002277904328018223 0.002277904328018223 0.002277904328018223 0.002277904328018223 0.002277904328018223 0.002277904328018223 0.002277904328018223 0.002277904328018223 0.002277904328018223 0.002277904328018223 0.002277904328018223 0.002277904328018223 0.002277904328018223 0.002277904328018223 0.002277904328018223 0.002277904328018223 0.002277904328018223 0.002277904328018223 0.002277904328018223 0.002277904328018223 0.002277904328018223 0.002277904328018223 0.002277904328018223 0.002277904328018223 0.002277904328018223 0.002277904328018223 0.002277904328018223 0.002277904328018223 0.002277904328018223 0.002277904328018223 0.002277904328018223 0.002277904328018223 0.002277904328018223 0.002277904328018223 0.002277904328018223 0.002277904328018223 0.002277904328018223 0.002277904328018223 0.002277904328018223 0.002277904328018223 0.002277904328018223 0.002277904328018223 0.002277904328018223 0.002277904328018223 0.002277904328018223 0.002277904328018223 0.002277904328018223 0.002277904328018223 0.002277904328018223 0.002277904328018223 0.002277904328018223 0.002277904328018223 0.002277904328018223 0.002277904328018223 0.002277904328018223 0.002277904328018223 0.002277904328018223 0.002277904328018223 0.002277904328018223 0.002277904328018223 0.002277904328018223 0.002277904328018223 0.002277904328018223 0.002277904328018223 0.002277904328018223 0.002277904328018223 0.002277904328018223 0.002277904328018223 0.002277904328018223 0.002277904328018223 0.002277904328018223 0.002277904328018223 0.002277904328018223 0.002277904328018223 0.002277904328018223 0.002277904328018223 0.002277904328018223 0.002277904328018223 0.002277904328018223 0.002277904328018223 0.002277904328018223 0.002277904328018223 0.002277904328018223 0.002277904328018223 0.002277904328018223 0.002277904328018223 0.002277904328018223 0.002277904328018223 0.002277904328018223 0.002277904328018223 0.002277904328018223 0.002277904328018223 0.002277904328018223 0.002277904328018223 0.002277904328018223 0.002277904328018223 0.002277904328018223 0.002277904328018223 0.002277904328018223 0.002277904328018223 0.002277904328018223 0.002277904328018223 0.002277904328018223 0.002277904328018223 0.002277904328018223 0.002277904328018223 0.002277904328018223 0.002277904328018223 0.002277904328018223 0.002277904328018223 0.002277904328018223 0.002277904328018223 0.002277904328018223 0.002277904328018223 0.002277904328018223 0.002277904328018223 0.002277904328018223 0.002277904328018223 0.002277904328018223 0.002277904328018223 0.002277904328018223 0.002277904328018223 0.002277904328018223 0.002277904328018223 0.002277904328018223 0.002277904328018223 0.002277904328018223 0.002277904328018223 0.002277904328018223 0.002277904328018223 0.002277904328018223 0.002277904328018223 0.002277904328018223 0.002277904328018223 0.002277904328018223 0.002277904328018223 0.002277904328018223 0.002277904328018223 0.002277904328018223 0.002277904328018223 0.002277904328018223 0.002277904328018223 0.002277904328018223 0.002277904328018223 0.002277904328018223 0.002277904328018223 0.002277904328018223 0.002277904328018223 0.002277904328018223 0.002277904328018223 0.002277904328018223 0.002277904328018223 0.002277904328018223 0.002277904328018223 0.002277904328018223 0.002277904328018223 0.002277904328018223 0.002277904328018223 0.002277904328018223 0.002277904328018223 0.002277904328018223 0.002277904328018223 0.002277904328018223 0.002277904328018223 0.002277904328018223 0.002277904328018223 0.002277904328018223 0.002277904328018223 0.002277904328018223 0.002277904328018223 0.002277904328018223 0.002277904328018223 0.002277904328018223 0.002277904328018223 0.002277904328018223 0.002277904328018223 0.002277904328018223 0.002277904328018223 0.002277904328018223 0.002277904328018223 0.002277904328018223 0.002277904328018223 0.002277904328018223 0.002277904328018223 0.002277904328018223 0.002277904328018223 0.002277904328018223 0.002277904328018223 0.002277904328018223 0.002277904328018223 0.002277904328018223 0.002277904328018223 0.002277904328018223 0.002277904328018223 0.002277904328018223 0.002277904328018223 0.002277904328018223 0.002277904328018223 0.002277904328018223 0.002277904328018223 0.002277904328018223 0.002277904328018223 0.002277904328018223 0.002277904328018223 0.002277904328018223 0.002277904328018223 0.002277904328018223 0.002277904328018223 0.002277904328018223 0.002277904328018223 0.002277904328018223 0.002277904328018223 0.002277904328018223 0.002277904328018223 0.002277904328018223 0.002277904328018223 0.002277904328018223 0.002277904328018223 0.002277904328018223 0.002277904328018223 0.002277904328018223 0.002277904328018223 0.002277904328018223 0.002277904328018223 0.002277904328018223 0.002277904328018223 0.002277904328018223 0.002277904328018223 0.002277904328018223 0.002277904328018223 0.002277904328018223 0.002277904328018223 0.002277904328018223 0.002277904328018223 0.002277904328018223 0.002277904328018223 0.002277904328018223 0.002277904328018223 0.002277904328018223 0.002277904328018223 0.002277904328018223 0.002277904328018223 0.002277904328018223 0.002277904328018223 0.002277904328018223 0.002277904328018223 0.002277904328018223 0.002277904328018223 0.002277904328018223 0.002277904328018223 0.002277904328018223 0.002277904328018223 0.002277904328018223 0.002277904328018223 0.002277904328018223 0.002277904328018223 0.002277904328018223 0.002277904328018223 0.002277904328018223 0.002277904328018223 0.002277904328018223 0.002277904328018223 0.002277904328018223 0.002277904328018223 0.002277904328018223 0.002277904328018223 0.002277904328018223 0.002277904328018223 0.002277904328018223 0.002277904328018223 0.002277904328018223 0.002277904328018223 0.002277904328018223 0.002277904328018223 0.002277904328018223 0.002277904328018223 0.002277904328018223 0.002277904328018223 0.002277904328018223 0.002277904328018223 0.002277904328018223 0.002277904328018223 0.002277904328018223 0.002277904328018223 0.002277904328018223 0.002277904328018223 0.002277904328018223 0.002277904328018223 0.002277904328018223 0.002277904328018223 0.002277904328018223 0.002277904328018223 0.002277904328018223 0.002277904328018223 0.002277904328018223 0.002277904328018223 0.002277904328018223 0.002277904328018223 0.002277904328018223 0.002277904328018223 0.002277904328018223 0.002277904328018223 0.002277904328018223 0.002277904328018223 0.002277904328018223 0.0 0.0 0.0 0.0 0.0 0.0 0.0 0.0 0.0 0.0 0.0 0.0 0.0 0.0 0.0 0.0 0.0 0.0 0.0 0.0 0.0 0.0 0.0 0.0 0.0 0.0 0.0 0.0 0.0 0.0 0.0 0.0 0.0 0.0 0.0 0.0 0.0 0.0 0.0 0.0 0.0 0.0 0.0 0.0 0.0 0.0 0.0 0.0 0.0 0.0 0.0 0.0 0.0 0.0 0.0 0.0 0.0 0.0 0.0 0.0 0.0 0.0 0.0 0.0 0.0 0.0 0.0 0.0 0.0 0.0 0.0 0.0 0.0 0.0 0.0 0.0 0.0 0.0 0.0 0.0 0.0 0.0 0.0 0.0 0.0 0.0 0.0 0.0 0.0 0.0 0.0 0.0 0.0 0.0 0.0 0.0 0.0 0.0 0.0 0.0 0.0 0.0 0.0 0.0 0.0 0.0 0.0 0.0 0.0 0.0 0.0 0.0 0.0 0.0 0.0 0.0 0.0 0.0 0.0 0.0 0.0 0.0 0.0 0.0 0.0 0.0 0.0 0.0 0.0 0.0 0.0 0.0 0.0 0.0 0.0 0.0 0.0 0.0 0.0 0.0 0.0 0.0 0.0 0.0 0.0 0.0 0.0 0.0 0.0 0.0 0.0 0.0 0.0 0.0 0.0 0.0 0.0 0.0 0.0 0.0 0.0 0.0 0.0 0.0 0.0 0.0 0.0 0.0 0.0 0.0 0.0 0.0 0.0 0.0 0.0 0.0 0.0 0.0 0.0 0.0 1.0 0.0 0.0 0.0 0.0 0.0 0.0 0.0 0.0 0.0 0.0 0.0 0.0 0.0 0.0 0.0 0.0 0.0 0.0 0.0 0.0 0.0 0.0 0.0 0.0 0.0 0.0 0.0 0.0 0.0 0.0 0.0 0.0 0.0 0.0 0.0 0.0 0.0 0.0 0.0 0.0 0.0 0.0 0.0 0.0 0.0 0.0 0.0 0.0 0.0 0.0 0.0 0.0 0.0 0.0 0.0 0.0 0.0 0.0 0.0 0.0 0.0 0.0 0.0 0.0 0.0 0.0 0.0 0.0 0.0 0.0 0.0 0.0 0.0 0.0 0.0 0.0 0.0 0.0 0.0 0.0 0.0 0.0 0.0 0.0 0.0 0.0 0.0 0.0 0.0 0.0 0.0 0.0 0.0 0.0 0.0 0.0 0.0 0.0 0.0 0.0 0.0 0.0 0.0 0.0 0.0 0.0 0.0 0.0 0.0 0.0 0.0 0.0 0.0 0.0 0.0 0.0 0.0 0.0 0.0 0.0 0.0 0.0 0.0 0.0 0.0 0.0 0.0 0.0 0.0 0.0 0.0 0.0 0.0 0.0 0.0 0.0 0.0 0.0 0.0 0.0 0.0 0.0 0.0 0.0 0.0 0.0 0.0 0.0 0.0 0.0 0.0 0.0 0.0 0.0 0.0 0.0 0.0 0.0 0.0 0.0 0.0 0.0 0.0 0.0 0.0 0.0 0.0 0.0 0.0 0.0 0.0 0.0 0.0 0.0 0.0 0.0 0.0 0.0 0.0 0.0 0.0 0.0 0.0 0.0 0.0 0.0 0.0 0.0 0.0 0.0 0.0 0.0 0.0 0.0 0.0 0.0 0.0 0.0 0.0 0.0 0.0 0.0 0.0 0.0 0.0 0.0 0.0 0.0 0.0 0.0 0.0 0.0 0.0 0.0 0.0 0.0 0.0 0.0 0.0 0.0 0.0 0.0 0.0 0.0 0.0 0.0 0.0 0.0 0.0 0.0 0.0 0.0 0.0 0.0 0.0 0.0 0.0 0.0 0.0 0.0 0.0 0.0 0.0 0.0 0.0 0.0 0.0 0.0 0.0 0.0 0.0 0.0 0.0 0.0 0.0 0.0 0.0 0.0 0.002277904328018223 0.002277904328018223 0.002277904328018223 0.002277904328018223 0.002277904328018223 0.002277904328018223 0.002277904328018223 0.002277904328018223 0.002277904328018223 0.002277904328018223 0.002277904328018223 0.002277904328018223 0.002277904328018223 0.002277904328018223 0.002277904328018223 0.002277904328018223 0.002277904328018223 0.002277904328018223 0.002277904328018223 0.002277904328018223 0.002277904328018223 0.002277904328018223 0.002277904328018223 0.002277904328018223 0.002277904328018223 0.002277904328018223 0.002277904328018223 0.002277904328018223 0.002277904328018223 0.002277904328018223 0.002277904328018223 0.002277904328018223 0.002277904328018223 0.002277904328018223 0.002277904328018223 0.002277904328018223 0.002277904328018223 0.002277904328018223 0.002277904328018223 0.002277904328018223 0.002277904328018223 0.002277904328018223 0.002277904328018223 0.002277904328018223 0.002277904328018223 0.002277904328018223 0.002277904328018223 0.002277904328018223 0.002277904328018223 0.002277904328018223 0.002277904328018223 0.002277904328018223 0.002277904328018223 0.002277904328018223 0.002277904328018223 0.002277904328018223 0.002277904328018223 0.002277904328018223 0.002277904328018223 0.002277904328018223 0.002277904328018223 0.002277904328018223 0.002277904328018223 0.002277904328018223 0.002277904328018223 0.002277904328018223 0.002277904328018223 0.002277904328018223 0.002277904328018223 0.002277904328018223 0.002277904328018223 0.002277904328018223 0.002277904328018223 0.002277904328018223 0.002277904328018223 0.002277904328018223 0.002277904328018223 0.002277904328018223 0.002277904328018223 0.002277904328018223 0.002277904328018223 0.002277904328018223 0.002277904328018223 0.002277904328018223 0.002277904328018223 0.002277904328018223 0.002277904328018223 0.002277904328018223 0.002277904328018223 0.002277904328018223 0.002277904328018223 0.002277904328018223 0.002277904328018223 0.002277904328018223 0.002277904328018223 0.002277904328018223 0.002277904328018223 0.002277904328018223 0.002277904328018223 0.002277904328018223 0.002277904328018223 0.002277904328018223 0.002277904328018223 0.002277904328018223 0.002277904328018223 0.002277904328018223 0.002277904328018223 0.002277904328018223 0.002277904328018223 0.002277904328018223 0.002277904328018223 0.002277904328018223 0.002277904328018223 0.002277904328018223 0.002277904328018223 0.002277904328018223 0.002277904328018223 0.002277904328018223 0.002277904328018223 0.002277904328018223 0.002277904328018223 0.002277904328018223 0.002277904328018223 0.002277904328018223 0.002277904328018223 0.002277904328018223 0.002277904328018223 0.002277904328018223 0.002277904328018223 0.002277904328018223 0.002277904328018223 0.002277904328018223 0.002277904328018223 0.002277904328018223 0.002277904328018223 0.002277904328018223 0.002277904328018223 0.002277904328018223 0.002277904328018223 0.002277904328018223 0.002277904328018223 0.002277904328018223 0.002277904328018223 0.002277904328018223 0.002277904328018223 0.002277904328018223 0.002277904328018223 0.002277904328018223 0.002277904328018223 0.002277904328018223 0.002277904328018223 0.002277904328018223 0.002277904328018223 0.002277904328018223 0.002277904328018223 0.002277904328018223 0.002277904328018223 0.002277904328018223 0.002277904328018223 0.002277904328018223 0.002277904328018223 0.002277904328018223 0.002277904328018223 0.002277904328018223 0.002277904328018223 0.002277904328018223 0.002277904328018223 0.002277904328018223 0.002277904328018223 0.002277904328018223 0.002277904328018223 0.002277904328018223 0.002277904328018223 0.002277904328018223 0.002277904328018223 0.002277904328018223 0.002277904328018223 0.002277904328018223 0.002277904328018223 0.002277904328018223 0.002277904328018223 0.002277904328018223 0.002277904328018223 0.002277904328018223 0.002277904328018223 0.002277904328018223 0.002277904328018223 0.002277904328018223 0.002277904328018223 0.002277904328018223 0.002277904328018223 0.002277904328018223 0.002277904328018223 0.002277904328018223 0.002277904328018223 0.002277904328018223 0.002277904328018223 0.002277904328018223 0.002277904328018223 0.002277904328018223 0.002277904328018223 0.002277904328018223 0.002277904328018223 0.002277904328018223 0.002277904328018223 0.002277904328018223 0.002277904328018223 0.002277904328018223 0.002277904328018223 0.002277904328018223 0.002277904328018223 0.002277904328018223 0.002277904328018223 0.002277904328018223 0.002277904328018223 0.002277904328018223 0.002277904328018223 0.002277904328018223 0.002277904328018223 0.002277904328018223 0.002277904328018223 0.002277904328018223 0.002277904328018223 0.002277904328018223 0.002277904328018223 0.002277904328018223 0.002277904328018223 0.002277904328018223 0.002277904328018223 0.002277904328018223 0.002277904328018223 0.002277904328018223 0.002277904328018223 0.002277904328018223 0.002277904328018223 0.002277904328018223 0.002277904328018223 0.002277904328018223 0.002277904328018223 0.002277904328018223 0.002277904328018223 0.002277904328018223 0.002277904328018223 0.002277904328018223 0.002277904328018223 0.002277904328018223 0.002277904328018223 0.002277904328018223 0.002277904328018223 0.002277904328018223 0.002277904328018223 0.002277904328018223 0.002277904328018223 0.002277904328018223 0.002277904328018223 0.002277904328018223 0.002277904328018223 0.002277904328018223 0.002277904328018223 0.002277904328018223 0.002277904328018223 0.002277904328018223 0.002277904328018223 0.002277904328018223 0.002277904328018223 0.002277904328018223 0.002277904328018223 0.002277904328018223 0.002277904328018223 0.002277904328018223 0.002277904328018223 0.002277904328018223 0.002277904328018223 0.002277904328018223 0.002277904328018223 0.002277904328018223 0.002277904328018223 0.002277904328018223 0.002277904328018223 0.002277904328018223 0.002277904328018223 0.002277904328018223 0.002277904328018223 0.002277904328018223 0.002277904328018223 0.002277904328018223 0.002277904328018223 0.002277904328018223 0.002277904328018223 0.002277904328018223 0.002277904328018223 0.002277904328018223 0.002277904328018223 0.002277904328018223 0.002277904328018223 0.002277904328018223 0.002277904328018223 0.002277904328018223 0.002277904328018223 0.002277904328018223 0.002277904328018223 0.002277904328018223 0.002277904328018223 0.002277904328018223 0.002277904328018223 0.002277904328018223 0.002277904328018223 0.002277904328018223 0.002277904328018223 0.002277904328018223 0.002277904328018223 0.002277904328018223 0.002277904328018223 0.002277904328018223 0.002277904328018223 0.002277904328018223 0.002277904328018223 0.002277904328018223 0.002277904328018223 0.002277904328018223 0.002277904328018223 0.002277904328018223 0.002277904328018223 0.002277904328018223 0.002277904328018223 0.002277904328018223 0.002277904328018223 0.002277904328018223 0.002277904328018223 0.002277904328018223 0.002277904328018223 0.002277904328018223 0.002277904328018223 0.002277904328018223 0.002277904328018223 0.002277904328018223 0.002277904328018223 0.002277904328018223 0.002277904328018223 0.002277904328018223 0.002277904328018223 0.002277904328018223 0.002277904328018223 0.002277904328018223 0.002277904328018223 0.002277904328018223 0.002277904328018223 0.002277904328018223 0.002277904328018223 0.002277904328018223 0.002277904328018223 0.002277904328018223 0.002277904328018223 0.002277904328018223 0.002277904328018223 0.002277904328018223 0.002277904328018223 0.002277904328018223 0.002277904328018223 0.002277904328018223 0.002277904328018223 0.002277904328018223 0.002277904328018223 0.002277904328018223 0.002277904328018223 0.002277904328018223 0.002277904328018223 0.002277904328018223 0.002277904328018223 0.002277904328018223 0.002277904328018223 0.002277904328018223 0.002277904328018223 0.002277904328018223 0.002277904328018223 0.002277904328018223 0.002277904328018223 0.002277904328018223 0.002277904328018223 0.002277904328018223 0.002277904328018223 0.002277904328018223 0.002277904328018223 0.002277904328018223 0.002277904328018223 0.002277904328018223 0.002277904328018223 0.002277904328018223 0.002277904328018223 0.002277904328018223 0.002277904328018223 0.002277904328018223 0.002277904328018223 0.002277904328018223 0.002277904328018223 0.002277904328018223 0.002277904328018223 0.002277904328018223 0.002277904328018223 0.002277904328018223 0.002277904328018223 0.002277904328018223 0.002277904328018223 0.002277904328018223 0.002277904328018223 0.002277904328018223 0.002277904328018223 0.002277904328018223 0.002277904328018223 0.002277904328018223 0.002277904328018223 0.002277904328018223 0.002277904328018223 0.002277904328018223 0.002277904328018223 0.002277904328018223 0.002277904328018223 0.002277904328018223 0.002277904328018223 0.002277904328018223 0.002277904328018223 0.002277904328018223 0.002277904328018223 0.002277904328018223 0.002277904328018223 0.002277904328018223 0.002277904328018223 0.002277904328018223 0.002277904328018223 0.002277904328018223 0.002277904328018223 0.002277904328018223 0.002277904328018223 0.002277904328018223 0.002277904328018223 0.002277904328018223 0.002277904328018223 0.002277904328018223 0.002277904328018223 0.002277904328018223 0.002277904328018223 0.002277904328018223 0.002277904328018223 0.002277904328018223 0.002277904328018223 0.002277904328018223 0.002277904328018223 0.002277904328018223 0.002277904328018223 0.002277904328018223 0.002277904328018223 0.002277904328018223 0.002277904328018223 0.002277904328018223 0.002277904328018223 0.002277904328018223 0.002277904328018223 0.002277904328018223 0.002277904328018223 0.002277904328018223 0.002277904328018223 0.002277904328018223 0.002277904328018223 0.002277904328018223 0.002277904328018223 0.002277904328018223 0.002277904328018223 0.002277904328018223 0.002277904328018223 0.002277904328018223 0.002277904328018223 0.002277904328018223 0.002277904328018223 0.002277904328018223 0.002277904328018223 0.002277904328018223 0.002277904328018223 0.002277904328018223 0.002277904328018223 0.002277904328018223 0.002277904328018223 0.002277904328018223 0.002277904328018223 0.002277904328018223 0.002277904328018223 0.002277904328018223 0.002277904328018223 0.002277904328018223 0.002277904328018223 0.002277904328018223 0.002277904328018223 0.002277904328018223 0.002277904328018223 0.002277904328018223 0.002277904328018223 0.002277904328018223 0.002277904328018223 0.002277904328018223 0.002277904328018223 0.002277904328018223 0.002277904328018223 0.002277904328018223 0.002277904328018223 0.002277904328018223 0.002277904328018223 0.002277904328018223 0.002277904328018223 0.002277904328018223 0.002277904328018223 0.002277904328018223 0.002277904328018223 0.002277904328018223 0.002277904328018223 0.002277904328018223 0.002277904328018223 0.002277904328018223 0.002277904328018223 0.002277904328018223 0.002277904328018223 0.002277904328018223 0.002277904328018223 0.002277904328018223 0.002277904328018223 0.002277904328018223 0.002277904328018223 0.002277904328018223 0.002277904328018223 0.002277904328018223 0.002277904328018223 0.002277904328018223 0.002277904328018223 0.002277904328018223 0.002277904328018223 0.002277904328018223 0.002277904328018223 0.002277904328018223 0.002277904328018223 0.002277904328018223 0.002277904328018223 0.002277904328018223 0.002277904328018223 0.002277904328018223 0.002277904328018223 0.002277904328018223 0.002277904328018223 0.002277904328018223 0.002277904328018223 0.002277904328018223 0.002277904328018223 0.002277904328018223 0.002277904328018223 0.002277904328018223 0.002277904328018223 0.002277904328018223 0.002277904328018223 0.002277904328018223 0.002277904328018223 0.002277904328018223 0.002277904328018223 0.002277904328018223 0.002277904328018223 0.002277904328018223 0.002277904328018223 0.002277904328018223 0.002277904328018223 0.002277904328018223 0.002277904328018223 0.002277904328018223 0.002277904328018223 0.002277904328018223 0.002277904328018223 0.002277904328018223 0.002277904328018223 0.002277904328018223 0.002277904328018223 0.002277904328018223 0.002277904328018223 0.002277904328018223 0.002277904328018223 0.002277904328018223 0.002277904328018223 0.002277904328018223 0.002277904328018223 0.002277904328018223 0.002277904328018223 0.002277904328018223 0.002277904328018223 0.002277904328018223 0.002277904328018223 0.002277904328018223 0.002277904328018223 0.002277904328018223 0.002277904328018223 0.002277904328018223 0.002277904328018223 0.002277904328018223 0.002277904328018223 0.002277904328018223 0.002277904328018223 0.002277904328018223 0.002277904328018223 0.002277904328018223 0.002277904328018223 0.002277904328018223 0.002277904328018223 0.002277904328018223 0.002277904328018223 0.002277904328018223 0.002277904328018223 0.002277904328018223 0.002277904328018223 0.002277904328018223 0.002277904328018223 0.002277904328018223 0.002277904328018223 0.002277904328018223 0.002277904328018223 0.002277904328018223 0.002277904328018223 0.002277904328018223 0.002277904328018223 0.002277904328018223 0.002277904328018223 0.002277904328018223 0.002277904328018223 0.002277904328018223 0.002277904328018223 0.002277904328018223 0.002277904328018223 0.002277904328018223 0.002277904328018223 0.002277904328018223 0.002277904328018223 0.002277904328018223 0.002277904328018223 0.002277904328018223 0.002277904328018223 0.002277904328018223 0.002277904328018223 0.002277904328018223 0.002277904328018223 0.002277904328018223 0.002277904328018223 0.002277904328018223 0.002277904328018223 0.002277904328018223 0.002277904328018223 0.002277904328018223 0.002277904328018223 0.002277904328018223 0.002277904328018223 0.002277904328018223 0.002277904328018223 0.002277904328018223 0.002277904328018223 0.002277904328018223 0.002277904328018223 0.002277904328018223 0.002277904328018223 0.002277904328018223 0.002277904328018223 0.002277904328018223 0.002277904328018223 0.002277904328018223 0.002277904328018223 0.002277904328018223 0.002277904328018223 0.002277904328018223 0.002277904328018223 0.002277904328018223 0.002277904328018223 0.002277904328018223 0.002277904328018223 0.002277904328018223 0.002277904328018223 0.002277904328018223 0.002277904328018223 0.002277904328018223 0.002277904328018223 0.002277904328018223 0.002277904328018223 0.002277904328018223 0.002277904328018223 0.002277904328018223 0.002277904328018223 0.002277904328018223 0.002277904328018223 0.002277904328018223 0.002277904328018223 0.002277904328018223 0.002277904328018223 0.002277904328018223 0.002277904328018223 0.002277904328018223 0.002277904328018223 0.002277904328018223 0.002277904328018223 0.002277904328018223 0.002277904328018223 0.002277904328018223 0.002277904328018223 0.002277904328018223 0.002277904328018223 0.002277904328018223 0.002277904328018223 0.002277904328018223 0.002277904328018223 0.002277904328018223 0.002277904328018223 0.002277904328018223 0.002277904328018223 0.002277904328018223 0.002277904328018223 0.002277904328018223 0.002277904328018223 0.002277904328018223 0.002277904328018223 0.002277904328018223 0.002277904328018223 0.002277904328018223 0.002277904328018223 0.002277904328018223 0.002277904328018223 0.002277904328018223 0.002277904328018223 0.002277904328018223 0.002277904328018223 0.002277904328018223 0.002277904328018223 0.002277904328018223 0.002277904328018223 0.002277904328018223 0.002277904328018223 0.002277904328018223 0.002277904328018223 0.002277904328018223 0.002277904328018223 0.002277904328018223 0.002277904328018223 0.002277904328018223 0.002277904328018223 0.002277904328018223 0.002277904328018223 0.002277904328018223 0.002277904328018223 0.002277904328018223 0.002277904328018223 0.002277904328018223 0.002277904328018223 0.002277904328018223 0.002277904328018223 0.002277904328018223 0.002277904328018223 0.002277904328018223 0.002277904328018223 0.002277904328018223 0.002277904328018223 0.002277904328018223 0.002277904328018223 0.002277904328018223 0.002277904328018223 0.002277904328018223 0.002277904328018223 0.002277904328018223 0.002277904328018223 0.002277904328018223 0.002277904328018223 0.002277904328018223 0.002277904328018223 0.002277904328018223 0.002277904328018223 0.002277904328018223 0.002277904328018223 0.002277904328018223 0.002277904328018223 0.002277904328018223 0.002277904328018223 0.002277904328018223 0.002277904328018223 0.002277904328018223 0.002277904328018223 0.002277904328018223 0.002277904328018223 0.002277904328018223 0.002277904328018223 0.002277904328018223 0.002277904328018223 0.002277904328018223 0.002277904328018223 0.002277904328018223 0.002277904328018223 0.002277904328018223 0.002277904328018223 0.002277904328018223 0.002277904328018223 0.002277904328018223 0.002277904328018223 0.002277904328018223 0.002277904328018223 0.002277904328018223 0.002277904328018223 0.002277904328018223 0.002277904328018223 0.002277904328018223 0.002277904328018223 0.002277904328018223 0.002277904328018223 0.002277904328018223 0.002277904328018223 0.002277904328018223 0.002277904328018223 0.002277904328018223 0.002277904328018223 0.002277904328018223 0.002277904328018223 0.002277904328018223 0.002277904328018223 0.002277904328018223 0.002277904328018223 0.002277904328018223 0.002277904328018223 0.002277904328018223 0.002277904328018223 0.002277904328018223 0.002277904328018223 0.002277904328018223 0.002277904328018223 0.002277904328018223 0.002277904328018223 0.002277904328018223 0.002277904328018223 0.002277904328018223 0.002277904328018223 0.002277904328018223 0.002277904328018223 0.002277904328018223 0.002277904328018223 0.002277904328018223 0.002277904328018223 0.002277904328018223 0.002277904328018223 0.002277904328018223 0.002277904328018223 0.002277904328018223 0.002277904328018223 0.002277904328018223 0.002277904328018223 0.002277904328018223 0.002277904328018223 0.002277904328018223 0.002277904328018223 0.002277904328018223 0.002277904328018223 0.002277904328018223 0.002277904328018223 0.002277904328018223 0.002277904328018223 0.002277904328018223 0.002277904328018223 0.002277904328018223 0.002277904328018223 0.002277904328018223 0.002277904328018223 0.002277904328018223 0.002277904328018223 0.002277904328018223 0.002277904328018223 0.002277904328018223 0.002277904328018223 0.002277904328018223 0.002277904328018223 0.002277904328018223 0.002277904328018223 0.002277904328018223 0.002277904328018223 0.002277904328018223 0.002277904328018223 0.002277904328018223 0.002277904328018223 0.002277904328018223 0.002277904328018223 0.002277904328018223 0.002277904328018223 0.002277904328018223 0.002277904328018223 0.002277904328018223 0.002277904328018223 0.002277904328018223 0.002277904328018223 0.002277904328018223 0.002277904328018223 0.002277904328018223 0.002277904328018223 0.002277904328018223 0.002277904328018223 0.002277904328018223 0.002277904328018223 0.002277904328018223 0.002277904328018223 0.002277904328018223 0.002277904328018223 0.002277904328018223 0.002277904328018223 0.002277904328018223 0.002277904328018223 0.002277904328018223 0.002277904328018223 0.002277904328018223 0.002277904328018223 0.002277904328018223 0.002277904328018223 0.002277904328018223 0.002277904328018223 0.002277904328018223 0.002277904328018223 0.002277904328018223 0.002277904328018223 0.002277904328018223 0.002277904328018223 0.002277904328018223 0.002277904328018223 0.002277904328018223 0.002277904328018223 0.002277904328018223 0.002277904328018223 0.002277904328018223 0.002277904328018223 0.002277904328018223 0.002277904328018223 0.002277904328018223 0.002277904328018223 0.002277904328018223 0.002277904328018223 0.002277904328018223 0.002277904328018223 0.002277904328018223 0.002277904328018223 0.002277904328018223 0.002277904328018223 0.002277904328018223 0.002277904328018223 0.002277904328018223 0.002277904328018223 0.002277904328018223 0.002277904328018223 0.002277904328018223 0.002277904328018223 0.002277904328018223 0.002277904328018223 0.002277904328018223 0.002277904328018223 0.002277904328018223 0.002277904328018223 0.002277904328018223 0.002277904328018223 0.002277904328018223 0.002277904328018223 0.002277904328018223 0.002277904328018223 0.002277904328018223 0.002277904328018223 0.002277904328018223 0.002277904328018223 0.002277904328018223 0.002277904328018223 0.002277904328018223 0.002277904328018223 0.002277904328018223 0.002277904328018223 0.002277904328018223 0.002277904328018223 0.002277904328018223 0.002277904328018223 0.002277904328018223 0.002277904328018223 0.002277904328018223 0.002277904328018223 0.002277904328018223 0.002277904328018223 0.002277904328018223 0.002277904328018223 0.002277904328018223 0.002277904328018223 0.002277904328018223 0.002277904328018223 0.002277904328018223 0.002277904328018223 0.002277904328018223 0.002277904328018223 0.002277904328018223 0.002277904328018223 0.002277904328018223 0.002277904328018223 0.002277904328018223 0.002277904328018223 