<?xml version='1.0' encoding='utf-8'?>
<BIF VERSION="0.3">
  <NETWORK>
    <NAME>UNTITLED</NAME>
    <VARIABLE TYPE="nature">
      <NAME>A</NAME>
      <OUTCOME>_2_8320000000000003_3_638_</OUTCOME>
      <OUTCOME>_3_638_3_912_</OUTCOME>
      <OUTCOME>_3_912_4_248_</OUTCOME>
      <OUTCOME>_4_248_4_7_</OUTCOME>
      <OUTCOME>_4_7_4_963_</OUTCOME>
      <OUTCOME>_4_963_5_416_</OUTCOME>
      <OUTCOME>_5_416_5_991_</OUTCOME>
      <OUTCOME>_5_991_7_313_</OUTCOME>
      <PROPERTY />
    </VARIABLE>
    <VARIABLE TYPE="nature">
      <NAME>B</NAME>
      <OUTCOME>_1_7910000000000001_2_944_</OUTCOME>
      <OUTCOME>_2_944_3_296_</OUTCOME>
      <OUTCOME>_3_296_3_584_</OUTCOME>
      <OUTCOME>_3_584_3_912_</OUTCOME>
      <OUTCOME>_3_912_4_19_</OUTCOME>
      <OUTCOME>_4_19_4_727_</OUTCOME>
      <OUTCOME>_4_727_5_366_</OUTCOME>
      <OUTCOME>_5_366_7_048_</OUTCOME>
      <PROPERTY />
    </VARIABLE>
    <DEFINITION>
      <FOR>A</FOR>
      <TABLE>0.15789473684210525 0.1339712918660287 0.0861244019138756 0.1291866028708134 0.11961722488038277 0.1291866028708134 0.1339712918660287 0.11004784688995216 </TABLE>
    </DEFINITION>
    <DEFINITION>
      <FOR>B</FOR>
      <GIVEN>A</GIVEN>
      <TABLE>0.0 0.0 0.0 0.030303030303030304 0.06060606060606061 0.06060606060606061 0.24242424242424243 0.6060606060606061 0.0 0.10714285714285714 0.10714285714285714 0.10714285714285714 0.21428571428571427 0.14285714285714285 0.21428571428571427 0.10714285714285714 0.05555555555555555 0.1111111111111111 0.05555555555555555 0.1111111111111111 0.0 0.3888888888888889 0.2222222222222222 0.05555555555555555 0.1111111111111111 0.14814814814814814 0.14814814814814814 0.07407407407407407 0.25925925925925924 0.07407407407407407 0.14814814814814814 0.037037037037037035 0.04 0.04 0.28 0.2 0.12 0.12 0.2 0.0 0.14814814814814814 0.18518518518518517 0.25925925925925924 0.14814814814814814 0.1111111111111111 0.14814814814814814 0.0 0.0 0.17857142857142858 0.17857142857142858 0.17857142857142858 0.35714285714285715 0.03571428571428571 0.07142857142857142 0.0 0.0 0.5652173913043478 0.30434782608695654 0.0 0.08695652173913043 0.0 0.043478260869565216 0.0 0.0 </TABLE>
    </DEFINITION>
  </NETWORK>
</BIF>
