<?xml version='1.0' encoding='utf-8'?>
<BIF VERSION="0.3">
  <NETWORK>
    <NAME>UNTITLED</NAME>
    <VARIABLE TYPE="nature">
      <NAME>A</NAME>
      <OUTCOME>_3_888_8_998_</OUTCOME>
      <OUTCOME>_8_998_10_685_</OUTCOME>
      <OUTCOME>_10_685_11_733_</OUTCOME>
      <OUTCOME>_11_733_12_972_</OUTCOME>
      <OUTCOME>_12_972_14_356_</OUTCOME>
      <OUTCOME>_14_356_16_427_</OUTCOME>
      <OUTCOME>_16_427_18_142_</OUTCOME>
      <OUTCOME>_18_142_20_1_</OUTCOME>
      <OUTCOME>_20_1_21_666_</OUTCOME>
      <OUTCOME>_21_666_22_814_</OUTCOME>
      <OUTCOME>_22_814_23_665_</OUTCOME>
      <OUTCOME>_23_665_24_634_</OUTCOME>
      <OUTCOME>_24_634_25_734_</OUTCOME>
      <OUTCOME>_25_734_29_5_</OUTCOME>
      <PROPERTY />
    </VARIABLE>
    <VARIABLE TYPE="nature">
      <NAME>B</NAME>
      <OUTCOME>_20_677_21_977_</OUTCOME>
      <OUTCOME>_21_977_22_663_</OUTCOME>
      <OUTCOME>_22_663_23_181_</OUTCOME>
      <OUTCOME>_23_181_23_683_</OUTCOME>
      <OUTCOME>_23_683_23_967_</OUTCOME>
      <OUTCOME>_23_967_24_381_</OUTCOME>
      <OUTCOME>_24_381_24_594_</OUTCOME>
      <OUTCOME>_24_594_24_933_</OUTCOME>
      <OUTCOME>_24_933_25_102_</OUTCOME>
      <OUTCOME>_25_102_25_266_</OUTCOME>
      <OUTCOME>_25_266_25_442_</OUTCOME>
      <OUTCOME>_25_442_25_629_</OUTCOME>
      <OUTCOME>_25_629_26_367_</OUTCOME>
      <OUTCOME>_26_367_26_917_</OUTCOME>
      <PROPERTY />
    </VARIABLE>
    <DEFINITION>
      <FOR>A</FOR>
      <TABLE>0.07142857142857142 0.07142857142857142 0.07738095238095238 0.06547619047619048 0.07142857142857142 0.07142857142857142 0.07142857142857142 0.07142857142857142 0.07142857142857142 0.07142857142857142 0.07142857142857142 0.07142857142857142 0.07142857142857142 0.07142857142857142 </TABLE>
    </DEFINITION>
    <DEFINITION>
      <FOR>B</FOR>
      <GIVEN>A</GIVEN>
      <TABLE>0.25 0.25 0.25 0.08333333333333333 0.08333333333333333 0.08333333333333333 0.0 0.0 0.0 0.0 0.0 0.0 0.0 0.0 0.0 0.08333333333333333 0.16666666666666666 0.25 0.16666666666666666 0.08333333333333333 0.16666666666666666 0.08333333333333333 0.0 0.0 0.0 0.0 0.0 0.0 0.38461538461538464 0.0 0.15384615384615385 0.15384615384615385 0.0 0.23076923076923078 0.07692307692307693 0.0 0.0 0.0 0.0 0.0 0.0 0.0 0.0 0.0 0.09090909090909091 0.09090909090909091 0.18181818181818182 0.18181818181818182 0.09090909090909091 0.09090909090909091 0.18181818181818182 0.09090909090909091 0.0 0.0 0.0 0.0 0.08333333333333333 0.0 0.0 0.0 0.08333333333333333 0.08333333333333333 0.16666666666666666 0.16666666666666666 0.16666666666666666 0.08333333333333333 0.16666666666666666 0.0 0.0 0.0 0.0 0.0 0.16666666666666666 0.0 0.0 0.0 0.08333333333333333 0.25 0.25 0.0 0.08333333333333333 0.08333333333333333 0.08333333333333333 0.0 0.08333333333333333 0.0 0.0 0.0 0.08333333333333333 0.08333333333333333 0.0 0.0 0.08333333333333333 0.3333333333333333 0.08333333333333333 0.16666666666666666 0.08333333333333333 0.0 0.08333333333333333 0.08333333333333333 0.08333333333333333 0.0 0.0 0.0 0.08333333333333333 0.08333333333333333 0.0 0.16666666666666666 0.16666666666666666 0.08333333333333333 0.0 0.16666666666666666 0.0 0.08333333333333333 0.0 0.08333333333333333 0.0 0.08333333333333333 0.0 0.0 0.0 0.0 0.08333333333333333 0.25 0.16666666666666666 0.25 0.08333333333333333 0.16666666666666666 0.0 0.08333333333333333 0.0 0.0 0.0 0.0 0.08333333333333333 0.16666666666666666 0.08333333333333333 0.16666666666666666 0.08333333333333333 0.08333333333333333 0.0 0.08333333333333333 0.0 0.08333333333333333 0.0 0.0 0.0 0.08333333333333333 0.08333333333333333 0.08333333333333333 0.25 0.08333333333333333 0.08333333333333333 0.16666666666666666 0.0 0.16666666666666666 0.08333333333333333 0.08333333333333333 0.08333333333333333 0.0 0.0 0.08333333333333333 0.0 0.08333333333333333 0.0 0.08333333333333333 0.16666666666666666 0.16666666666666666 0.0 0.08333333333333333 0.0 0.0 0.25 0.16666666666666666 0.16666666666666666 0.0 0.08333333333333333 0.0 0.08333333333333333 0.0 0.16666666666666666 0.0 0.0 0.0 0.0 0.08333333333333333 0.08333333333333333 0.0 0.16666666666666666 0.16666666666666666 0.08333333333333333 0.0 0.0 0.08333333333333333 0.16666666666666666 0.16666666666666666 </TABLE>
    </DEFINITION>
  </NETWORK>
</BIF>
