<?xml version='1.0' encoding='utf-8'?>
<BIF VERSION="0.3">
  <NETWORK>
    <NAME>UNTITLED</NAME>
    <VARIABLE TYPE="nature">
      <NAME>A</NAME>
      <OUTCOME>_3_888_10_49_</OUTCOME>
      <OUTCOME>_10_49_12_289_</OUTCOME>
      <OUTCOME>_12_289_14_662_</OUTCOME>
      <OUTCOME>_14_662_18_142_</OUTCOME>
      <OUTCOME>_18_142_21_134_</OUTCOME>
      <OUTCOME>_21_134_23_36_</OUTCOME>
      <OUTCOME>_23_36_24_903_</OUTCOME>
      <OUTCOME>_24_903_29_5_</OUTCOME>
      <PROPERTY />
    </VARIABLE>
    <VARIABLE TYPE="nature">
      <NAME>B</NAME>
      <OUTCOME>_20_677_22_476_</OUTCOME>
      <OUTCOME>_22_476_23_375_</OUTCOME>
      <OUTCOME>_23_375_24_037_</OUTCOME>
      <OUTCOME>_24_037_24_594_</OUTCOME>
      <OUTCOME>_24_594_25_044_</OUTCOME>
      <OUTCOME>_25_044_25_321_</OUTCOME>
      <OUTCOME>_25_321_25_683_</OUTCOME>
      <OUTCOME>_25_683_26_917_</OUTCOME>
      <PROPERTY />
    </VARIABLE>
    <DEFINITION>
      <FOR>A</FOR>
      <TABLE>0.125 0.125 0.125 0.125 0.125 0.125 0.125 0.125 </TABLE>
    </DEFINITION>
    <DEFINITION>
      <FOR>B</FOR>
      <GIVEN>A</GIVEN>
      <TABLE>0.2857142857142857 0.3333333333333333 0.23809523809523808 0.14285714285714285 0.0 0.0 0.0 0.0 0.2857142857142857 0.19047619047619047 0.14285714285714285 0.23809523809523808 0.14285714285714285 0.0 0.0 0.0 0.047619047619047616 0.047619047619047616 0.09523809523809523 0.2857142857142857 0.3333333333333333 0.14285714285714285 0.047619047619047616 0.0 0.047619047619047616 0.09523809523809523 0.047619047619047616 0.047619047619047616 0.14285714285714285 0.3333333333333333 0.19047619047619047 0.09523809523809523 0.09523809523809523 0.047619047619047616 0.09523809523809523 0.047619047619047616 0.047619047619047616 0.14285714285714285 0.2857142857142857 0.23809523809523808 0.14285714285714285 0.09523809523809523 0.047619047619047616 0.0 0.09523809523809523 0.23809523809523808 0.23809523809523808 0.14285714285714285 0.09523809523809523 0.14285714285714285 0.14285714285714285 0.0 0.09523809523809523 0.09523809523809523 0.14285714285714285 0.2857142857142857 0.0 0.047619047619047616 0.19047619047619047 0.23809523809523808 0.14285714285714285 0.047619047619047616 0.09523809523809523 0.23809523809523808 </TABLE>
    </DEFINITION>
  </NETWORK>
</BIF>
