<?xml version='1.0' encoding='utf-8'?>
<BIF VERSION="0.3">
  <NETWORK>
    <NAME>UNTITLED</NAME>
    <VARIABLE TYPE="nature">
      <NAME>A</NAME>
      <OUTCOME>_0_359_25_671_</OUTCOME>
      <OUTCOME>_25_671_51_343_</OUTCOME>
      <OUTCOME>_51_343_77_014_</OUTCOME>
      <OUTCOME>_77_014_102_686_</OUTCOME>
      <OUTCOME>_102_686_128_357_</OUTCOME>
      <OUTCOME>_128_357_154_029_</OUTCOME>
      <OUTCOME>_154_029_179_7_</OUTCOME>
      <OUTCOME>_179_7_205_371_</OUTCOME>
      <OUTCOME>_205_371_231_043_</OUTCOME>
      <OUTCOME>_231_043_256_714_</OUTCOME>
      <OUTCOME>_256_714_282_386_</OUTCOME>
      <OUTCOME>_282_386_308_057_</OUTCOME>
      <OUTCOME>_308_057_333_729_</OUTCOME>
      <OUTCOME>_333_729_359_4_</OUTCOME>
      <PROPERTY />
    </VARIABLE>
    <VARIABLE TYPE="nature">
      <NAME>B</NAME>
      <OUTCOME>_2_25_8_064_</OUTCOME>
      <OUTCOME>_8_064_13_797_</OUTCOME>
      <OUTCOME>_13_797_19_531_</OUTCOME>
      <OUTCOME>_19_531_25_264_</OUTCOME>
      <OUTCOME>_25_264_30_998_</OUTCOME>
      <OUTCOME>_30_998_36_731_</OUTCOME>
      <OUTCOME>_36_731_42_465_</OUTCOME>
      <OUTCOME>_42_465_48_199_</OUTCOME>
      <OUTCOME>_48_199_53_932_</OUTCOME>
      <OUTCOME>_53_932_59_666_</OUTCOME>
      <OUTCOME>_59_666_65_399_</OUTCOME>
      <OUTCOME>_65_399_71_133_</OUTCOME>
      <OUTCOME>_71_133_76_866_</OUTCOME>
      <OUTCOME>_76_866_82_6_</OUTCOME>
      <PROPERTY />
    </VARIABLE>
    <DEFINITION>
      <FOR>A</FOR>
      <TABLE>0.516504854368932 0.037864077669902914 0.019417475728155338 0.05436893203883495 0.06893203883495146 0.0854368932038835 0.05339805825242718 0.08446601941747572 0.02621359223300971 0.02524271844660194 0.008737864077669903 0.013592233009708738 0.001941747572815534 0.003883495145631068 </TABLE>
    </DEFINITION>
    <DEFINITION>
      <FOR>B</FOR>
      <GIVEN>A</GIVEN>
      <TABLE>0.005639097744360902 0.10902255639097744 0.11090225563909774 0.14285714285714285 0.09586466165413533 0.13533834586466165 0.15789473684210525 0.08458646616541353 0.05639097744360902 0.04887218045112782 0.020676691729323307 0.016917293233082706 0.011278195488721804 0.0037593984962406013 0.07692307692307693 0.0 0.02564102564102564 0.10256410256410256 0.05128205128205128 0.15384615384615385 0.20512820512820512 0.10256410256410256 0.10256410256410256 0.15384615384615385 0.02564102564102564 0.0 0.0 0.0 0.0 0.0 0.1 0.0 0.05 0.1 0.1 0.05 0.2 0.3 0.1 0.0 0.0 0.0 0.017857142857142856 0.03571428571428571 0.07142857142857142 0.017857142857142856 0.14285714285714285 0.16071428571428573 0.10714285714285714 0.08928571428571429 0.14285714285714285 0.07142857142857142 0.05357142857142857 0.05357142857142857 0.03571428571428571 0.0 0.04225352112676056 0.028169014084507043 0.014084507042253521 0.09859154929577464 0.014084507042253521 0.11267605633802817 0.19718309859154928 0.11267605633802817 0.08450704225352113 0.04225352112676056 0.15492957746478872 0.07042253521126761 0.028169014084507043 0.0 0.03409090909090909 0.045454545454545456 0.11363636363636363 0.056818181818181816 0.1590909090909091 0.11363636363636363 0.14772727272727273 0.14772727272727273 0.13636363636363635 0.03409090909090909 0.0 0.0 0.0 0.011363636363636364 0.05454545454545454 0.07272727272727272 0.05454545454545454 0.10909090909090909 0.23636363636363636 0.12727272727272726 0.05454545454545454 0.07272727272727272 0.03636363636363636 0.09090909090909091 0.03636363636363636 0.01818181818181818 0.03636363636363636 0.0 0.034482758620689655 0.022988505747126436 0.05747126436781609 0.11494252873563218 0.05747126436781609 0.1839080459770115 0.05747126436781609 0.034482758620689655 0.06896551724137931 0.05747126436781609 0.04597701149425287 0.05747126436781609 0.09195402298850575 0.11494252873563218 0.07407407407407407 0.037037037037037035 0.037037037037037035 0.07407407407407407 0.18518518518518517 0.25925925925925924 0.14814814814814814 0.07407407407407407 0.0 0.037037037037037035 0.0 0.07407407407407407 0.0 0.0 0.038461538461538464 0.07692307692307693 0.07692307692307693 0.038461538461538464 0.15384615384615385 0.23076923076923078 0.3076923076923077 0.07692307692307693 0.0 0.0 0.0 0.0 0.0 0.0 0.0 0.1111111111111111 0.0 0.0 0.2222222222222222 0.0 0.2222222222222222 0.1111111111111111 0.0 0.0 0.2222222222222222 0.1111111111111111 0.0 0.0 0.0 0.14285714285714285 0.07142857142857142 0.14285714285714285 0.07142857142857142 0.07142857142857142 0.14285714285714285 0.0 0.21428571428571427 0.0 0.0 0.0 0.07142857142857142 0.07142857142857142 0.0 0.0 0.0 0.5 0.0 0.0 0.5 0.0 0.0 0.0 0.0 0.0 0.0 0.0 0.0 0.0 0.0 0.25 0.25 0.0 0.5 0.0 0.0 0.0 0.0 0.0 0.0 0.0 </TABLE>
    </DEFINITION>
  </NETWORK>
</BIF>
