<?xml version='1.0' encoding='utf-8'?>
<BIF VERSION="0.3">
  <NETWORK>
    <NAME>UNTITLED</NAME>
    <VARIABLE TYPE="nature">
      <NAME>A</NAME>
      <OUTCOME>_0_001_22_0_</OUTCOME>
      <OUTCOME>_22_0_93_8_</OUTCOME>
      <OUTCOME>_93_8_116_0_</OUTCOME>
      <OUTCOME>_116_0_142_95_</OUTCOME>
      <OUTCOME>_142_95_177_5_</OUTCOME>
      <OUTCOME>_177_5_203_5_</OUTCOME>
      <OUTCOME>_203_5_359_4_</OUTCOME>
      <PROPERTY />
    </VARIABLE>
    <VARIABLE TYPE="nature">
      <NAME>B</NAME>
      <OUTCOME>_2_329_13_272_</OUTCOME>
      <OUTCOME>_13_272_18_08_</OUTCOME>
      <OUTCOME>_18_08_23_71_</OUTCOME>
      <OUTCOME>_23_71_26_97_</OUTCOME>
      <OUTCOME>_26_97_31_615_</OUTCOME>
      <OUTCOME>_31_615_34_445_</OUTCOME>
      <OUTCOME>_34_445_38_35_</OUTCOME>
      <OUTCOME>_38_35_41_37_</OUTCOME>
      <OUTCOME>_41_37_46_135_</OUTCOME>
      <OUTCOME>_46_135_52_825_</OUTCOME>
      <OUTCOME>_52_825_61_075_</OUTCOME>
      <OUTCOME>_61_075_82_6_</OUTCOME>
      <PROPERTY />
    </VARIABLE>
    <DEFINITION>
      <FOR>A</FOR>
      <TABLE>0.5029126213592233 0.08349514563106795 0.08349514563106795 0.07961165048543689 0.08349514563106795 0.08737864077669903 0.07961165048543689 </TABLE>
    </DEFINITION>
    <DEFINITION>
      <FOR>B</FOR>
      <GIVEN>A</GIVEN>
      <TABLE>0.0945945945945946 0.11776061776061776 0.10231660231660232 0.09652509652509653 0.08301158301158301 0.07335907335907337 0.0888030888030888 0.08687258687258688 0.0888030888030888 0.06563706563706563 0.05791505791505792 0.0444015444015444 0.03488372093023256 0.046511627906976744 0.05813953488372093 0.03488372093023256 0.09302325581395349 0.046511627906976744 0.09302325581395349 0.05813953488372093 0.09302325581395349 0.13953488372093023 0.2558139534883721 0.046511627906976744 0.05813953488372093 0.03488372093023256 0.03488372093023256 0.023255813953488372 0.046511627906976744 0.1511627906976744 0.05813953488372093 0.08139534883720931 0.08139534883720931 0.16279069767441862 0.09302325581395349 0.1744186046511628 0.08536585365853659 0.06097560975609756 0.08536585365853659 0.036585365853658534 0.036585365853658534 0.0975609756097561 0.07317073170731707 0.12195121951219512 0.12195121951219512 0.08536585365853659 0.10975609756097561 0.08536585365853659 0.10465116279069768 0.06976744186046512 0.06976744186046512 0.16279069767441862 0.13953488372093023 0.03488372093023256 0.03488372093023256 0.05813953488372093 0.06976744186046512 0.11627906976744186 0.08139534883720931 0.05813953488372093 0.044444444444444446 0.03333333333333333 0.07777777777777778 0.08888888888888889 0.05555555555555555 0.08888888888888889 0.1111111111111111 0.03333333333333333 0.022222222222222223 0.06666666666666667 0.08888888888888889 0.28888888888888886 0.10975609756097561 0.04878048780487805 0.06097560975609756 0.07317073170731707 0.12195121951219512 0.14634146341463414 0.0975609756097561 0.13414634146341464 0.07317073170731707 0.036585365853658534 0.024390243902439025 0.07317073170731707 </TABLE>
    </DEFINITION>
  </NETWORK>
</BIF>
