<?xml version='1.0' encoding='utf-8'?>
<BIF VERSION="0.3">
  <NETWORK>
    <NAME>UNTITLED</NAME>
    <VARIABLE TYPE="nature">
      <NAME>A</NAME>
      <OUTCOME>_101_562_133_286_</OUTCOME>
      <OUTCOME>_133_286_164_571_</OUTCOME>
      <OUTCOME>_164_571_195_857_</OUTCOME>
      <OUTCOME>_195_857_227_143_</OUTCOME>
      <OUTCOME>_227_143_258_429_</OUTCOME>
      <OUTCOME>_258_429_289_714_</OUTCOME>
      <OUTCOME>_289_714_321_0_</OUTCOME>
      <OUTCOME>_321_0_352_286_</OUTCOME>
      <OUTCOME>_352_286_383_571_</OUTCOME>
      <OUTCOME>_383_571_414_857_</OUTCOME>
      <OUTCOME>_414_857_446_143_</OUTCOME>
      <OUTCOME>_446_143_477_429_</OUTCOME>
      <OUTCOME>_477_429_508_714_</OUTCOME>
      <OUTCOME>_508_714_540_0_</OUTCOME>
      <PROPERTY />
    </VARIABLE>
    <VARIABLE TYPE="nature">
      <NAME>B</NAME>
      <OUTCOME>_2_25_8_064_</OUTCOME>
      <OUTCOME>_8_064_13_797_</OUTCOME>
      <OUTCOME>_13_797_19_531_</OUTCOME>
      <OUTCOME>_19_531_25_264_</OUTCOME>
      <OUTCOME>_25_264_30_998_</OUTCOME>
      <OUTCOME>_30_998_36_731_</OUTCOME>
      <OUTCOME>_36_731_42_465_</OUTCOME>
      <OUTCOME>_42_465_48_199_</OUTCOME>
      <OUTCOME>_48_199_53_932_</OUTCOME>
      <OUTCOME>_53_932_59_666_</OUTCOME>
      <OUTCOME>_59_666_65_399_</OUTCOME>
      <OUTCOME>_65_399_71_133_</OUTCOME>
      <OUTCOME>_71_133_76_866_</OUTCOME>
      <OUTCOME>_76_866_82_6_</OUTCOME>
      <PROPERTY />
    </VARIABLE>
    <DEFINITION>
      <FOR>A</FOR>
      <TABLE>0.02330097087378641 0.11747572815533981 0.12135922330097088 0.09514563106796116 0.12427184466019417 0.07766990291262135 0.10679611650485436 0.0854368932038835 0.07572815533980583 0.04660194174757282 0.05242718446601942 0.019417475728155338 0.027184466019417475 0.027184466019417475 </TABLE>
    </DEFINITION>
    <DEFINITION>
      <FOR>B</FOR>
      <GIVEN>A</GIVEN>
      <TABLE>0.2916666666666667 0.125 0.041666666666666664 0.125 0.16666666666666666 0.25 0.0 0.0 0.0 0.0 0.0 0.0 0.0 0.0 0.03305785123966942 0.1652892561983471 0.17355371900826447 0.11570247933884298 0.2396694214876033 0.1487603305785124 0.08264462809917356 0.04132231404958678 0.0 0.0 0.0 0.0 0.0 0.0 0.056 0.088 0.112 0.144 0.088 0.168 0.152 0.064 0.104 0.024 0.0 0.0 0.0 0.0 0.02040816326530612 0.1326530612244898 0.1326530612244898 0.09183673469387756 0.11224489795918367 0.07142857142857142 0.1326530612244898 0.14285714285714285 0.10204081632653061 0.04081632653061224 0.02040816326530612 0.0 0.0 0.0 0.0078125 0.1484375 0.09375 0.1875 0.1484375 0.140625 0.140625 0.0703125 0.0234375 0.0078125 0.015625 0.015625 0.0 0.0 0.0 0.0375 0.05 0.125 0.0375 0.1375 0.1875 0.15 0.15 0.0375 0.0125 0.0375 0.0375 0.0 0.0 0.02727272727272727 0.08181818181818182 0.13636363636363635 0.1 0.17272727272727273 0.15454545454545454 0.12727272727272726 0.09090909090909091 0.05454545454545454 0.01818181818181818 0.02727272727272727 0.0 0.00909090909090909 0.0 0.045454545454545456 0.11363636363636363 0.10227272727272728 0.07954545454545454 0.20454545454545456 0.2159090909090909 0.045454545454545456 0.06818181818181818 0.056818181818181816 0.03409090909090909 0.011363636363636364 0.011363636363636364 0.011363636363636364 0.0 0.01282051282051282 0.02564102564102564 0.08974358974358974 0.05128205128205128 0.1282051282051282 0.15384615384615385 0.07692307692307693 0.0641025641025641 0.11538461538461539 0.07692307692307693 0.05128205128205128 0.05128205128205128 0.10256410256410256 0.020833333333333332 0.0 0.0625 0.041666666666666664 0.125 0.08333333333333333 0.16666666666666666 0.10416666666666667 0.10416666666666667 0.14583333333333334 0.020833333333333332 0.020833333333333332 0.0625 0.041666666666666664 0.0 0.0 0.0 0.05555555555555555 0.0 0.14814814814814814 0.14814814814814814 0.07407407407407407 0.1111111111111111 0.09259259259259259 0.24074074074074073 0.05555555555555555 0.07407407407407407 0.0 0.0 0.0 0.0 0.0 0.0 0.0 0.4 0.05 0.0 0.2 0.0 0.2 0.1 0.05 0.0 0.03571428571428571 0.0 0.07142857142857142 0.10714285714285714 0.10714285714285714 0.07142857142857142 0.17857142857142858 0.03571428571428571 0.21428571428571427 0.07142857142857142 0.07142857142857142 0.03571428571428571 0.0 0.0 0.0 0.0 0.0 0.0 0.03571428571428571 0.17857142857142858 0.03571428571428571 0.14285714285714285 0.21428571428571427 0.14285714285714285 0.10714285714285714 0.10714285714285714 0.03571428571428571 </TABLE>
    </DEFINITION>
  </NETWORK>
</BIF>
