<?xml version='1.0' encoding='utf-8'?>
<BIF VERSION="0.3">
  <NETWORK>
    <NAME>UNTITLED</NAME>
    <VARIABLE TYPE="nature">
      <NAME>A</NAME>
      <OUTCOME>_4_518_13_411_</OUTCOME>
      <OUTCOME>_13_411_15_726_</OUTCOME>
      <OUTCOME>_15_726_17_379_</OUTCOME>
      <OUTCOME>_17_379_18_572_</OUTCOME>
      <OUTCOME>_18_572_19_764_</OUTCOME>
      <OUTCOME>_19_764_21_007_</OUTCOME>
      <OUTCOME>_21_007_22_36_</OUTCOME>
      <OUTCOME>_22_36_24_096_</OUTCOME>
      <OUTCOME>_24_096_26_257_</OUTCOME>
      <OUTCOME>_26_257_35_51_</OUTCOME>
      <PROPERTY />
    </VARIABLE>
    <VARIABLE TYPE="nature">
      <NAME>B</NAME>
      <OUTCOME>_5_872999999999999_13_452_</OUTCOME>
      <OUTCOME>_13_452_15_733_</OUTCOME>
      <OUTCOME>_15_733_17_592_</OUTCOME>
      <OUTCOME>_17_592_18_948_</OUTCOME>
      <OUTCOME>_18_948_20_045_</OUTCOME>
      <OUTCOME>_20_045_21_217_</OUTCOME>
      <OUTCOME>_21_217_22_54_</OUTCOME>
      <OUTCOME>_22_54_24_183_</OUTCOME>
      <OUTCOME>_24_183_26_481_</OUTCOME>
      <OUTCOME>_26_481_37_748_</OUTCOME>
      <PROPERTY />
    </VARIABLE>
    <VARIABLE TYPE="nature">
      <NAME>C</NAME>
      <OUTCOME>_0_345_8_241_</OUTCOME>
      <OUTCOME>_8_241_10_576_</OUTCOME>
      <OUTCOME>_10_576_12_223_</OUTCOME>
      <OUTCOME>_12_223_13_663_</OUTCOME>
      <OUTCOME>_13_663_14_897_</OUTCOME>
      <OUTCOME>_14_897_16_14_</OUTCOME>
      <OUTCOME>_16_14_17_589_</OUTCOME>
      <OUTCOME>_17_589_19_118_</OUTCOME>
      <OUTCOME>_19_118_21_186_</OUTCOME>
      <OUTCOME>_21_186_32_213_</OUTCOME>
      <PROPERTY />
    </VARIABLE>
    <VARIABLE TYPE="nature">
      <NAME>D</NAME>
      <OUTCOME>_42_272000000000006_76_571_</OUTCOME>
      <OUTCOME>_76_571_84_928_</OUTCOME>
      <OUTCOME>_84_928_90_812_</OUTCOME>
      <OUTCOME>_90_812_95_793_</OUTCOME>
      <OUTCOME>_95_793_100_417_</OUTCOME>
      <OUTCOME>_100_417_104_637_</OUTCOME>
      <OUTCOME>_104_637_109_52_</OUTCOME>
      <OUTCOME>_109_52_114_781_</OUTCOME>
      <OUTCOME>_114_781_124_344_</OUTCOME>
      <OUTCOME>_124_344_161_677_</OUTCOME>
      <PROPERTY />
    </VARIABLE>
    <VARIABLE TYPE="nature">
      <NAME>E</NAME>
      <OUTCOME>_166_743_269_315_</OUTCOME>
      <OUTCOME>_269_315_297_326_</OUTCOME>
      <OUTCOME>_297_326_315_814_</OUTCOME>
      <OUTCOME>_315_814_331_36_</OUTCOME>
      <OUTCOME>_331_36_346_09_</OUTCOME>
      <OUTCOME>_346_09_359_007_</OUTCOME>
      <OUTCOME>_359_007_375_771_</OUTCOME>
      <OUTCOME>_375_771_391_621_</OUTCOME>
      <OUTCOME>_391_621_418_431_</OUTCOME>
      <OUTCOME>_418_431_550_268_</OUTCOME>
      <PROPERTY />
    </VARIABLE>
    <DEFINITION>
      <FOR>A</FOR>
      <TABLE>0.1 0.1 0.1 0.1 0.1 0.1 0.1 0.1 0.1 0.1 </TABLE>
    </DEFINITION>
    <DEFINITION>
      <FOR>B</FOR>
      <TABLE>0.1 0.1 0.1 0.1 0.1 0.1 0.1 0.1 0.1 0.1 </TABLE>
    </DEFINITION>
    <DEFINITION>
      <FOR>C</FOR>
      <TABLE>0.1 0.1 0.1 0.1 0.1 0.1 0.1 0.1 0.1 0.1 </TABLE>
    </DEFINITION>
    <DEFINITION>
      <FOR>D</FOR>
      <GIVEN>A</GIVEN>
      <GIVEN>B</GIVEN>
      <TABLE>1.0 0.0 0.0 0.0 0.0 0.0 0.0 0.0 0.0 0.0 1.0 0.0 0.0 0.0 0.0 0.0 0.0 0.0 0.0 0.0 0.5 0.5 0.0 0.0 0.0 0.0 0.0 0.0 0.0 0.0 0.3333333333333333 0.5833333333333334 0.08333333333333333 0.0 0.0 0.0 0.0 0.0 0.0 0.0 0.25 0.625 0.125 0.0 0.0 0.0 0.0 0.0 0.0 0.0 0.0 0.375 0.5 0.0625 0.0625 0.0 0.0 0.0 0.0 0.0 0.16666666666666666 0.16666666666666666 0.16666666666666666 0.16666666666666666 0.3333333333333333 0.0 0.0 0.0 0.0 0.0 0.0 0.14285714285714285 0.2857142857142857 0.2857142857142857 0.2857142857142857 0.0 0.0 0.0 0.0 0.0 0.0 0.0 0.0 0.25 0.625 0.125 0.0 0.0 0.0 0.0 0.0 0.0 0.0 0.16666666666666666 0.08333333333333333 0.08333333333333333 0.16666666666666666 0.25 0.08333333333333333 0.16666666666666666 1.0 0.0 0.0 0.0 0.0 0.0 0.0 0.0 0.0 0.0 0.6923076923076923 0.3076923076923077 0.0 0.0 0.0 0.0 0.0 0.0 0.0 0.0 0.18181818181818182 0.5454545454545454 0.2727272727272727 0.0 0.0 0.0 0.0 0.0 0.0 0.0 0.25 0.375 0.0 0.375 0.0 0.0 0.0 0.0 0.0 0.0 0.0 0.6363636363636364 0.18181818181818182 0.18181818181818182 0.0 0.0 0.0 0.0 0.0 0.0 0.0 0.1111111111111111 0.3333333333333333 0.5555555555555556 0.0 0.0 0.0 0.0 0.0 0.0 0.0 0.0 0.3076923076923077 0.3076923076923077 0.3076923076923077 0.07692307692307693 0.0 0.0 0.0 0.0 0.0 0.0 0.1 0.4 0.1 0.3 0.1 0.0 0.0 0.0 0.0 0.0 0.0 0.0 0.1111111111111111 0.1111111111111111 0.3333333333333333 0.3333333333333333 0.1111111111111111 0.0 0.0 0.0 0.0 0.0 0.0 0.0 0.0 0.375 0.625 0.0 0.8888888888888888 0.1111111111111111 0.0 0.0 0.0 0.0 0.0 0.0 0.0 0.0 0.5 0.3333333333333333 0.16666666666666666 0.0 0.0 0.0 0.0 0.0 0.0 0.0 0.0 0.0 1.0 0.0 0.0 0.0 0.0 0.0 0.0 0.0 0.0 0.3333333333333333 0.4444444444444444 0.0 0.2222222222222222 0.0 0.0 0.0 0.0 0.0 0.0 0.08333333333333333 0.4166666666666667 0.25 0.25 0.0 0.0 0.0 0.0 0.0 0.0 0.0 0.1875 0.375 0.3125 0.125 0.0 0.0 0.0 0.0 0.0 0.0 0.1111111111111111 0.1111111111111111 0.2222222222222222 0.3333333333333333 0.1111111111111111 0.1111111111111111 0.0 0.0 0.0 0.0 0.0 0.07692307692307693 0.07692307692307693 0.3076923076923077 0.5384615384615384 0.0 0.0 0.0 0.0 0.0 0.0 0.0 0.1 0.2 0.2 0.4 0.1 0.0 0.0 0.0 0.0 0.0 0.0 0.0 0.08333333333333333 0.25 0.25 0.4166666666666667 1.0 0.0 0.0 0.0 0.0 0.0 0.0 0.0 0.0 0.0 0.25 0.5833333333333334 0.16666666666666666 0.0 0.0 0.0 0.0 0.0 0.0 0.0 0.0 0.38461538461538464 0.23076923076923078 0.38461538461538464 0.0 0.0 0.0 0.0 0.0 0.0 0.0 0.125 0.25 0.375 0.25 0.0 0.0 0.0 0.0 0.0 0.0 0.0 0.15384615384615385 0.3076923076923077 0.38461538461538464 0.15384615384615385 0.0 0.0 0.0 0.0 0.0 0.0 0.0 0.3333333333333333 0.5 0.0 0.16666666666666666 0.0 0.0 0.0 0.0 0.0 0.0 0.0 0.2222222222222222 0.2222222222222222 0.5555555555555556 0.0 0.0 0.0 0.0 0.0 0.0 0.0 0.0 0.4444444444444444 0.4444444444444444 0.1111111111111111 0.0 0.0 0.0 0.0 0.0 0.0 0.0 0.23076923076923078 0.15384615384615385 0.15384615384615385 0.46153846153846156 0.0 0.0 0.0 0.0 0.0 0.0 0.0 0.0 0.09090909090909091 0.36363636363636365 0.5454545454545454 0.9 0.1 0.0 0.0 0.0 0.0 0.0 0.0 0.0 0.0 0.07692307692307693 0.6923076923076923 0.07692307692307693 0.15384615384615385 0.0 0.0 0.0 0.0 0.0 0.0 0.0 0.5 0.3 0.1 0.1 0.0 0.0 0.0 0.0 0.0 0.0 0.0 0.4444444444444444 0.1111111111111111 0.3333333333333333 0.1111111111111111 0.0 0.0 0.0 0.0 0.0 0.0 0.0 0.5 0.2 0.3 0.0 0.0 0.0 0.0 0.0 0.0 0.0 0.0 0.5454545454545454 0.36363636363636365 0.09090909090909091 0.0 0.0 0.0 0.0 0.0 0.0 0.0 0.1875 0.375 0.3125 0.125 0.0 0.0 0.0 0.0 0.0 0.0 0.0 0.125 0.25 0.25 0.375 0.0 0.0 0.0 0.0 0.0 0.0 0.0 0.14285714285714285 0.5714285714285714 0.2857142857142857 0.0 0.0 0.0 0.0 0.0 0.0 0.0 0.0 0.16666666666666666 0.3333333333333333 0.5 0.5 0.2857142857142857 0.21428571428571427 0.0 0.0 0.0 0.0 0.0 0.0 0.0 0.1111111111111111 0.2222222222222222 0.5555555555555556 0.1111111111111111 0.0 0.0 0.0 0.0 0.0 0.0 0.0 0.14285714285714285 0.0 0.42857142857142855 0.2857142857142857 0.14285714285714285 0.0 0.0 0.0 0.0 0.0 0.0 0.3333333333333333 0.3333333333333333 0.1111111111111111 0.2222222222222222 0.0 0.0 0.0 0.0 0.0 0.0 0.0 0.3333333333333333 0.16666666666666666 0.3333333333333333 0.16666666666666666 0.0 0.0 0.0 0.0 0.0 0.0 0.16666666666666666 0.16666666666666666 0.16666666666666666 0.0 0.5 0.0 0.0 0.0 0.0 0.0 0.0 0.0 0.2857142857142857 0.14285714285714285 0.5 0.07142857142857142 0.0 0.0 0.0 0.0 0.0 0.0 0.0 0.14285714285714285 0.42857142857142855 0.42857142857142855 0.0 0.0 0.0 0.0 0.0 0.0 0.0 0.1111111111111111 0.3333333333333333 0.4444444444444444 0.1111111111111111 0.0 0.0 0.0 0.0 0.0 0.0 0.0 0.0 0.38461538461538464 0.6153846153846154 0.5 0.25 0.25 0.0 0.0 0.0 0.0 0.0 0.0 0.0 0.0 0.0 0.875 0.0 0.125 0.0 0.0 0.0 0.0 0.0 0.0 0.0 0.25 0.0 0.5 0.25 0.0 0.0 0.0 0.0 0.0 0.0 0.0 0.3076923076923077 0.46153846153846156 0.15384615384615385 0.07692307692307693 0.0 0.0 0.0 0.0 0.0 0.0 0.0 0.2222222222222222 0.3333333333333333 0.4444444444444444 0.0 0.0 0.0 0.0 0.0 0.0 0.1111111111111111 0.0 0.3333333333333333 0.4444444444444444 0.1111111111111111 0.0 0.0 0.0 0.0 0.0 0.0 0.0 0.09090909090909091 0.2727272727272727 0.6363636363636364 0.0 0.0 0.0 0.0 0.0 0.0 0.0 0.09090909090909091 0.09090909090909091 0.6363636363636364 0.09090909090909091 0.09090909090909091 0.0 0.0 0.0 0.0 0.0 0.0 0.0 0.16666666666666666 0.3333333333333333 0.5 0.0 0.0 0.0 0.0 0.0 0.0 0.0 0.0 0.23076923076923078 0.7692307692307693 0.5555555555555556 0.1111111111111111 0.3333333333333333 0.0 0.0 0.0 0.0 0.0 0.0 0.0 0.0 0.0 0.16666666666666666 0.6666666666666666 0.16666666666666666 0.0 0.0 0.0 0.0 0.0 0.0 0.0 0.07692307692307693 0.38461538461538464 0.23076923076923078 0.23076923076923078 0.07692307692307693 0.0 0.0 0.0 0.0 0.0 0.09090909090909091 0.09090909090909091 0.09090909090909091 0.36363636363636365 0.2727272727272727 0.09090909090909091 0.0 0.0 0.0 0.0 0.0 0.0 0.25 0.125 0.5 0.125 0.0 0.0 0.0 0.0 0.0 0.0 0.1 0.2 0.3 0.4 0.0 0.0 0.0 0.0 0.0 0.0 0.0 0.0 0.3333333333333333 0.3333333333333333 0.3333333333333333 0.0 0.0 0.0 0.0 0.0 0.0 0.0 0.15384615384615385 0.23076923076923078 0.6153846153846154 0.0 0.0 0.0 0.0 0.0 0.0 0.0 0.0 0.0 0.8 0.2 0.0 0.0 0.0 0.0 0.0 0.0 0.0 0.0 0.2727272727272727 0.7272727272727273 0.08333333333333333 0.5 0.4166666666666667 0.0 0.0 0.0 0.0 0.0 0.0 0.0 0.0 0.1 0.1 0.5 0.1 0.2 0.0 0.0 0.0 0.0 0.0 0.0 0.0 0.16666666666666666 0.4166666666666667 0.3333333333333333 0.08333333333333333 0.0 0.0 0.0 0.0 0.0 0.0 0.07692307692307693 0.07692307692307693 0.38461538461538464 0.3076923076923077 0.15384615384615385 0.0 0.0 0.0 0.0 0.0 0.0 0.1111111111111111 0.2222222222222222 0.3333333333333333 0.1111111111111111 0.2222222222222222 0.0 0.0 0.0 0.0 0.0 0.0 0.125 0.25 0.625 0.0 0.0 0.0 0.0 0.0 0.0 0.0 0.0 0.0 0.2 0.8 0.0 0.0 0.0 0.0 0.0 0.0 0.0 0.0 0.0 0.6666666666666666 0.3333333333333333 0.0 0.0 0.0 0.0 0.0 0.0 0.0 0.058823529411764705 0.17647058823529413 0.7647058823529411 0.0 0.0 0.0 0.0 0.0 0.0 0.0 0.0 0.125 0.875 0.3333333333333333 0.3333333333333333 0.1111111111111111 0.1111111111111111 0.0 0.0 0.0 0.1111111111111111 0.0 0.0 0.0 0.0 0.05 0.1 0.15 0.2 0.35 0.1 0.05 0.0 0.0 0.0 0.0 0.0 0.0 0.25 0.5833333333333334 0.16666666666666666 0.0 0.0 0.0 0.0 0.0 0.0 0.0 0.0 0.25 0.5 0.25 0.0 0.0 0.0 0.0 0.0 0.0 0.0 0.125 0.375 0.375 0.125 0.0 0.0 0.0 0.0 0.0 0.0 0.0 0.2222222222222222 0.3333333333333333 0.4444444444444444 0.0 0.0 0.0 0.0 0.0 0.0 0.0 0.25 0.5 0.25 0.0 0.0 0.0 0.0 0.0 0.0 0.0 0.0 0.4444444444444444 0.5555555555555556 0.0 0.0 0.0 0.0 0.0 0.0 0.0 0.0 0.0 1.0 0.0 0.0 0.0 0.0 0.0 0.0 0.0 0.0 0.0 1.0 </TABLE>
    </DEFINITION>
    <DEFINITION>
      <FOR>E</FOR>
      <GIVEN>C</GIVEN>
      <GIVEN>D</GIVEN>
      <TABLE>1.0 0.0 0.0 0.0 0.0 0.0 0.0 0.0 0.0 0.0 0.8888888888888888 0.1111111111111111 0.0 0.0 0.0 0.0 0.0 0.0 0.0 0.0 0.0 1.0 0.0 0.0 0.0 0.0 0.0 0.0 0.0 0.0 0.0 0.3333333333333333 0.6666666666666666 0.0 0.0 0.0 0.0 0.0 0.0 0.0 0.0 0.0 0.8333333333333334 0.16666666666666666 0.0 0.0 0.0 0.0 0.0 0.0 0.0 0.0 0.07692307692307693 0.6923076923076923 0.23076923076923078 0.0 0.0 0.0 0.0 0.0 0.0 0.0 0.0 0.5 0.3333333333333333 0.16666666666666666 0.0 0.0 0.0 0.0 0.0 0.0 0.0 0.0 0.08333333333333333 0.5 0.4166666666666667 0.0 0.0 0.0 0.0 0.0 0.0 0.0 0.0 0.0 0.2727272727272727 0.7272727272727273 0.0 0.0 0.0 0.0 0.0 0.0 0.0 0.0 0.0 0.0 0.6666666666666666 0.3333333333333333 1.0 0.0 0.0 0.0 0.0 0.0 0.0 0.0 0.0 0.0 0.36363636363636365 0.6363636363636364 0.0 0.0 0.0 0.0 0.0 0.0 0.0 0.0 0.0 0.875 0.125 0.0 0.0 0.0 0.0 0.0 0.0 0.0 0.0 0.0 0.875 0.125 0.0 0.0 0.0 0.0 0.0 0.0 0.0 0.0 0.16666666666666666 0.6666666666666666 0.16666666666666666 0.0 0.0 0.0 0.0 0.0 0.0 0.0 0.0 0.3 0.7 0.0 0.0 0.0 0.0 0.0 0.0 0.0 0.0 0.0 0.18181818181818182 0.8181818181818182 0.0 0.0 0.0 0.0 0.0 0.0 0.0 0.0 0.0 0.1 0.8 0.1 0.0 0.0 0.0 0.0 0.0 0.0 0.0 0.0 0.07692307692307693 0.8461538461538461 0.07692307692307693 0.0 0.0 0.0 0.0 0.0 0.0 0.0 0.0 0.0 0.625 0.375 0.8 0.2 0.0 0.0 0.0 0.0 0.0 0.0 0.0 0.0 0.16666666666666666 0.8333333333333334 0.0 0.0 0.0 0.0 0.0 0.0 0.0 0.0 0.0 0.6923076923076923 0.3076923076923077 0.0 0.0 0.0 0.0 0.0 0.0 0.0 0.0 0.0 0.5555555555555556 0.4444444444444444 0.0 0.0 0.0 0.0 0.0 0.0 0.0 0.0 0.0 0.6666666666666666 0.3333333333333333 0.0 0.0 0.0 0.0 0.0 0.0 0.0 0.0 0.07692307692307693 0.8461538461538461 0.07692307692307693 0.0 0.0 0.0 0.0 0.0 0.0 0.0 0.0 0.0 0.6 0.4 0.0 0.0 0.0 0.0 0.0 0.0 0.0 0.0 0.0 1.0 0.0 0.0 0.0 0.0 0.0 0.0 0.0 0.0 0.0 0.07142857142857142 0.2857142857142857 0.6428571428571429 0.0 0.0 0.0 0.0 0.0 0.0 0.0 0.0 0.0 0.2857142857142857 0.7142857142857143 0.9090909090909091 0.09090909090909091 0.0 0.0 0.0 0.0 0.0 0.0 0.0 0.0 0.25 0.75 0.0 0.0 0.0 0.0 0.0 0.0 0.0 0.0 0.0 0.35714285714285715 0.6428571428571429 0.0 0.0 0.0 0.0 0.0 0.0 0.0 0.0 0.0 0.1111111111111111 0.8888888888888888 0.0 0.0 0.0 0.0 0.0 0.0 0.0 0.0 0.0 0.36363636363636365 0.5454545454545454 0.09090909090909091 0.0 0.0 0.0 0.0 0.0 0.0 0.0 0.0 0.375 0.625 0.0 0.0 0.0 0.0 0.0 0.0 0.0 0.0 0.0 0.8 0.2 0.0 0.0 0.0 0.0 0.0 0.0 0.0 0.0 0.0 0.4375 0.5625 0.0 0.0 0.0 0.0 0.0 0.0 0.0 0.0 0.0 0.1111111111111111 0.8888888888888888 0.0 0.0 0.0 0.0 0.0 0.0 0.0 0.0 0.0 0.5555555555555556 0.4444444444444444 0.8571428571428571 0.14285714285714285 0.0 0.0 0.0 0.0 0.0 0.0 0.0 0.0 0.0 0.6666666666666666 0.3333333333333333 0.0 0.0 0.0 0.0 0.0 0.0 0.0 0.0 0.0 0.875 0.125 0.0 0.0 0.0 0.0 0.0 0.0 0.0 0.0 0.0 1.0 0.0 0.0 0.0 0.0 0.0 0.0 0.0 0.0 0.0 0.1111111111111111 0.7777777777777778 0.1111111111111111 0.0 0.0 0.0 0.0 0.0 0.0 0.0 0.0 0.2222222222222222 0.6666666666666666 0.1111111111111111 0.0 0.0 0.0 0.0 0.0 0.0 0.0 0.0 0.2 0.8 0.0 0.0 0.0 0.0 0.0 0.0 0.0 0.0 0.0 0.3333333333333333 0.6666666666666666 0.0 0.0 0.0 0.0 0.0 0.0 0.0 0.0 0.0 0.0 0.8 0.2 0.0 0.0 0.0 0.0 0.0 0.0 0.0 0.0 0.1 0.9 0.8333333333333334 0.16666666666666666 0.0 0.0 0.0 0.0 0.0 0.0 0.0 0.0 0.0 0.6 0.4 0.0 0.0 0.0 0.0 0.0 0.0 0.0 0.0 0.0 0.75 0.25 0.0 0.0 0.0 0.0 0.0 0.0 0.0 0.0 0.1 0.7 0.2 0.0 0.0 0.0 0.0 0.0 0.0 0.0 0.0 0.0 1.0 0.0 0.0 0.0 0.0 0.0 0.0 0.0 0.0 0.0 0.18181818181818182 0.5454545454545454 0.2727272727272727 0.0 0.0 0.0 0.0 0.0 0.0 0.0 0.0 0.5 0.3 0.2 0.0 0.0 0.0 0.0 0.0 0.0 0.0 0.0 0.0 0.8 0.2 0.0 0.0 0.0 0.0 0.0 0.0 0.0 0.0 0.0 1.0 0.0 0.0 0.0 0.0 0.0 0.0 0.0 0.0 0.0 0.0 1.0 0.9375 0.0625 0.0 0.0 0.0 0.0 0.0 0.0 0.0 0.0 0.0 0.3333333333333333 0.6666666666666666 0.0 0.0 0.0 0.0 0.0 0.0 0.0 0.0 0.0 0.5555555555555556 0.4444444444444444 0.0 0.0 0.0 0.0 0.0 0.0 0.0 0.0 0.0 0.3076923076923077 0.6923076923076923 0.0 0.0 0.0 0.0 0.0 0.0 0.0 0.0 0.0 0.38461538461538464 0.5384615384615384 0.07692307692307693 0.0 0.0 0.0 0.0 0.0 0.0 0.0 0.0 0.4 0.4 0.2 0.0 0.0 0.0 0.0 0.0 0.0 0.0 0.0 0.6923076923076923 0.3076923076923077 0.0 0.0 0.0 0.0 0.0 0.0 0.0 0.0 0.0 0.6 0.4 0.0 0.0 0.0 0.0 0.0 0.0 0.0 0.0 0.0 0.8333333333333334 0.16666666666666666 0.0 0.0 0.0 0.0 0.0 0.0 0.0 0.0 0.0 1.0 0.9 0.1 0.0 0.0 0.0 0.0 0.0 0.0 0.0 0.0 0.0 0.6666666666666666 0.3333333333333333 0.0 0.0 0.0 0.0 0.0 0.0 0.0 0.0 0.0 0.125 0.875 0.0 0.0 0.0 0.0 0.0 0.0 0.0 0.0 0.0 0.25 0.5833333333333334 0.16666666666666666 0.0 0.0 0.0 0.0 0.0 0.0 0.0 0.125 0.0 0.875 0.0 0.0 0.0 0.0 0.0 0.0 0.0 0.0 0.0 0.36363636363636365 0.6363636363636364 0.0 0.0 0.0 0.0 0.0 0.0 0.0 0.0 0.0 0.4444444444444444 0.5555555555555556 0.0 0.0 0.0 0.0 0.0 0.0 0.0 0.0 0.0 0.5 0.5 0.0 0.0 0.0 0.0 0.0 0.0 0.0 0.0 0.0 0.7142857142857143 0.2857142857142857 0.0 0.0 0.0 0.0 0.0 0.0 0.0 0.0 0.0 1.0 0.5 0.5 0.0 0.0 0.0 0.0 0.0 0.0 0.0 0.0 0.0 0.18181818181818182 0.8181818181818182 0.0 0.0 0.0 0.0 0.0 0.0 0.0 0.0 0.0 0.16666666666666666 0.8333333333333334 0.0 0.0 0.0 0.0 0.0 0.0 0.0 0.0 0.0 0.0 0.5555555555555556 0.4444444444444444 0.0 0.0 0.0 0.0 0.0 0.0 0.0 0.0 0.2727272727272727 0.7272727272727273 0.0 0.0 0.0 0.0 0.0 0.0 0.0 0.0 0.0 0.09090909090909091 0.8181818181818182 0.09090909090909091 0.0 0.0 0.0 0.0 0.0 0.0 0.0 0.0 0.26666666666666666 0.6 0.13333333333333333 0.0 0.0 0.0 0.0 0.0 0.0 0.0 0.0 0.3333333333333333 0.6666666666666666 0.0 0.0 0.0 0.0 0.0 0.0 0.0 0.0 0.0 0.5 0.5 0.0 0.0 0.0 0.0 0.0 0.0 0.0 0.0 0.0 1.0 0.375 0.375 0.25 0.0 0.0 0.0 0.0 0.0 0.0 0.0 0.0 0.1111111111111111 0.3333333333333333 0.5555555555555556 0.0 0.0 0.0 0.0 0.0 0.0 0.0 0.0 0.09090909090909091 0.2727272727272727 0.5454545454545454 0.09090909090909091 0.0 0.0 0.0 0.0 0.0 0.0 0.0 0.08333333333333333 0.08333333333333333 0.4166666666666667 0.3333333333333333 0.08333333333333333 0.0 0.0 0.0 0.0 0.0 0.0 0.0 0.5714285714285714 0.14285714285714285 0.2857142857142857 0.0 0.0 0.0 0.0 0.0 0.0 0.0 0.0 0.2222222222222222 0.5555555555555556 0.2222222222222222 0.0 0.0 0.0 0.0 0.0 0.0 0.0 0.0 0.6363636363636364 0.36363636363636365 0.0 0.0 0.0 0.0 0.0 0.0 0.0 0.0 0.0 1.0 0.0 0.0 0.0 0.0 0.0 0.0 0.0 0.0 0.0 0.35714285714285715 0.6428571428571429 0.0 0.0 0.0 0.0 0.0 0.0 0.0 0.0 0.0 1.0 </TABLE>
    </DEFINITION>
  </NETWORK>
</BIF>
