<?xml version='1.0' encoding='utf-8'?>
<BIF VERSION="0.3">
  <NETWORK>
    <NAME>UNTITLED</NAME>
    <VARIABLE TYPE="nature">
      <NAME>X</NAME>
      <OUTCOME>0</OUTCOME>
      <OUTCOME>1</OUTCOME>
      <PROPERTY />
    </VARIABLE>
    <VARIABLE TYPE="nature">
      <NAME>Y</NAME>
      <OUTCOME>_10_021_7_985_</OUTCOME>
      <OUTCOME>_7_985_6_008_</OUTCOME>
      <OUTCOME>_6_008_4_03_</OUTCOME>
      <OUTCOME>_2_053_0_0764_</OUTCOME>
      <OUTCOME>_0_0764_1_901_</OUTCOME>
      <OUTCOME>_1_901_3_878_</OUTCOME>
      <OUTCOME>_3_878_5_855_</OUTCOME>
      <OUTCOME>_5_855_7_832_</OUTCOME>
      <OUTCOME>_7_832_9_809_</OUTCOME>
      <OUTCOME>_9_809_11_786_</OUTCOME>
      <OUTCOME>_11_786_13_763_</OUTCOME>
      <OUTCOME>_13_763_15_74_</OUTCOME>
      <OUTCOME>_15_74_17_717_</OUTCOME>
      <OUTCOME>_17_717_19_694_</OUTCOME>
      <OUTCOME>_19_694_21_671_</OUTCOME>
      <OUTCOME>_21_671_23_648_</OUTCOME>
      <OUTCOME>_23_648_25_625_</OUTCOME>
      <OUTCOME>_25_625_27_602_</OUTCOME>
      <OUTCOME>_27_602_29_579_</OUTCOME>
      <OUTCOME>_29_579_31_556_</OUTCOME>
      <OUTCOME>_31_556_33_533_</OUTCOME>
      <OUTCOME>_33_533_35_51_</OUTCOME>
      <OUTCOME>_35_51_37_488_</OUTCOME>
      <OUTCOME>_37_488_39_465_</OUTCOME>
      <OUTCOME>_39_465_41_442_</OUTCOME>
      <OUTCOME>_41_442_43_419_</OUTCOME>
      <OUTCOME>_43_419_45_396_</OUTCOME>
      <OUTCOME>_47_373_49_35_</OUTCOME>
      <PROPERTY />
    </VARIABLE>
    <DEFINITION>
      <FOR>X</FOR>
      <TABLE>0.51 0.49 </TABLE>
    </DEFINITION>
    <DEFINITION>
      <FOR>Y</FOR>
      <GIVEN>X</GIVEN>
      <TABLE>0.00784313725490196 0.00392156862745098 0.00784313725490196 0.01568627450980392 0.01568627450980392 0.011764705882352941 0.0196078431372549 0.03529411764705882 0.0392156862745098 0.023529411764705882 0.06666666666666667 0.054901960784313725 0.058823529411764705 0.054901960784313725 0.06666666666666667 0.08627450980392157 0.08235294117647059 0.06666666666666667 0.050980392156862744 0.050980392156862744 0.050980392156862744 0.043137254901960784 0.043137254901960784 0.011764705882352941 0.00784313725490196 0.011764705882352941 0.00392156862745098 0.00784313725490196 0.0 0.0 0.0 0.0 0.0 0.0 0.0 0.0 0.0 0.0 0.0 0.0 0.0 0.0 0.0 0.07755102040816327 0.7224489795918367 0.19591836734693877 0.004081632653061225 0.0 0.0 0.0 0.0 0.0 0.0 0.0 0.0 0.0 </TABLE>
    </DEFINITION>
  </NETWORK>
</BIF>
