<?xml version='1.0' encoding='utf-8'?>
<BIF VERSION="0.3">
  <NETWORK>
    <NAME>UNTITLED</NAME>
    <VARIABLE TYPE="nature">
      <NAME>A</NAME>
      <OUTCOME>_0_499_5_683_</OUTCOME>
      <OUTCOME>_5_683_7_083_</OUTCOME>
      <OUTCOME>_7_083_8_05_</OUTCOME>
      <OUTCOME>_8_05_9_033_</OUTCOME>
      <OUTCOME>_9_033_10_003_</OUTCOME>
      <OUTCOME>_10_003_10_592_</OUTCOME>
      <OUTCOME>_10_592_11_492_</OUTCOME>
      <OUTCOME>_11_492_11_889_</OUTCOME>
      <OUTCOME>_11_889_12_975_</OUTCOME>
      <OUTCOME>_12_975_14_6_</OUTCOME>
      <OUTCOME>_14_6_16_342_</OUTCOME>
      <OUTCOME>_16_342_23_467_</OUTCOME>
      <PROPERTY />
    </VARIABLE>
    <VARIABLE TYPE="nature">
      <NAME>B</NAME>
      <OUTCOME>_8_532_14_953_</OUTCOME>
      <OUTCOME>_14_953_17_211_</OUTCOME>
      <OUTCOME>_17_211_19_5_</OUTCOME>
      <OUTCOME>_19_5_21_153_</OUTCOME>
      <OUTCOME>_21_153_22_257_</OUTCOME>
      <OUTCOME>_22_257_23_158_</OUTCOME>
      <OUTCOME>_23_158_25_188_</OUTCOME>
      <OUTCOME>_25_188_26_899_</OUTCOME>
      <OUTCOME>_26_899_28_075_</OUTCOME>
      <OUTCOME>_28_075_30_142_</OUTCOME>
      <OUTCOME>_30_142_32_45_</OUTCOME>
      <OUTCOME>_32_45_39_56_</OUTCOME>
      <PROPERTY />
    </VARIABLE>
    <DEFINITION>
      <FOR>A</FOR>
      <TABLE>0.0873015873015873 0.07936507936507936 0.09523809523809523 0.07936507936507936 0.07936507936507936 0.07936507936507936 0.07936507936507936 0.0873015873015873 0.07936507936507936 0.10317460317460317 0.06349206349206349 0.0873015873015873 </TABLE>
    </DEFINITION>
    <DEFINITION>
      <FOR>B</FOR>
      <GIVEN>A</GIVEN>
      <TABLE>0.2727272727272727 0.2727272727272727 0.09090909090909091 0.18181818181818182 0.0 0.09090909090909091 0.0 0.0 0.0 0.0 0.0 0.09090909090909091 0.1 0.2 0.0 0.2 0.1 0.1 0.0 0.1 0.2 0.0 0.0 0.0 0.08333333333333333 0.25 0.16666666666666666 0.08333333333333333 0.0 0.08333333333333333 0.0 0.16666666666666666 0.0 0.08333333333333333 0.08333333333333333 0.0 0.2 0.0 0.2 0.1 0.2 0.0 0.1 0.1 0.0 0.1 0.0 0.0 0.1 0.0 0.3 0.0 0.2 0.2 0.0 0.1 0.0 0.1 0.0 0.0 0.1 0.0 0.1 0.0 0.2 0.0 0.1 0.0 0.4 0.0 0.1 0.0 0.1 0.1 0.0 0.0 0.0 0.1 0.1 0.1 0.1 0.2 0.1 0.1 0.0 0.0 0.18181818181818182 0.0 0.0 0.0 0.18181818181818182 0.09090909090909091 0.0 0.09090909090909091 0.2727272727272727 0.18181818181818182 0.1 0.0 0.1 0.0 0.1 0.0 0.0 0.2 0.0 0.2 0.0 0.3 0.0 0.07692307692307693 0.0 0.15384615384615385 0.15384615384615385 0.15384615384615385 0.15384615384615385 0.0 0.0 0.07692307692307693 0.15384615384615385 0.07692307692307693 0.0 0.0 0.0 0.125 0.125 0.125 0.0 0.0 0.0 0.125 0.25 0.25 0.0 0.0 0.0 0.0 0.0 0.09090909090909091 0.2727272727272727 0.18181818181818182 0.2727272727272727 0.09090909090909091 0.09090909090909091 0.0 </TABLE>
    </DEFINITION>
  </NETWORK>
</BIF>
