<?xml version='1.0' encoding='utf-8'?>
<BIF VERSION="0.3">
  <NETWORK>
    <NAME>UNTITLED</NAME>
    <VARIABLE TYPE="nature">
      <NAME>A</NAME>
      <OUTCOME>_80_339_338_394_</OUTCOME>
      <OUTCOME>_338_394_456_426_</OUTCOME>
      <OUTCOME>_456_426_612_984_</OUTCOME>
      <OUTCOME>_612_984_822_825_</OUTCOME>
      <OUTCOME>_822_825_1138_003_</OUTCOME>
      <OUTCOME>_1138_003_1850_959_</OUTCOME>
      <OUTCOME>_1850_959_2686_072_</OUTCOME>
      <OUTCOME>_2686_072_3656_622_</OUTCOME>
      <OUTCOME>_3656_622_5050_853_</OUTCOME>
      <OUTCOME>_5050_853_19596_305_</OUTCOME>
      <PROPERTY />
    </VARIABLE>
    <VARIABLE TYPE="nature">
      <NAME>B</NAME>
      <OUTCOME>_0_001_0_245_</OUTCOME>
      <OUTCOME>_0_245_0_64_</OUTCOME>
      <OUTCOME>_0_64_1_093_</OUTCOME>
      <OUTCOME>_1_093_1_946_</OUTCOME>
      <OUTCOME>_1_946_3_257_</OUTCOME>
      <OUTCOME>_3_257_5_245_</OUTCOME>
      <OUTCOME>_5_245_7_166_</OUTCOME>
      <OUTCOME>_7_166_9_234_</OUTCOME>
      <OUTCOME>_9_234_12_549_</OUTCOME>
      <OUTCOME>_12_549_84_491_</OUTCOME>
      <PROPERTY />
    </VARIABLE>
    <DEFINITION>
      <FOR>A</FOR>
      <TABLE>0.10011801730920535 0.0999213217938631 0.0999213217938631 0.10011801730920535 0.0999213217938631 0.0999213217938631 0.10011801730920535 0.0999213217938631 0.0999213217938631 0.10011801730920535 </TABLE>
    </DEFINITION>
    <DEFINITION>
      <FOR>B</FOR>
      <GIVEN>A</GIVEN>
      <TABLE>0.593320235756385 0.27111984282907664 0.11591355599214145 0.009823182711198428 0.007858546168958742 0.0 0.0 0.0019646365422396855 0.0 0.0 0.3228346456692913 0.328740157480315 0.26968503937007876 0.06692913385826772 0.011811023622047244 0.0 0.0 0.0 0.0 0.0 0.07874015748031496 0.2952755905511811 0.33267716535433073 0.2578740157480315 0.025590551181102362 0.005905511811023622 0.0 0.003937007874015748 0.0 0.0 0.005893909626719057 0.10412573673870335 0.25343811394891946 0.4400785854616896 0.1787819253438114 0.011787819253438114 0.0019646365422396855 0.0019646365422396855 0.0019646365422396855 0.0 0.0 0.0 0.017716535433070866 0.1968503937007874 0.6456692913385826 0.12401574803149606 0.005905511811023622 0.0 0.00984251968503937 0.0 0.0 0.0 0.00984251968503937 0.025590551181102362 0.1220472440944882 0.6437007874015748 0.13385826771653545 0.031496062992125984 0.023622047244094488 0.00984251968503937 0.0 0.0 0.0 0.003929273084479371 0.007858546168958742 0.19842829076620824 0.45972495088408644 0.26129666011787817 0.047151277013752456 0.021611001964636542 0.0 0.0 0.0 0.0 0.0 0.00984251968503937 0.25 0.4468503937007874 0.2637795275590551 0.02952755905511811 0.0 0.0 0.0 0.0 0.0 0.0 0.09448818897637795 0.15354330708661418 0.515748031496063 0.23622047244094488 0.0 0.0 0.0 0.0 0.0 0.005893909626719057 0.0550098231827112 0.09823182711198428 0.137524557956778 0.7033398821218074 </TABLE>
    </DEFINITION>
  </NETWORK>
</BIF>
